################################################################################
# Neural network connection values (weights and biases).
################################################################################
# Col  Name       Description
################################################################################
# 1    connection Neural network connection value.
# 2    t          Connection type (a = weight, b = bias).
# 3    index      Index enumerating weights.
# 4    l_s        Starting point layer (end point layer for biases).
# 5    n_s        Starting point neuron in starting layer (end point neuron for biases).
# 6    l_e        End point layer.
# 7    n_e        End point neuron in end layer.
################################################################################
#                      1 2         3     4     5     6     7
#             connection t     index   l_s   n_s   l_e   n_e
############################################################
 -2.1668514212834950E+01 a         1     0     1     1     1
  1.8586396750111160E+01 a         2     0     1     1     2
 -7.2449073601204375E+01 a         3     0     1     1     3
 -2.0975910816880830E+01 a         4     0     1     1     4
 -4.9192622823808279E+01 a         5     0     1     1     5
  6.0969167491048168E+01 a         6     0     1     1     6
 -5.8404377986913602E+01 a         7     0     1     1     7
 -3.0709649030578916E+01 a         8     0     1     1     8
 -4.0061845641370482E+01 a         9     0     1     1     9
  3.8763079070076034E+00 a        10     0     1     1    10
 -2.2966377715860474E+01 a        11     0     1     1    11
  7.4909233931987220E+00 a        12     0     1     1    12
  3.4770758420014879E+01 a        13     0     1     1    13
 -6.0079780305431278E+01 a        14     0     1     1    14
 -3.2824616159762428E+01 a        15     0     1     1    15
  3.6204137370833195E+01 a        16     0     1     1    16
  2.7687519047728529E+01 a        17     0     1     1    17
 -2.4027480750366010E+01 a        18     0     1     1    18
  2.0078467415715277E+01 a        19     0     1     1    19
 -4.3969946594409159E-01 a        20     0     1     1    20
 -1.6165296296659751E+01 a        21     0     1     1    21
  5.4504481172705930E+00 a        22     0     1     1    22
 -1.0045368819990657E+01 a        23     0     1     1    23
  3.7511152009571262E+01 a        24     0     1     1    24
  1.9843322675524973E+01 a        25     0     1     1    25
  1.9679808143562418E+01 a        26     0     1     1    26
  2.9206917279503997E+00 a        27     0     1     1    27
 -3.1412442442104947E+01 a        28     0     1     1    28
  1.1340229303078733E+01 a        29     0     1     1    29
 -2.7436491828562584E+01 a        30     0     1     1    30
 -9.0165661350655419E+00 a        31     0     2     1     1
 -1.3098426685205071E+01 a        32     0     2     1     2
 -1.6859478813082589E+01 a        33     0     2     1     3
 -3.1270155515739062E+00 a        34     0     2     1     4
 -1.8258201334442184E+01 a        35     0     2     1     5
  5.5957261240289569E+00 a        36     0     2     1     6
 -1.6525762330274940E+01 a        37     0     2     1     7
  4.1461752770155220E+00 a        38     0     2     1     8
  1.0399035882543117E+00 a        39     0     2     1     9
 -4.4198893092588456E+00 a        40     0     2     1    10
 -5.5855701120072876E+00 a        41     0     2     1    11
  7.7983400674171071E+00 a        42     0     2     1    12
  1.8548966294936658E+01 a        43     0     2     1    13
 -1.5703881883752670E+01 a        44     0     2     1    14
 -1.3719466770145385E+01 a        45     0     2     1    15
  1.2106257226959176E+01 a        46     0     2     1    16
  1.5635565935426195E+01 a        47     0     2     1    17
 -6.7718672917804819E+00 a        48     0     2     1    18
  1.0120162856408795E+01 a        49     0     2     1    19
  1.6072833807136725E+01 a        50     0     2     1    20
 -8.5771120903190017E+00 a        51     0     2     1    21
 -2.5574573071447624E+00 a        52     0     2     1    22
  2.5248628144904384E+00 a        53     0     2     1    23
  1.2156842971933120E+01 a        54     0     2     1    24
  1.8486086485394608E+01 a        55     0     2     1    25
 -5.4411045618894063E+00 a        56     0     2     1    26
  3.4782094333266333E+00 a        57     0     2     1    27
 -1.3261449171133697E+00 a        58     0     2     1    28
 -8.2566259960867576E+00 a        59     0     2     1    29
 -1.6213945164449562E+01 a        60     0     2     1    30
 -2.4264123756488125E+00 a        61     0     3     1     1
 -3.7452719605352954E+01 a        62     0     3     1     2
  2.4094459546832226E+01 a        63     0     3     1     3
  1.1446684079315679E+01 a        64     0     3     1     4
  3.3956449200639987E+00 a        65     0     3     1     5
 -3.6238299480646326E+01 a        66     0     3     1     6
  1.1987535323425181E+01 a        67     0     3     1     7
  3.2147466080342369E+01 a        68     0     3     1     8
  3.0017296116558143E+01 a        69     0     3     1     9
 -1.1211763765276331E+01 a        70     0     3     1    10
  1.0568289689106157E+01 a        71     0     3     1    11
  1.1012402882664359E+01 a        72     0     3     1    12
  1.3297004869595206E+01 a        73     0     3     1    13
  1.6628715114511458E+01 a        74     0     3     1    14
 -3.0822594027009105E+00 a        75     0     3     1    15
 -5.9439095250071814E+00 a        76     0     3     1    16
  1.3708231924614447E+01 a        77     0     3     1    17
  6.3515407153411072E+00 a        78     0     3     1    18
  3.8204448466085608E+00 a        79     0     3     1    19
  3.2131211374562461E+01 a        80     0     3     1    20
 -2.4289348524341623E+00 a        81     0     3     1    21
 -7.9660979684928677E+00 a        82     0     3     1    22
  1.3139983524065391E+01 a        83     0     3     1    23
 -5.6335074536289040E+00 a        84     0     3     1    24
  2.4729579385707563E+01 a        85     0     3     1    25
 -2.9104156375135343E+01 a        86     0     3     1    26
  7.0556785382532858E+00 a        87     0     3     1    27
  2.0470119655747684E+01 a        88     0     3     1    28
 -2.5088866622248968E+01 a        89     0     3     1    29
 -6.5552166064356205E+00 a        90     0     3     1    30
 -3.1926950521175064E+00 a        91     0     4     1     1
 -6.2312788953890097E+00 a        92     0     4     1     2
  3.4637704148394512E+01 a        93     0     4     1     3
  1.5984962492497470E+01 a        94     0     4     1     4
 -2.0220921398081398E+01 a        95     0     4     1     5
 -5.0113241723001821E+01 a        96     0     4     1     6
  1.3385389075211471E+01 a        97     0     4     1     7
  2.7347275555697045E+01 a        98     0     4     1     8
  2.8320986514118086E+01 a        99     0     4     1     9
 -2.0393294928423597E+01 a       100     0     4     1    10
  2.5715934888701828E+01 a       101     0     4     1    11
  3.1994557044341626E+01 a       102     0     4     1    12
 -4.6255976909993848E+00 a       103     0     4     1    13
  2.7357121437463206E+01 a       104     0     4     1    14
 -1.3047635339992826E+01 a       105     0     4     1    15
 -8.6599220463161064E+00 a       106     0     4     1    16
  2.3132857379130815E+01 a       107     0     4     1    17
  1.3115013813551640E+01 a       108     0     4     1    18
 -3.5259163501737305E+00 a       109     0     4     1    19
  1.8172913336960985E+01 a       110     0     4     1    20
  5.9005494385079515E+00 a       111     0     4     1    21
 -8.2818716166005739E+00 a       112     0     4     1    22
  1.4910083811797518E+01 a       113     0     4     1    23
  1.0582215651243583E+01 a       114     0     4     1    24
  3.9962700329357588E+01 a       115     0     4     1    25
 -3.9052252066222898E+01 a       116     0     4     1    26
  1.3027034163534005E+01 a       117     0     4     1    27
  4.0471529368993984E+01 a       118     0     4     1    28
 -3.7919954501476298E+01 a       119     0     4     1    29
 -1.4517261733983842E+00 a       120     0     4     1    30
 -2.4644110491419515E+00 a       121     0     5     1     1
  2.6895257966717377E+01 a       122     0     5     1     2
  3.5324236480557065E+00 a       123     0     5     1     3
  4.1160556050783210E+00 a       124     0     5     1     4
 -2.9622772898649501E+01 a       125     0     5     1     5
 -1.9747884429389572E+01 a       126     0     5     1     6
  8.0174476769789589E+00 a       127     0     5     1     7
  2.9232772580838423E-01 a       128     0     5     1     8
 -2.4054307250082823E+00 a       129     0     5     1     9
 -1.3489727484409102E+01 a       130     0     5     1    10
  1.8723155933720918E+01 a       131     0     5     1    11
  2.4879172783925277E+01 a       132     0     5     1    12
 -1.8873665104375483E+01 a       133     0     5     1    13
  3.0324260515154457E+01 a       134     0     5     1    14
 -1.6847408057720191E+01 a       135     0     5     1    15
 -8.6624927586946954E-01 a       136     0     5     1    16
  1.3984668958092376E+01 a       137     0     5     1    17
  5.8548281410658172E+00 a       138     0     5     1    18
 -1.1252679765140456E+01 a       139     0     5     1    19
 -7.4063676489571852E+00 a       140     0     5     1    20
  1.4715475480402468E+01 a       141     0     5     1    21
 -2.7439060402792670E+00 a       142     0     5     1    22
  5.4903005784918166E+00 a       143     0     5     1    23
  2.9016394946278407E+01 a       144     0     5     1    24
  3.3438098454438865E+01 a       145     0     5     1    25
 -2.1225055408535940E+01 a       146     0     5     1    26
  8.0405390155906815E+00 a       147     0     5     1    27
  2.7257383857605184E+01 a       148     0     5     1    28
 -1.9187018334875511E+01 a       149     0     5     1    29
  1.0177756015098437E+01 a       150     0     5     1    30
  4.4672729831023856E+00 a       151     0     6     1     1
  2.3429253826797889E+00 a       152     0     6     1     2
  2.0626923978612009E+01 a       153     0     6     1     3
  6.3440237304941869E+00 a       154     0     6     1     4
  1.4403027112961649E+01 a       155     0     6     1     5
 -1.5847077624552831E+01 a       156     0     6     1     6
  8.5362986311469964E+00 a       157     0     6     1     7
  3.8771451759595243E+00 a       158     0     6     1     8
  6.6410323179141448E+00 a       159     0     6     1     9
 -9.3459652519586600E-01 a       160     0     6     1    10
  8.5972473433280268E+00 a       161     0     6     1    11
 -2.5494108142054310E+00 a       162     0     6     1    12
 -1.0595014937026685E+01 a       163     0     6     1    13
  1.9556421996987954E+01 a       164     0     6     1    14
  9.0681941001517821E+00 a       165     0     6     1    15
 -1.3726276929242248E+01 a       166     0     6     1    16
 -1.2171970953393197E+01 a       167     0     6     1    17
  5.1255529270043763E+00 a       168     0     6     1    18
 -5.9226339215858523E+00 a       169     0     6     1    19
 -8.1133035912389602E+00 a       170     0     6     1    20
  2.9642938038561883E+00 a       171     0     6     1    21
 -1.2125297455636039E+00 a       172     0     6     1    22
 -3.5021271093981872E+00 a       173     0     6     1    23
 -1.2079234400405584E+01 a       174     0     6     1    24
 -1.2645680493785315E+01 a       175     0     6     1    25
 -2.6919683509104213E+00 a       176     0     6     1    26
 -4.3583832969636598E+00 a       177     0     6     1    27
  6.4747538643220768E+00 a       178     0     6     1    28
 -1.9908663941389571E-01 a       179     0     6     1    29
  8.9042466939837936E+00 a       180     0     6     1    30
  4.8003649535655946E+00 a       181     0     7     1     1
 -1.0223839366418348E+01 a       182     0     7     1     2
 -6.0329044883299780E+01 a       183     0     7     1     3
 -2.1438856589224731E+01 a       184     0     7     1     4
  3.0990406422633047E+01 a       185     0     7     1     5
  5.0297809866579009E+01 a       186     0     7     1     6
  1.3419399028714764E+01 a       187     0     7     1     7
 -1.9433724328536847E+01 a       188     0     7     1     8
 -4.1846399970894822E+01 a       189     0     7     1     9
  1.9702507225405025E+01 a       190     0     7     1    10
 -2.3854110949601644E+01 a       191     0     7     1    11
 -4.3832442096160413E+01 a       192     0     7     1    12
  6.7705991092914752E+00 a       193     0     7     1    13
  3.2028491055308244E+01 a       194     0     7     1    14
  8.4409277683754524E+00 a       195     0     7     1    15
  7.4547120756397369E+00 a       196     0     7     1    16
 -2.9022489145579598E+01 a       197     0     7     1    17
 -1.9594892623270571E+01 a       198     0     7     1    18
 -1.1768344860820079E+01 a       199     0     7     1    19
 -5.9807014334588855E+00 a       200     0     7     1    20
  1.4113902894377398E+01 a       201     0     7     1    21
  4.9763046534864674E+00 a       202     0     7     1    22
 -9.6233206920232650E+00 a       203     0     7     1    23
  8.2980936669018597E+00 a       204     0     7     1    24
 -1.4178435047797375E+01 a       205     0     7     1    25
  2.2394078802951963E+01 a       206     0     7     1    26
 -1.2364144651157780E+01 a       207     0     7     1    27
 -4.1326818773350297E+01 a       208     0     7     1    28
  4.2435779847241960E+01 a       209     0     7     1    29
  3.1400377439873449E+01 a       210     0     7     1    30
  1.6806512096220750E+01 a       211     0     8     1     1
  8.8540650680726163E+00 a       212     0     8     1     2
  7.3536976414698643E+00 a       213     0     8     1     3
 -4.2494863861898970E+00 a       214     0     8     1     4
  2.7771005339530394E+01 a       215     0     8     1     5
  9.6168267036371766E+00 a       216     0     8     1     6
  2.2419288364663824E+01 a       217     0     8     1     7
 -7.5981284573047745E+00 a       218     0     8     1     8
 -8.7995728841165306E+00 a       219     0     8     1     9
  9.5913750412617773E+00 a       220     0     8     1    10
 -6.0406202202151915E+00 a       221     0     8     1    11
 -2.0031644137972737E+01 a       222     0     8     1    12
 -2.0695281875201090E+01 a       223     0     8     1    13
  6.1757259646198026E+00 a       224     0     8     1    14
  2.2628409109518451E+01 a       225     0     8     1    15
 -7.1266666355047734E+00 a       226     0     8     1    16
 -2.6526788360916211E+01 a       227     0     8     1    17
  2.8401679998281111E+00 a       228     0     8     1    18
 -1.0854655751851984E+01 a       229     0     8     1    19
 -2.0169775595165095E+01 a       230     0     8     1    20
  3.8691485252505968E+00 a       231     0     8     1    21
  4.2163981183966861E+00 a       232     0     8     1    22
 -2.0673579844652106E+00 a       233     0     8     1    23
 -1.6978036413604908E+01 a       234     0     8     1    24
 -3.2458640550659020E+01 a       235     0     8     1    25
  1.8916221867601546E+01 a       236     0     8     1    26
 -6.4799217491399723E+00 a       237     0     8     1    27
 -9.6945287474587634E+00 a       238     0     8     1    28
  2.1745519332301832E+01 a       239     0     8     1    29
  1.5987496173311881E+01 a       240     0     8     1    30
 -1.6339646308263314E-01 a       241     0     9     1     1
  2.0514533991893944E+00 a       242     0     9     1     2
  4.4184249889650227E+00 a       243     0     9     1     3
  4.3957197281254317E+00 a       244     0     9     1     4
 -8.0148133812045028E+00 a       245     0     9     1     5
 -1.7581969695934585E+01 a       246     0     9     1     6
 -7.4188088081827068E+00 a       247     0     9     1     7
  3.6700290797832613E+00 a       248     0     9     1     8
  9.9049201721437807E+00 a       249     0     9     1     9
  1.3397156663916854E+00 a       250     0     9     1    10
  8.5585371158234160E+00 a       251     0     9     1    11
  3.9522611772191114E+00 a       252     0     9     1    12
  6.8920117151678040E-01 a       253     0     9     1    13
  4.9735510552932105E+00 a       254     0     9     1    14
 -1.0464045641150612E+01 a       255     0     9     1    15
 -5.9974665493779371E+00 a       256     0     9     1    16
  5.4218522001239435E+00 a       257     0     9     1    17
 -2.2262691273813435E+00 a       258     0     9     1    18
  1.3087022953999077E+00 a       259     0     9     1    19
 -1.5381571299886998E+00 a       260     0     9     1    20
 -5.7905420965650112E-01 a       261     0     9     1    21
  1.9039284396044467E+00 a       262     0     9     1    22
  1.9504710307447291E+00 a       263     0     9     1    23
  2.6276272378370975E+00 a       264     0     9     1    24
  2.4405259843502347E+00 a       265     0     9     1    25
 -2.0168755417381723E+00 a       266     0     9     1    26
  5.5136433862408696E-01 a       267     0     9     1    27
  6.1070527119207627E+00 a       268     0     9     1    28
 -5.7065396498427630E+00 a       269     0     9     1    29
 -4.2992790389148530E+00 a       270     0     9     1    30
 -2.2945895171798329E+00 a       271     0    10     1     1
 -7.6334480295381657E-01 a       272     0    10     1     2
 -3.5586288855457400E+00 a       273     0    10     1     3
 -4.1228908136264975E-01 a       274     0    10     1     4
 -2.4326872077464610E+00 a       275     0    10     1     5
  1.5886769616886565E+00 a       276     0    10     1     6
  5.1998540535887539E-02 a       277     0    10     1     7
 -2.3278482073240916E+00 a       278     0    10     1     8
  2.3763347261943266E-01 a       279     0    10     1     9
  3.3168246508994410E+00 a       280     0    10     1    10
 -2.1049626793085805E+00 a       281     0    10     1    11
 -7.3329401109700243E-01 a       282     0    10     1    12
 -2.0557444142698372E-01 a       283     0    10     1    13
  2.7377163206341129E+00 a       284     0    10     1    14
  1.5292657615984823E-01 a       285     0    10     1    15
  3.0071700158465546E+00 a       286     0    10     1    16
  1.8852190964424109E-01 a       287     0    10     1    17
 -9.5026855750684935E-01 a       288     0    10     1    18
 -2.5317119137850779E+00 a       289     0    10     1    19
  1.2596997840992756E+00 a       290     0    10     1    20
 -1.1915354784598784E+00 a       291     0    10     1    21
 -1.5766052522542391E+00 a       292     0    10     1    22
  7.8890056701881239E-01 a       293     0    10     1    23
  8.5551860880301778E-01 a       294     0    10     1    24
  7.7622241210847631E-01 a       295     0    10     1    25
 -7.8665719610614659E-01 a       296     0    10     1    26
 -5.3833679367069398E-01 a       297     0    10     1    27
 -2.6571829051802753E+00 a       298     0    10     1    28
 -1.5006049405891697E+00 a       299     0    10     1    29
  4.4186828784870915E+00 a       300     0    10     1    30
  8.7435460743826408E+00 a       301     0    11     1     1
  5.9481308517433611E+00 a       302     0    11     1     2
  2.1932497211497711E+01 a       303     0    11     1     3
  1.0268185064269288E+00 a       304     0    11     1     4
  3.1120275865416929E+01 a       305     0    11     1     5
  4.3298205146918436E+00 a       306     0    11     1     6
  1.7036560049482934E+00 a       307     0    11     1     7
 -1.3087787484202527E+01 a       308     0    11     1     8
  6.6668388030141497E+00 a       309     0    11     1     9
  1.7261698373215985E+01 a       310     0    11     1    10
 -7.8138089482586865E+00 a       311     0    11     1    11
 -2.0870818136157375E+01 a       312     0    11     1    12
 -1.2513078563130817E+01 a       313     0    11     1    13
 -2.1600685250762556E+01 a       314     0    11     1    14
  2.6622063129500596E+01 a       315     0    11     1    15
 -1.3097314850022190E+01 a       316     0    11     1    16
 -2.8340915205551429E+01 a       317     0    11     1    17
  5.5084882560774133E+00 a       318     0    11     1    18
  2.1599946850948268E+00 a       319     0    11     1    19
 -2.1733658159591698E+01 a       320     0    11     1    20
 -8.8652147822514618E+00 a       321     0    11     1    21
  5.2963767943652087E+00 a       322     0    11     1    22
 -1.1286657786273679E+01 a       323     0    11     1    23
 -3.8971310168027387E+01 a       324     0    11     1    24
 -5.6572164298737050E+01 a       325     0    11     1    25
  2.5282642085399676E+01 a       326     0    11     1    26
 -1.2346407885767889E+01 a       327     0    11     1    27
 -1.5863575065418289E+01 a       328     0    11     1    28
  2.1643475048629771E+01 a       329     0    11     1    29
 -1.0583303931447958E+00 a       330     0    11     1    30
  4.9217128944628348E+00 a       331     0    12     1     1
  1.6076387965110872E+00 a       332     0    12     1     2
  3.3389904453911775E+01 a       333     0    12     1     3
  4.6161314724820599E+00 a       334     0    12     1     4
  1.4660199530423686E+01 a       335     0    12     1     5
  4.5931472806794984E+00 a       336     0    12     1     6
  4.3386131049070453E-01 a       337     0    12     1     7
  1.1666101196722860E+00 a       338     0    12     1     8
  9.9851263666549439E+00 a       339     0    12     1     9
 -2.7678040450005210E+00 a       340     0    12     1    10
 -5.1287005547284226E+00 a       341     0    12     1    11
  2.8146606206656681E+00 a       342     0    12     1    12
 -6.3219882600094133E+00 a       343     0    12     1    13
 -4.2230236647302263E+01 a       344     0    12     1    14
  2.1911062713539291E+01 a       345     0    12     1    15
 -1.0189798076715797E+00 a       346     0    12     1    16
 -6.6288182492824399E+00 a       347     0    12     1    17
  1.3430015638962097E+01 a       348     0    12     1    18
  7.8679930268180982E+00 a       349     0    12     1    19
 -4.0452588353727723E+00 a       350     0    12     1    20
 -1.1762323659597463E+01 a       351     0    12     1    21
  4.2201585160566751E-01 a       352     0    12     1    22
 -4.2609776521414187E+00 a       353     0    12     1    23
 -2.7889842115271122E+01 a       354     0    12     1    24
 -2.7386963810744483E+01 a       355     0    12     1    25
  9.2503622054364509E+00 a       356     0    12     1    26
 -2.5320991943287202E-01 a       357     0    12     1    27
  8.7070790322202474E-01 a       358     0    12     1    28
  2.0525429917291058E+00 a       359     0    12     1    29
 -1.1441074231672474E+01 a       360     0    12     1    30
  1.7375075429674076E+00 a       361     0    13     1     1
  6.0132234810081120E-01 a       362     0    13     1     2
  5.3364618649338222E+00 a       363     0    13     1     3
  1.5316605223866306E-01 a       364     0    13     1     4
  2.9213649822371361E+00 a       365     0    13     1     5
  1.0915839747497482E+00 a       366     0    13     1     6
  1.2439330558513892E+00 a       367     0    13     1     7
  1.4505229303635818E+00 a       368     0    13     1     8
 -3.8236215205613122E-01 a       369     0    13     1     9
 -3.2017736121353702E+00 a       370     0    13     1    10
  4.2786058381769487E-01 a       371     0    13     1    11
  1.2689479561805466E+00 a       372     0    13     1    12
 -2.0486036203443747E-01 a       373     0    13     1    13
 -5.9065592613371027E+00 a       374     0    13     1    14
  2.4606017224006487E+00 a       375     0    13     1    15
 -1.4073184926731963E+00 a       376     0    13     1    16
 -6.4279473627009109E-01 a       377     0    13     1    17
  2.0031317639257673E+00 a       378     0    13     1    18
  2.4527183093278198E+00 a       379     0    13     1    19
 -7.1382842651297074E-01 a       380     0    13     1    20
 -2.3831057633916974E-01 a       381     0    13     1    21
  4.0436904830546833E-01 a       382     0    13     1    22
 -9.5668823918084755E-01 a       383     0    13     1    23
 -2.4975967903315905E+00 a       384     0    13     1    24
 -1.5992907876270543E+00 a       385     0    13     1    25
  8.4968816434702543E-01 a       386     0    13     1    26
  5.4979527225673308E-01 a       387     0    13     1    27
  2.0523719299517191E+00 a       388     0    13     1    28
  9.2580469448193958E-01 a       389     0    13     1    29
 -4.6205489883085162E+00 a       390     0    13     1    30
  1.2489088694904835E+00 a       391     0    14     1     1
  2.8253761712380632E-01 a       392     0    14     1     2
  1.1730541516028479E+00 a       393     0    14     1     3
  3.1750303703168198E-02 a       394     0    14     1     4
  1.0128283811666561E+00 a       395     0    14     1     5
 -1.9949637348894042E-01 a       396     0    14     1     6
  8.3298941780105371E-02 a       397     0    14     1     7
  1.3664666643065497E+00 a       398     0    14     1     8
 -1.4683143417906896E-01 a       399     0    14     1     9
 -9.4474389157835592E-01 a       400     0    14     1    10
  4.8241166118421253E-01 a       401     0    14     1    11
  1.5750198585866021E-01 a       402     0    14     1    12
  1.5767908055346513E-02 a       403     0    14     1    13
 -1.1398684659242444E+00 a       404     0    14     1    14
  3.1201457238690267E-01 a       405     0    14     1    15
 -9.5367440699308736E-01 a       406     0    14     1    16
 -1.4592879225574892E-01 a       407     0    14     1    17
  4.0071776489282251E-01 a       408     0    14     1    18
  7.8214660783966450E-01 a       409     0    14     1    19
 -3.0152463345458957E-01 a       410     0    14     1    20
  5.5788165512792331E-01 a       411     0    14     1    21
  4.5993146607019825E-01 a       412     0    14     1    22
 -2.5406464246347971E-01 a       413     0    14     1    23
 -4.0757691916033190E-01 a       414     0    14     1    24
 -3.8010939659694587E-01 a       415     0    14     1    25
  7.9188190405161535E-02 a       416     0    14     1    26
  3.2472484736868718E-01 a       417     0    14     1    27
  1.1860570932357328E+00 a       418     0    14     1    28
  1.7825099347093035E-01 a       419     0    14     1    29
 -1.6345857980896112E+00 a       420     0    14     1    30
 -8.4177961595677218E+00 a       421     0    15     1     1
  1.1465664363172312E+01 a       422     0    15     1     2
 -4.6157559428739049E+01 a       423     0    15     1     3
  4.2167610538530509E+00 a       424     0    15     1     4
  3.6468901854922422E+01 a       425     0    15     1     5
 -2.5800153036597870E+01 a       426     0    15     1     6
  7.8158634181561872E+00 a       427     0    15     1     7
  1.3545475016815478E+01 a       428     0    15     1     8
 -3.8963403845591685E+01 a       429     0    15     1     9
  4.6388287643838444E+00 a       430     0    15     1    10
  1.2422808829924762E+01 a       431     0    15     1    11
  1.4077222625484008E+01 a       432     0    15     1    12
 -1.5341585472919821E+00 a       433     0    15     1    13
 -1.9273121490876850E+01 a       434     0    15     1    14
  6.2841229464230173E+00 a       435     0    15     1    15
 -1.8500347924019774E+01 a       436     0    15     1    16
  1.0035282991854508E+01 a       437     0    15     1    17
 -5.6233100035943479E-02 a       438     0    15     1    18
 -3.3009485567306875E+01 a       439     0    15     1    19
 -1.1988768366270181E+01 a       440     0    15     1    20
 -4.1747284153123881E-01 a       441     0    15     1    21
  1.0483520246421460E+01 a       442     0    15     1    22
  2.3407658878560145E+01 a       443     0    15     1    23
  7.9448396491223161E-01 a       444     0    15     1    24
  1.7454427654602409E+01 a       445     0    15     1    25
 -2.5750261613579230E+01 a       446     0    15     1    26
  1.8600243311586169E+01 a       447     0    15     1    27
  9.3859221159582695E+00 a       448     0    15     1    28
 -1.2177996459035061E+00 a       449     0    15     1    29
  2.9058911838899029E+01 a       450     0    15     1    30
 -3.6075264669937361E+01 a       451     0    16     1     1
 -1.1837976805520338E+01 a       452     0    16     1     2
 -7.2071034836517258E+00 a       453     0    16     1     3
 -1.2821397674063354E+01 a       454     0    16     1     4
 -3.3029285173689537E+01 a       455     0    16     1     5
 -5.8019091902022637E+01 a       456     0    16     1     6
 -1.9072228476718365E+01 a       457     0    16     1     7
 -3.3520128837274775E+01 a       458     0    16     1     8
 -5.0311920880618324E+00 a       459     0    16     1     9
 -2.6249421843230568E+01 a       460     0    16     1    10
  1.1196993081087180E+01 a       461     0    16     1    11
 -8.7047011762125468E+00 a       462     0    16     1    12
 -1.0680177879945139E+01 a       463     0    16     1    13
 -4.9205426556434787E+01 a       464     0    16     1    14
  1.3724454353322388E+01 a       465     0    16     1    15
  2.3313445298035442E+00 a       466     0    16     1    16
 -1.9251507521006619E+01 a       467     0    16     1    17
 -5.2140755880653167E+00 a       468     0    16     1    18
 -1.1410103668466116E+01 a       469     0    16     1    19
 -1.3212220649676841E+01 a       470     0    16     1    20
  1.5156439418560314E+01 a       471     0    16     1    21
 -8.6986029681024100E+00 a       472     0    16     1    22
 -3.2257229266322568E+01 a       473     0    16     1    23
  9.1270844601952312E+00 a       474     0    16     1    24
  9.8950988361436707E+00 a       475     0    16     1    25
 -3.4419955360429128E+01 a       476     0    16     1    26
  3.3837660675223735E+00 a       477     0    16     1    27
 -2.7571276456543270E+00 a       478     0    16     1    28
  2.4058885968920904E+00 a       479     0    16     1    29
 -1.2440030244502507E+01 a       480     0    16     1    30
 -3.4320753942778637E+01 a       481     0    17     1     1
  1.7288574298714399E+00 a       482     0    17     1     2
  2.9162873921812885E+01 a       483     0    17     1     3
 -7.6593830505571781E+00 a       484     0    17     1     4
  1.3558849287363143E+01 a       485     0    17     1     5
  2.2066683593863644E+01 a       486     0    17     1     6
 -9.3350357096560614E+00 a       487     0    17     1     7
  2.2386061288545086E+01 a       488     0    17     1     8
  1.0816482946950234E+01 a       489     0    17     1     9
 -2.0630008224771590E+01 a       490     0    17     1    10
 -6.3614286300775058E+00 a       491     0    17     1    11
 -1.2935858600652070E+01 a       492     0    17     1    12
  7.3080312751273391E-01 a       493     0    17     1    13
 -3.6495811117781671E+00 a       494     0    17     1    14
  1.5503099031494505E-01 a       495     0    17     1    15
 -8.8987608961463884E+00 a       496     0    17     1    16
  5.2451087167008401E+00 a       497     0    17     1    17
 -4.4574963908658255E-02 a       498     0    17     1    18
  5.2122182034359472E+00 a       499     0    17     1    19
  4.0148760643844222E-01 a       500     0    17     1    20
  1.3148585784304098E+01 a       501     0    17     1    21
  1.1157965723007992E+00 a       502     0    17     1    22
  2.2091301518236808E+01 a       503     0    17     1    23
 -1.1342714992976770E+01 a       504     0    17     1    24
 -1.6197603717117854E+01 a       505     0    17     1    25
 -7.7466592686170399E-01 a       506     0    17     1    26
  6.9984909910609252E+00 a       507     0    17     1    27
 -2.8714200078643422E+01 a       508     0    17     1    28
 -4.6359183308747944E+00 a       509     0    17     1    29
 -6.0438265492974850E+01 a       510     0    17     1    30
  1.2574781736844107E+01 a       511     0    18     1     1
 -2.8939800508655065E+00 a       512     0    18     1     2
  1.8901183527618784E+01 a       513     0    18     1     3
 -6.3138112106101909E+00 a       514     0    18     1     4
 -2.0383505730183851E+00 a       515     0    18     1     5
 -2.4006296248292664E+01 a       516     0    18     1     6
  5.9092726099953836E+01 a       517     0    18     1     7
 -2.4619373355022667E+01 a       518     0    18     1     8
  8.8004842352439766E+01 a       519     0    18     1     9
  1.5815786346965449E+01 a       520     0    18     1    10
 -2.7383971731431277E+01 a       521     0    18     1    11
 -1.2036416000236757E+01 a       522     0    18     1    12
 -9.1242912096616550E+01 a       523     0    18     1    13
  2.4707396778105306E+01 a       524     0    18     1    14
  5.9518312724881731E+01 a       525     0    18     1    15
  2.6466502153032273E+01 a       526     0    18     1    16
  1.1021654098919212E+01 a       527     0    18     1    17
  1.4412645663551205E+01 a       528     0    18     1    18
  4.5169720935292252E+00 a       529     0    18     1    19
  2.8055376389459330E+01 a       530     0    18     1    20
 -1.9760049534321215E+01 a       531     0    18     1    21
  8.4266222079964841E+00 a       532     0    18     1    22
  1.4969341317444435E+01 a       533     0    18     1    23
  3.4774745800577627E+01 a       534     0    18     1    24
  1.4258103392289292E+00 a       535     0    18     1    25
  3.4686512574755504E+01 a       536     0    18     1    26
  5.1969266201612982E+01 a       537     0    18     1    27
  9.9415832210942556E-01 a       538     0    18     1    28
 -7.6530614243197057E+00 a       539     0    18     1    29
 -3.0299658139226430E+01 a       540     0    18     1    30
  9.7199406793850471E+00 a       541     0    19     1     1
  9.4605996463741455E+00 a       542     0    19     1     2
  5.5203894891703831E+00 a       543     0    19     1     3
  8.3758636300333826E+00 a       544     0    19     1     4
 -1.1871955074462470E+01 a       545     0    19     1     5
 -1.3136435782361406E+01 a       546     0    19     1     6
  9.7333544813056472E-01 a       547     0    19     1     7
 -6.0182863470327437E+00 a       548     0    19     1     8
 -6.7045236772622383E+00 a       549     0    19     1     9
 -9.0657745811847388E+00 a       550     0    19     1    10
 -2.4658817268627109E+00 a       551     0    19     1    11
  2.7588133689254011E+01 a       552     0    19     1    12
 -9.4899331168616978E+00 a       553     0    19     1    13
  1.0710673496902716E+01 a       554     0    19     1    14
 -7.7575435754211508E-01 a       555     0    19     1    15
  1.9578606092634434E+01 a       556     0    19     1    16
 -1.8336715764833111E+00 a       557     0    19     1    17
 -8.1218066573179932E+00 a       558     0    19     1    18
  1.3816491163530149E+00 a       559     0    19     1    19
  8.4923645998354687E+00 a       560     0    19     1    20
  3.5037545201640867E+00 a       561     0    19     1    21
 -1.2671400694403065E+01 a       562     0    19     1    22
  5.8056736166424692E+00 a       563     0    19     1    23
  9.0162415695172147E+00 a       564     0    19     1    24
  2.7238527580601247E+01 a       565     0    19     1    25
  2.9604018462810666E+00 a       566     0    19     1    26
  1.7471056911841369E+01 a       567     0    19     1    27
  2.2405068844764138E+01 a       568     0    19     1    28
 -4.7533381995230437E+00 a       569     0    19     1    29
 -3.7792752135323326E+01 a       570     0    19     1    30
  5.6306174790870154E+00 a       571     0    20     1     1
  9.1751217044178226E+00 a       572     0    20     1     2
 -2.1441543257354643E+00 a       573     0    20     1     3
 -5.8982173634170980E+00 a       574     0    20     1     4
  3.5208699816644803E+01 a       575     0    20     1     5
  4.0592907649152231E+01 a       576     0    20     1     6
  3.7518232540192550E+01 a       577     0    20     1     7
 -4.5965714560842743E+00 a       578     0    20     1     8
  9.2222186965528596E+00 a       579     0    20     1     9
  2.3350002641826059E+01 a       580     0    20     1    10
  2.2135999721165911E+00 a       581     0    20     1    11
 -8.5617287448024371E-01 a       582     0    20     1    12
 -3.0923534717977343E+01 a       583     0    20     1    13
  2.4992417520238060E+01 a       584     0    20     1    14
  2.2710810030980401E+01 a       585     0    20     1    15
 -1.3524191567678747E+01 a       586     0    20     1    16
 -1.8089169293993429E+01 a       587     0    20     1    17
  5.5355273882041462E+00 a       588     0    20     1    18
 -1.9321198779927865E+01 a       589     0    20     1    19
 -1.7453589125320541E+01 a       590     0    20     1    20
  3.4574354292406724E+01 a       591     0    20     1    21
  6.7594138540558699E+00 a       592     0    20     1    22
 -1.4623891045294286E+00 a       593     0    20     1    23
 -3.7534886292396941E+01 a       594     0    20     1    24
 -1.1996364614018887E+01 a       595     0    20     1    25
  2.2708163496713933E+01 a       596     0    20     1    26
 -2.1756158706379525E+00 a       597     0    20     1    27
  3.9702995444738414E+00 a       598     0    20     1    28
  2.5401790035093623E+00 a       599     0    20     1    29
  1.7764503681753460E+01 a       600     0    20     1    30
  1.9587758260530808E+01 a       601     0    21     1     1
 -5.3357348750386491E+00 a       602     0    21     1     2
  1.7090089022548320E+01 a       603     0    21     1     3
 -1.0402460234480886E+01 a       604     0    21     1     4
 -1.1279964815110871E+01 a       605     0    21     1     5
  3.1768117088011628E+01 a       606     0    21     1     6
  2.0583841303039376E+00 a       607     0    21     1     7
 -1.0141791563825526E+01 a       608     0    21     1     8
  2.6267967538488822E+01 a       609     0    21     1     9
  6.9074209020303590E+00 a       610     0    21     1    10
 -1.9238812600428915E+01 a       611     0    21     1    11
 -1.7982685238153067E+01 a       612     0    21     1    12
  1.1406589989675609E+01 a       613     0    21     1    13
  2.5964690372135685E+01 a       614     0    21     1    14
 -9.9675888382369688E+00 a       615     0    21     1    15
  3.8890091069546133E+00 a       616     0    21     1    16
 -1.4191900538971085E+01 a       617     0    21     1    17
 -7.7501800288242571E+00 a       618     0    21     1    18
  2.6510774004476627E+01 a       619     0    21     1    19
  1.5980017410332096E+01 a       620     0    21     1    20
 -4.4628634760661816E+00 a       621     0    21     1    21
 -7.9237311345933996E+00 a       622     0    21     1    22
 -3.6847374538479087E+00 a       623     0    21     1    23
  1.4631304883088433E+01 a       624     0    21     1    24
 -3.4772614881014391E+01 a       625     0    21     1    25
  3.1450927003659345E+01 a       626     0    21     1    26
 -1.3818760587872250E+01 a       627     0    21     1    27
 -1.7467975884409260E+01 a       628     0    21     1    28
 -3.7767084130428632E+00 a       629     0    21     1    29
  8.2842057727512053E+00 a       630     0    21     1    30
 -9.8653861727715420E+00 a       631     0    22     1     1
 -8.1310330494727285E+00 a       632     0    22     1     2
  3.1547041912130917E-02 a       633     0    22     1     3
  2.6634361608034620E+01 a       634     0    22     1     4
 -2.5238844003725255E+01 a       635     0    22     1     5
  2.2852581149045825E+01 a       636     0    22     1     6
 -3.3084169357873471E+01 a       637     0    22     1     7
  1.7044133032275401E+01 a       638     0    22     1     8
 -2.4595728382201333E+01 a       639     0    22     1     9
 -9.8496515000639242E+00 a       640     0    22     1    10
 -6.6683642730723465E+00 a       641     0    22     1    11
  2.4906129584421198E+01 a       642     0    22     1    12
  5.6245337775061095E+01 a       643     0    22     1    13
 -3.7689140986868552E+00 a       644     0    22     1    14
 -4.6532683910839268E+01 a       645     0    22     1    15
 -2.6015472268050999E-01 a       646     0    22     1    16
 -3.7127526762236282E-02 a       647     0    22     1    17
  1.3600517560642327E+01 a       648     0    22     1    18
  1.2287001172309726E+01 a       649     0    22     1    19
  3.9354895960013347E-01 a       650     0    22     1    20
  1.8534416823786795E+01 a       651     0    22     1    21
 -1.5570293802308335E+00 a       652     0    22     1    22
 -2.2317657823546842E+01 a       653     0    22     1    23
 -1.7225650995126475E+01 a       654     0    22     1    24
 -5.6542408525772494E+00 a       655     0    22     1    25
 -8.8543478845539898E+00 a       656     0    22     1    26
 -2.9455369251306504E+01 a       657     0    22     1    27
 -1.1569864237292510E+01 a       658     0    22     1    28
  8.9904311517669253E+00 a       659     0    22     1    29
 -3.8092180478235824E+00 a       660     0    22     1    30
  2.1509748463590647E+01 a       661     0    23     1     1
  9.4905962095758003E+00 a       662     0    23     1     2
 -1.0170146040242262E+01 a       663     0    23     1     3
  4.1249799652340631E+00 a       664     0    23     1     4
 -2.1517607233940780E+01 a       665     0    23     1     5
 -2.0471744528219290E+01 a       666     0    23     1     6
 -7.0784679887919880E-02 a       667     0    23     1     7
 -2.7475252812490137E+01 a       668     0    23     1     8
 -1.0776926030719553E+01 a       669     0    23     1     9
  1.0920323883660329E+01 a       670     0    23     1    10
  1.0761517523085741E+01 a       671     0    23     1    11
  1.9861828706801422E+01 a       672     0    23     1    12
 -6.6792057430411793E+00 a       673     0    23     1    13
  1.1379069031255570E+01 a       674     0    23     1    14
  2.6868215131458069E+00 a       675     0    23     1    15
  5.9876526840176814E+00 a       676     0    23     1    16
 -6.8695648216679670E+00 a       677     0    23     1    17
  8.4842917739046309E-01 a       678     0    23     1    18
  3.2253580367338190E+00 a       679     0    23     1    19
 -4.7708802028029114E+00 a       680     0    23     1    20
 -1.1745635945654420E+00 a       681     0    23     1    21
 -7.8854706796284368E+00 a       682     0    23     1    22
 -2.1143843688156664E+01 a       683     0    23     1    23
  8.0705143019308085E+00 a       684     0    23     1    24
  2.2100959587946175E+01 a       685     0    23     1    25
 -6.8001465548332138E+00 a       686     0    23     1    26
 -4.1742200780638070E+00 a       687     0    23     1    27
  3.5161163591202012E+01 a       688     0    23     1    28
 -5.9447999734286352E+00 a       689     0    23     1    29
  2.6284465576124500E+01 a       690     0    23     1    30
  1.8219425899193652E+01 a       691     0    24     1     1
 -9.6138932356576685E+00 a       692     0    24     1     2
 -1.1727090694787334E+01 a       693     0    24     1     3
  1.5041606219384695E+01 a       694     0    24     1     4
  2.6976267115896469E+01 a       695     0    24     1     5
  2.8416040436467732E+01 a       696     0    24     1     6
 -1.0744705491313290E+01 a       697     0    24     1     7
  4.3858394970726117E+01 a       698     0    24     1     8
 -2.8203670693138896E+01 a       699     0    24     1     9
  2.1847942720601157E+01 a       700     0    24     1    10
  1.3536138464423009E+00 a       701     0    24     1    11
 -9.8840993857593951E+00 a       702     0    24     1    12
  8.6206118858867669E+01 a       703     0    24     1    13
  1.5152401697874293E+01 a       704     0    24     1    14
 -3.2103537965876441E+01 a       705     0    24     1    15
 -1.1213414805119406E+01 a       706     0    24     1    16
  2.1273761108297471E+01 a       707     0    24     1    17
  8.1769582011375430E+00 a       708     0    24     1    18
  1.7711825063471583E+01 a       709     0    24     1    19
  1.4106168343034279E+01 a       710     0    24     1    20
 -1.1230243151364258E+01 a       711     0    24     1    21
  7.3021248712661855E+00 a       712     0    24     1    22
  2.5598085120392515E+01 a       713     0    24     1    23
 -2.7346523179940764E+01 a       714     0    24     1    24
  1.1031158974303031E+01 a       715     0    24     1    25
  1.7586986920040417E+00 a       716     0    24     1    26
 -1.8357913490213797E+01 a       717     0    24     1    27
  8.4602678108582037E+00 a       718     0    24     1    28
  8.0618993431566430E+00 a       719     0    24     1    29
  1.0160048976383505E+01 a       720     0    24     1    30
 -6.7280230947482433E-01 a       721     0    25     1     1
 -2.8629747016159719E+01 a       722     0    25     1     2
 -3.6101755709819741E+00 a       723     0    25     1     3
 -5.3925153227676610E+00 a       724     0    25     1     4
  6.9883691427845633E+00 a       725     0    25     1     5
  1.5570982412074100E+01 a       726     0    25     1     6
  2.5567858216637529E-01 a       727     0    25     1     7
  7.2733805841441637E+00 a       728     0    25     1     8
  4.8578649590675935E+00 a       729     0    25     1     9
  8.7516356765687924E+00 a       730     0    25     1    10
  3.0466275646911303E+00 a       731     0    25     1    11
 -1.3312387183847553E+01 a       732     0    25     1    12
  1.6371347222831375E+01 a       733     0    25     1    13
 -3.1748499808646415E+00 a       734     0    25     1    14
 -5.1462384415121694E+00 a       735     0    25     1    15
 -3.4576812716556327E+00 a       736     0    25     1    16
 -3.8619763710266053E+00 a       737     0    25     1    17
  1.0704767028830000E+01 a       738     0    25     1    18
  7.8302588761298946E+00 a       739     0    25     1    19
 -1.0927991193628209E+01 a       740     0    25     1    20
 -8.0508446740294541E+00 a       741     0    25     1    21
  5.7558590050662672E-01 a       742     0    25     1    22
 -5.7061697505717843E+00 a       743     0    25     1    23
 -5.5878911562464664E+00 a       744     0    25     1    24
 -2.2938244367244167E+01 a       745     0    25     1    25
  2.6499275424146207E+00 a       746     0    25     1    26
 -1.5655770972659770E+01 a       747     0    25     1    27
 -1.7073084142320493E+01 a       748     0    25     1    28
 -3.1002121679276218E-01 a       749     0    25     1    29
  2.6291989986053579E+01 a       750     0    25     1    30
 -5.8963094719125078E+00 a       751     0    26     1     1
 -2.0647391576393602E+01 a       752     0    26     1     2
  1.2089936891672641E+01 a       753     0    26     1     3
  1.6285431664160562E+01 a       754     0    26     1     4
 -2.6889051149000753E+01 a       755     0    26     1     5
 -4.0181694408880908E+01 a       756     0    26     1     6
 -3.0196420570612272E+01 a       757     0    26     1     7
  2.6960517904467693E+01 a       758     0    26     1     8
 -2.9895685049836981E+01 a       759     0    26     1     9
 -2.4632156955999150E+01 a       760     0    26     1    10
 -6.5143271779162895E+00 a       761     0    26     1    11
  5.0009942487843864E+00 a       762     0    26     1    12
  8.9434456539231320E+01 a       763     0    26     1    13
 -1.7078876898360875E+01 a       764     0    26     1    14
 -3.6824121020468013E+01 a       765     0    26     1    15
  6.4357627204461059E+00 a       766     0    26     1    16
  2.2459226884956838E+01 a       767     0    26     1    17
  1.1863266335030495E+01 a       768     0    26     1    18
  1.2904966794692410E+01 a       769     0    26     1    19
  1.1973491081904108E+01 a       770     0    26     1    20
 -1.2956997366635127E+01 a       771     0    26     1    21
 -1.4073971412837054E+01 a       772     0    26     1    22
  1.1265442285671547E+01 a       773     0    26     1    23
  2.0518792120700532E+01 a       774     0    26     1    24
  2.0408593798619293E+01 a       775     0    26     1    25
 -3.0730688624049680E+01 a       776     0    26     1    26
 -2.0738157327090857E+01 a       777     0    26     1    27
  5.3630203629000786E+00 a       778     0    26     1    28
 -3.7560259147828023E-01 a       779     0    26     1    29
 -7.1171417047250776E+00 a       780     0    26     1    30
  2.0240776961866935E+01 a       781     0    27     1     1
  7.0990310277428730E+00 a       782     0    27     1     2
  5.8071599142183466E+01 a       783     0    27     1     3
 -3.7315579036685298E+00 a       784     0    27     1     4
 -1.0914920408306546E+01 a       785     0    27     1     5
  2.8263278804031685E+01 a       786     0    27     1     6
  2.7923671800437351E+00 a       787     0    27     1     7
 -1.5809648197167578E+01 a       788     0    27     1     8
  3.3282545976050628E+01 a       789     0    27     1     9
  2.7385064731715231E-01 a       790     0    27     1    10
  7.0761614105703137E+00 a       791     0    27     1    11
 -2.5601449874798735E+01 a       792     0    27     1    12
 -1.8387799499865007E+01 a       793     0    27     1    13
  2.4801018516830577E+01 a       794     0    27     1    14
  1.1208655115700843E+00 a       795     0    27     1    15
  4.9119982893472400E+00 a       796     0    27     1    16
 -1.7381513353376725E+00 a       797     0    27     1    17
 -7.8385242733503464E+00 a       798     0    27     1    18
  2.9968819760861283E+01 a       799     0    27     1    19
  6.4505487716631809E+00 a       800     0    27     1    20
 -8.6169868161442000E+00 a       801     0    27     1    21
 -5.8311919509338654E+00 a       802     0    27     1    22
 -6.1036562782340535E+00 a       803     0    27     1    23
 -3.1521705265951314E+00 a       804     0    27     1    24
 -1.9972368878205987E+01 a       805     0    27     1    25
  3.9335723845115382E+01 a       806     0    27     1    26
 -1.3030503636982081E+01 a       807     0    27     1    27
 -8.0739354366217189E+00 a       808     0    27     1    28
 -1.2600223887636435E+01 a       809     0    27     1    29
 -1.2471693172920387E+01 a       810     0    27     1    30
  3.2043730579369933E+00 a       811     0    28     1     1
  3.2042528420743828E+01 a       812     0    28     1     2
  2.1059513982670111E+00 a       813     0    28     1     3
  2.5961016240115395E+01 a       814     0    28     1     4
  4.5955978024333453E+00 a       815     0    28     1     5
  5.5781584225393807E+01 a       816     0    28     1     6
 -8.3725663370404302E+00 a       817     0    28     1     7
  6.6159934103889695E+00 a       818     0    28     1     8
 -1.4569862457594365E+01 a       819     0    28     1     9
  5.9868190882900696E-01 a       820     0    28     1    10
  1.1889130226531423E+01 a       821     0    28     1    11
  5.6721981579210237E+01 a       822     0    28     1    12
 -2.6981748922536688E+01 a       823     0    28     1    13
  1.0467537764898809E+01 a       824     0    28     1    14
 -2.9273876529739958E+01 a       825     0    28     1    15
  7.8693201975617564E+00 a       826     0    28     1    16
  1.6871258023919665E+01 a       827     0    28     1    17
  1.2647168389191886E+01 a       828     0    28     1    18
 -3.6362412529094739E+00 a       829     0    28     1    19
 -2.1946285053674035E+01 a       830     0    28     1    20
  1.7238964356359222E+01 a       831     0    28     1    21
  1.0014083961236977E+01 a       832     0    28     1    22
 -8.3260766895892608E+00 a       833     0    28     1    23
 -2.3783808135469442E+01 a       834     0    28     1    24
 -1.8822728802659734E+00 a       835     0    28     1    25
  1.7099821809535158E+01 a       836     0    28     1    26
 -1.6951731795266557E+01 a       837     0    28     1    27
 -9.2182498459021982E+00 a       838     0    28     1    28
 -2.8988771833222229E+00 a       839     0    28     1    29
  2.1846158884585787E+00 a       840     0    28     1    30
  2.8482879334128906E+01 a       841     0    29     1     1
 -2.2240966238641057E+01 a       842     0    29     1     2
 -3.0406101146202783E+01 a       843     0    29     1     3
  1.5762363875364491E+01 a       844     0    29     1     4
 -1.1484280643519650E+01 a       845     0    29     1     5
 -2.4194997983137231E+01 a       846     0    29     1     6
  7.7364452018734768E+00 a       847     0    29     1     7
 -1.2835456726014757E+01 a       848     0    29     1     8
 -7.6293649106870394E+00 a       849     0    29     1     9
  1.8849073605825531E+01 a       850     0    29     1    10
 -3.8785370909193042E+00 a       851     0    29     1    11
  8.2170300895156103E+00 a       852     0    29     1    12
  6.1977422358916128E+00 a       853     0    29     1    13
 -5.8493810772580135E+00 a       854     0    29     1    14
 -8.2760478303766905E-01 a       855     0    29     1    15
  2.1859198814032943E+01 a       856     0    29     1    16
 -7.1562603213797571E+00 a       857     0    29     1    17
  9.6797456100303503E-01 a       858     0    29     1    18
 -2.2806325642871257E+00 a       859     0    29     1    19
  1.1230669219411654E+01 a       860     0    29     1    20
 -1.4965738032637690E+01 a       861     0    29     1    21
  4.4902414278865317E+00 a       862     0    29     1    22
 -2.9244280284795035E+01 a       863     0    29     1    23
  1.1772336586080753E+01 a       864     0    29     1    24
  1.8489214549452225E+01 a       865     0    29     1    25
  4.6983855817243354E+00 a       866     0    29     1    26
 -1.8350402609781927E+01 a       867     0    29     1    27
  1.4782937074521627E+01 a       868     0    29     1    28
 -8.6771523892464142E-01 a       869     0    29     1    29
  3.6930849076699353E+01 a       870     0    29     1    30
  2.6895419473788702E+00 a       871     0    30     1     1
  2.5148726561829793E+01 a       872     0    30     1     2
 -2.3241288393883468E+00 a       873     0    30     1     3
 -1.7642491528550114E+01 a       874     0    30     1     4
  3.4132083729708647E+01 a       875     0    30     1     5
  4.0864018475706253E+01 a       876     0    30     1     6
 -3.5434580864234128E+01 a       877     0    30     1     7
  6.4483141139603983E+00 a       878     0    30     1     8
 -6.4745616326855526E+01 a       879     0    30     1     9
  6.7972340836189131E+00 a       880     0    30     1    10
  4.3684805587516415E+01 a       881     0    30     1    11
 -2.2695613969683560E+01 a       882     0    30     1    12
  2.9941889629628573E+01 a       883     0    30     1    13
 -1.2364437518899182E+01 a       884     0    30     1    14
 -3.3877150147459425E+01 a       885     0    30     1    15
 -3.3700091174472789E+01 a       886     0    30     1    16
  6.5045521686239005E-01 a       887     0    30     1    17
 -2.9681394186764667E+01 a       888     0    30     1    18
 -3.8610586197890528E+00 a       889     0    30     1    19
 -3.0786007122611224E+01 a       890     0    30     1    20
  1.4664322509889280E+01 a       891     0    30     1    21
 -3.6087605705420472E-01 a       892     0    30     1    22
  4.6005358650234074E+00 a       893     0    30     1    23
 -3.3315913276167144E+01 a       894     0    30     1    24
  2.3213258398516698E+00 a       895     0    30     1    25
 -1.5567872740137576E+01 a       896     0    30     1    26
 -3.8350954019041225E+01 a       897     0    30     1    27
  3.1139596641316680E-01 a       898     0    30     1    28
 -1.0811770944687122E+01 a       899     0    30     1    29
  3.8825146980616303E+01 a       900     0    30     1    30
 -1.7055759896546014E+01 a       901     0    31     1     1
  2.6773464571521192E+01 a       902     0    31     1     2
 -9.4394550259705001E-01 a       903     0    31     1     3
 -1.1253331337706689E+01 a       904     0    31     1     4
  9.7934712330522320E+00 a       905     0    31     1     5
  4.6828768323691143E+00 a       906     0    31     1     6
  3.5842081544929161E-01 a       907     0    31     1     7
 -4.2929716227090936E-01 a       908     0    31     1     8
  5.9657199650984527E+00 a       909     0    31     1     9
  9.9842859520127050E+00 a       910     0    31     1    10
 -3.2600074883537808E+00 a       911     0    31     1    11
 -3.1795414360602042E+01 a       912     0    31     1    12
 -6.9768655173075729E+00 a       913     0    31     1    13
 -2.1312878900595084E+01 a       914     0    31     1    14
  1.0015950041342016E+01 a       915     0    31     1    15
 -3.1748990244647899E+01 a       916     0    31     1    16
  1.1645377544767870E+01 a       917     0    31     1    17
  5.3931423678500123E-01 a       918     0    31     1    18
 -7.0342269723564481E+00 a       919     0    31     1    19
  1.2513017999198022E+00 a       920     0    31     1    20
 -3.2588792851109343E+00 a       921     0    31     1    21
  2.2033155638968307E+01 a       922     0    31     1    22
 -1.3747720121503431E+00 a       923     0    31     1    23
 -1.0410431582752459E+01 a       924     0    31     1    24
 -1.9359961718266202E+01 a       925     0    31     1    25
 -1.0972490127777171E+01 a       926     0    31     1    26
 -1.0310136250608119E+01 a       927     0    31     1    27
 -1.6439367045257931E+01 a       928     0    31     1    28
  1.1868799404975528E+01 a       929     0    31     1    29
  5.5753767349797677E+01 a       930     0    31     1    30
  3.3315940433396318E+00 a       931     0    32     1     1
  2.1352320181439225E+01 a       932     0    32     1     2
 -1.1809871613310024E+01 a       933     0    32     1     3
 -2.5713264844002435E+01 a       934     0    32     1     4
 -1.1277117486054264E+01 a       935     0    32     1     5
  1.8910331311726274E+00 a       936     0    32     1     6
 -1.7142755578032965E+01 a       937     0    32     1     7
 -2.7316294815769581E+01 a       938     0    32     1     8
  1.2853492393886626E+01 a       939     0    32     1     9
 -2.0499448821996175E+01 a       940     0    32     1    10
  5.5964520399044169E+00 a       941     0    32     1    11
 -1.6356688060416559E+01 a       942     0    32     1    12
 -8.7004786446594380E+01 a       943     0    32     1    13
 -3.2767426117242898E+01 a       944     0    32     1    14
  1.5400454403137653E+01 a       945     0    32     1    15
  1.4411097654159935E+01 a       946     0    32     1    16
 -7.0163460008614313E+00 a       947     0    32     1    17
 -4.2456161465502113E+01 a       948     0    32     1    18
  3.1218156729367363E+00 a       949     0    32     1    19
  1.0033748032334355E+01 a       950     0    32     1    20
 -3.2986177529881019E+01 a       951     0    32     1    21
  4.6681218763818393E+00 a       952     0    32     1    22
 -9.5106264097011586E+00 a       953     0    32     1    23
  4.6064722369056170E+01 a       954     0    32     1    24
 -1.8945437595871638E+01 a       955     0    32     1    25
 -9.0992016119808483E-01 a       956     0    32     1    26
  3.5062776514677289E+01 a       957     0    32     1    27
 -2.2063755126191115E+01 a       958     0    32     1    28
  8.1985997486827671E+00 a       959     0    32     1    29
 -1.0808308189807493E+01 a       960     0    32     1    30
 -1.4510745717558629E+00 a       961     0    33     1     1
 -1.4718208588429961E+01 a       962     0    33     1     2
 -1.8900922045475287E+01 a       963     0    33     1     3
  1.3747511766782761E+01 a       964     0    33     1     4
  1.4334536531559626E+01 a       965     0    33     1     5
 -5.1443476384846129E+01 a       966     0    33     1     6
  1.1835270729878392E+01 a       967     0    33     1     7
  3.8061524418687242E+01 a       968     0    33     1     8
 -2.2825757919536112E+01 a       969     0    33     1     9
 -4.2142162545885231E+00 a       970     0    33     1    10
  6.9856141000850132E+00 a       971     0    33     1    11
 -1.3031108767360864E+01 a       972     0    33     1    12
  9.5263640948406181E+00 a       973     0    33     1    13
 -1.3792119157129619E+01 a       974     0    33     1    14
  3.2718266986756213E+01 a       975     0    33     1    15
 -7.6896207842582287E+00 a       976     0    33     1    16
  9.5072057611742373E+00 a       977     0    33     1    17
  1.2059965688994023E+01 a       978     0    33     1    18
 -2.9185726093588858E+01 a       979     0    33     1    19
 -3.7625433136362698E+00 a       980     0    33     1    20
 -2.0275550779243975E+01 a       981     0    33     1    21
  1.1377012491571165E+01 a       982     0    33     1    22
  1.0389492772410918E+01 a       983     0    33     1    23
 -4.1999362717650328E+00 a       984     0    33     1    24
  4.7556031466977736E+01 a       985     0    33     1    25
 -2.8115983475592447E+01 a       986     0    33     1    26
  2.2684255910017775E+01 a       987     0    33     1    27
  3.5684142003923689E+01 a       988     0    33     1    28
  1.7197088241046099E+01 a       989     0    33     1    29
 -1.5417169502348569E+01 a       990     0    33     1    30
  4.8280294180970421E-02 a       991     0    34     1     1
 -1.3096403853554420E+01 a       992     0    34     1     2
 -4.3139715094605371E+01 a       993     0    34     1     3
 -9.7433342368915810E+00 a       994     0    34     1     4
  2.8735186179106222E+01 a       995     0    34     1     5
 -1.2019646214396888E+01 a       996     0    34     1     6
  5.0181315232557061E+01 a       997     0    34     1     7
  2.8717964077413063E+00 a       998     0    34     1     8
  4.4121136727411226E+01 a       999     0    34     1     9
  8.4107240427674110E+00 a      1000     0    34     1    10
 -3.2701974723346652E+01 a      1001     0    34     1    11
  3.3976753466505677E+01 a      1002     0    34     1    12
 -4.2127313301365220E+01 a      1003     0    34     1    13
  7.3213442270503464E+00 a      1004     0    34     1    14
  6.1939557547024364E+01 a      1005     0    34     1    15
  3.9062963438832732E+01 a      1006     0    34     1    16
 -4.4427349934262876E+00 a      1007     0    34     1    17
  1.0027004610742672E+01 a      1008     0    34     1    18
 -1.7951979032416201E+01 a      1009     0    34     1    19
  1.5612660145794907E+01 a      1010     0    34     1    20
 -1.9550549681894509E+01 a      1011     0    34     1    21
 -4.4392075461953523E-01 a      1012     0    34     1    22
  2.5569598445183193E+01 a      1013     0    34     1    23
  2.2440997545628726E+01 a      1014     0    34     1    24
  3.2893075720301939E+00 a      1015     0    34     1    25
  2.2739721504048415E+01 a      1016     0    34     1    26
  4.5868496523458141E+01 a      1017     0    34     1    27
  7.6425368742528041E+00 a      1018     0    34     1    28
  3.0547957440380070E+01 a      1019     0    34     1    29
 -1.2742343675847870E+01 a      1020     0    34     1    30
 -2.7360391010661576E+01 a      1021     0    35     1     1
  1.0411221570806529E+01 a      1022     0    35     1     2
  1.9185490383561046E+01 a      1023     0    35     1     3
 -1.6903271339538843E+01 a      1024     0    35     1     4
  1.8940409933574909E+01 a      1025     0    35     1     5
  3.0851217781584470E+01 a      1026     0    35     1     6
 -1.3858630867448778E+00 a      1027     0    35     1     7
  2.4229435659755936E+01 a      1028     0    35     1     8
  1.0180367359417778E+01 a      1029     0    35     1     9
 -1.9145995246276705E+01 a      1030     0    35     1    10
 -1.1374216320121715E+00 a      1031     0    35     1    11
 -1.4110597231589123E+01 a      1032     0    35     1    12
 -8.0191080748792026E-02 a      1033     0    35     1    13
 -7.6203608142755996E+00 a      1034     0    35     1    14
 -5.5578782289010960E+00 a      1035     0    35     1    15
 -2.3165961793744010E+01 a      1036     0    35     1    16
  1.4179088974466994E+01 a      1037     0    35     1    17
 -5.6439528498620852E+00 a      1038     0    35     1    18
 -1.0016946751228284E+01 a      1039     0    35     1    19
 -8.8903705606526096E+00 a      1040     0    35     1    20
  8.7026229709738665E+00 a      1041     0    35     1    21
 -1.4863519161258551E-01 a      1042     0    35     1    22
  3.5036044791083533E+01 a      1043     0    35     1    23
 -1.1994022980701038E+01 a      1044     0    35     1    24
 -2.4493461843332913E+01 a      1045     0    35     1    25
 -8.0304974575250521E-01 a      1046     0    35     1    26
  1.9707967582785844E+01 a      1047     0    35     1    27
 -3.1121615481756098E+01 a      1048     0    35     1    28
  1.7610742250732851E+01 a      1049     0    35     1    29
 -1.5675572593906113E+01 a      1050     0    35     1    30
 -2.5115846827404038E+01 a      1051     0    36     1     1
 -2.3230262156185624E+01 a      1052     0    36     1     2
  2.7485846816090408E+01 a      1053     0    36     1     3
 -3.5292646505920082E+01 a      1054     0    36     1     4
 -3.4528971101178357E+01 a      1055     0    36     1     5
 -6.2223802188665957E+01 a      1056     0    36     1     6
  7.6191444669007726E+00 a      1057     0    36     1     7
 -4.2564540767122431E+01 a      1058     0    36     1     8
  2.4471347925190752E+01 a      1059     0    36     1     9
 -3.0466745168654025E+01 a      1060     0    36     1    10
 -2.0787775575507833E+01 a      1061     0    36     1    11
 -3.4795955516286831E+01 a      1062     0    36     1    12
 -2.5882521179257417E+01 a      1063     0    36     1    13
 -7.7599652311439709E+00 a      1064     0    36     1    14
  3.4947116881309483E+01 a      1065     0    36     1    15
 -8.6228077900356563E+00 a      1066     0    36     1    16
 -3.8812638919136461E+01 a      1067     0    36     1    17
 -2.0767598364683895E+01 a      1068     0    36     1    18
 -1.6715904381640424E+01 a      1069     0    36     1    19
  1.5377622373370400E+01 a      1070     0    36     1    20
  1.6630008764152901E+01 a      1071     0    36     1    21
 -2.8363273619254638E+01 a      1072     0    36     1    22
 -2.6679538591773955E+01 a      1073     0    36     1    23
  5.3458304679779218E+01 a      1074     0    36     1    24
 -1.8799713809323041E+01 a      1075     0    36     1    25
 -2.8437600013744639E+01 a      1076     0    36     1    26
  1.6413950334185351E+01 a      1077     0    36     1    27
  1.5597476166453665E+00 a      1078     0    36     1    28
 -9.8539778652087762E+00 a      1079     0    36     1    29
  7.9619649802900216E+00 a      1080     0    36     1    30
  9.6429851634442301E+00 a      1081     0    37     1     1
 -8.9237281499300067E+00 a      1082     0    37     1     2
 -1.6693318540590651E+00 a      1083     0    37     1     3
  1.0881597442646854E+01 a      1084     0    37     1     4
 -7.4900858385240019E+00 a      1085     0    37     1     5
 -7.9849281316149501E+00 a      1086     0    37     1     6
 -1.3719769886121784E+00 a      1087     0    37     1     7
 -1.3564369498899698E+00 a      1088     0    37     1     8
 -4.6302804945334035E+00 a      1089     0    37     1     9
 -1.1003618585782736E+01 a      1090     0    37     1    10
  3.0046221236653317E+00 a      1091     0    37     1    11
  2.1792992063622147E+01 a      1092     0    37     1    12
  1.1643726102285250E-01 a      1093     0    37     1    13
  1.7226198798993778E+01 a      1094     0    37     1    14
 -4.4999782124404604E+00 a      1095     0    37     1    15
  1.9517207731601410E+01 a      1096     0    37     1    16
 -6.7755955056568569E+00 a      1097     0    37     1    17
 -3.2012238578605658E+00 a      1098     0    37     1    18
 -2.2623974393425557E+00 a      1099     0    37     1    19
  1.9281066653514858E+00 a      1100     0    37     1    20
  7.1889641874610186E+00 a      1101     0    37     1    21
 -1.1465169146689156E+01 a      1102     0    37     1    22
  2.2257451976991804E+00 a      1103     0    37     1    23
  8.5801885243593006E+00 a      1104     0    37     1    24
  1.8738587384963541E+01 a      1105     0    37     1    25
  6.0338471459099257E+00 a      1106     0    37     1    26
  1.0142682019564184E+01 a      1107     0    37     1    27
  1.3527681104735899E+01 a      1108     0    37     1    28
 -8.2601922533377259E+00 a      1109     0    37     1    29
 -5.3222802967483950E+01 a      1110     0    37     1    30
 -5.0308939635889827E-01 a      1111     0    38     1     1
 -1.1172533587990536E+01 a      1112     0    38     1     2
  7.6726334159869292E-01 a      1113     0    38     1     3
  2.2366944289626179E+01 a      1114     0    38     1     4
 -2.2994617311511432E+00 a      1115     0    38     1     5
 -3.6464123816665595E+00 a      1116     0    38     1     6
  1.1845223165777455E+01 a      1117     0    38     1     7
  5.2823322793665133E+00 a      1118     0    38     1     8
  9.1309438734807564E+00 a      1119     0    38     1     9
  2.7758734016341258E+01 a      1120     0    38     1    10
 -3.1584150558938506E+00 a      1121     0    38     1    11
  2.2436661944166893E+01 a      1122     0    38     1    12
  3.1606416214887187E+01 a      1123     0    38     1    13
  3.0769844438181458E+01 a      1124     0    38     1    14
 -2.0692091118186311E+00 a      1125     0    38     1    15
 -7.7685928829928876E+00 a      1126     0    38     1    16
 -1.4398120889256216E+00 a      1127     0    38     1    17
  3.2725326537261672E+01 a      1128     0    38     1    18
  7.1090831113038400E-01 a      1129     0    38     1    19
 -8.5022109330921385E+00 a      1130     0    38     1    20
  1.3025207894639090E+01 a      1131     0    38     1    21
  4.2775084863686788E+00 a      1132     0    38     1    22
 -3.0230555363115106E+00 a      1133     0    38     1    23
 -3.7915775341389548E+01 a      1134     0    38     1    24
  1.0686686789637655E+01 a      1135     0    38     1    25
  1.3719157162867209E+01 a      1136     0    38     1    26
 -1.7310195725992184E+01 a      1137     0    38     1    27
  1.8721402070074269E+01 a      1138     0    38     1    28
 -1.4917141923879660E+01 a      1139     0    38     1    29
  1.9626094034756911E+00 a      1140     0    38     1    30
 -1.4169165221642375E+01 a      1141     0    39     1     1
  5.7962471692636637E+00 a      1142     0    39     1     2
  1.7505400589009927E+01 a      1143     0    39     1     3
 -7.1031422510735833E+00 a      1144     0    39     1     4
 -2.9890256946343140E+01 a      1145     0    39     1     5
  2.7722813323680033E+00 a      1146     0    39     1     6
 -2.1163660049476061E+01 a      1147     0    39     1     7
 -2.6105648364657462E+01 a      1148     0    39     1     8
 -1.7032009406675794E+01 a      1149     0    39     1     9
 -1.4560007592089276E+01 a      1150     0    39     1    10
  4.5130142404991389E+00 a      1151     0    39     1    11
  1.0094649894377408E+00 a      1152     0    39     1    12
  1.2067764615472358E+01 a      1153     0    39     1    13
 -6.9188406398666702E+00 a      1154     0    39     1    14
 -5.4524823695038826E+01 a      1155     0    39     1    15
 -2.1673223600323130E+01 a      1156     0    39     1    16
  1.6444795987316398E+00 a      1157     0    39     1    17
 -9.9124180702659288E+00 a      1158     0    39     1    18
 -2.1794667472844531E+00 a      1159     0    39     1    19
 -1.0869220830742865E+01 a      1160     0    39     1    20
  3.9372153457608839E+01 a      1161     0    39     1    21
 -7.5495800012073415E+00 a      1162     0    39     1    22
 -2.0157919440088563E+01 a      1163     0    39     1    23
  1.0020598219410140E+01 a      1164     0    39     1    24
 -2.2199840213602247E+01 a      1165     0    39     1    25
 -1.9246544491017371E+01 a      1166     0    39     1    26
 -1.5326141826020278E+01 a      1167     0    39     1    27
 -1.7586604844547654E+01 a      1168     0    39     1    28
 -3.0344207712917282E+01 a      1169     0    39     1    29
  1.5588375407910407E+01 a      1170     0    39     1    30
  9.8770346218786003E+00 a      1171     0    40     1     1
  6.2595253621302049E+00 a      1172     0    40     1     2
 -3.2151156990790950E+00 a      1173     0    40     1     3
 -3.3226737566136123E+01 a      1174     0    40     1     4
  5.3524799052955473E+01 a      1175     0    40     1     5
  2.9751965436030911E+01 a      1176     0    40     1     6
 -1.1004102133909630E+00 a      1177     0    40     1     7
  6.2792315708566218E+00 a      1178     0    40     1     8
  1.4751274966739000E+01 a      1179     0    40     1     9
  2.9066092582440437E+01 a      1180     0    40     1    10
  2.7918759551695937E+00 a      1181     0    40     1    11
 -3.6978475490050201E+01 a      1182     0    40     1    12
  1.0030210350151080E+01 a      1183     0    40     1    13
  2.5851055239195092E-01 a      1184     0    40     1    14
  2.8345403697213989E+01 a      1185     0    40     1    15
  9.7643282894934451E+00 a      1186     0    40     1    16
 -5.2429921111616302E+00 a      1187     0    40     1    17
 -2.4370787509475626E+01 a      1188     0    40     1    18
  3.3641821111080652E+01 a      1189     0    40     1    19
  5.3977498997961986E+00 a      1190     0    40     1    20
 -1.5435436086584485E+01 a      1191     0    40     1    21
 -1.3640743660728258E+01 a      1192     0    40     1    22
  4.6980460145694202E+01 a      1193     0    40     1    23
 -2.0914048643730741E+01 a      1194     0    40     1    24
 -6.9605259774548607E+00 a      1195     0    40     1    25
  2.6228045755897359E+01 a      1196     0    40     1    26
  4.7806151292809922E+00 a      1197     0    40     1    27
 -1.7379011482765382E+01 a      1198     0    40     1    28
  2.5910192719506874E+01 a      1199     0    40     1    29
  6.4755557500762615E+00 a      1200     0    40     1    30
  4.8237763541427814E+00 a      1201     0    41     1     1
 -6.5959718088063179E-01 a      1202     0    41     1     2
 -7.7975903402464688E+00 a      1203     0    41     1     3
  5.2369495839761981E+00 a      1204     0    41     1     4
 -5.6514579466987733E+00 a      1205     0    41     1     5
 -7.3119083166209133E+00 a      1206     0    41     1     6
 -1.0585064273292770E+00 a      1207     0    41     1     7
 -1.0771795414797339E+01 a      1208     0    41     1     8
 -2.1718617765387074E+00 a      1209     0    41     1     9
  8.2743135584766421E+00 a      1210     0    41     1    10
 -5.1648183333364228E-01 a      1211     0    41     1    11
  8.9555573757164826E+00 a      1212     0    41     1    12
 -2.0494170932738593E+00 a      1213     0    41     1    13
  4.1027335017295270E+00 a      1214     0    41     1    14
  4.2955312224957503E+00 a      1215     0    41     1    15
  1.0215186546993230E+01 a      1216     0    41     1    16
 -7.4881984261318335E+00 a      1217     0    41     1    17
  6.5513287974261694E+00 a      1218     0    41     1    18
  7.0133086036844752E+00 a      1219     0    41     1    19
  3.2616768687740016E+00 a      1220     0    41     1    20
  2.4857155442676387E-01 a      1221     0    41     1    21
  8.4295773490558568E-01 a      1222     0    41     1    22
 -1.3615976351469197E+01 a      1223     0    41     1    23
  7.0663342989252032E-01 a      1224     0    41     1    24
  6.3689737722848632E+00 a      1225     0    41     1    25
 -1.4052076877224327E+00 a      1226     0    41     1    26
 -7.1257233303870722E+00 a      1227     0    41     1    27
  1.3096481106278832E+01 a      1228     0    41     1    28
 -9.0580031515575890E+00 a      1229     0    41     1    29
  1.3653091414302549E+00 a      1230     0    41     1    30
  1.7800718833070590E+01 a      1231     0    42     1     1
  4.0152817268557834E+00 a      1232     0    42     1     2
 -5.0480684738487698E+00 a      1233     0    42     1     3
  5.4138109002634010E+01 a      1234     0    42     1     4
 -4.2657123447247294E+01 a      1235     0    42     1     5
 -5.8547755759031341E+00 a      1236     0    42     1     6
 -1.0991017407528330E+01 a      1237     0    42     1     7
  1.7793665823229141E+01 a      1238     0    42     1     8
 -1.4410379877470696E+01 a      1239     0    42     1     9
 -1.8306853583289668E+00 a      1240     0    42     1    10
  7.6725381385764031E+00 a      1241     0    42     1    11
  2.8289962578096976E+01 a      1242     0    42     1    12
  9.2204589478950272E+00 a      1243     0    42     1    13
  6.4993923245585759E+00 a      1244     0    42     1    14
 -4.1901155665748767E+01 a      1245     0    42     1    15
 -1.2795707870223509E+00 a      1246     0    42     1    16
  2.3065487210777210E+01 a      1247     0    42     1    17
  3.6864951328293195E+01 a      1248     0    42     1    18
 -5.8678088603491405E+00 a      1249     0    42     1    19
 -5.0796335314884731E+00 a      1250     0    42     1    20
 -1.5870355292595386E+01 a      1251     0    42     1    21
  3.5316850348538203E+01 a      1252     0    42     1    22
 -2.7857536831415366E+01 a      1253     0    42     1    23
 -1.5262593108442534E+01 a      1254     0    42     1    24
  1.2656678901326588E+01 a      1255     0    42     1    25
 -2.7204254268096872E+00 a      1256     0    42     1    26
 -1.8460713301228211E+01 a      1257     0    42     1    27
  1.1349887127404591E+01 a      1258     0    42     1    28
 -2.0389893277726674E+01 a      1259     0    42     1    29
 -1.9650015943893013E+01 a      1260     0    42     1    30
 -1.6673409589089616E+00 a      1261     0    43     1     1
  1.1295034291370945E+00 a      1262     0    43     1     2
  1.3176816830277700E+00 a      1263     0    43     1     3
 -3.3436797356511554E+00 a      1264     0    43     1     4
  2.2303345763730360E+00 a      1265     0    43     1     5
  1.6158833544786750E+00 a      1266     0    43     1     6
  2.9520092118712249E-01 a      1267     0    43     1     7
  2.9433460391654431E-01 a      1268     0    43     1     8
  6.4314608841099263E-01 a      1269     0    43     1     9
  2.6507927463484733E+00 a      1270     0    43     1    10
 -8.7815645386827212E-01 a      1271     0    43     1    11
 -4.3006499533827149E+00 a      1272     0    43     1    12
  2.0531486858156742E-01 a      1273     0    43     1    13
 -4.3711212653423219E+00 a      1274     0    43     1    14
  7.6776091044167050E-02 a      1275     0    43     1    15
 -3.5118565840451517E+00 a      1276     0    43     1    16
  9.9651220482811143E-01 a      1277     0    43     1    17
  8.3243342923493502E-01 a      1278     0    43     1    18
  1.7870038184102690E+00 a      1279     0    43     1    19
 -7.3073378681111056E-01 a      1280     0    43     1    20
 -1.9129448674384277E+00 a      1281     0    43     1    21
  1.3551437685248966E+00 a      1282     0    43     1    22
 -5.9431999922443035E-01 a      1283     0    43     1    23
 -1.9894853433226172E+00 a      1284     0    43     1    24
 -4.5712831609677078E+00 a      1285     0    43     1    25
 -9.9006279637801642E-01 a      1286     0    43     1    26
 -2.0680569668242956E+00 a      1287     0    43     1    27
 -2.5983006474701127E+00 a      1288     0    43     1    28
  2.0172803398512213E+00 a      1289     0    43     1    29
  1.3422315845851275E+01 a      1290     0    43     1    30
 -2.1584630474493025E+00 a      1291     0    44     1     1
  2.9858265684539300E+00 a      1292     0    44     1     2
  1.3938965547064455E+00 a      1293     0    44     1     3
 -8.3079413322030931E+00 a      1294     0    44     1     4
  6.5703120542267905E+00 a      1295     0    44     1     5
  5.7512824358322181E+00 a      1296     0    44     1     6
 -1.4992525514353789E+00 a      1297     0    44     1     7
  1.6941172804161619E+00 a      1298     0    44     1     8
 -5.0485780821453590E+00 a      1299     0    44     1     9
 -9.7027863646752834E+00 a      1300     0    44     1    10
  2.1593750855789047E+00 a      1301     0    44     1    11
 -6.9508854307390555E+00 a      1302     0    44     1    12
 -3.9618823591899330E+00 a      1303     0    44     1    13
 -7.9275481737142623E+00 a      1304     0    44     1    14
 -1.3096259598207863E-01 a      1305     0    44     1    15
  8.1645096932024130E-01 a      1306     0    44     1    16
  1.4113166455402935E+00 a      1307     0    44     1    17
 -1.0441544146751987E+01 a      1308     0    44     1    18
  6.8664630817221550E-01 a      1309     0    44     1    19
  2.4730801721507944E-02 a      1310     0    44     1    20
  1.0564584355908054E-01 a      1311     0    44     1    21
 -4.0012868391272267E+00 a      1312     0    44     1    22
  4.8762344023963164E+00 a      1313     0    44     1    23
  8.6639753314777472E+00 a      1314     0    44     1    24
 -2.3472001373754967E+00 a      1315     0    44     1    25
 -4.5488339975735599E+00 a      1316     0    44     1    26
  5.0660321828474704E+00 a      1317     0    44     1    27
 -7.5314076576407842E+00 a      1318     0    44     1    28
  7.7789041083957153E+00 a      1319     0    44     1    29
 -7.9072034622039322E-01 a      1320     0    44     1    30
 -2.7088413500707698E+00 a      1321     0    45     1     1
 -2.9753228504989235E+00 a      1322     0    45     1     2
 -1.7421360396422617E+01 a      1323     0    45     1     3
  3.5531101488832748E+00 a      1324     0    45     1     4
 -8.9644061006767224E+00 a      1325     0    45     1     5
  3.0453028352563194E-01 a      1326     0    45     1     6
  8.6894685701312557E+00 a      1327     0    45     1     7
 -1.8769096858196448E+01 a      1328     0    45     1     8
  1.0757844559998604E+01 a      1329     0    45     1     9
  5.5363860882636662E-01 a      1330     0    45     1    10
 -6.9617471621724727E+00 a      1331     0    45     1    11
  4.0055872714111530E+01 a      1332     0    45     1    12
 -7.7419029052428838E+00 a      1333     0    45     1    13
  5.7142765690963477E+00 a      1334     0    45     1    14
  1.3305730575238387E+01 a      1335     0    45     1    15
  2.3230426026917701E+01 a      1336     0    45     1    16
  3.2698905555291011E+00 a      1337     0    45     1    17
  1.6476828779491992E+00 a      1338     0    45     1    18
 -5.3829706161491930E-01 a      1339     0    45     1    19
  6.9250730011170720E+00 a      1340     0    45     1    20
 -2.7991134715248773E+01 a      1341     0    45     1    21
 -3.2173269534357538E+00 a      1342     0    45     1    22
  6.1219480580423422E+00 a      1343     0    45     1    23
 -6.7810936379872588E+00 a      1344     0    45     1    24
 -1.7017249046826741E+01 a      1345     0    45     1    25
  1.2471095765533361E+01 a      1346     0    45     1    26
  1.4345107022852696E+01 a      1347     0    45     1    27
  3.0199960034077723E+01 a      1348     0    45     1    28
 -1.1375064000728589E+01 a      1349     0    45     1    29
 -1.0392583618116657E+01 a      1350     0    45     1    30
  4.9467706026982992E+00 a      1351     0    46     1     1
  2.5701644752369006E+00 a      1352     0    46     1     2
  3.2227893084915735E+01 a      1353     0    46     1     3
  1.2582317154787750E+01 a      1354     0    46     1     4
  1.3686538506936065E+01 a      1355     0    46     1     5
 -6.3220701959208050E+00 a      1356     0    46     1     6
 -1.0021482083764999E+01 a      1357     0    46     1     7
  4.7036097965216094E+01 a      1358     0    46     1     8
 -1.5229487980258900E+01 a      1359     0    46     1     9
 -3.4817736446290931E-01 a      1360     0    46     1    10
  1.0659402026473714E+01 a      1361     0    46     1    11
 -6.7696379862638580E+01 a      1362     0    46     1    12
  6.2568891973354210E+00 a      1363     0    46     1    13
 -1.2577969913321137E+01 a      1364     0    46     1    14
 -4.0562248891515935E+00 a      1365     0    46     1    15
 -4.1106872762165857E+01 a      1366     0    46     1    16
 -1.0041137166644607E+01 a      1367     0    46     1    17
  1.3709733826381310E+01 a      1368     0    46     1    18
 -1.1073410247720328E+00 a      1369     0    46     1    19
 -9.4741808978406254E+00 a      1370     0    46     1    20
  3.1635035306587863E+01 a      1371     0    46     1    21
  1.9430172728443075E+01 a      1372     0    46     1    22
 -3.2871637961464501E+01 a      1373     0    46     1    23
  1.4497233808615112E+01 a      1374     0    46     1    24
  4.7459944067911898E+01 a      1375     0    46     1    25
 -3.2344425524000215E+01 a      1376     0    46     1    26
 -3.3211924767845183E+01 a      1377     0    46     1    27
 -3.8355853264761571E+01 a      1378     0    46     1    28
  3.0261022296640725E+01 a      1379     0    46     1    29
  1.7231077500195440E+01 a      1380     0    46     1    30
  9.2392741273783419E-01 a      1381     0    47     1     1
 -5.7997849881179703E-02 a      1382     0    47     1     2
  4.8512338854315434E-01 a      1383     0    47     1     3
 -7.1467284227670314E-01 a      1384     0    47     1     4
  1.4806192532301381E+00 a      1385     0    47     1     5
  3.2281744452470934E-01 a      1386     0    47     1     6
  5.1454963691959642E-02 a      1387     0    47     1     7
  4.0650600312710141E+00 a      1388     0    47     1     8
  8.7395568208665042E-01 a      1389     0    47     1     9
 -1.5840780101117049E+00 a      1390     0    47     1    10
  1.1503127719127770E-01 a      1391     0    47     1    11
 -3.6384166264487234E+00 a      1392     0    47     1    12
  5.3968055202427501E-01 a      1393     0    47     1    13
  3.0115128884406978E-01 a      1394     0    47     1    14
  3.2859277939570553E-01 a      1395     0    47     1    15
 -2.3490117609046615E+00 a      1396     0    47     1    16
  1.4635665484569758E+00 a      1397     0    47     1    17
 -1.3171446199140329E+00 a      1398     0    47     1    18
 -9.0082456882220285E-01 a      1399     0    47     1    19
 -4.2160520203919022E-01 a      1400     0    47     1    20
 -6.0832228829141055E-01 a      1401     0    47     1    21
  1.3901794393220518E-01 a      1402     0    47     1    22
  3.8358759158488378E+00 a      1403     0    47     1    23
  8.2415011672575611E-01 a      1404     0    47     1    24
  1.0746801747473622E+00 a      1405     0    47     1    25
  1.2711644876138983E+00 a      1406     0    47     1    26
  5.4564925508709050E-01 a      1407     0    47     1    27
 -4.4674737636712329E+00 a      1408     0    47     1    28
  3.2004352528529263E+00 a      1409     0    47     1    29
 -2.9665278533872002E+00 a      1410     0    47     1    30
 -7.2708420112733876E+00 a      1411     0    48     1     1
 -1.2955807480605073E+00 a      1412     0    48     1     2
 -1.6017636397354597E+01 a      1413     0    48     1     3
 -1.6559046744211027E+01 a      1414     0    48     1     4
 -2.5295832829263367E+00 a      1415     0    48     1     5
  4.6644280577588342E+00 a      1416     0    48     1     6
  7.5683447928192749E+00 a      1417     0    48     1     7
 -3.0999601809422042E+01 a      1418     0    48     1     8
  5.7869115956702517E+00 a      1419     0    48     1     9
 -3.0729978885454612E+00 a      1420     0    48     1    10
 -4.9986600507326475E+00 a      1421     0    48     1    11
  3.8342080372746771E+01 a      1422     0    48     1    12
 -4.1845551865163717E+00 a      1423     0    48     1    13
  7.5808915591638142E+00 a      1424     0    48     1    14
  3.6019330165140038E+00 a      1425     0    48     1    15
  2.1387969393328007E+01 a      1426     0    48     1    16
  2.2936390105642821E+00 a      1427     0    48     1    17
 -1.6639794168195746E+01 a      1428     0    48     1    18
 -1.2919728363218841E+00 a      1429     0    48     1    19
  4.7090748735217423E+00 a      1430     0    48     1    20
 -6.4811108294122572E+00 a      1431     0    48     1    21
 -2.0811036037797702E+01 a      1432     0    48     1    22
  2.4591677930163225E+01 a      1433     0    48     1    23
 -3.9720561627892237E+00 a      1434     0    48     1    24
 -2.6976031454060472E+01 a      1435     0    48     1    25
  1.9791100543662775E+01 a      1436     0    48     1    26
  2.2577324117802931E+01 a      1437     0    48     1    27
  1.6866909807275743E+01 a      1438     0    48     1    28
 -1.6312896976083579E+01 a      1439     0    48     1    29
 -7.5579162585903168E+00 a      1440     0    48     1    30
  4.3954440134578238E-01 a      1441     0    49     1     1
 -2.1830095215091183E-01 a      1442     0    49     1     2
 -5.2434080518560366E-01 a      1443     0    49     1     3
  1.0589045838212252E+00 a      1444     0    49     1     4
 -9.5770078147970084E-01 a      1445     0    49     1     5
 -2.6681733932745033E-01 a      1446     0    49     1     6
  3.3386794195720999E-02 a      1447     0    49     1     7
 -5.5862460908288086E-02 a      1448     0    49     1     8
  2.5641717618368766E-03 a      1449     0    49     1     9
 -7.7591952319331414E-01 a      1450     0    49     1    10
  2.5660605288971133E-01 a      1451     0    49     1    11
  1.1674730379280416E+00 a      1452     0    49     1    12
 -1.0816040056513952E-01 a      1453     0    49     1    13
  1.5183587178092675E+00 a      1454     0    49     1    14
  1.8727615325314825E-01 a      1455     0    49     1    15
  9.5886511727346857E-01 a      1456     0    49     1    16
 -8.6778655160073576E-02 a      1457     0    49     1    17
 -2.8057503099013664E-01 a      1458     0    49     1    18
 -6.7674155423996585E-01 a      1459     0    49     1    19
  3.0191678723175003E-01 a      1460     0    49     1    20
  1.4481475185251916E-01 a      1461     0    49     1    21
 -1.7345121648554035E-01 a      1462     0    49     1    22
  6.1007319947552807E-01 a      1463     0    49     1    23
  7.5524033039655980E-01 a      1464     0    49     1    24
  1.7449395362057734E+00 a      1465     0    49     1    25
  4.8979346739172730E-01 a      1466     0    49     1    26
  3.8587874981459364E-01 a      1467     0    49     1    27
  5.0555003219616446E-01 a      1468     0    49     1    28
 -7.3008051120265194E-01 a      1469     0    49     1    29
 -3.2934180631082581E+00 a      1470     0    49     1    30
  1.2200662077473798E+00 a      1471     0    50     1     1
 -7.5931761866217762E-01 a      1472     0    50     1     2
  1.0274508130042435E+00 a      1473     0    50     1     3
  3.6914932518894168E+00 a      1474     0    50     1     4
 -2.1622115823662376E+00 a      1475     0    50     1     5
 -2.7442325193843118E+00 a      1476     0    50     1     6
 -5.0123385099856699E-02 a      1477     0    50     1     7
  1.6341388850867398E+00 a      1478     0    50     1     8
  1.9147671313446686E+00 a      1479     0    50     1     9
  3.5333339585380616E+00 a      1480     0    50     1    10
 -1.9588819178224646E+00 a      1481     0    50     1    11
 -8.6659112191169774E-01 a      1482     0    50     1    12
  2.2991772659119480E-01 a      1483     0    50     1    13
  7.7166933189695319E-01 a      1484     0    50     1    14
  1.3555149066982177E+00 a      1485     0    50     1    15
 -1.1182098487437271E+00 a      1486     0    50     1    16
 -7.7525209555428365E-01 a      1487     0    50     1    17
  3.9505926353909944E+00 a      1488     0    50     1    18
  1.3969631902979854E-01 a      1489     0    50     1    19
  2.6927550262203886E-01 a      1490     0    50     1    20
 -7.1034824323691992E-01 a      1491     0    50     1    21
  3.1439450077242732E+00 a      1492     0    50     1    22
 -4.0028456126763956E+00 a      1493     0    50     1    23
 -2.0648265618721284E+00 a      1494     0    50     1    24
  1.4518501072403862E+00 a      1495     0    50     1    25
 -1.4012851519529388E+00 a      1496     0    50     1    26
 -3.0080410660666979E+00 a      1497     0    50     1    27
  3.0268975296389304E+00 a      1498     0    50     1    28
 -2.4114736232035359E+00 a      1499     0    50     1    29
  3.6154367020374849E+00 a      1500     0    50     1    30
  5.7080447198977078E+00 a      1501     0    51     1     1
  1.8833648262105280E+00 a      1502     0    51     1     2
 -5.2963227509327970E-01 a      1503     0    51     1     3
 -6.3442386194088742E+00 a      1504     0    51     1     4
  3.6976449236456617E+00 a      1505     0    51     1     5
  2.9416134647172973E+00 a      1506     0    51     1     6
  7.5395269263474299E-02 a      1507     0    51     1     7
  4.7340289655109062E+00 a      1508     0    51     1     8
 -4.7232889320592095E+00 a      1509     0    51     1     9
 -3.2514495059185271E+00 a      1510     0    51     1    10
  2.0529662955213043E-01 a      1511     0    51     1    11
 -1.0980169364623546E+01 a      1512     0    51     1    12
  5.1406771717869237E-01 a      1513     0    51     1    13
 -1.1701096365817005E+00 a      1514     0    51     1    14
 -3.1290142217224792E-01 a      1515     0    51     1    15
  3.9313996096853567E+00 a      1516     0    51     1    16
 -1.4921530836153787E+00 a      1517     0    51     1    17
 -4.5406337806993999E+00 a      1518     0    51     1    18
  4.3174786857545738E-01 a      1519     0    51     1    19
  3.0685616037380443E+00 a      1520     0    51     1    20
  1.3521518720003515E+01 a      1521     0    51     1    21
  2.7142982257738701E+00 a      1522     0    51     1    22
  1.0019755031798301E+01 a      1523     0    51     1    23
 -1.5351481463879433E+00 a      1524     0    51     1    24
 -3.2101556198259389E+00 a      1525     0    51     1    25
  3.2466394998767072E+00 a      1526     0    51     1    26
  2.9871727495271734E+00 a      1527     0    51     1    27
 -8.3959567276083327E+00 a      1528     0    51     1    28
 -3.8130652986171145E+00 a      1529     0    51     1    29
  9.9467093347126084E-02 a      1530     0    51     1    30
 -1.2380782297640694E+01 a      1531     0    52     1     1
 -4.6255115085394243E+00 a      1532     0    52     1     2
  2.7642448989412544E-01 a      1533     0    52     1     3
  1.5199279755679312E+01 a      1534     0    52     1     4
 -9.4154935037541403E+00 a      1535     0    52     1     5
 -7.4400227954418989E+00 a      1536     0    52     1     6
 -1.2835122849050715E+00 a      1537     0    52     1     7
 -1.0844194240339759E+01 a      1538     0    52     1     8
  1.0506779186154874E+01 a      1539     0    52     1     9
  7.3553425814458420E+00 a      1540     0    52     1    10
 -9.3867252645609212E-01 a      1541     0    52     1    11
  2.2201539095954367E+01 a      1542     0    52     1    12
 -2.2985224322032430E-01 a      1543     0    52     1    13
  4.7937466166988134E+00 a      1544     0    52     1    14
 -3.7288227657278677E-01 a      1545     0    52     1    15
 -1.1740680951391514E+01 a      1546     0    52     1    16
  5.6375077669881799E+00 a      1547     0    52     1    17
  1.0939175357780865E+01 a      1548     0    52     1    18
 -6.1861777006798457E-01 a      1549     0    52     1    19
 -8.4542987159763427E+00 a      1550     0    52     1    20
 -3.2334161910334529E+01 a      1551     0    52     1    21
 -6.0164864811205776E+00 a      1552     0    52     1    22
 -2.0532241036684777E+01 a      1553     0    52     1    23
  3.2857878624419894E+00 a      1554     0    52     1    24
  4.4467650727428092E+00 a      1555     0    52     1    25
 -5.7527982636941406E+00 a      1556     0    52     1    26
 -6.2602078751366603E+00 a      1557     0    52     1    27
  1.8153758236667674E+01 a      1558     0    52     1    28
  8.5008925138639668E+00 a      1559     0    52     1    29
 -2.3143216045711341E+00 a      1560     0    52     1    30
 -3.4253779532804546E-01 a      1561     0    53     1     1
 -1.3661374753363825E-01 a      1562     0    53     1     2
  2.4889551834065932E-01 a      1563     0    53     1     3
  4.3446805145747264E-01 a      1564     0    53     1     4
 -2.4940580172687565E-01 a      1565     0    53     1     5
 -8.6570097969458873E-02 a      1566     0    53     1     6
  3.2029954776306428E-02 a      1567     0    53     1     7
 -8.0135299905218504E-01 a      1568     0    53     1     8
  2.8535488506943266E-02 a      1569     0    53     1     9
  3.9156058357031981E-01 a      1570     0    53     1    10
  1.0342226361270417E-01 a      1571     0    53     1    11
  7.7654671690065569E-01 a      1572     0    53     1    12
 -5.5188005842456971E-02 a      1573     0    53     1    13
 -4.9904216838633955E-02 a      1574     0    53     1    14
 -3.4923218145004237E-01 a      1575     0    53     1    15
 -7.4874017726893255E-02 a      1576     0    53     1    16
 -2.4158786622807799E-01 a      1577     0    53     1    17
  3.6212338822790796E-01 a      1578     0    53     1    18
 -5.5776178612470292E-02 a      1579     0    53     1    19
 -1.2435731065924149E-01 a      1580     0    53     1    20
 -3.2590490472772871E-01 a      1581     0    53     1    21
 -4.2782884467397675E-01 a      1582     0    53     1    22
 -1.2999812201480092E+00 a      1583     0    53     1    23
 -7.2934959455421805E-02 a      1584     0    53     1    24
  3.5031295883623992E-01 a      1585     0    53     1    25
 -4.5433133387305352E-01 a      1586     0    53     1    26
 -3.3858369239087799E-01 a      1587     0    53     1    27
  5.7124339581129047E-01 a      1588     0    53     1    28
  1.5758931648317301E-01 a      1589     0    53     1    29
  1.6110395152019066E+00 a      1590     0    53     1    30
  9.3995874642342407E+00 a      1591     0    54     1     1
  3.4556349609150638E+00 a      1592     0    54     1     2
 -2.8024317299380908E-01 a      1593     0    54     1     3
 -1.1230406224755640E+01 a      1594     0    54     1     4
  6.8604360568866962E+00 a      1595     0    54     1     5
  5.4307554661976267E+00 a      1596     0    54     1     6
  5.1551489177346577E-01 a      1597     0    54     1     7
  8.3941127683349244E+00 a      1598     0    54     1     8
 -6.4101460216112995E+00 a      1599     0    54     1     9
 -4.8257429202414910E+00 a      1600     0    54     1    10
  6.5484691154341534E-01 a      1601     0    54     1    11
 -1.5864962067576394E+01 a      1602     0    54     1    12
  3.2763656451950882E-02 a      1603     0    54     1    13
 -4.4726018275433761E+00 a      1604     0    54     1    14
  1.3852461787511805E-01 a      1605     0    54     1    15
  9.4249734320434229E+00 a      1606     0    54     1    16
 -4.3890671386539877E+00 a      1607     0    54     1    17
 -7.0563781224052926E+00 a      1608     0    54     1    18
  5.7637059756475795E-01 a      1609     0    54     1    19
  6.6817234481136110E+00 a      1610     0    54     1    20
  2.3363661764039975E+01 a      1611     0    54     1    21
  5.0346812538359940E+00 a      1612     0    54     1    22
  1.3676468512734365E+01 a      1613     0    54     1    23
 -2.5589812239574252E+00 a      1614     0    54     1    24
 -2.6004193708030354E+00 a      1615     0    54     1    25
  2.7056880590491743E+00 a      1616     0    54     1    26
  3.9328516039273773E+00 a      1617     0    54     1    27
 -1.2744776672592332E+01 a      1618     0    54     1    28
 -6.1416997930418544E+00 a      1619     0    54     1    29
  9.0605335842067303E-01 a      1620     0    54     1    30
 -1.0950027516205564E-01 a      1621     0    55     1     1
  1.3589916352412149E-02 a      1622     0    55     1     2
  5.5336106236265337E-03 a      1623     0    55     1     3
