################################################################################
# Neural network connection values (weights and biases).
################################################################################
# Col  Name       Description
################################################################################
# 1    connection Neural network connection value.
# 2    t          Connection type (a = weight, b = bias).
# 3    index      Index enumerating weights.
# 4    l_s        Starting point layer (end point layer for biases).
# 5    n_s        Starting point neuron in starting layer (end point neuron for biases).
# 6    l_e        End point layer.
# 7    n_e        End point neuron in end layer.
################################################################################
#                      1 2         3     4     5     6     7
#             connection t     index   l_s   n_s   l_e   n_e
############################################################
  5.0787815242972925E+01 a         1     0     1     1     1
 -2.1187326724580345E+01 a         2     0     1     1     2
  8.3508691943498174E+00 a         3     0     1     1     3
  4.4897706566489148E+00 a         4     0     1     1     4
 -4.4569119443349940E+00 a         5     0     1     1     5
  2.1509588551152472E+00 a         6     0     1     1     6
 -5.2552791062588353E+00 a         7     0     1     1     7
  1.0605219979216885E+01 a         8     0     1     1     8
  2.4768818568755240E+01 a         9     0     1     1     9
  4.6631468129560723E+01 a        10     0     1     1    10
  1.2525829204767090E+01 a        11     0     1     1    11
  1.9900422133110219E+01 a        12     0     1     1    12
 -6.6402607576992905E+00 a        13     0     1     1    13
  3.1506380450369034E+00 a        14     0     1     1    14
  9.7974711571485962E+00 a        15     0     1     1    15
  9.0201663312318114E+00 a        16     0     1     1    16
  8.2960778081197368E+00 a        17     0     1     1    17
 -1.9177990071586638E+01 a        18     0     1     1    18
  7.6772830153474567E+00 a        19     0     1     1    19
 -2.3196423847954783E+01 a        20     0     1     1    20
  4.7697823403123030E+00 a        21     0     1     1    21
  2.7430002373444005E+01 a        22     0     1     1    22
 -1.2190399541540124E+01 a        23     0     1     1    23
 -2.4448520596151063E+01 a        24     0     1     1    24
 -3.3051242104635129E+01 a        25     0     1     1    25
  2.0310265456151470E+01 a        26     0     1     1    26
 -4.3646742077580090E+00 a        27     0     1     1    27
  7.7080440718580501E-01 a        28     0     1     1    28
  2.0503812488334550E+00 a        29     0     1     1    29
 -8.7142248024965543E+00 a        30     0     1     1    30
  4.5185013432631234E+00 a        31     0     2     1     1
  5.2921567256363735E+00 a        32     0     2     1     2
 -6.2627997374193875E-02 a        33     0     2     1     3
  1.5719528888440159E+01 a        34     0     2     1     4
 -9.4445558670357788E-01 a        35     0     2     1     5
  9.5792023516151090E+00 a        36     0     2     1     6
  8.5738849028729085E+00 a        37     0     2     1     7
 -4.2916746496058283E-01 a        38     0     2     1     8
  5.3823626131290698E+00 a        39     0     2     1     9
  1.1187179861510993E+01 a        40     0     2     1    10
  6.2535627392017563E+00 a        41     0     2     1    11
 -5.9667129764840530E+00 a        42     0     2     1    12
  4.2050552056478780E+00 a        43     0     2     1    13
  1.3906682213574737E+01 a        44     0     2     1    14
  5.9569070670007402E+00 a        45     0     2     1    15
  1.3998469761854198E+00 a        46     0     2     1    16
 -1.5284523739092137E-01 a        47     0     2     1    17
 -5.9854319554194335E+00 a        48     0     2     1    18
 -1.5719169309145491E+00 a        49     0     2     1    19
 -2.7972127077397868E+00 a        50     0     2     1    20
 -2.0611491477124204E+00 a        51     0     2     1    21
 -3.3698920026066252E+00 a        52     0     2     1    22
  4.4498207441198967E-01 a        53     0     2     1    23
  1.2165207755585113E+01 a        54     0     2     1    24
 -8.1277298226660459E+00 a        55     0     2     1    25
  3.3578508856455964E+00 a        56     0     2     1    26
 -9.3895297982407455E-01 a        57     0     2     1    27
 -7.3049360450032310E+00 a        58     0     2     1    28
 -6.1265539736643095E+00 a        59     0     2     1    29
  8.7795896919802852E-01 a        60     0     2     1    30
 -2.1252059004742879E+01 a        61     0     3     1     1
  2.6794032478253406E+01 a        62     0     3     1     2
 -8.7937239415932993E+00 a        63     0     3     1     3
  2.3780945233139963E+01 a        64     0     3     1     4
  1.5206714561313135E+00 a        65     0     3     1     5
  2.0302838114526001E+01 a        66     0     3     1     6
  2.0394461153607235E+01 a        67     0     3     1     7
 -7.5398508484541544E+00 a        68     0     3     1     8
 -6.4999118706909647E+00 a        69     0     3     1     9
 -4.6294863607703363E+00 a        70     0     3     1    10
  3.1068424478917374E+00 a        71     0     3     1    11
 -2.6399417254046718E+01 a        72     0     3     1    12
  1.1324614093018502E+01 a        73     0     3     1    13
  1.7680905552709781E+01 a        74     0     3     1    14
  6.2553847850868367E+00 a        75     0     3     1    15
 -5.6003775307974024E+00 a        76     0     3     1    16
 -3.5627360488166882E-01 a        77     0     3     1    17
 -1.1887850695031670E-01 a        78     0     3     1    18
 -2.3892977093137899E+00 a        79     0     3     1    19
  1.1649114601560584E+01 a        80     0     3     1    20
 -4.7228728436794931E+00 a        81     0     3     1    21
 -2.0935996735198394E+01 a        82     0     3     1    22
  5.6414935378656450E+00 a        83     0     3     1    23
  3.4304585779779529E+01 a        84     0     3     1    24
  9.3405646775855242E+00 a        85     0     3     1    25
 -3.4484326199009132E+00 a        86     0     3     1    26
 -4.7282872803819362E-02 a        87     0     3     1    27
 -1.1096454156444041E+01 a        88     0     3     1    28
 -1.1679314512673136E+01 a        89     0     3     1    29
  6.1032002100400460E+00 a        90     0     3     1    30
 -1.1052694519890240E+01 a        91     0     4     1     1
  2.4492647050422491E+01 a        92     0     4     1     2
 -1.3013223155177032E+01 a        93     0     4     1     3
 -2.6722845217142478E+01 a        94     0     4     1     4
  2.7648642731304793E+00 a        95     0     4     1     5
  6.0539100504127656E+00 a        96     0     4     1     6
  2.2984773435435553E+01 a        97     0     4     1     7
  2.4285580088716836E+00 a        98     0     4     1     8
 -5.3277906558017643E+00 a        99     0     4     1     9
  1.2754622104142545E+01 a       100     0     4     1    10
 -1.1801146702564541E+01 a       101     0     4     1    11
 -2.9565677690345940E+01 a       102     0     4     1    12
  1.3972622556614920E+00 a       103     0     4     1    13
 -2.1746723989639325E+01 a       104     0     4     1    14
  1.6948009462331239E+01 a       105     0     4     1    15
 -1.6230667934785231E+01 a       106     0     4     1    16
  1.3541192372895507E+00 a       107     0     4     1    17
 -5.7136567816319683E+00 a       108     0     4     1    18
  3.7213357960188873E+01 a       109     0     4     1    19
  2.4463727474835078E+01 a       110     0     4     1    20
  2.2130287426640617E+01 a       111     0     4     1    21
 -1.1570985625973783E+01 a       112     0     4     1    22
 -1.0097109274184966E+01 a       113     0     4     1    23
 -6.8386713056405020E+00 a       114     0     4     1    24
  2.8717080392424855E+01 a       115     0     4     1    25
  1.4060107027360042E+01 a       116     0     4     1    26
 -4.1667068348240335E+00 a       117     0     4     1    27
  1.1167635587462678E+01 a       118     0     4     1    28
  3.4232124824220032E+00 a       119     0     4     1    29
  1.9047624669818068E+00 a       120     0     4     1    30
 -2.1495875028874828E+01 a       121     0     5     1     1
  2.8181084185769745E+00 a       122     0     5     1     2
 -1.2650229397412043E+00 a       123     0     5     1     3
 -8.4883078925262438E+00 a       124     0     5     1     4
  6.2660708033087442E-01 a       125     0     5     1     5
 -7.8566682007111357E+00 a       126     0     5     1     6
 -2.4283110658449378E+00 a       127     0     5     1     7
 -6.4894486547377630E+00 a       128     0     5     1     8
 -9.7924963527885254E+00 a       129     0     5     1     9
 -2.2680783438707447E+01 a       130     0     5     1    10
 -6.9982984442478413E+00 a       131     0     5     1    11
 -5.1326131191858897E+00 a       132     0     5     1    12
  2.6222371286777495E+00 a       133     0     5     1    13
 -9.5143124860174879E+00 a       134     0     5     1    14
 -5.6996517931863613E+00 a       135     0     5     1    15
 -1.2934273476393223E+00 a       136     0     5     1    16
 -4.3864462787203315E+00 a       137     0     5     1    17
  9.3154898436998899E+00 a       138     0     5     1    18
 -1.8162126483420813E+00 a       139     0     5     1    19
  1.0626518148135293E+01 a       140     0     5     1    20
 -6.7875299279636014E-01 a       141     0     5     1    21
 -8.1348607123450201E+00 a       142     0     5     1    22
  5.2238745708713106E+00 a       143     0     5     1    23
  1.9648960943434395E+00 a       144     0     5     1    24
  1.4034619819431596E+01 a       145     0     5     1    25
 -8.7076887503775957E+00 a       146     0     5     1    26
  2.5125225569264207E+00 a       147     0     5     1    27
  3.8951280893693538E+00 a       148     0     5     1    28
  2.3744915508448372E+00 a       149     0     5     1    29
  3.0782574635049147E+00 a       150     0     5     1    30
 -6.7883549173033479E+00 a       151     0     6     1     1
 -1.2422367102002607E-01 a       152     0     6     1     2
 -1.3261076061750414E+00 a       153     0     6     1     3
  3.2659905610477842E+00 a       154     0     6     1     4
  6.7527820829860641E+00 a       155     0     6     1     5
  2.1640084093853749E+00 a       156     0     6     1     6
 -1.2935294607829459E+01 a       157     0     6     1     7
  8.2274402369731980E+00 a       158     0     6     1     8
 -7.8084373369058051E+00 a       159     0     6     1     9
  5.8006405895634638E-01 a       160     0     6     1    10
 -3.2169939562646621E+00 a       161     0     6     1    11
  8.1173373430384608E+00 a       162     0     6     1    12
  1.0354375667968323E+00 a       163     0     6     1    13
  4.0382781025551830E+00 a       164     0     6     1    14
 -4.9387575162084500E+00 a       165     0     6     1    15
 -7.7591503181453643E+00 a       166     0     6     1    16
 -6.3093463097795315E+00 a       167     0     6     1    17
 -1.4348010349247846E+00 a       168     0     6     1    18
 -2.0388128604775961E+01 a       169     0     6     1    19
 -9.4594162547266212E+00 a       170     0     6     1    20
 -3.6273774471200206E+00 a       171     0     6     1    21
 -7.0369752320410655E+00 a       172     0     6     1    22
 -1.1673311216888791E+01 a       173     0     6     1    23
  4.5210413392327302E+00 a       174     0     6     1    24
 -2.3357534458145737E+00 a       175     0     6     1    25
  5.9309561810633382E-01 a       176     0     6     1    26
  1.0409788081800148E+01 a       177     0     6     1    27
  8.6213328131615286E-01 a       178     0     6     1    28
 -5.5835477449707112E+00 a       179     0     6     1    29
  6.9642854328413808E+00 a       180     0     6     1    30
 -2.8068263857677883E-01 a       181     0     7     1     1
 -1.6733945190334204E+01 a       182     0     7     1     2
  7.6372568468298390E+00 a       183     0     7     1     3
 -7.1295184624095338E+00 a       184     0     7     1     4
  1.0136728189449633E+00 a       185     0     7     1     5
 -1.6793901999416967E+01 a       186     0     7     1     6
 -2.3571414180649079E+01 a       187     0     7     1     7
  1.6772248943459738E+00 a       188     0     7     1     8
 -5.5358944758489770E+00 a       189     0     7     1     9
 -2.6017339741255967E+01 a       190     0     7     1    10
 -4.3634399260458165E+00 a       191     0     7     1    11
  2.3880301505823994E+01 a       192     0     7     1    12
 -8.6532634778345638E+00 a       193     0     7     1    13
 -5.3704502386627073E+00 a       194     0     7     1    14
 -1.7926438927578708E+01 a       195     0     7     1    15
  4.4305993641272146E+00 a       196     0     7     1    16
 -2.5358818586156944E+00 a       197     0     7     1    17
  1.0699529621018527E+01 a       198     0     7     1    18
 -1.4727481503799609E+01 a       199     0     7     1    19
 -7.1578068169665192E+00 a       200     0     7     1    20
 -7.9744371458993504E+00 a       201     0     7     1    21
  8.2420396745593649E+00 a       202     0     7     1    22
  3.6526219084385492E+00 a       203     0     7     1    23
 -1.1690614961069096E+01 a       204     0     7     1    24
 -3.3545741934448503E+00 a       205     0     7     1    25
 -1.6550713715382493E+01 a       206     0     7     1    26
  3.4563431415541110E+00 a       207     0     7     1    27
  5.0356792841950249E+00 a       208     0     7     1    28
  7.4771049967413630E+00 a       209     0     7     1    29
 -3.2380479183336508E+00 a       210     0     7     1    30
  1.9743315505369483E-01 a       211     0     8     1     1
  2.5244174796909064E-01 a       212     0     8     1     2
 -5.5457609994504964E-01 a       213     0     8     1     3
 -3.4333301677146161E-01 a       214     0     8     1     4
 -2.2428685366017573E+00 a       215     0     8     1     5
 -2.0110737398763203E+00 a       216     0     8     1     6
  5.8012859941060779E-01 a       217     0     8     1     7
 -1.4928820940318757E+00 a       218     0     8     1     8
  8.2571533900361718E-02 a       219     0     8     1     9
  1.2169977107714651E+00 a       220     0     8     1    10
  8.5964726682976034E-01 a       221     0     8     1    11
 -2.4128540931688582E+00 a       222     0     8     1    12
 -9.1599282016125860E-01 a       223     0     8     1    13
  9.2596063704117282E-01 a       224     0     8     1    14
  8.3169852184158022E-01 a       225     0     8     1    15
  2.8302824733313146E+00 a       226     0     8     1    16
  2.7600364493881560E+00 a       227     0     8     1    17
 -1.4522051643563292E+00 a       228     0     8     1    18
  1.0708351973380206E+00 a       229     0     8     1    19
  2.4641891210075388E+00 a       230     0     8     1    20
  2.9768846168953844E-01 a       231     0     8     1    21
  1.2774042183113998E+00 a       232     0     8     1    22
  1.5371808808705199E+00 a       233     0     8     1    23
  2.7596054678955884E-01 a       234     0     8     1    24
 -7.4277700725610285E-01 a       235     0     8     1    25
 -4.7859431864348201E-01 a       236     0     8     1    26
 -8.1737812912353325E-01 a       237     0     8     1    27
 -8.9231477043523577E-01 a       238     0     8     1    28
  1.0625915186397155E+00 a       239     0     8     1    29
 -1.6015982207471544E+00 a       240     0     8     1    30
  6.6916357489744192E+00 a       241     0     9     1     1
 -2.1561892842166461E+01 a       242     0     9     1     2
  9.6443591388724901E+00 a       243     0     9     1     3
 -1.1160679444773161E+00 a       244     0     9     1     4
 -4.9873039577614184E+00 a       245     0     9     1     5
 -1.3670284730706806E+01 a       246     0     9     1     6
 -8.6838249244507022E+00 a       247     0     9     1     7
 -7.8530611252066205E+00 a       248     0     9     1     8
  3.7863969293005111E+00 a       249     0     9     1     9
 -1.9244772529257638E+01 a       250     0     9     1    10
  3.3011485533694058E+00 a       251     0     9     1    11
  1.6624699707458376E+01 a       252     0     9     1    12
 -3.4844591919929120E+00 a       253     0     9     1    13
 -2.9166961211159586E+00 a       254     0     9     1    14
 -1.0713581886326640E+01 a       255     0     9     1    15
  1.5252368961497682E+01 a       256     0     9     1    16
  6.0121382497197828E-01 a       257     0     9     1    17
  1.2941056759931886E+01 a       258     0     9     1    18
 -2.2791452387285109E+00 a       259     0     9     1    19
 -4.5729719523632797E+00 a       260     0     9     1    20
 -7.5441494575853545E+00 a       261     0     9     1    21
  1.3354592706076614E+01 a       262     0     9     1    22
  1.6802953133158056E+01 a       263     0     9     1    23
 -9.5113006833518767E+00 a       264     0     9     1    24
 -7.6018692141346715E+00 a       265     0     9     1    25
 -1.2800974971430611E+01 a       266     0     9     1    26
 -5.0080232088733192E+00 a       267     0     9     1    27
 -3.0448823757297838E-01 a       268     0     9     1    28
  9.3915182927297334E+00 a       269     0     9     1    29
 -5.8572565496132869E+00 a       270     0     9     1    30
  4.3647353587382604E-01 a       271     0    10     1     1
 -1.1987463261373241E+00 a       272     0    10     1     2
  1.3683639751970174E+00 a       273     0    10     1     3
  2.9362893205076895E-01 a       274     0    10     1     4
  8.2128251873985891E-01 a       275     0    10     1     5
  6.8618406685305811E-01 a       276     0    10     1     6
 -3.1909619692783769E-01 a       277     0    10     1     7
 -1.0224287867959779E-01 a       278     0    10     1     8
  7.0468869758682018E-01 a       279     0    10     1     9
 -1.8996471561911485E+00 a       280     0    10     1    10
 -7.8356844728094385E-02 a       281     0    10     1    11
  1.8634444481993706E+00 a       282     0    10     1    12
 -1.4549876648241549E-02 a       283     0    10     1    13
 -6.7714360386011097E-01 a       284     0    10     1    14
 -8.0450258079793924E-01 a       285     0    10     1    15
 -1.3467549322229458E-01 a       286     0    10     1    16
 -1.3345209051280797E+00 a       287     0    10     1    17
  9.3858662998307618E-01 a       288     0    10     1    18
  6.0019219459801001E-02 a       289     0    10     1    19
 -1.3828600945027973E+00 a       290     0    10     1    20
 -3.3415050350262732E-01 a       291     0    10     1    21
  5.7082976286250897E-01 a       292     0    10     1    22
  8.1683927533706790E-01 a       293     0    10     1    23
 -9.4879050368020912E-01 a       294     0    10     1    24
 -1.0429097297358372E-01 a       295     0    10     1    25
 -6.9744680132531156E-01 a       296     0    10     1    26
 -1.1780239802258301E-01 a       297     0    10     1    27
  4.2890104836085380E-01 a       298     0    10     1    28
  2.0645093613402626E-01 a       299     0    10     1    29
 -4.8297792761974190E-01 a       300     0    10     1    30
 -4.0490540903200882E+00 a       301     0    11     1     1
 -1.6503614940920201E+01 a       302     0    11     1     2
  5.1901009619835694E+00 a       303     0    11     1     3
 -2.0331674252830545E+01 a       304     0    11     1     4
  2.0088282653198128E+01 a       305     0    11     1     5
  1.8032691133213653E+01 a       306     0    11     1     6
  6.1908217637907192E+00 a       307     0    11     1     7
 -8.2860794802290592E+00 a       308     0    11     1     8
 -2.8649237638826404E+00 a       309     0    11     1     9
 -3.1400122139990168E+00 a       310     0    11     1    10
  1.1401500112988378E+01 a       311     0    11     1    11
  3.8233552741953836E+00 a       312     0    11     1    12
  2.0650906519805012E+01 a       313     0    11     1    13
 -3.2840494852463038E+01 a       314     0    11     1    14
  7.9544561081270060E-01 a       315     0    11     1    15
  7.5698663382915852E+00 a       316     0    11     1    16
  4.0874541830961242E+00 a       317     0    11     1    17
 -7.2733944627011642E+00 a       318     0    11     1    18
  1.9721448142566317E+01 a       319     0    11     1    19
  1.4106849075647003E+00 a       320     0    11     1    20
 -7.9421540901019796E+00 a       321     0    11     1    21
 -3.4033337311669598E+01 a       322     0    11     1    22
  4.0635499680863258E+00 a       323     0    11     1    23
 -3.8413548504580945E+00 a       324     0    11     1    24
 -2.4169011131267597E+00 a       325     0    11     1    25
  1.7385525103426044E+01 a       326     0    11     1    26
  4.8122873652100022E+00 a       327     0    11     1    27
  1.4430377411757849E+01 a       328     0    11     1    28
 -1.5297963413815673E+01 a       329     0    11     1    29
  3.9338158440995077E+00 a       330     0    11     1    30
  1.2733596264096905E+01 a       331     0    12     1     1
  1.5328049080495580E+01 a       332     0    12     1     2
  1.9169233029743186E+01 a       333     0    12     1     3
  3.8992255154291527E-01 a       334     0    12     1     4
 -3.9691504256098979E+00 a       335     0    12     1     5
 -6.4705700753559697E+01 a       336     0    12     1     6
  6.0458004544260917E-02 a       337     0    12     1     7
 -1.2744137132452883E+01 a       338     0    12     1     8
  3.1672433511432514E+00 a       339     0    12     1     9
  4.2624481503499183E+00 a       340     0    12     1    10
 -1.4060179166743774E+01 a       341     0    12     1    11
  7.4560814511880373E+00 a       342     0    12     1    12
 -2.9757582920894311E+01 a       343     0    12     1    13
 -3.3257497411556480E-01 a       344     0    12     1    14
  2.1279761166264198E+01 a       345     0    12     1    15
 -1.6043598231153194E+01 a       346     0    12     1    16
  2.9769210206571927E+01 a       347     0    12     1    17
 -1.6534580679053565E+01 a       348     0    12     1    18
  3.3120758903292211E+00 a       349     0    12     1    19
  1.2876627990233258E+01 a       350     0    12     1    20
  1.9115909951561108E+01 a       351     0    12     1    21
  4.0397490153918049E+01 a       352     0    12     1    22
 -1.5940112939885690E+01 a       353     0    12     1    23
  3.6010535702449111E+00 a       354     0    12     1    24
  7.3258034154932417E-01 a       355     0    12     1    25
 -2.5852809014611548E+01 a       356     0    12     1    26
  6.6710028796336909E+00 a       357     0    12     1    27
 -2.4896807882049835E+01 a       358     0    12     1    28
  1.4317651103567876E+01 a       359     0    12     1    29
  1.6004086665706161E+01 a       360     0    12     1    30
 -2.1934540614021372E+00 a       361     0    13     1     1
  3.1553425729981427E-01 a       362     0    13     1     2
 -1.5661631926381567E+01 a       363     0    13     1     3
  1.3978373660749901E+01 a       364     0    13     1     4
 -1.8867029972834601E+01 a       365     0    13     1     5
  2.3922792294970918E+01 a       366     0    13     1     6
 -1.3068982886778823E+01 a       367     0    13     1     7
  1.4951738225658412E+01 a       368     0    13     1     8
  1.1784757526503213E+01 a       369     0    13     1     9
 -7.7786699201516294E+00 a       370     0    13     1    10
 -4.4024566229994662E+00 a       371     0    13     1    11
 -1.1046133665020589E+01 a       372     0    13     1    12
 -1.3140678666137800E+01 a       373     0    13     1    13
  5.9907934053573753E+00 a       374     0    13     1    14
  6.1149981918610301E+00 a       375     0    13     1    15
 -1.4815199165148130E+01 a       376     0    13     1    16
 -7.7610206203800631E+00 a       377     0    13     1    17
  2.0746506116998673E+00 a       378     0    13     1    18
 -1.8647972406956310E+01 a       379     0    13     1    19
 -8.9644996942470492E+00 a       380     0    13     1    20
  3.8256913301611966E+00 a       381     0    13     1    21
  2.0761032819582404E+01 a       382     0    13     1    22
  6.0310683300486954E+00 a       383     0    13     1    23
 -1.5411706652823401E+01 a       384     0    13     1    24
 -5.3741096455474509E+00 a       385     0    13     1    25
  1.0583225202641806E+01 a       386     0    13     1    26
 -5.6014065776517405E+00 a       387     0    13     1    27
 -2.8363787082521863E+01 a       388     0    13     1    28
 -1.4349470046229429E+00 a       389     0    13     1    29
 -3.3327128946597386E+00 a       390     0    13     1    30
  1.2686486711503782E+01 a       391     0    14     1     1
 -1.0873721430737181E-01 a       392     0    14     1     2
 -1.1331130675148721E+01 a       393     0    14     1     3
 -1.8801591733550016E+01 a       394     0    14     1     4
 -1.3304608143342838E+01 a       395     0    14     1     5
  1.7165234068785420E+01 a       396     0    14     1     6
 -2.0583871984564794E+00 a       397     0    14     1     7
  2.6489217561377270E+01 a       398     0    14     1     8
 -1.1356152694726550E+01 a       399     0    14     1     9
  7.7183351367618798E+00 a       400     0    14     1    10
 -4.1901374786927699E+00 a       401     0    14     1    11
 -7.6314037365403076E-01 a       402     0    14     1    12
  1.2144323626431939E+01 a       403     0    14     1    13
  7.1329938081867867E+00 a       404     0    14     1    14
 -1.3076678258741453E+01 a       405     0    14     1    15
  6.8229525532021134E+00 a       406     0    14     1    16
 -1.3939097804142243E+01 a       407     0    14     1    17
  8.7825446233603053E+00 a       408     0    14     1    18
  2.3146522163726232E+01 a       409     0    14     1    19
 -1.4042255194493876E+01 a       410     0    14     1    20
  2.7806181117245932E-01 a       411     0    14     1    21
 -1.5534367360977983E+01 a       412     0    14     1    22
  5.7936831446576535E+00 a       413     0    14     1    23
  5.2339310466348508E+00 a       414     0    14     1    24
  4.4079091807416748E-01 a       415     0    14     1    25
  1.9443121802703789E+01 a       416     0    14     1    26
 -1.0456919328243353E+01 a       417     0    14     1    27
  2.1191210104918369E+01 a       418     0    14     1    28
  1.6549983221369530E+01 a       419     0    14     1    29
 -7.0211073137791873E+00 a       420     0    14     1    30
  6.0763254938657960E+00 a       421     0    15     1     1
 -2.0597765097257192E+00 a       422     0    15     1     2
 -2.7086904577607389E+00 a       423     0    15     1     3
 -1.0103315245272936E+01 a       424     0    15     1     4
  2.8425071184647335E+00 a       425     0    15     1     5
 -9.7097746060237056E-01 a       426     0    15     1     6
 -2.3384464886282768E+00 a       427     0    15     1     7
  4.8608970181468321E+00 a       428     0    15     1     8
 -1.1299616777446417E+01 a       429     0    15     1     9
 -4.6052474716114231E+00 a       430     0    15     1    10
 -2.1117593805250383E+00 a       431     0    15     1    11
  2.7078404099087852E+00 a       432     0    15     1    12
 -2.3706192406659798E-01 a       433     0    15     1    13
 -5.1030231478829391E+00 a       434     0    15     1    14
 -2.4419647427456792E+00 a       435     0    15     1    15
 -3.9667385754319495E+00 a       436     0    15     1    16
 -4.7551910249345077E+00 a       437     0    15     1    17
  1.9877617145771726E+01 a       438     0    15     1    18
  5.0951817368099706E+00 a       439     0    15     1    19
 -7.9845068250333481E-02 a       440     0    15     1    20
 -1.8973311879305443E+00 a       441     0    15     1    21
  5.1683950359588069E+00 a       442     0    15     1    22
  6.3217095924322830E-01 a       443     0    15     1    23
 -4.4692923699898106E+00 a       444     0    15     1    24
  4.2597695600377650E+00 a       445     0    15     1    25
 -4.2006567237451620E+00 a       446     0    15     1    26
 -2.1348134948126227E+00 a       447     0    15     1    27
  2.6253916700952087E+00 a       448     0    15     1    28
  3.3255578865643232E+00 a       449     0    15     1    29
 -1.8069274646549802E+00 a       450     0    15     1    30
 -1.5845901268902702E+01 a       451     0    16     1     1
  1.2557543336157346E+01 a       452     0    16     1     2
 -5.5357512505777136E+00 a       453     0    16     1     3
  6.1604428685435071E+00 a       454     0    16     1     4
  3.5421381862434482E+00 a       455     0    16     1     5
  5.4963655573127594E+00 a       456     0    16     1     6
  3.8983487376500352E+00 a       457     0    16     1     7
  1.5105981834965515E+01 a       458     0    16     1     8
 -3.5455329408247076E+00 a       459     0    16     1     9
 -9.9079447060242849E+00 a       460     0    16     1    10
 -5.1451071867447640E+00 a       461     0    16     1    11
 -1.3945190317734546E+00 a       462     0    16     1    12
  4.4492267052874110E+00 a       463     0    16     1    13
  6.4415018169485814E+00 a       464     0    16     1    14
 -1.0496983620273454E+01 a       465     0    16     1    15
  5.2459662012347694E+00 a       466     0    16     1    16
  6.4749146157951332E+00 a       467     0    16     1    17
  2.5445758901104281E+00 a       468     0    16     1    18
 -2.8798831824682644E+01 a       469     0    16     1    19
 -2.7304363243002152E+00 a       470     0    16     1    20
 -1.4968835334047217E+01 a       471     0    16     1    21
 -5.0241168821410565E+00 a       472     0    16     1    22
 -4.5825387516567204E+00 a       473     0    16     1    23
  7.1601466432661320E+00 a       474     0    16     1    24
  1.2827407590979067E+01 a       475     0    16     1    25
 -1.6985531304407150E+01 a       476     0    16     1    26
 -8.9514356460722340E+00 a       477     0    16     1    27
  4.6400606780513121E+00 a       478     0    16     1    28
 -8.6307852719516553E+00 a       479     0    16     1    29
 -1.1661839205239874E-02 a       480     0    16     1    30
  1.4192775875171941E+01 a       481     0    17     1     1
  1.4026202144979413E+01 a       482     0    17     1     2
 -5.1181978941427557E+00 a       483     0    17     1     3
  1.8999405268406480E+01 a       484     0    17     1     4
 -1.1748824626337466E+01 a       485     0    17     1     5
  1.0192337533752138E+01 a       486     0    17     1     6
  8.1903538437913537E-02 a       487     0    17     1     7
  6.1844117095719371E+00 a       488     0    17     1     8
  8.4052789413806350E-01 a       489     0    17     1     9
  5.9219709565194405E+00 a       490     0    17     1    10
 -1.2008628154985111E+01 a       491     0    17     1    11
 -1.3425425642779912E+01 a       492     0    17     1    12
 -1.6931033297960632E+01 a       493     0    17     1    13
  4.0414708404442209E+01 a       494     0    17     1    14
 -1.0095880626360877E+01 a       495     0    17     1    15
 -4.0886852870513435E-01 a       496     0    17     1    16
 -3.5008316286487016E+01 a       497     0    17     1    17
  9.3981772450820031E+00 a       498     0    17     1    18
 -2.1258410482882475E+01 a       499     0    17     1    19
 -6.6148892908148360E+00 a       500     0    17     1    20
 -5.0338489475726744E+00 a       501     0    17     1    21
  1.9825997224873262E+01 a       502     0    17     1    22
  7.7410028583666204E+00 a       503     0    17     1    23
 -1.9964599765947746E-01 a       504     0    17     1    24
  5.3835572518908794E+00 a       505     0    17     1    25
 -1.8710663164219650E+00 a       506     0    17     1    26
  4.4477029411223317E+00 a       507     0    17     1    27
 -1.2994278653149097E+01 a       508     0    17     1    28
 -1.2011576826816132E+01 a       509     0    17     1    29
 -2.2390194027648771E+01 a       510     0    17     1    30
 -1.6453340539147082E+01 a       511     0    18     1     1
 -3.7341285674844731E-02 a       512     0    18     1     2
 -3.8174462809541834E+00 a       513     0    18     1     3
  1.6950820587591565E+01 a       514     0    18     1     4
  5.6477603235101697E+00 a       515     0    18     1     5
  2.1120444979018608E+01 a       516     0    18     1     6
 -1.4080450871392383E+01 a       517     0    18     1     7
 -2.3174114142096816E+00 a       518     0    18     1     8
  1.0582038292070001E+01 a       519     0    18     1     9
 -4.2445557267872935E+00 a       520     0    18     1    10
  4.7408943850697174E+00 a       521     0    18     1    11
 -8.1217540870925398E-01 a       522     0    18     1    12
  7.6958899193870440E+00 a       523     0    18     1    13
  1.6295125331241806E+01 a       524     0    18     1    14
 -1.7955620123987412E+01 a       525     0    18     1    15
  4.4785172565878222E+00 a       526     0    18     1    16
  2.8243254888230096E+00 a       527     0    18     1    17
  6.0577828324880674E+00 a       528     0    18     1    18
 -2.3910956041774735E+01 a       529     0    18     1    19
 -3.4383061651637803E+00 a       530     0    18     1    20
 -1.1601636831539434E+01 a       531     0    18     1    21
 -4.5899734828918932E+00 a       532     0    18     1    22
  2.1913847962669624E+00 a       533     0    18     1    23
  4.8648602802301433E+00 a       534     0    18     1    24
 -1.2475763409574985E+00 a       535     0    18     1    25
 -2.0061991488961947E+01 a       536     0    18     1    26
 -8.4112600298948426E+00 a       537     0    18     1    27
  3.3356395863170714E+00 a       538     0    18     1    28
 -6.1181653232104480E+00 a       539     0    18     1    29
  4.1541728335862222E+00 a       540     0    18     1    30
 -7.6970560500552585E+00 a       541     0    19     1     1
 -9.7931949102221250E-01 a       542     0    19     1     2
  2.4427993407240816E+01 a       543     0    19     1     3
 -1.9525711066679161E+01 a       544     0    19     1     4
  1.6580081589352570E+01 a       545     0    19     1     5
 -3.6279285192622346E+01 a       546     0    19     1     6
  1.6002873189796475E+01 a       547     0    19     1     7
 -2.8441779599026528E+01 a       548     0    19     1     8
 -6.7506620361392242E+00 a       549     0    19     1     9
  5.4596698108493422E+00 a       550     0    19     1    10
  2.4248972022001807E+00 a       551     0    19     1    11
  1.3994943797812136E+01 a       552     0    19     1    12
  1.9990190941376440E+01 a       553     0    19     1    13
  1.4697504134697057E+00 a       554     0    19     1    14
 -9.1704157201994150E+00 a       555     0    19     1    15
  1.8175912147091715E+01 a       556     0    19     1    16
  1.4485764393158844E+01 a       557     0    19     1    17
 -6.7304915189802523E+00 a       558     0    19     1    18
  1.2693663952269194E+01 a       559     0    19     1    19
  1.0688740609494532E+01 a       560     0    19     1    20
  1.0162811836727044E-01 a       561     0    19     1    21
 -2.5336576590968534E+01 a       562     0    19     1    22
 -1.5341092554417440E+01 a       563     0    19     1    23
  2.5759626068515303E+01 a       564     0    19     1    24
  8.4495613392122841E+00 a       565     0    19     1    25
 -1.6899224515992110E+01 a       566     0    19     1    26
  1.4751453961657603E+00 a       567     0    19     1    27
  4.2572991720047931E+01 a       568     0    19     1    28
  4.7316126523435535E+00 a       569     0    19     1    29
 -1.1611332950055488E+00 a       570     0    19     1    30
 -8.2615275467231069E+00 a       571     0    20     1     1
  3.4655825369900577E+00 a       572     0    20     1     2
 -6.4493244986834259E+00 a       573     0    20     1     3
  2.0972683775438210E+01 a       574     0    20     1     4
  1.0417028304599247E+00 a       575     0    20     1     5
  3.1085317218571543E+01 a       576     0    20     1     6
  4.6577753658653691E+00 a       577     0    20     1     7
 -1.0860130952684125E+01 a       578     0    20     1     8
  7.7403780990784048E+00 a       579     0    20     1     9
  1.3012388598975249E+00 a       580     0    20     1    10
  2.3316404012897138E+01 a       581     0    20     1    11
 -4.1453524366163332E+00 a       582     0    20     1    12
 -3.9505999271833545E+00 a       583     0    20     1    13
 -1.4435516579485479E+00 a       584     0    20     1    14
  9.3576473006871197E+00 a       585     0    20     1    15
  3.9917665585725746E+00 a       586     0    20     1    16
  6.6927930105150557E-01 a       587     0    20     1    17
  1.2480996764800137E+01 a       588     0    20     1    18
 -2.3230706332458801E+01 a       589     0    20     1    19
 -1.9490072453753861E+01 a       590     0    20     1    20
 -1.5005948827459422E+01 a       591     0    20     1    21
 -3.0284734998787655E+00 a       592     0    20     1    22
  6.7135467339648658E+00 a       593     0    20     1    23
 -1.6590062292738654E+01 a       594     0    20     1    24
 -1.8094411087686126E+00 a       595     0    20     1    25
 -5.7104807070613619E+00 a       596     0    20     1    26
  1.2394134615795464E+01 a       597     0    20     1    27
 -8.9328463907771170E+00 a       598     0    20     1    28
 -1.6512647075829101E+01 a       599     0    20     1    29
 -1.3709888792013462E+01 a       600     0    20     1    30
 -1.1531414803643102E+01 a       601     0    21     1     1
  3.6328878692284894E+00 a       602     0    21     1     2
  5.7811893052009351E+00 a       603     0    21     1     3
  1.7760705933711023E+01 a       604     0    21     1     4
 -5.2124548266638353E+00 a       605     0    21     1     5
  1.8164659420602063E+00 a       606     0    21     1     6
  3.9314954372391311E+00 a       607     0    21     1     7
 -7.8368745906022079E+00 a       608     0    21     1     8
  1.9113483809425134E+01 a       609     0    21     1     9
  6.8481681749514856E+00 a       610     0    21     1    10
  3.1803302001189606E+00 a       611     0    21     1    11
 -4.6520763539913279E+00 a       612     0    21     1    12
  3.5140331665911445E-01 a       613     0    21     1    13
  8.4286904389665320E+00 a       614     0    21     1    14
  3.4414625955065135E+00 a       615     0    21     1    15
  5.8196761675495470E+00 a       616     0    21     1    16
  9.1972090571077985E+00 a       617     0    21     1    17
 -3.4540625351509149E+01 a       618     0    21     1    18
 -7.7977486881353144E+00 a       619     0    21     1    19
 -5.3568432623379791E-01 a       620     0    21     1    20
  3.2354285870510822E+00 a       621     0    21     1    21
 -9.9350285521312252E+00 a       622     0    21     1    22
 -1.4347075375513980E+00 a       623     0    21     1    23
  7.4342257497133515E+00 a       624     0    21     1    24
 -6.8784072976521591E+00 a       625     0    21     1    25
  7.7075323686916191E+00 a       626     0    21     1    26
  4.0673565473462840E+00 a       627     0    21     1    27
 -4.1878037961893622E+00 a       628     0    21     1    28
 -6.3571192620546784E+00 a       629     0    21     1    29
  1.8071996555470127E+00 a       630     0    21     1    30
  1.7586000099589068E+01 a       631     0    22     1     1
 -2.0450052777160892E+01 a       632     0    22     1     2
  1.1810339899106273E+01 a       633     0    22     1     3
 -8.0839982718882322E+00 a       634     0    22     1     4
  4.1261459223825749E+00 a       635     0    22     1     5
 -1.1290377014279125E+01 a       636     0    22     1     6
 -7.6369195456020424E+00 a       637     0    22     1     7
 -2.9086594436196716E+01 a       638     0    22     1     8
  4.8428156530187580E+00 a       639     0    22     1     9
  8.9785810658270577E+00 a       640     0    22     1    10
  5.7351746943745052E+00 a       641     0    22     1    11
  5.3042670908440002E+00 a       642     0    22     1    12
 -7.6285936204622615E+00 a       643     0    22     1    13
 -1.6848918522282723E+01 a       644     0    22     1    14
  1.5974587118886099E+01 a       645     0    22     1    15
 -8.1448939432706933E+00 a       646     0    22     1    16
 -9.4552045215320746E+00 a       647     0    22     1    17
 -6.8427129419412722E+00 a       648     0    22     1    18
  3.6566278150101617E+01 a       649     0    22     1    19
  1.0070655894481213E+01 a       650     0    22     1    20
  2.4483369093900439E+01 a       651     0    22     1    21
  7.3369333340406753E+00 a       652     0    22     1    22
  6.5450185456354726E+00 a       653     0    22     1    23
 -1.2892170151391392E+01 a       654     0    22     1    24
 -1.9349827009734849E+01 a       655     0    22     1    25
  3.0231663675115168E+01 a       656     0    22     1    26
  1.7917826711496797E+01 a       657     0    22     1    27
 -9.0260830206434441E+00 a       658     0    22     1    28
  6.7579436309730720E+00 a       659     0    22     1    29
  3.0365678321154719E+00 a       660     0    22     1    30
 -5.2359070395587830E+00 a       661     0    23     1     1
  1.1377111887044327E+01 a       662     0    23     1     2
 -4.5352596345397700E+00 a       663     0    23     1     3
  1.5328852396345196E+00 a       664     0    23     1     4
 -2.5924230216662540E+01 a       665     0    23     1     5
 -1.7499806441349676E+01 a       666     0    23     1     6
  3.5575525137706459E+00 a       667     0    23     1     7
 -2.0559240299792067E-01 a       668     0    23     1     8
  2.7320827456439214E+00 a       669     0    23     1     9
  6.0574639207258478E+00 a       670     0    23     1    10
  7.2780604229770312E+00 a       671     0    23     1    11
 -4.0967629810917294E-01 a       672     0    23     1    12
 -3.1774909328611067E+00 a       673     0    23     1    13
 -6.0117800574525564E+00 a       674     0    23     1    14
  1.8325657737224624E+01 a       675     0    23     1    15
 -1.2781602052660170E+00 a       676     0    23     1    16
  1.5464169519528189E+01 a       677     0    23     1    17
  1.4531006433251517E+00 a       678     0    23     1    18
 -4.5421778938151265E+00 a       679     0    23     1    19
 -4.7945772623306793E+00 a       680     0    23     1    20
  1.8061405078520437E+01 a       681     0    23     1    21
  1.3269056611922039E+01 a       682     0    23     1    22
 -7.6293509581433649E-01 a       683     0    23     1    23
  3.0427751097548033E+00 a       684     0    23     1    24
 -1.5009787925498645E+00 a       685     0    23     1    25
 -2.6468922108840940E+00 a       686     0    23     1    26
  8.5712574470429170E-01 a       687     0    23     1    27
 -8.0895990139382619E+00 a       688     0    23     1    28
  3.0817014053005483E+01 a       689     0    23     1    29
  1.3014865234154875E+00 a       690     0    23     1    30
 -2.1881006586089711E+01 a       691     0    24     1     1
 -3.5423231608365647E+01 a       692     0    24     1     2
 -1.1321423008027020E+01 a       693     0    24     1     3
 -3.0766435488275345E+01 a       694     0    24     1     4
  1.4981566116335468E+01 a       695     0    24     1     5
  1.9512781470657579E+01 a       696     0    24     1     6
 -1.0613989428692337E+01 a       697     0    24     1     7
  1.2124042376313183E+01 a       698     0    24     1     8
 -1.2530224911999060E+01 a       699     0    24     1     9
 -1.4951274456513691E+01 a       700     0    24     1    10
 -2.9374026672653462E+00 a       701     0    24     1    11
  5.9814373219708195E+00 a       702     0    24     1    12
  3.9266796772732889E+01 a       703     0    24     1    13
 -1.8273100929370976E+01 a       704     0    24     1    14
 -2.4083994703157234E+01 a       705     0    24     1    15
  1.1378432429017213E+01 a       706     0    24     1    16
  9.0237880109475377E+00 a       707     0    24     1    17
  7.5652355725328562E+00 a       708     0    24     1    18
  2.6398613187865489E+01 a       709     0    24     1    19
  1.7115554005838899E+01 a       710     0    24     1    20
 -4.1614637549484268E-01 a       711     0    24     1    21
 -3.7839201137498414E+01 a       712     0    24     1    22
 -6.6734642197716465E-01 a       713     0    24     1    23
  1.5740025773249481E+01 a       714     0    24     1    24
  4.0742569364304720E-01 a       715     0    24     1    25
  1.4770918957518541E+01 a       716     0    24     1    26
 -2.5274702312447285E+01 a       717     0    24     1    27
  3.9574592591701922E+01 a       718     0    24     1    28
  2.1181464148788307E+00 a       719     0    24     1    29
  1.4915550809815755E+01 a       720     0    24     1    30
  1.2742307697979470E+01 a       721     0    25     1     1
  2.0412361780802502E+00 a       722     0    25     1     2
 -1.1581559445580277E+01 a       723     0    25     1     3
  8.1164917464217776E+00 a       724     0    25     1     4
  2.5681387388510744E+00 a       725     0    25     1     5
  1.0147078327978869E+01 a       726     0    25     1     6
 -5.2102518695091753E+00 a       727     0    25     1     7
  1.9654515871105168E+01 a       728     0    25     1     8
 -6.0502980853055117E+00 a       729     0    25     1     9
  3.5911476662017572E+00 a       730     0    25     1    10
  2.2381755496061828E+00 a       731     0    25     1    11
 -1.0919880996022204E+00 a       732     0    25     1    12
 -9.5092466878822055E+00 a       733     0    25     1    13
 -9.7950469918694623E+00 a       734     0    25     1    14
  4.5725754774212328E+00 a       735     0    25     1    15
 -7.5082162387574174E+00 a       736     0    25     1    16
 -4.7128477426103341E+00 a       737     0    25     1    17
  8.1922593290039334E+00 a       738     0    25     1    18
  1.0016260046112260E+01 a       739     0    25     1    19
  9.5883122053175740E-01 a       740     0    25     1    20
 -5.5774101362065744E+00 a       741     0    25     1    21
  7.2558521958117588E+00 a       742     0    25     1    22
  1.0518473356201572E+01 a       743     0    25     1    23
 -1.3319126869411370E+01 a       744     0    25     1    24
 -3.9608414280851871E+00 a       745     0    25     1    25
  8.7434963094320448E+00 a       746     0    25     1    26
  4.4390672306712577E+00 a       747     0    25     1    27
 -1.8306524274363671E+01 a       748     0    25     1    28
 -3.1063232212241596E+00 a       749     0    25     1    29
  9.4713680884157689E+00 a       750     0    25     1    30
  8.4967445286415373E+00 a       751     0    26     1     1
 -3.1168467883082127E+00 a       752     0    26     1     2
  1.5377469912538199E+01 a       753     0    26     1     3
  3.8518648298952135E-01 a       754     0    26     1     4
  1.5444897319573505E+01 a       755     0    26     1     5
 -4.1682549597265975E+01 a       756     0    26     1     6
  2.0503978343701835E+01 a       757     0    26     1     7
 -1.2283542268201115E+01 a       758     0    26     1     8
 -2.8684264631633827E+00 a       759     0    26     1     9
 -5.3424580901138592E+00 a       760     0    26     1    10
 -1.3624292300493446E+01 a       761     0    26     1    11
  1.9572437558491820E+00 a       762     0    26     1    12
 -1.8063113917514233E+01 a       763     0    26     1    13
 -1.7877840935757430E+01 a       764     0    26     1    14
  1.8679783805032255E+01 a       765     0    26     1    15
 -1.2916659849282146E+01 a       766     0    26     1    16
 -9.8155153703953495E+00 a       767     0    26     1    17
 -1.7598252629880697E+01 a       768     0    26     1    18
  1.5746173378254722E+00 a       769     0    26     1    19
  2.6863548857700493E+01 a       770     0    26     1    20
  1.1804925256271853E+01 a       771     0    26     1    21
  2.1043705451023733E+01 a       772     0    26     1    22
 -2.5155971189574422E+00 a       773     0    26     1    23
 -1.0688432178372041E+01 a       774     0    26     1    24
  4.5248726674397330E+00 a       775     0    26     1    25
  2.0092929752737152E+01 a       776     0    26     1    26
  1.1577817765989591E+01 a       777     0    26     1    27
 -2.2750673906762639E+01 a       778     0    26     1    28
 -1.2296318146691446E+01 a       779     0    26     1    29
  9.7087967655231555E+00 a       780     0    26     1    30
  7.7689398581869380E+00 a       781     0    27     1     1
 -2.1174642163996427E+00 a       782     0    27     1     2
 -4.4137481243165126E+00 a       783     0    27     1     3
 -1.1025879463807131E+01 a       784     0    27     1     4
  2.6457949725975185E+00 a       785     0    27     1     5
 -1.3768410436519249E+00 a       786     0    27     1     6
 -2.4289752418275055E+00 a       787     0    27     1     7
  3.8389452210758068E+00 a       788     0    27     1     8
 -1.0599443050354335E+01 a       789     0    27     1     9
 -1.9175880884948262E+00 a       790     0    27     1    10
 -1.3704421979332915E+00 a       791     0    27     1    11
  2.4924790493638334E+00 a       792     0    27     1    12
 -8.3705708741402235E-02 a       793     0    27     1    13
 -5.0233211971391061E+00 a       794     0    27     1    14
 -1.2634235618762235E+00 a       795     0    27     1    15
 -2.8946680033969021E+00 a       796     0    27     1    16
 -6.7416310623417477E+00 a       797     0    27     1    17
  1.9959660139921990E+01 a       798     0    27     1    18
  3.4907558724283030E+00 a       799     0    27     1    19
  7.4500345284950309E-01 a       800     0    27     1    20
 -1.9644857789896495E+00 a       801     0    27     1    21
  6.3438114937439192E+00 a       802     0    27     1    22
  5.2798498996235643E-01 a       803     0    27     1    23
 -4.3261272281974481E+00 a       804     0    27     1    24
  3.5765197360821448E+00 a       805     0    27     1    25
 -4.8264573461673033E+00 a       806     0    27     1    26
 -2.5575150764594867E+00 a       807     0    27     1    27
  2.1605556935478427E+00 a       808     0    27     1    28
  4.4116966185217716E+00 a       809     0    27     1    29
  4.4136003205900981E-01 a       810     0    27     1    30
 -3.6462277622624781E+00 a       811     0    28     1     1
  9.8693967362558119E+00 a       812     0    28     1     2
 -7.3351023427467767E+00 a       813     0    28     1     3
  2.3612458405372214E+00 a       814     0    28     1     4
 -1.0149944459349552E+01 a       815     0    28     1     5
  6.8656312459891362E+00 a       816     0    28     1     6
  3.5544361319523388E+00 a       817     0    28     1     7
  1.6808267368361914E+01 a       818     0    28     1     8
 -8.9323242447411044E-01 a       819     0    28     1     9
  6.7350982082691480E-01 a       820     0    28     1    10
 -1.9009436204781678E+00 a       821     0    28     1    11
 -4.5156644709635421E+00 a       822     0    28     1    12
  3.8271941248511721E+00 a       823     0    28     1    13
  1.4061918413521926E+01 a       824     0    28     1    14
 -7.8882155883271965E+00 a       825     0    28     1    15
  2.5565389125796423E+00 a       826     0    28     1    16
  2.6908807002574107E+00 a       827     0    28     1    17
  2.8594226207288318E+00 a       828     0    28     1    18
 -9.4228097358379639E+00 a       829     0    28     1    19
 -7.2876785883966093E+00 a       830     0    28     1    20
 -1.1045701598810160E+01 a       831     0    28     1    21
 -3.9932939797058453E+00 a       832     0    28     1    22
 -4.5122281280273047E+00 a       833     0    28     1    23
  9.1251608634722263E+00 a       834     0    28     1    24
  7.9394241484580901E+00 a       835     0    28     1    25
 -1.8845444923036940E+01 a       836     0    28     1    26
 -1.0617554252346512E+01 a       837     0    28     1    27
  5.2088090966386646E+00 a       838     0    28     1    28
  3.2283520905800436E+00 a       839     0    28     1    29
 -4.3724105760753487E+00 a       840     0    28     1    30
 -1.7271802473857181E+00 a       841     0    29     1     1
  6.3451782011907127E+00 a       842     0    29     1     2
  8.9620757331192813E+00 a       843     0    29     1     3
  9.7497188402482884E+00 a       844     0    29     1     4
  1.6027263654071529E+01 a       845     0    29     1     5
  1.4517723961995603E+00 a       846     0    29     1     6
 -3.7722326061162126E+00 a       847     0    29     1     7
 -7.1176686822457269E-01 a       848     0    29     1     8
  9.1341754135548197E+00 a       849     0    29     1     9
  3.8915900738838376E+00 a       850     0    29     1    10
  2.7359460942701932E+00 a       851     0    29     1    11
  9.7485850673801231E+00 a       852     0    29     1    12
  2.2047336767904904E+00 a       853     0    29     1    13
 -4.1123698338488897E+00 a       854     0    29     1    14
 -8.7552941880240542E+00 a       855     0    29     1    15
 -3.1808341616750897E+00 a       856     0    29     1    16
 -8.3651560677061916E+00 a       857     0    29     1    17
 -1.7471258813404539E+01 a       858     0    29     1    18
 -4.7320104670390002E+00 a       859     0    29     1    19
  1.8770199822395670E-01 a       860     0    29     1    20
 -5.3197593952071687E+00 a       861     0    29     1    21
 -9.9308018883718461E+00 a       862     0    29     1    22
  3.5725057229017754E+00 a       863     0    29     1    23
 -9.4174682201275886E+00 a       864     0    29     1    24
  9.9952619450981550E-01 a       865     0    29     1    25
  1.0480621802408313E+01 a       866     0    29     1    26
  8.5895597928925593E-01 a       867     0    29     1    27
  2.2987464658620573E+00 a       868     0    29     1    28
 -9.1617669794569760E+00 a       869     0    29     1    29
  1.1375264515203856E+01 a       870     0    29     1    30
  1.8530706252012653E+01 a       871     0    30     1     1
 -6.6385231592834222E+00 a       872     0    30     1     2
 -1.5890934119647191E+01 a       873     0    30     1     3
 -1.4246778104891442E+01 a       874     0    30     1     4
 -7.8919008151632903E+00 a       875     0    30     1     5
 -6.9446603269413902E+00 a       876     0    30     1     6
  8.8951835241698660E+00 a       877     0    30     1     7
  1.4624444489037742E+01 a       878     0    30     1     8
 -2.2145037033163508E+01 a       879     0    30     1     9
 -8.4966247384863340E+00 a       880     0    30     1    10
 -3.7788275956597559E+00 a       881     0    30     1    11
 -1.6334318901556557E+01 a       882     0    30     1    12
 -2.3113815843778230E+01 a       883     0    30     1    13
  9.0289930057154386E+00 a       884     0    30     1    14
  1.9495946621224025E+01 a       885     0    30     1    15
 -7.7777293939071663E+00 a       886     0    30     1    16
  2.1907758582350714E+00 a       887     0    30     1    17
  2.6163884999842004E+01 a       888     0    30     1    18
  1.5744407964343832E+01 a       889     0    30     1    19
 -3.2518508966772393E+00 a       890     0    30     1    20
 -8.6553697279981812E+00 a       891     0    30     1    21
  2.2164905986050314E+01 a       892     0    30     1    22
 -1.3212707937339260E+01 a       893     0    30     1    23
 -6.1332138763230670E+00 a       894     0    30     1    24
 -3.7358749125979394E+00 a       895     0    30     1    25
 -1.2856260112425527E+01 a       896     0    30     1    26
  7.1102456416038535E+00 a       897     0    30     1    27
 -1.6945384109015777E+01 a       898     0    30     1    28
 -1.7210147398817199E+01 a       899     0    30     1    29
 -2.1700747609226845E+01 a       900     0    30     1    30
 -4.6678691244734001E+00 a       901     0    31     1     1
 -2.9871821073419413E+00 a       902     0    31     1     2
  2.7961620248772272E+00 a       903     0    31     1     3
 -1.9145135909325337E+00 a       904     0    31     1     4
 -2.9293491527352504E+00 a       905     0    31     1     5
  9.7845489254637485E-01 a       906     0    31     1     6
 -4.7380758171900644E-01 a       907     0    31     1     7
 -7.1700183101857666E+00 a       908     0    31     1     8
  3.3944998015632786E+00 a       909     0    31     1     9
 -3.8092215842172505E+00 a       910     0    31     1    10
 -1.7755819487665665E+00 a       911     0    31     1    11
 -1.5575761739421916E+00 a       912     0    31     1    12
  2.0381648426401240E+00 a       913     0    31     1    13
  3.4859437188986933E+00 a       914     0    31     1    14
 -1.5058878224698802E+00 a       915     0    31     1    15
  1.4583643335658323E+00 a       916     0    31     1    16
  1.4562189770255294E+00 a       917     0    31     1    17
 -3.6096562923309876E+00 a       918     0    31     1    18
 -5.7110888847796479E+00 a       919     0    31     1    19
 -1.1951618108458799E+00 a       920     0    31     1    20
  1.9013174763727909E+00 a       921     0    31     1    21
  4.7577241768931154E-02 a       922     0    31     1    22
 -4.3400650167667418E+00 a       923     0    31     1    23
  3.1112635171025134E+00 a       924     0    31     1    24
  9.1339706389637632E-01 a       925     0    31     1    25
 -4.1451080652843562E+00 a       926     0    31     1    26
 -3.1340429292009930E+00 a       927     0    31     1    27
  3.8787174743482273E+00 a       928     0    31     1    28
  6.6932537305833661E-01 a       929     0    31     1    29
 -4.5713826515539679E+00 a       930     0    31     1    30
 -6.7560044325899220E+00 a       931     0    32     1     1
  1.1653368667440889E+01 a       932     0    32     1     2
  1.0774237716341958E+01 a       933     0    32     1     3
  1.2251812166416828E+01 a       934     0    32     1     4
 -1.1352262013186705E+01 a       935     0    32     1     5
  1.3790744617592777E+01 a       936     0    32     1     6
 -1.0668889633292331E+01 a       937     0    32     1     7
 -1.0200919547733715E+01 a       938     0    32     1     8
  1.7798009719431331E+01 a       939     0    32     1     9
  1.1485079644021795E+01 a       940     0    32     1    10
  4.4092353998620286E+00 a       941     0    32     1    11
  6.2950115897323018E+00 a       942     0    32     1    12
  1.2682480710074527E+01 a       943     0    32     1    13
  8.0977657092594466E+00 a       944     0    32     1    14
 -1.3901359811738809E+01 a       945     0    32     1    15
  9.7150045030402836E+00 a       946     0    32     1    16
  1.4061826302964892E-01 a       947     0    32     1    17
 -1.2980147428456325E+01 a       948     0    32     1    18
 -1.1694913362842437E+01 a       949     0    32     1    19
 -1.2712095573984017E+01 a       950     0    32     1    20
  3.2945884980402886E+00 a       951     0    32     1    21
 -1.2710542337900119E+01 a       952     0    32     1    22
  7.9185328410585765E+00 a       953     0    32     1    23
  1.2062756617994946E+01 a       954     0    32     1    24
 -7.2241938116648519E-01 a       955     0    32     1    25
 -7.3239820864012293E+00 a       956     0    32     1    26
 -1.0153388562197563E+00 a       957     0    32     1    27
  1.2566581317839757E+01 a       958     0    32     1    28
  2.3396779306310588E+01 a       959     0    32     1    29
  1.6682289973890700E+00 a       960     0    32     1    30
 -3.3389204503031031E+00 a       961     0    33     1     1
  7.2267516107637597E-01 a       962     0    33     1     2
  2.1615431090695036E+00 a       963     0    33     1     3
  4.4413671783832580E+00 a       964     0    33     1     4
 -4.9543855204592391E-01 a       965     0    33     1     5
  7.7020978400669549E-01 a       966     0    33     1     6
  8.7594882657115014E-01 a       967     0    33     1     7
 -1.3531656719999010E+00 a       968     0    33     1     8
  3.3705471618518392E+00 a       969     0    33     1     9
 -8.4911889053181144E-01 a       970     0    33     1    10
  9.3167786714578288E-02 a       971     0    33     1    11
 -5.9902073097443398E-01 a       972     0    33     1    12
 -5.7997635107517535E-02 a       973     0    33     1    13
  1.9268571788423829E+00 a       974     0    33     1    14
  1.4973364272319193E-02 a       975     0    33     1    15
  9.8872705557926932E-01 a       976     0    33     1    16
  3.3289435052896579E+00 a       977     0    33     1    17
 -6.7025806842252571E+00 a       978     0    33     1    18
 -6.6744924410806816E-01 a       979     0    33     1    19
 -2.5359614118535284E-01 a       980     0    33     1    20
  6.8679624490835633E-01 a       981     0    33     1    21
 -2.5196501635259563E+00 a       982     0    33     1    22
  1.1806788322704750E-01 a       983     0    33     1    23
  1.6064556520424189E+00 a       984     0    33     1    24
 -1.0783469610407896E+00 a       985     0    33     1    25
  2.0498516921739918E+00 a       986     0    33     1    26
  5.6355774038927675E-01 a       987     0    33     1    27
 -6.0296952950469029E-01 a       988     0    33     1    28
 -2.0906965654871437E+00 a       989     0    33     1    29
 -1.3727539844035590E+00 a       990     0    33     1    30
 -4.6963406671535028E-02 a       991     0    34     1     1
 -7.7618611983526253E-01 a       992     0    34     1     2
  1.0326483829548934E+00 a       993     0    34     1     3
 -3.3494441901866562E-01 a       994     0    34     1     4
  3.9370801706103409E+00 a       995     0    34     1     5
 -2.0165234879604559E+00 a       996     0    34     1     6
 -1.6333568191453298E+00 a       997     0    34     1     7
 -3.9278796088823729E+00 a       998     0    34     1     8
 -4.7041747621365904E-01 a       999     0    34     1     9
 -1.1126683988082000E+00 a      1000     0    34     1    10
  2.5077960620712758E-01 a      1001     0    34     1    11
  7.7992211912560105E-01 a      1002     0    34     1    12
 -8.9544813946514523E-01 a      1003     0    34     1    13
 -4.2356050712725093E+00 a      1004     0    34     1    14
  2.3162094121115673E+00 a      1005     0    34     1    15
 -3.8829345502862489E-01 a      1006     0    34     1    16
  3.7435987447469343E-01 a      1007     0    34     1    17
 -1.5320355670605969E-02 a      1008     0    34     1    18
 -7.6883256087778740E-01 a      1009     0    34     1    19
  1.9032674662454510E+00 a      1010     0    34     1    20
  1.7152882738638240E+00 a      1011     0    34     1    21
  1.2880216201931607E+00 a      1012     0    34     1    22
  1.3517651600573557E+00 a      1013     0    34     1    23
 -3.1924334579922782E+00 a      1014     0    34     1    24
 -1.4592451083159479E+00 a      1015     0    34     1    25
  4.9541183338794799E+00 a      1016     0    34     1    26
  1.7630026841632362E+00 a      1017     0    34     1    27
 -1.6916302670467669E+00 a      1018     0    34     1    28
 -3.9941131085391430E+00 a      1019     0    34     1    29
  1.8608792310647415E+00 a      1020     0    34     1    30
 -8.6318175497887797E+00 a      1021     0    35     1     1
 -1.6396073119516316E+01 a      1022     0    35     1     2
 -4.8353160018927639E+00 a      1023     0    35     1     3
 -2.0191876335909185E+00 a      1024     0    35     1     4
 -4.9571987862862427E-01 a      1025     0    35     1     5
  7.4479317804322767E+00 a      1026     0    35     1     6
 -7.0399186785981147E+00 a      1027     0    35     1     7
 -2.3262442494553737E+00 a      1028     0    35     1     8
 -5.8745327830538976E+00 a      1029     0    35     1     9
 -2.5547604782609299E+00 a      1030     0    35     1    10
  8.1073757108938549E-01 a      1031     0    35     1    11
 -8.7493437145934809E+00 a      1032     0    35     1    12
  7.6346480028761921E-01 a      1033     0    35     1    13
  2.7334822460227532E+00 a      1034     0    35     1    14
 -9.2479141836250445E-02 a      1035     0    35     1    15
  4.9314288876430199E+00 a      1036     0    35     1    16
  1.6746752479115731E+01 a      1037     0    35     1    17
  1.3229087455158551E+01 a      1038     0    35     1    18
  1.8592511204514384E+00 a      1039     0    35     1    19
  2.7131377867770947E+00 a      1040     0    35     1    20
  3.7019017846693214E+00 a      1041     0    35     1    21
  3.3932647592829550E+00 a      1042     0    35     1    22
 -6.1664413019562856E+00 a      1043     0    35     1    23
  4.7801172794518623E+00 a      1044     0    35     1    24
  4.0116331678421826E+00 a      1045     0    35     1    25
 -1.6950234237157428E+01 a      1046     0    35     1    26
 -3.3130187180716777E+00 a      1047     0    35     1    27
  1.7734818726062642E+00 a      1048     0    35     1    28
 -2.3520395313385709E+00 a      1049     0    35     1    29
 -7.2664794352017683E+00 a      1050     0    35     1    30
  1.7049163555746844E+01 a      1051     0    36     1     1
  3.3718443746484951E+01 a      1052     0    36     1     2
  1.4434449778920044E+01 a      1053     0    36     1     3
  4.5516325294289857E+00 a      1054     0    36     1     4
 -4.0287971387900995E-01 a      1055     0    36     1     5
 -1.2532844661878578E+01 a      1056     0    36     1     6
  1.3292069489367877E+01 a      1057     0    36     1     7
 -3.8063970377492216E+00 a      1058     0    36     1     8
  1.2429112843063344E+01 a      1059     0    36     1     9
  4.3977194007303488E+00 a      1060     0    36     1    10
 -2.6596752932363232E+00 a      1061     0    36     1    11
  1.5279283895247259E+01 a      1062     0    36     1    12
  1.6759789574817401E+00 a      1063     0    36     1    13
 -8.0196258091081045E+00 a      1064     0    36     1    14
 -5.4880391279434659E-01 a      1065     0    36     1    15
 -7.7229299367062278E+00 a      1066     0    36     1    16
 -2.7095390511927828E+01 a      1067     0    36     1    17
 -2.6689244467464583E+01 a      1068     0    36     1    18
 -8.9859405276838924E+00 a      1069     0    36     1    19
 -2.6255418781643121E+00 a      1070     0    36     1    20
 -4.4392905527640787E+00 a      1071     0    36     1    21
 -5.9301828751821537E+00 a      1072     0    36     1    22
  1.2916087244462185E+01 a      1073     0    36     1    23
 -5.5803683064220611E+00 a      1074     0    36     1    24
 -5.7310265722958089E+00 a      1075     0    36     1    25
  3.1831246498902217E+01 a      1076     0    36     1    26
  7.0490906641112261E+00 a      1077     0    36     1    27
 -9.9418750204088779E-01 a      1078     0    36     1    28
  8.6616588305724047E+00 a      1079     0    36     1    29
  1.4864126671632409E+01 a      1080     0    36     1    30
  2.0451346980803780E+00 a      1081     0    37     1     1
  1.8275211557912074E+00 a      1082     0    37     1     2
 -6.4097819503649112E-01 a      1083     0    37     1     3
  1.3454451145421692E-01 a      1084     0    37     1     4
  4.2477937419484513E-01 a      1085     0    37     1     5
 -1.1999777960051490E+00 a      1086     0    37     1     6
  1.3001624920257941E+00 a      1087     0    37     1     7
  2.0108023891388731E+00 a      1088     0    37     1     8
 -3.9602732083497966E-01 a      1089     0    37     1     9
  6.5814952542947325E-01 a      1090     0    37     1    10
  1.3810330108823926E-01 a      1091     0    37     1    11
  1.2546944562922424E+00 a      1092     0    37     1    12
 -3.8124908539568902E-01 a      1093     0    37     1    13
 -6.7953092173673935E-01 a      1094     0    37     1    14
  3.7763993416795028E-01 a      1095     0    37     1    15
 -5.9781071388326501E-01 a      1096     0    37     1    16
 -1.5667621556746247E+00 a      1097     0    37     1    17
  1.8159133669248022E+00 a      1098     0    37     1    18
  1.6286197495703896E+00 a      1099     0    37     1    19
 -1.9087215441068645E-01 a      1100     0    37     1    20
 -4.6268503523493976E-01 a      1101     0    37     1    21
 -5.8354473112258043E-01 a      1102     0    37     1    22
  1.2157901185351452E+00 a      1103     0    37     1    23
 -5.0447303298488988E-01 a      1104     0    37     1    24
 -5.9227125036772432E-01 a      1105     0    37     1    25
  2.6444428908728539E+00 a      1106     0    37     1    26
  1.0136507016334522E+00 a      1107     0    37     1    27
 -6.8710950650022651E-01 a      1108     0    37     1    28
  1.6055170305295818E-01 a      1109     0    37     1    29
  1.2216121655468692E+00 a      1110     0    37     1    30
 -9.9973662909694649E+00 a      1111     0    38     1     1
 -1.9297848920828844E+01 a      1112     0    38     1     2
 -1.0718007456357203E+01 a      1113     0    38     1     3
 -3.2473689186442463E+00 a      1114     0    38     1     4
  2.1548380132257274E+00 a      1115     0    38     1     5
  5.9635466337664784E+00 a      1116     0    38     1     6
 -6.2946756759651263E+00 a      1117     0    38     1     7
  4.6959833979456542E+00 a      1118     0    38     1     8
 -7.5515353912699039E+00 a      1119     0    38     1     9
 -3.2602086076978907E+00 a      1120     0    38     1    10
  1.4774823217336612E+00 a      1121     0    38     1    11
 -7.8196612662138554E+00 a      1122     0    38     1    12
 -1.4935027170823796E+00 a      1123     0    38     1    13
  4.4525764408601685E+00 a      1124     0    38     1    14
  7.7943835132486972E-01 a      1125     0    38     1    15
  3.2997888568133438E+00 a      1126     0    38     1    16
  1.3807217304750859E+01 a      1127     0    38     1    17
  1.4943445223428499E+01 a      1128     0    38     1    18
  6.5122158818661822E+00 a      1129     0    38     1    19
  1.8692495795797894E+00 a      1130     0    38     1    20
  2.5297873005211216E+00 a      1131     0    38     1    21
  3.4531141671590246E+00 a      1132     0    38     1    22
 -7.3527802040887007E+00 a      1133     0    38     1    23
  1.5453600365057107E+00 a      1134     0    38     1    24
  2.8976408487477161E+00 a      1135     0    38     1    25
 -1.6888605014230098E+01 a      1136     0    38     1    26
 -5.7271033809207177E+00 a      1137     0    38     1    27
 -3.4520139147834356E-01 a      1138     0    38     1    28
 -7.2357759461628790E+00 a      1139     0    38     1    29
 -7.4288705832955149E+00 a      1140     0    38     1    30
  1.2278451479273831E+00 a      1141     0    39     1     1
 -2.8934064843550455E-01 a      1142     0    39     1     2
 -1.3747820192818434E+00 a      1143     0    39     1     3
 -2.3498812173532921E+00 a      1144     0    39     1     4
  4.9316964190709922E-01 a      1145     0    39     1     5
 -4.8853983402145823E-01 a      1146     0    39     1     6
 -6.7307240310376870E-01 a      1147     0    39     1     7
  5.8084298048343719E-01 a      1148     0    39     1     8
 -1.3101295329003575E+00 a      1149     0    39     1     9
  1.1596249317379461E+00 a      1150     0    39     1    10
  1.0605264258461783E-01 a      1151     0    39     1    11
 -6.8563154018315198E-02 a      1152     0    39     1    12
  2.1018665018329702E-01 a      1153     0    39     1    13
 -1.0362747628927464E+00 a      1154     0    39     1    14
  1.8717566718234460E-01 a      1155     0    39     1    15
 -5.2912268446989497E-01 a      1156     0    39     1    16
 -2.4351104881386458E+00 a      1157     0    39     1    17
  2.9282974100266781E+00 a      1158     0    39     1    18
  2.1623220765486387E-01 a      1159     0    39     1    19
 -4.5321419925135352E-02 a      1160     0    39     1    20
 -3.2975782034487239E-01 a      1161     0    39     1    21
  1.5081250309231899E+00 a      1162     0    39     1    22
 -2.2769171507676109E-01 a      1163     0    39     1    23
 -9.6335210970642871E-01 a      1164     0    39     1    24
  2.9583420484339618E-01 a      1165     0    39     1    25
 -5.8193571278811529E-01 a      1166     0    39     1    26
  2.0805679758784493E-01 a      1167     0    39     1    27
  1.8950375172302780E-01 a      1168     0    39     1    28
  1.5083048309719265E+00 a      1169     0    39     1    29
  1.7430029122575856E+00 a      1170     0    39     1    30
  1.0689251666337496E+00 a      1171     0    40     1     1
  5.6031350828647886E-01 a      1172     0    40     1     2
  1.3895252886910434E+00 a      1173     0    40     1     3
  4.6962686053653924E-01 a      1174     0    40     1     4
 -1.2230630908705471E+00 a      1175     0    40     1     5
  1.6221553362447924E-01 a      1176     0    40     1     6
  8.5736458476369481E-01 a      1177     0    40     1     7
  6.4426894386670919E-01 a      1178     0    40     1     8
  6.5502418791563044E-01 a      1179     0    40     1     9
  2.0268537157498615E-01 a      1180     0    40     1    10
 -2.0819965275430585E-01 a      1181     0    40     1    11
  8.8515148328349599E-02 a      1182     0    40     1    12
  4.3786836742565050E-01 a      1183     0    40     1    13
  6.6565651648828028E-01 a      1184     0    40     1    14
 -9.0546310310927614E-01 a      1185     0    40     1    15
  3.6661521625514354E-01 a      1186     0    40     1    16
 -7.6727729758376317E-01 a      1187     0    40     1    17
 -9.5431294060398453E-01 a      1188     0    40     1    18
  5.2077309346158251E-01 a      1189     0    40     1    19
 -5.5720508046209649E-01 a      1190     0    40     1    20
 -4.4893125004347528E-01 a      1191     0    40     1    21
 -5.1494935476728898E-01 a      1192     0    40     1    22
  1.4207243976444500E-01 a      1193     0    40     1    23
  9.1878680592987272E-01 a      1194     0    40     1    24
  3.7519175537848132E-01 a      1195     0    40     1    25
 -3.0017670352365511E-01 a      1196     0    40     1    26
  6.4528143587209597E-01 a      1197     0    40     1    27
  6.1003258631809654E-01 a      1198     0    40     1    28
  1.9243316779382909E+00 a      1199     0    40     1    29
 -1.1889232334337171E-01 a      1200     0    40     1    30
 -9.3181055102260513E-01 a      1201     0    41     1     1
  1.1325274715870505E-01 a      1202     0    41     1     2
  9.2396312123924640E-01 a      1203     0    41     1     3
  7.6011773388551207E-01 a      1204     0    41     1     4
 -2.7765887975861649E+00 a      1205     0    41     1     5
 -1.7896463605105475E-01 a      1206     0    41     1     6
  2.0172599780125524E+00 a      1207     0    41     1     7
  3.0738630574843886E+00 a      1208     0    41     1     8
  3.8180338176300239E+00 a      1209     0    41     1     9
 -2.5198661514571139E+00 a      1210     0    41     1    10
 -2.4404599124651308E-01 a      1211     0    41     1    11
  2.8472247690347880E+00 a      1212     0    41     1    12
  3.9174873112717570E-02 a      1213     0    41     1    13
  2.8565046682419371E+00 a      1214     0    41     1    14
  9.2225871887270372E-01 a      1215     0    41     1    15
 -7.2883404466307145E-01 a      1216     0    41     1    16
 -1.2912815937447328E+00 a      1217     0    41     1    17
  1.5445341642295727E+00 a      1218     0    41     1    18
  5.9571689544185336E-01 a      1219     0    41     1    19
 -1.7166465088837448E+00 a      1220     0    41     1    20
 -1.6858456271397189E+00 a      1221     0    41     1    21
 -5.6124275852216010E-01 a      1222     0    41     1    22
  2.4978087340265067E+00 a      1223     0    41     1    23
 -6.0216209885051442E-01 a      1224     0    41     1    24
 -1.1504782806410757E-01 a      1225     0    41     1    25
 -4.4390878465684130E-01 a      1226     0    41     1    26
  3.3221925612943224E+00 a      1227     0    41     1    27
 -8.1632148183972508E-01 a      1228     0    41     1    28
  2.2971735563414404E+00 a      1229     0    41     1    29
  3.3859406006655590E-01 a      1230     0    41     1    30
 -7.8621893088405370E-01 a      1231     0    42     1     1
 -8.7283693688992181E-01 a      1232     0    42     1     2
 -5.1394503975602923E+00 a      1233     0    42     1     3
 -3.2879488563810355E+00 a      1234     0    42     1     4
  9.5339087923279635E+00 a      1235     0    42     1     5
  5.3877669462427180E-01 a      1236     0    42     1     6
 -8.4514687903544239E+00 a      1237     0    42     1     7
 -8.4468893531928817E+00 a      1238     0    42     1     8
 -1.5696991612775065E+01 a      1239     0    42     1     9
  8.2186249490136500E+00 a      1240     0    42     1    10
  1.4958946986319253E+00 a      1241     0    42     1    11
 -1.0976855750059324E+01 a      1242     0    42     1    12
 -6.5190185670349465E-01 a      1243     0    42     1    13
 -1.0579638388174663E+01 a      1244     0    42     1    14
 -3.3456221031640445E+00 a      1245     0    42     1    15
  2.3315318371958642E+00 a      1246     0    42     1    16
  5.7679236201522635E+00 a      1247     0    42     1    17
 -1.5273073339234984E+00 a      1248     0    42     1    18
  7.6063289486289865E-01 a      1249     0    42     1    19
  4.8587191630439470E+00 a      1250     0    42     1    20
  7.0860041670354201E+00 a      1251     0    42     1    21
  2.4569159934321010E+00 a      1252     0    42     1    22
 -1.0043865976213583E+01 a      1253     0    42     1    23
  1.7207255243450186E+00 a      1254     0    42     1    24
 -3.3465019190820466E-01 a      1255     0    42     1    25
  2.3428552790553070E+00 a      1256     0    42     1    26
 -1.2837440082986701E+01 a      1257     0    42     1    27
  2.6461803715422643E+00 a      1258     0    42     1    28
 -9.6050363543711619E+00 a      1259     0    42     1    29
 -2.7645020171402312E+00 a      1260     0    42     1    30
 -9.4318199961253346E-02 a      1261     0    43     1     1
 -1.0184254763676993E-01 a      1262     0    43     1     2
 -1.4352263558585132E-01 a      1263     0    43     1     3
 -8.9745246950974869E-02 a      1264     0    43     1     4
  1.0413199545097296E+00 a      1265     0    43     1     5
  4.5504719057837296E-02 a      1266     0    43     1     6
 -2.3030753952263189E-01 a      1267     0    43     1     7
 -6.8743915116721899E-01 a      1268     0    43     1     8
 -9.8904548743383586E-02 a      1269     0    43     1     9
  9.3625970815529502E-01 a      1270     0    43     1    10
  2.7259324284270674E-02 a      1271     0    43     1    11
 -3.4193485369942206E-01 a      1272     0    43     1    12
  3.8631386158192886E-02 a      1273     0    43     1    13
 -2.9778961802648096E-01 a      1274     0    43     1    14
 -1.4990530562032608E-01 a      1275     0    43     1    15
  2.7498860864266339E-02 a      1276     0    43     1    16
 -1.4642523175629876E+00 a      1277     0    43     1    17
 -2.6180430770458587E+00 a      1278     0    43     1    18
 -6.2890233053766420E-01 a      1279     0    43     1    19
  2.1451445906373148E-01 a      1280     0    43     1    20
  1.2181575711513970E-01 a      1281     0    43     1    21
  1.6459974841320238E-01 a      1282     0    43     1    22
 -3.0946679805668070E-01 a      1283     0    43     1    23
  7.1561272451639221E-02 a      1284     0    43     1    24
  1.0512609719798701E-02 a      1285     0    43     1    25
 -1.0302300577238313E-01 a      1286     0    43     1    26
 -7.0553193607779918E-01 a      1287     0    43     1    27
  1.5983906355054503E-01 a      1288     0    43     1    28
 -1.5143311666104409E-01 a      1289     0    43     1    29
  1.2029720162456181E-01 a      1290     0    43     1    30
  1.9234407085066902E+00 a      1291     0    44     1     1
  7.7375471279218488E-01 a      1292     0    44     1     2
  5.2195763811110858E+00 a      1293     0    44     1     3
  2.9371895745446421E+00 a      1294     0    44     1     4
 -8.1687731476335035E+00 a      1295     0    44     1     5
 -3.5626577195914549E-01 a      1296     0    44     1     6
  6.8805859434988381E+00 a      1297     0    44     1     7
  5.1672803151792319E+00 a      1298     0    44     1     8
  1.3072729451505325E+01 a      1299     0    44     1     9
 -3.7455187744272145E+00 a      1300     0    44     1    10
 -1.5416931061891841E+00 a      1301     0    44     1    11
  8.8072797298335708E+00 a      1302     0    44     1    12
  8.9006644846056937E-01 a      1303     0    44     1    13
  8.3849626481155966E+00 a      1304     0    44     1    14
  2.5342276304317113E+00 a      1305     0    44     1    15
 -1.4624096175220773E+00 a      1306     0    44     1    16
 -4.7946605515945091E+00 a      1307     0    44     1    17
  3.3261520730302523E-02 a      1308     0    44     1    18
 -2.2763906409468406E+00 a      1309     0    44     1    19
 -3.1891744253272400E+00 a      1310     0    44     1    20
 -5.9377152326648996E+00 a      1311     0    44     1    21
 -2.1497768417172862E+00 a      1312     0    44     1    22
  8.0788917506819953E+00 a      1313     0    44     1    23
 -1.1014883415037271E+00 a      1314     0    44     1    24
  5.5621367719173220E-01 a      1315     0    44     1    25
 -2.2186044237794964E+00 a      1316     0    44     1    26
  1.0885677226655849E+01 a      1317     0    44     1    27
 -1.9014780600026113E+00 a      1318     0    44     1    28
  8.4274731157141751E+00 a      1319     0    44     1    29
  2.7238976557673396E+00 a      1320     0    44     1    30
  8.1978654944643056E-02 a      1321     0    45     1     1
 -4.3325485054378493E-01 a      1322     0    45     1     2
  7.0890265953791998E-01 a      1323     0    45     1     3
  1.0627499262879478E+00 a      1324     0    45     1     4
 -6.5713249941691354E-01 a      1325     0    45     1     5
  3.0813369805847057E-01 a      1326     0    45     1     6
  6.4246939223435207E-01 a      1327     0    45     1     7
 -1.2577396158101395E-01 a      1328     0    45     1     8
  3.6941421917307055E-01 a      1329     0    45     1     9
 -2.1466650229463879E+00 a      1330     0    45     1    10
  8.4549979605342315E-02 a      1331     0    45     1    11
  1.7983614807376047E-01 a      1332     0    45     1    12
 -2.2088220531012523E-01 a      1333     0    45     1    13
  8.3697332398978730E-01 a      1334     0    45     1    14
 -3.4790367082728563E-01 a      1335     0    45     1    15
  3.1030460781541158E-01 a      1336     0    45     1    16
  1.3568837262604674E+00 a      1337     0    45     1    17
 -1.0937146389258423E+00 a      1338     0    45     1    18
 -9.7290510650802603E-02 a      1339     0    45     1    19
  7.1954037807521631E-01 a      1340     0    45     1    20
  1.7869868392875851E-01 a      1341     0    45     1    21
 -7.3795060724498773E-01 a      1342     0    45     1    22
  2.8410009704623446E-01 a      1343     0    45     1    23
  1.0759148482004053E+00 a      1344     0    45     1    24
  3.6294573655525054E-02 a      1345     0    45     1    25
 -7.2325666552954149E-01 a      1346     0    45     1    26
 -2.8073915526462734E-01 a      1347     0    45     1    27
 -3.3465369153500020E-02 a      1348     0    45     1    28
 -1.1554443172280695E+00 a      1349     0    45     1    29
 -1.6023148239171499E+00 a      1350     0    45     1    30
 -6.5911920039579708E-01 a      1351     0    46     1     1
  9.9332813541049322E-02 a      1352     0    46     1     2
 -8.8965358786025539E-01 a      1353     0    46     1     3
 -3.2531849989315126E-01 a      1354     0    46     1     4
  8.2516931568961660E-01 a      1355     0    46     1     5
 -5.6846037695115530E-02 a      1356     0    46     1     6
 -4.7259022782323062E-01 a      1357     0    46     1     7
 -6.8669200441829825E-01 a      1358     0    46     1     8
 -7.8698547836460908E-01 a      1359     0    46     1     9
 -3.1293514437064768E-01 a      1360     0    46     1    10
  2.4262018188197410E-01 a      1361     0    46     1    11
 -4.3083826329942593E-01 a      1362     0    46     1    12
 -2.5383185113128187E-01 a      1363     0    46     1    13
 -4.9558258116529968E-01 a      1364     0    46     1    14
  5.4602403363026519E-02 a      1365     0    46     1    15
 -2.1591866656298214E-01 a      1366     0    46     1    16
  3.0700799658637562E-01 a      1367     0    46     1    17
  5.6203330834014154E-01 a      1368     0    46     1    18
  1.6538928429367603E-01 a      1369     0    46     1    19
 -2.9137420849295836E-01 a      1370     0    46     1    20
  3.6270634380810535E-01 a      1371     0    46     1    21
  2.6035011086036058E-01 a      1372     0    46     1    22
 -4.0087234065448552E-01 a      1373     0    46     1    23
  2.0758614352778315E-02 a      1374     0    46     1    24
 -1.0783066045149932E-01 a      1375     0    46     1    25
  2.8116343323380044E-01 a      1376     0    46     1    26
 -9.3867854173505283E-01 a      1377     0    46     1    27
 -7.5631144759212787E-02 a      1378     0    46     1    28
 -9.2696379543380947E-01 a      1379     0    46     1    29
 -3.7152862268274001E-01 a      1380     0    46     1    30
  2.4077764006953567E-01 b      1381     1     1
  4.5449887867672700E-01 b      1382     1     2
  1.3225802019142391E-01 b      1383     1     3
 -2.8650440314537218E-01 b      1384     1     4
 -5.1295547975114408E-01 b      1385     1     5
  6.6004942582504789E-01 b      1386     1     6
  9.7458855159860986E-03 b      1387     1     7
 -2.8680819335951076E-02 b      1388     1     8
  5.6638998886554237E-01 b      1389     1     9
  5.4149227706299319E-01 b      1390     1    10
 -2.8598153566992873E-01 b      1391     1    11
  3.1271506127962040E-01 b      1392     1    12
  2.8972368897526390E-01 b      1393     1    13
  5.0102675354483328E-01 b      1394     1    14
 -5.6646220176512496E-01 b      1395     1    15
 -2.9357767122196208E-02 b      1396     1    16
 -3.3944706757309878E-01 b      1397     1    17
 -1.3572333517750318E-01 b      1398     1    18
  7.5158363002681000E-02 b      1399     1    19
 -6.8241122958469169E-01 b      1400     1    20
 -2.5551024012191181E-01 b      1401     1    21
  2.7869782292992629E-01 b      1402     1    22
  4.9570406324823662E-03 b      1403     1    23
 -8.5713960906950348E-01 b      1404     1    24
  5.2444062428424698E-01 b      1405     1    25
  2.1293844267941126E-01 b      1406     1    26
  1.9628396888656433E-01 b      1407     1    27
  4.0039379105124578E-01 b      1408     1    28
 -1.3015040624558794E-01 b      1409     1    29
 -2.4500931221038982E-01 b      1410     1    30
 -5.9027719449460558E-01 a      1411     1     1     2     1
  3.0407796576066376E-01 a      1412     1     1     2     2
  7.2153713050143731E-02 a      1413     1     1     2     3
 -2.0430625479074058E-01 a      1414     1     1     2     4
 -3.6166222219504002E-01 a      1415     1     1     2     5
 -2.2897531612822042E-01 a      1416     1     1     2     6
  1.3477566215063369E-01 a      1417     1     1     2     7
  1.4962443354350834E+00 a      1418     1     1     2     8
 -1.0664164247125536E-02 a      1419     1     1     2     9
 -3.0118340878112163E-02 a      1420     1     1     2    10
 -9.2766917798008705E-02 a      1421     1     1     2    11
 -5.9562749919218572E-01 a      1422     1     1     2    12
  4.7792032423809590E-02 a      1423     1     1     2    13
 -2.1837123720477740E-02 a      1424     1     1     2    14
 -7.6388805646892077E-01 a      1425     1     1     2    15
 -6.9346097842911833E-02 a      1426     1     1     2    16
 -2.9955529932389507E-01 a      1427     1     1     2    17
 -4.3074143195052950E-01 a      1428     1     1     2    18
  2.6189222503695365E-02 a      1429     1     1     2    19
  2.3121643810135584E-02 a      1430     1     1     2    20
  5.6052080551432210E-02 a      1431     1     1     2    21
 -2.0101036752746052E-01 a      1432     1     1     2    22
 -4.9695804375988567E-01 a      1433     1     1     2    23
  2.3723100726365680E-02 a      1434     1     1     2    24
 -2.3155682969017960E-01 a      1435     1     1     2    25
 -3.5928963287972482E-01 a      1436     1     1     2    26
  9.5163647096073656E-01 a      1437     1     1     2    27
  7.9092498610401296E-02 a      1438     1     1     2    28
  2.3788302710541553E-01 a      1439     1     1     2    29
 -2.1849828308056116E-01 a      1440     1     1     2    30
  2.2160125152442528E-01 a      1441     1     2     2     1
  2.2668446432036501E-01 a      1442     1     2     2     2
  5.1590028218040429E-01 a      1443     1     2     2     3
 -1.7921689443432701E-01 a      1444     1     2     2     4
 -6.5759269017297617E-01 a      1445     1     2     2     5
 -3.7428441189915601E-01 a      1446     1     2     2     6
  3.4234638881834295E-01 a      1447     1     2     2     7
 -1.4039086773444262E-01 a      1448     1     2     2     8
  1.7982770588478422E-01 a      1449     1     2     2     9
  2.8353793314998643E-01 a      1450     1     2     2    10
 -2.2212156313941978E-01 a      1451     1     2     2    11
 -7.8756463062012783E-01 a      1452     1     2     2    12
 -1.5098548872811421E-01 a      1453     1     2     2    13
 -1.0460951040669092E-01 a      1454     1     2     2    14
  8.2136579620044170E-01 a      1455     1     2     2    15
  1.5674034013572094E-01 a      1456     1     2     2    16
 -8.4623426626261697E-02 a      1457     1     2     2    17
  1.3354609372376356E+00 a      1458     1     2     2    18
  2.7656480432843322E-01 a      1459     1     2     2    19
 -3.9428385011089573E-01 a      1460     1     2     2    20
 -5.6816246685830019E-01 a      1461     1     2     2    21
  3.2611964133171523E-01 a      1462     1     2     2    22
 -3.8487874750269258E-01 a      1463     1     2     2    23
 -2.2036901250132343E-01 a      1464     1     2     2    24
  6.6896422326709792E-01 a      1465     1     2     2    25
  2.0707153935050315E-01 a      1466     1     2     2    26
  3.5231142485597639E-01 a      1467     1     2     2    27
  9.2556055209686294E-01 a      1468     1     2     2    28
  9.0752065932377099E-02 a      1469     1     2     2    29
 -1.4300088472790073E-01 a      1470     1     2     2    30
 -3.2895380016617642E-01 a      1471     1     3     2     1
  2.1220514763430562E-01 a      1472     1     3     2     2
 -4.7959027860589687E-01 a      1473     1     3     2     3
  6.3005854702609776E-01 a      1474     1     3     2     4
  1.1782235729294319E-01 a      1475     1     3     2     5
 -1.5841194252260624E+00 a      1476     1     3     2     6
  1.6458056663179887E-01 a      1477     1     3     2     7
 -1.0030860556813386E+00 a      1478     1     3     2     8
 -9.3684351143132694E-01 a      1479     1     3     2     9
 -6.5422376064999865E-01 a      1480     1     3     2    10
 -8.2409691856352119E-01 a      1481     1     3     2    11
  4.5687086098222424E-01 a      1482     1     3     2    12
  2.4813838257315660E-01 a      1483     1     3     2    13
  2.8059741066903199E-01 a      1484     1     3     2    14
 -1.0554559831895158E+00 a      1485     1     3     2    15
  4.1293409392902414E-01 a      1486     1     3     2    16
 -1.1470764714028930E-01 a      1487     1     3     2    17
 -4.9927873716446153E-01 a      1488     1     3     2    18
 -3.0403367739209414E-01 a      1489     1     3     2    19
 -2.4994387672187776E-01 a      1490     1     3     2    20
  2.4598593881238629E-02 a      1491     1     3     2    21
  2.2411968540925634E-01 a      1492     1     3     2    22
  7.0864017802670154E-01 a      1493     1     3     2    23
  7.0437221319038248E-02 a      1494     1     3     2    24
 -3.7955755856338197E-01 a      1495     1     3     2    25
  5.9551757827415863E-01 a      1496     1     3     2    26
  1.6115041201346814E-01 a      1497     1     3     2    27
  1.6604186416277620E-02 a      1498     1     3     2    28
 -2.1974663426744337E-01 a      1499     1     3     2    29
 -3.6066535604347522E-01 a      1500     1     3     2    30
  1.9683798888955059E-01 a      1501     1     4     2     1
  1.8534092722327096E+00 a      1502     1     4     2     2
  1.1830016221620991E+00 a      1503     1     4     2     3
 -9.5759206024036148E-02 a      1504     1     4     2     4
 -8.0382368511553914E-01 a      1505     1     4     2     5
  5.0922398517417444E-01 a      1506     1     4     2     6
  7.1461900960906810E-01 a      1507     1     4     2     7
  1.0224424332284815E-02 a      1508     1     4     2     8
  2.2560171905219852E+00 a      1509     1     4     2     9
 -6.5806796262139666E-01 a      1510     1     4     2    10
  3.2620558870918248E-01 a      1511     1     4     2    11
  4.4312110114126061E-03 a      1512     1     4     2    12
 -5.0946729439256218E-02 a      1513     1     4     2    13
  7.1828494385598196E-01 a      1514     1     4     2    14
  2.7838353556762589E+00 a      1515     1     4     2    15
 -2.7586293896414610E-01 a      1516     1     4     2    16
  3.0318439637070999E-01 a      1517     1     4     2    17
  1.6302532319122380E+00 a      1518     1     4     2    18
  3.1455655078174627E-01 a      1519     1     4     2    19
 -2.6922360235748938E-01 a      1520     1     4     2    20
  3.0313457221320489E-01 a      1521     1     4     2    21
 -5.0008634232128188E-02 a      1522     1     4     2    22
 -1.7563702787896507E-01 a      1523     1     4     2    23
 -4.5853322491950776E-01 a      1524     1     4     2    24
 -8.5103685031693832E-01 a      1525     1     4     2    25
 -5.3311841593328768E-01 a      1526     1     4     2    26
 -1.1439215877739399E-01 a      1527     1     4     2    27
 -1.9899078212697219E-01 a      1528     1     4     2    28
 -1.3341530830114353E-02 a      1529     1     4     2    29
  1.9492266960972957E-01 a      1530     1     4     2    30
  4.4760276269378407E-01 a      1531     1     5     2     1
 -6.9687466531479347E-01 a      1532     1     5     2     2
  3.3330588793417543E-01 a      1533     1     5     2     3
 -9.9531951351520292E-02 a      1534     1     5     2     4
 -3.1652828097847106E-02 a      1535     1     5     2     5
 -8.3802713891154434E-01 a      1536     1     5     2     6
  1.3857234669105375E-01 a      1537     1     5     2     7
 -9.5919293208011758E-01 a      1538     1     5     2     8
  3.5530084287033925E-01 a      1539     1     5     2     9
  2.1506815327457143E-01 a      1540     1     5     2    10
  3.1550099989717489E-01 a      1541     1     5     2    11
  7.1466394045921777E-01 a      1542     1     5     2    12
 -1.8160690307253058E-01 a      1543     1     5     2    13
  5.9120860818871787E-02 a      1544     1     5     2    14
  6.3707252136670900E-01 a      1545     1     5     2    15
  5.0825778800123303E-02 a      1546     1     5     2    16
  3.1175536046774499E-01 a      1547     1     5     2    17
  5.9279133296103326E-01 a      1548     1     5     2    18
  4.1687840095813999E-02 a      1549     1     5     2    19
 -2.8371570975284621E-01 a      1550     1     5     2    20
 -3.6278766400854687E-02 a      1551     1     5     2    21
 -5.2232558751071800E-01 a      1552     1     5     2    22
 -8.8922369867042897E-02 a      1553     1     5     2    23
 -1.2738184874509485E-02 a      1554     1     5     2    24
  1.2645767232624122E-01 a      1555     1     5     2    25
 -3.9949512224546291E-01 a      1556     1     5     2    26
 -4.3783841761094483E-01 a      1557     1     5     2    27
 -7.0921977118975366E-01 a      1558     1     5     2    28
 -3.2137772385347252E-01 a      1559     1     5     2    29
  1.7038955259108246E-01 a      1560     1     5     2    30
 -9.4510614186528535E-02 a      1561     1     6     2     1
  1.2500476188481475E+00 a      1562     1     6     2     2
  1.6507916589873156E-01 a      1563     1     6     2     3
 -1.1245059198768449E-01 a      1564     1     6     2     4
 -6.3227222154021226E-02 a      1565     1     6     2     5
  2.7246779150483880E+00 a      1566     1     6     2     6
 -1.2461696523985673E+00 a      1567     1     6     2     7
 -2.3908691074344632E-01 a      1568     1     6     2     8
 -5.5285249947443227E-01 a      1569     1     6     2     9
  1.0084225809717566E-01 a      1570     1     6     2    10
  8.7157060779135553E-01 a      1571     1     6     2    11
 -8.1835475072850472E-01 a      1572     1     6     2    12
  1.9068809668114348E-01 a      1573     1     6     2    13
  9.9012954694608746E-01 a      1574     1     6     2    14
 -8.9979792034724157E-02 a      1575     1     6     2    15
 -2.3455513677713588E-01 a      1576     1     6     2    16
  4.6652151441542161E-01 a      1577     1     6     2    17
  1.9335434532771587E+00 a      1578     1     6     2    18
  6.6642267402207478E-01 a      1579     1     6     2    19
 -1.2781927341822581E+00 a      1580     1     6     2    20
  6.6604138526389434E-03 a      1581     1     6     2    21
 -7.3658653719726672E-02 a      1582     1     6     2    22
 -3.4559110043580102E-02 a      1583     1     6     2    23
  7.8563310096138608E-02 a      1584     1     6     2    24
  6.3779597795573917E-01 a      1585     1     6     2    25
 -4.7140957771562031E-01 a      1586     1     6     2    26
 -1.2636360367049062E+00 a      1587     1     6     2    27
 -3.4558348675082556E-01 a      1588     1     6     2    28
  5.1480354615441017E-02 a      1589     1     6     2    29
 -4.8279460223384973E-02 a      1590     1     6     2    30
 -2.6542562970176203E-01 a      1591     1     7     2     1
 -2.7674599616753315E-01 a      1592     1     7     2     2
 -2.0451894968121143E-01 a      1593     1     7     2     3
  1.2656170580147108E-01 a      1594     1     7     2     4
  1.9336065774628675E-01 a      1595     1     7     2     5
  4.4586554210337270E-01 a      1596     1     7     2     6
 -1.6956534391920441E-01 a      1597     1     7     2     7
  8.3860445338223699E-01 a      1598     1     7     2     8
 -5.2211437682449446E-01 a      1599     1     7     2     9
 -4.9245437007818155E-01 a      1600     1     7     2    10
 -1.8390207986735723E+00 a      1601     1     7     2    11
 -6.1730808755774447E-01 a      1602     1     7     2    12
 -4.1932644747484154E-03 a      1603     1     7     2    13
  5.5422100316206990E-01 a      1604     1     7     2    14
 -9.4953846869971459E-01 a      1605     1     7     2    15
  5.1754005470388242E-01 a      1606     1     7     2    16
 -7.1244108780522300E-02 a      1607     1     7     2    17
  2.7033214949134887E-01 a      1608     1     7     2    18
 -5.1666512669991525E-02 a      1609     1     7     2    19
  1.0662772801827300E+00 a      1610     1     7     2    20
 -1.4461788148415700E-01 a      1611     1     7     2    21
 -4.5226438606290154E-01 a      1612     1     7     2    22
 -2.7365834949252243E-01 a      1613     1     7     2    23
 -1.6847506259130723E-01 a      1614     1     7     2    24
  3.7548323495874780E-01 a      1615     1     7     2    25
 -6.1557175723022917E-01 a      1616     1     7     2    26
  4.5700175420543510E-01 a      1617     1     7     2    27
 -9.5166649562041572E-02 a      1618     1     7     2    28
 -3.2238591447652026E-01 a      1619     1     7     2    29
 -5.2065326381125376E-01 a      1620     1     7     2    30
  3.0784399465787343E-01 a      1621     1     8     2     1
 -1.3261369640288136E+00 a      1622     1     8     2     2
 -2.7962915388997328E-01 a      1623     1     8     2     3
  3.7557408260403363E-01 a      1624     1     8     2     4
  3.2876275601218291E-01 a      1625     1     8     2     5
  5.9361841357573819E-01 a      1626     1     8     2     6
 -2.4233696646397607E-01 a      1627     1     8     2     7
 -3.8277655767164293E-01 a      1628     1     8     2     8
 -6.9475686404260240E-01 a      1629     1     8     2     9
