################################################################################
# Neural network connection values (weights and biases).
################################################################################
# Col  Name       Description
################################################################################
# 1    connection Neural network connection value.
# 2    t          Connection type (a = weight, b = bias).
# 3    index      Index enumerating weights.
# 4    l_s        Starting point layer (end point layer for biases).
# 5    n_s        Starting point neuron in starting layer (end point neuron for biases).
# 6    l_e        End point layer.
# 7    n_e        End point neuron in end layer.
################################################################################
#                      1 2         3     4     5     6     7
#             connection t     index   l_s   n_s   l_e   n_e
############################################################
  1.0508099819121693E+01 a         1     0     1     1     1
 -2.0824462344587534E+01 a         2     0     1     1     2
  4.2566674403091804E+00 a         3     0     1     1     3
  1.8997406883987911E-01 a         4     0     1     1     4
  5.4017988310211891E+00 a         5     0     1     1     5
  3.1826453423011147E-01 a         6     0     1     1     6
  1.4475457724563947E+01 a         7     0     1     1     7
 -1.6579932171363115E+01 a         8     0     1     1     8
 -1.8917831038270397E-01 a         9     0     1     1     9
 -4.0781477319660638E+01 a        10     0     1     1    10
  1.5854140559654118E+01 a        11     0     1     1    11
 -8.3456588991971330E+00 a        12     0     1     1    12
 -3.6080065905562217E+00 a        13     0     1     1    13
  9.2062515713567361E+00 a        14     0     1     1    14
  2.8627705600076747E-01 a        15     0     1     1    15
  2.1214731676557378E+01 a        16     0     1     1    16
  1.5206686286520624E+01 a        17     0     1     1    17
  8.9215137221106993E+00 a        18     0     1     1    18
  2.8173159852001469E+01 a        19     0     1     1    19
 -1.9628549975239750E+01 a        20     0     1     1    20
  1.3915564893947494E+01 a        21     0     1     1    21
  6.6175521700874382E+00 a        22     0     1     1    22
 -5.1246442921533983E+00 a        23     0     1     1    23
 -5.5972949881698426E+00 a        24     0     1     1    24
  7.0970592679769213E+00 a        25     0     1     1    25
 -4.6064633798160584E+00 a        26     0     1     1    26
  4.8671642067866285E+00 a        27     0     1     1    27
 -1.9400027044699005E+01 a        28     0     1     1    28
 -1.1292729715341574E+01 a        29     0     1     1    29
  3.3632177064363855E+00 a        30     0     1     1    30
  1.6047919809656708E+00 a        31     0     2     1     1
 -1.2132150642620747E+01 a        32     0     2     1     2
 -2.7483050007929046E+00 a        33     0     2     1     3
 -3.7390365250719910E+01 a        34     0     2     1     4
 -4.1085224946845038E+00 a        35     0     2     1     5
 -2.8966741949540705E+01 a        36     0     2     1     6
  1.4233970184001713E+01 a        37     0     2     1     7
 -1.8221186388862115E+01 a        38     0     2     1     8
 -8.6418842216801046E+00 a        39     0     2     1     9
  3.6521662316655743E+01 a        40     0     2     1    10
 -6.6326835313841572E+00 a        41     0     2     1    11
  1.7324428574607829E+01 a        42     0     2     1    12
  2.1475796965105733E+01 a        43     0     2     1    13
 -7.8905250111230885E+00 a        44     0     2     1    14
  4.1462427515826885E+00 a        45     0     2     1    15
 -1.7450623667581709E+01 a        46     0     2     1    16
 -1.3934626188050663E+01 a        47     0     2     1    17
  9.4851217974739992E+00 a        48     0     2     1    18
 -1.4199630129735328E+00 a        49     0     2     1    19
 -6.7622783020506292E+00 a        50     0     2     1    20
 -8.1113646841217726E+00 a        51     0     2     1    21
 -8.5080797110129804E+00 a        52     0     2     1    22
 -6.9716496802080918E+00 a        53     0     2     1    23
  2.6247850421404845E+01 a        54     0     2     1    24
 -1.4880566107229889E+01 a        55     0     2     1    25
  4.7465179286068091E+00 a        56     0     2     1    26
  3.8879892951895481E+00 a        57     0     2     1    27
 -4.3657029443801045E+00 a        58     0     2     1    28
  1.4668391281043720E+00 a        59     0     2     1    29
  8.6660335202280159E-01 a        60     0     2     1    30
 -7.0622611246460054E-01 a        61     0     3     1     1
 -1.6512834624612942E+01 a        62     0     3     1     2
 -9.0921414859082628E+00 a        63     0     3     1     3
 -3.7358463619378362E+01 a        64     0     3     1     4
 -1.3623289784953165E+01 a        65     0     3     1     5
 -4.2083386854662940E+01 a        66     0     3     1     6
  2.3142150412068605E+00 a        67     0     3     1     7
 -2.0038427354506378E+01 a        68     0     3     1     8
 -1.1265825738973110E+01 a        69     0     3     1     9
  6.8528050103253278E+01 a        70     0     3     1    10
 -1.7544598469970939E+01 a        71     0     3     1    11
  2.5893630985095264E+01 a        72     0     3     1    12
 -7.4247871515460009E+00 a        73     0     3     1    13
 -3.2190742072662717E+00 a        74     0     3     1    14
  1.2056288177919162E+01 a        75     0     3     1    15
 -3.4069005600531163E+01 a        76     0     3     1    16
 -2.8466779288022991E+01 a        77     0     3     1    17
  6.9593537324906540E-01 a        78     0     3     1    18
 -1.4814819989906873E+01 a        79     0     3     1    19
 -1.2321625598130906E+01 a        80     0     3     1    20
 -2.2211988329572364E+01 a        81     0     3     1    21
 -1.3692965518662673E+01 a        82     0     3     1    22
 -1.7178161666775015E+01 a        83     0     3     1    23
  3.3668879927887382E+01 a        84     0     3     1    24
 -1.7393537104394625E+01 a        85     0     3     1    25
  6.4129124333385557E+00 a        86     0     3     1    26
  3.3317181811467944E+00 a        87     0     3     1    27
 -1.6552960779548873E+00 a        88     0     3     1    28
  8.6498627684322447E+00 a        89     0     3     1    29
 -7.3636687287608860E-01 a        90     0     3     1    30
  1.2781746510186540E+01 a        91     0     4     1     1
  2.9676928009844758E+01 a        92     0     4     1     2
  1.6792891945667376E+00 a        93     0     4     1     3
  6.5205666201755406E+01 a        94     0     4     1     4
 -2.9408846863373483E+01 a        95     0     4     1     5
  2.5963116878777210E+01 a        96     0     4     1     6
 -4.0518188278371618E+01 a        97     0     4     1     7
  3.8440696927575990E+00 a        98     0     4     1     8
 -7.4437784743178028E+00 a        99     0     4     1     9
 -6.3724642989628265E+01 a       100     0     4     1    10
 -3.1273268314215894E+00 a       101     0     4     1    11
 -4.2779404851112133E+01 a       102     0     4     1    12
 -3.1439254700937020E+00 a       103     0     4     1    13
  2.1471927493595327E+01 a       104     0     4     1    14
  3.1757725692949919E+01 a       105     0     4     1    15
  5.3211817405917479E+01 a       106     0     4     1    16
 -1.6548544405858197E+00 a       107     0     4     1    17
 -1.5359697438520801E+01 a       108     0     4     1    18
  1.4604322283908154E+01 a       109     0     4     1    19
  2.4791578373038679E+01 a       110     0     4     1    20
  8.1681729156888844E-02 a       111     0     4     1    21
  1.2734925424238268E+00 a       112     0     4     1    22
  3.4818278457887303E+01 a       113     0     4     1    23
 -1.9036132243108295E+01 a       114     0     4     1    24
 -1.3279991624130618E+00 a       115     0     4     1    25
 -4.1173893003138510E+01 a       116     0     4     1    26
 -1.5211758329349745E+01 a       117     0     4     1    27
  6.3025862644831427E+00 a       118     0     4     1    28
  1.0964406820875179E+00 a       119     0     4     1    29
  3.9192141682522075E+00 a       120     0     4     1    30
  1.9082491872005664E-01 a       121     0     5     1     1
  1.1685254173655151E+01 a       122     0     5     1     2
 -9.2318114591731379E-02 a       123     0     5     1     3
  1.3264957576132073E+01 a       124     0     5     1     4
  1.2757041820300610E-01 a       125     0     5     1     5
  9.4602730602625158E+00 a       126     0     5     1     6
 -8.4508857216494135E+00 a       127     0     5     1     7
  1.2144673328199460E+01 a       128     0     5     1     8
  5.0884314995796653E-01 a       129     0     5     1     9
 -1.2924104332814096E-01 a       130     0     5     1    10
 -2.3788008231690068E+00 a       131     0     5     1    11
 -3.4956811211736727E+00 a       132     0     5     1    12
 -3.2581303432936610E+00 a       133     0     5     1    13
 -9.7885318069926730E-01 a       134     0     5     1    14
 -1.7315404274007573E+00 a       135     0     5     1    15
 -7.8380600787394550E-01 a       136     0     5     1    16
  1.0818069772759114E+00 a       137     0     5     1    17
 -4.9565448585595169E+00 a       138     0     5     1    18
 -5.3582593733405313E+00 a       139     0     5     1    19
  9.8539696894138178E+00 a       140     0     5     1    20
 -8.8132980360524760E-01 a       141     0     5     1    21
  1.7900847101154682E+00 a       142     0     5     1    22
  5.4897699213548785E+00 a       143     0     5     1    23
 -7.7011738268886702E+00 a       144     0     5     1    24
  2.5972870537833930E+00 a       145     0     5     1    25
 -1.7612089498311632E+00 a       146     0     5     1    26
 -8.9852353319902392E+00 a       147     0     5     1    27
  8.9610756682557540E+00 a       148     0     5     1    28
  1.8069963963499545E+00 a       149     0     5     1    29
 -1.0686444677698548E+00 a       150     0     5     1    30
 -5.7170415488042323E+00 a       151     0     6     1     1
 -6.6491428732017495E+00 a       152     0     6     1     2
  8.7871578279488816E+00 a       153     0     6     1     3
 -1.5157633528419424E+01 a       154     0     6     1     4
  2.7816750317877055E+01 a       155     0     6     1     5
  4.9367904368153681E+00 a       156     0     6     1     6
  5.4569028446289125E-01 a       157     0     6     1     7
  1.0379711054076857E+01 a       158     0     6     1     8
  8.4700670740196706E+00 a       159     0     6     1     9
  3.6933051416171154E+00 a       160     0     6     1    10
 -4.5486092488704516E-01 a       161     0     6     1    11
  1.4706860522571509E+01 a       162     0     6     1    12
  4.8890233641638392E-01 a       163     0     6     1    13
 -7.3656737975246598E+00 a       164     0     6     1    14
 -1.3318145560196120E+01 a       165     0     6     1    15
 -1.3315725003249785E+01 a       166     0     6     1    16
  1.4059621452366459E+01 a       167     0     6     1    17
  2.5573251350213728E+00 a       168     0     6     1    18
 -1.1281344691074029E+01 a       169     0     6     1    19
 -3.5137898647760318E-01 a       170     0     6     1    20
  2.6519433911020402E+00 a       171     0     6     1    21
  1.1506008663059228E+01 a       172     0     6     1    22
 -1.1585718930076309E+01 a       173     0     6     1    23
 -3.5554328036354166E+00 a       174     0     6     1    24
  7.6573900993527531E+00 a       175     0     6     1    25
  2.2593487368013019E+01 a       176     0     6     1    26
  1.0925255206359886E+01 a       177     0     6     1    27
  4.4784399681939533E+00 a       178     0     6     1    28
  1.5885668320529494E+00 a       179     0     6     1    29
 -7.1777560835734944E-01 a       180     0     6     1    30
 -8.1920207971014030E+00 a       181     0     7     1     1
  8.6884431919802925E+00 a       182     0     7     1     2
  3.7296127349232568E+00 a       183     0     7     1     3
  1.0259520821730352E+01 a       184     0     7     1     4
  1.2633433483450647E+01 a       185     0     7     1     5
  1.9336192509924363E+01 a       186     0     7     1     6
 -1.0399859248263517E+00 a       187     0     7     1     7
  1.7480750191897766E+01 a       188     0     7     1     8
  1.1036499504496804E+01 a       189     0     7     1     9
 -8.6182873949004311E+00 a       190     0     7     1    10
  4.1296368290666718E+00 a       191     0     7     1    11
 -1.9896878895210874E+00 a       192     0     7     1    12
 -2.9007508347085071E+00 a       193     0     7     1    13
 -3.7203874565442780E+00 a       194     0     7     1    14
 -1.3210892337425570E+01 a       195     0     7     1    15
 -2.0423833099772465E-01 a       196     0     7     1    16
  1.1847085087589939E+01 a       197     0     7     1    17
 -3.0835048290936347E+00 a       198     0     7     1    18
 -8.7717056676453247E+00 a       199     0     7     1    19
  6.9487517417305602E+00 a       200     0     7     1    20
  7.5158415803347278E+00 a       201     0     7     1    21
  4.8121285874874342E+00 a       202     0     7     1    22
  1.7980232104307550E+00 a       203     0     7     1    23
 -1.4267487378024596E+01 a       204     0     7     1    24
  1.0073031213347384E+01 a       205     0     7     1    25
  7.2531739151218115E+00 a       206     0     7     1    26
 -8.3749299709490288E-01 a       207     0     7     1    27
  6.8903858368521025E+00 a       208     0     7     1    28
 -5.8059840437830068E-01 a       209     0     7     1    29
 -4.0833562917102935E+00 a       210     0     7     1    30
 -3.7984173557390288E-01 a       211     0     8     1     1
  1.2547355526538235E+00 a       212     0     8     1     2
 -1.8270491035958152E+00 a       213     0     8     1     3
  5.3549417351639528E-01 a       214     0     8     1     4
 -3.1516973532095065E+00 a       215     0     8     1     5
 -2.3314624697412867E-01 a       216     0     8     1     6
  2.9279910260016693E+00 a       217     0     8     1     7
 -6.8592479911402815E-01 a       218     0     8     1     8
 -4.6913627108562073E-01 a       219     0     8     1     9
  1.7573778683804608E+00 a       220     0     8     1    10
  1.2943472155274169E+00 a       221     0     8     1    11
 -1.0393382038427514E+00 a       222     0     8     1    12
 -2.6324472900969942E-01 a       223     0     8     1    13
 -2.6305023312317427E-01 a       224     0     8     1    14
 -8.4272643787894586E-01 a       225     0     8     1    15
 -3.6992249084239959E-01 a       226     0     8     1    16
 -8.6242179875178859E-01 a       227     0     8     1    17
  4.5902033672724196E-01 a       228     0     8     1    18
  7.6468763241027815E-01 a       229     0     8     1    19
 -7.8709079385840852E-01 a       230     0     8     1    20
 -1.2134862676935079E-01 a       231     0     8     1    21
 -2.1962592574346402E+00 a       232     0     8     1    22
  7.7639948139641501E-01 a       233     0     8     1    23
 -3.5767635206925846E-01 a       234     0     8     1    24
 -3.4426827875744148E-01 a       235     0     8     1    25
 -1.5224162683577764E+00 a       236     0     8     1    26
 -1.4794421464492156E+00 a       237     0     8     1    27
 -7.5142931592561557E-01 a       238     0     8     1    28
 -5.5984725172486566E-02 a       239     0     8     1    29
 -4.5960075544303869E-01 a       240     0     8     1    30
 -7.9312040405565218E+00 a       241     0     9     1     1
  5.7401833931063733E+00 a       242     0     9     1     2
 -1.3814619431704231E+00 a       243     0     9     1     3
  2.1563804769574699E+00 a       244     0     9     1     4
  5.1410082961327799E+00 a       245     0     9     1     5
  1.3106987493071994E+01 a       246     0     9     1     6
  1.3481907315103941E+01 a       247     0     9     1     7
  1.3402418821385639E+01 a       248     0     9     1     8
  7.3815949205321783E+00 a       249     0     9     1     9
  5.5211748348852536E+00 a       250     0     9     1    10
  8.0237635096314825E+00 a       251     0     9     1    11
  1.3921731506606518E+00 a       252     0     9     1    12
 -1.5024280285718163E+00 a       253     0     9     1    13
 -7.3496387972121715E+00 a       254     0     9     1    14
 -1.8297107057718463E+01 a       255     0     9     1    15
 -8.7952789005641243E+00 a       256     0     9     1    16
  6.3823999017160054E+00 a       257     0     9     1    17
  1.3663049990268603E+00 a       258     0     9     1    18
 -3.6892837458295582E+00 a       259     0     9     1    19
  1.6885015420012039E-01 a       260     0     9     1    20
  7.2729656745676792E+00 a       261     0     9     1    21
 -2.4162606329423708E-01 a       262     0     9     1    22
 -2.5538741687731989E+00 a       263     0     9     1    23
 -1.0784548542627524E+01 a       264     0     9     1    24
  7.7918556173456777E+00 a       265     0     9     1    25
  8.5331620826484009E+00 a       266     0     9     1    26
 -2.0815469316250188E+00 a       267     0     9     1    27
  4.1112518333307255E+00 a       268     0     9     1    28
 -2.4535190914052274E+00 a       269     0     9     1    29
 -2.5069453716836070E+00 a       270     0     9     1    30
 -1.6005864840554145E+00 a       271     0    10     1     1
  7.3415350718912964E-01 a       272     0    10     1     2
 -1.0756453579893523E+00 a       273     0    10     1     3
  5.3083227779026076E-01 a       274     0    10     1     4
 -4.9469711405064903E-01 a       275     0    10     1     5
  1.3953671926175470E+00 a       276     0    10     1     6
  3.1362095398536307E+00 a       277     0    10     1     7
  1.9513374823318601E+00 a       278     0    10     1     8
  1.3564431111106798E+00 a       279     0    10     1     9
  1.2297306426543577E+00 a       280     0    10     1    10
  1.4658528237431010E+00 a       281     0    10     1    11
 -3.3507676873678571E-01 a       282     0    10     1    12
 -2.4257232506907318E-02 a       283     0    10     1    13
 -1.1235720720922027E+00 a       284     0    10     1    14
 -3.1988159603111526E+00 a       285     0    10     1    15
 -1.3182704823581650E+00 a       286     0    10     1    16
 -3.2989313171394019E-01 a       287     0    10     1    17
  3.1888508854359920E-01 a       288     0    10     1    18
  4.1344606940904705E-01 a       289     0    10     1    19
 -4.6810164077595845E-01 a       290     0    10     1    20
  1.7287317103731525E+00 a       291     0    10     1    21
 -9.2922478066909775E-01 a       292     0    10     1    22
 -2.1721473062850424E-01 a       293     0    10     1    23
 -1.1086459154152126E+00 a       294     0    10     1    24
  9.4509222673879867E-01 a       295     0    10     1    25
  1.9817454998856335E-01 a       296     0    10     1    26
 -1.1381658496145244E+00 a       297     0    10     1    27
 -1.8846702117670089E-01 a       298     0    10     1    28
 -1.0806052151247114E+00 a       299     0    10     1    29
 -3.6821383285930792E-01 a       300     0    10     1    30
 -2.6296334999994318E+01 a       301     0    11     1     1
 -1.6324314662597050E+00 a       302     0    11     1     2
 -2.4383104193324495E+01 a       303     0    11     1     3
  2.8201547971599446E+01 a       304     0    11     1     4
 -3.3980575397443419E-01 a       305     0    11     1     5
 -3.8908684130598004E+00 a       306     0    11     1     6
 -3.0677584953631385E+01 a       307     0    11     1     7
 -1.5447862472450938E+01 a       308     0    11     1     8
  1.1844072492686095E+01 a       309     0    11     1     9
 -4.1805363126973901E+01 a       310     0    11     1    10
 -3.2037323080785618E+00 a       311     0    11     1    11
 -1.9602321560542141E+01 a       312     0    11     1    12
  5.8599432829335045E+00 a       313     0    11     1    13
  2.5950127955140477E+01 a       314     0    11     1    14
 -1.6138169230911995E+01 a       315     0    11     1    15
  1.2378083227960701E+01 a       316     0    11     1    16
 -3.9183476147007683E+00 a       317     0    11     1    17
  2.6141400872395305E+01 a       318     0    11     1    18
  1.8673569091160857E+01 a       319     0    11     1    19
 -3.7965525712330582E+01 a       320     0    11     1    20
 -1.1809652285088543E+01 a       321     0    11     1    21
  5.5525992479385042E+00 a       322     0    11     1    22
  6.5715950473837781E+00 a       323     0    11     1    23
 -5.3486191983851690E+00 a       324     0    11     1    24
 -1.1410235428049543E+01 a       325     0    11     1    25
  7.5289095475569576E+00 a       326     0    11     1    26
  1.7186465517184423E+01 a       327     0    11     1    27
 -1.8872148274252556E+01 a       328     0    11     1    28
  3.8440407539543160E+00 a       329     0    11     1    29
  1.0510171991255771E+01 a       330     0    11     1    30
 -4.6860757523475307E+00 a       331     0    12     1     1
 -7.0758773139201923E+00 a       332     0    12     1     2
  1.7856556238343174E+01 a       333     0    12     1     3
 -8.3031354226362346E+00 a       334     0    12     1     4
 -1.0417337406759565E+01 a       335     0    12     1     5
 -2.4330963192930618E+01 a       336     0    12     1     6
  2.8230953568732694E+01 a       337     0    12     1     7
 -2.6631554340800207E+01 a       338     0    12     1     8
 -1.5232371432038068E+01 a       339     0    12     1     9
  1.6821444567512085E+01 a       340     0    12     1    10
 -2.9442529521524556E+00 a       341     0    12     1    11
  3.0295572280363089E+01 a       342     0    12     1    12
  8.2137521048326079E+00 a       343     0    12     1    13
 -8.2397023447956865E+00 a       344     0    12     1    14
 -1.1333125449340676E+01 a       345     0    12     1    15
  2.5173170892354104E+00 a       346     0    12     1    16
  6.1168453728695216E+00 a       347     0    12     1    17
  1.0953144258313751E+01 a       348     0    12     1    18
  1.9929035288703354E+01 a       349     0    12     1    19
 -1.8835612341786701E+00 a       350     0    12     1    20
  3.6466933047092596E+00 a       351     0    12     1    21
 -8.3686997945321604E+00 a       352     0    12     1    22
  1.5572199718895469E+01 a       353     0    12     1    23
  1.2354170013885753E+01 a       354     0    12     1    24
 -2.3178014006529239E+01 a       355     0    12     1    25
  1.3851493205645943E+01 a       356     0    12     1    26
 -3.8669429425793154E+00 a       357     0    12     1    27
  7.9173005890252917E+00 a       358     0    12     1    28
  2.9832739872460085E-01 a       359     0    12     1    29
  1.7092852519264412E+01 a       360     0    12     1    30
 -3.7543692081118549E+00 a       361     0    13     1     1
 -3.1463694766469428E+00 a       362     0    13     1     2
  9.3764340299431854E+00 a       363     0    13     1     3
  3.0279747589323223E+00 a       364     0    13     1     4
  1.1730440742215091E+01 a       365     0    13     1     5
 -2.1247783284446339E+01 a       366     0    13     1     6
 -4.6471797969162285E+00 a       367     0    13     1     7
  2.3500009548442216E+00 a       368     0    13     1     8
 -1.4732285424343880E+01 a       369     0    13     1     9
 -1.3569291226852604E+00 a       370     0    13     1    10
  4.8275821084436199E+00 a       371     0    13     1    11
  1.4747023686404447E+01 a       372     0    13     1    12
  8.9388023562596097E-01 a       373     0    13     1    13
  9.6277058936447695E+00 a       374     0    13     1    14
 -2.9638068669107684E+00 a       375     0    13     1    15
  5.3902465474752175E+00 a       376     0    13     1    16
  8.2382524268987147E+00 a       377     0    13     1    17
  1.2995686943770182E+00 a       378     0    13     1    18
 -4.5916276184269860E+00 a       379     0    13     1    19
  2.0669906756923876E+01 a       380     0    13     1    20
  1.0750481799881891E+01 a       381     0    13     1    21
  2.6350824317213966E+00 a       382     0    13     1    22
 -1.9811079258467152E+00 a       383     0    13     1    23
 -2.2761826262444811E+00 a       384     0    13     1    24
 -1.2474935324501105E+01 a       385     0    13     1    25
 -5.1864456737242399E+00 a       386     0    13     1    26
 -3.1675560660129875E+01 a       387     0    13     1    27
  1.8459281309175353E+00 a       388     0    13     1    28
 -1.7316626007473268E+01 a       389     0    13     1    29
 -1.5148617386965654E+01 a       390     0    13     1    30
 -3.1749205792744912E+00 a       391     0    14     1     1
 -8.3480410598123687E+00 a       392     0    14     1     2
  8.5591946012903577E+00 a       393     0    14     1     3
  4.4213413037106264E+00 a       394     0    14     1     4
  2.8454582513906807E+01 a       395     0    14     1     5
  1.4916849742352657E+01 a       396     0    14     1     6
 -5.3782748389257780E+00 a       397     0    14     1     7
  1.2931589682021691E+01 a       398     0    14     1     8
  2.2818222110331927E+01 a       399     0    14     1     9
 -1.1243336845444293E+01 a       400     0    14     1    10
 -2.3676057654819079E+01 a       401     0    14     1    11
 -1.7636261533714335E+00 a       402     0    14     1    12
 -1.2075625121630125E+01 a       403     0    14     1    13
 -4.3692795343565027E-01 a       404     0    14     1    14
 -8.6795957170656948E+00 a       405     0    14     1    15
  2.0129162954167853E+01 a       406     0    14     1    16
  5.7892144893443378E+00 a       407     0    14     1    17
  3.7284610316604514E+00 a       408     0    14     1    18
 -7.7105852544067544E+00 a       409     0    14     1    19
  3.8795703257287601E+00 a       410     0    14     1    20
  3.5308587397647093E+00 a       411     0    14     1    21
 -7.9010921459015169E+00 a       412     0    14     1    22
  9.9312318330772484E+00 a       413     0    14     1    23
 -2.1039338314147923E+01 a       414     0    14     1    24
  1.0702291998623133E+01 a       415     0    14     1    25
 -1.9815135541407269E+01 a       416     0    14     1    26
 -1.0831020402770171E+00 a       417     0    14     1    27
  1.8687123825368004E+00 a       418     0    14     1    28
  1.5607897656741949E+01 a       419     0    14     1    29
  1.8249837493426886E+00 a       420     0    14     1    30
  3.2564432437194326E+00 a       421     0    15     1     1
 -2.9912616697590360E+00 a       422     0    15     1     2
 -4.3185622599906122E+00 a       423     0    15     1     3
  3.9811552028976847E+00 a       424     0    15     1     4
 -9.0071484567226552E+00 a       425     0    15     1     5
  1.2381717098015219E+00 a       426     0    15     1     6
 -4.7594774219735489E+00 a       427     0    15     1     7
 -2.5540914377515187E+00 a       428     0    15     1     8
 -7.1478303556686418E-01 a       429     0    15     1     9
  5.2379607943422020E+00 a       430     0    15     1    10
 -2.2798051090214035E+00 a       431     0    15     1    11
  1.3435258617877106E+00 a       432     0    15     1    12
  1.0664232403052305E+00 a       433     0    15     1    13
  7.1956477654252060E+00 a       434     0    15     1    14
  4.3280152079523466E+00 a       435     0    15     1    15
  4.7039180045207418E+00 a       436     0    15     1    16
  6.8271879919711393E+00 a       437     0    15     1    17
  1.3182373169528339E+00 a       438     0    15     1    18
 -1.4686496716912807E+00 a       439     0    15     1    19
 -9.6782381257750707E+00 a       440     0    15     1    20
 -2.1877005033183412E+00 a       441     0    15     1    21
 -1.7172736531036772E+01 a       442     0    15     1    22
 -3.1373120030662567E+00 a       443     0    15     1    23
  3.3206826841554191E+00 a       444     0    15     1    24
 -3.7012397454292691E+00 a       445     0    15     1    25
 -1.8302135668719939E+00 a       446     0    15     1    26
 -1.9027883696663086E+01 a       447     0    15     1    27
  9.5435414333287056E+00 a       448     0    15     1    28
 -2.3004472669056469E+01 a       449     0    15     1    29
  1.1260150683027176E+01 a       450     0    15     1    30
  1.8186587621881896E+00 a       451     0    16     1     1
  5.9792929147020502E+00 a       452     0    16     1     2
 -8.0181517197982703E+00 a       453     0    16     1     3
  1.9014963084050556E+00 a       454     0    16     1     4
 -1.6291729345907214E+01 a       455     0    16     1     5
 -5.8951957159243629E-01 a       456     0    16     1     6
  5.0448525167542846E-01 a       457     0    16     1     7
  3.4310606402901436E+00 a       458     0    16     1     8
  8.1252742700856118E-01 a       459     0    16     1     9
  2.0142176500061893E+01 a       460     0    16     1    10
  1.6550145294360096E+01 a       461     0    16     1    11
 -1.1324459291376877E+01 a       462     0    16     1    12
  3.6369861294180437E+00 a       463     0    16     1    13
 -6.4081896167626899E+00 a       464     0    16     1    14
  1.0882671945851714E+01 a       465     0    16     1    15
 -5.5551838743852890E+00 a       466     0    16     1    16
 -5.5502041048314767E+00 a       467     0    16     1    17
 -2.2085862150357077E+01 a       468     0    16     1    18
 -2.0355967521059924E+01 a       469     0    16     1    19
  1.0142229746990264E+01 a       470     0    16     1    20
 -1.3773622647990473E+01 a       471     0    16     1    21
 -5.2877617064183919E+00 a       472     0    16     1    22
  3.1957822616601792E+00 a       473     0    16     1    23
  2.2486866066782397E-02 a       474     0    16     1    24
  2.5930782766141602E+00 a       475     0    16     1    25
 -4.2822128993627162E+00 a       476     0    16     1    26
  1.1538805528978763E+01 a       477     0    16     1    27
  7.2001862650360362E+00 a       478     0    16     1    28
 -5.6648667917195912E+00 a       479     0    16     1    29
 -1.0836226736272724E+01 a       480     0    16     1    30
  2.7617268040356020E+01 a       481     0    17     1     1
 -1.0192579749813584E+01 a       482     0    17     1     2
  1.6695678870805931E+01 a       483     0    17     1     3
 -4.7133203971453646E+01 a       484     0    17     1     4
  6.1328645845267493E+00 a       485     0    17     1     5
  1.2994608159686599E+01 a       486     0    17     1     6
  2.7279974772827405E+01 a       487     0    17     1     7
  3.1254816017149242E+01 a       488     0    17     1     8
  9.4832153256319440E+00 a       489     0    17     1     9
  4.3842345579957303E+01 a       490     0    17     1    10
 -1.8902256902382031E+00 a       491     0    17     1    11
  5.6703651569138147E+00 a       492     0    17     1    12
 -8.5361023331157710E+00 a       493     0    17     1    13
 -3.7435873253218006E+01 a       494     0    17     1    14
  1.5003360729217531E+01 a       495     0    17     1    15
 -5.1749132575586110E-01 a       496     0    17     1    16
 -1.1392605737769303E+01 a       497     0    17     1    17
 -3.0348924113236855E+01 a       498     0    17     1    18
 -2.0392881654024013E+01 a       499     0    17     1    19
  5.8663422749461532E+01 a       500     0    17     1    20
  2.3422405630744922E+01 a       501     0    17     1    21
 -1.0934512174381769E+01 a       502     0    17     1    22
  2.4833350334797242E+00 a       503     0    17     1    23
 -1.1505233485719304E+00 a       504     0    17     1    24
  3.4937335307604364E+01 a       505     0    17     1    25
 -1.6881117947822105E+01 a       506     0    17     1    26
 -4.5644626964109269E+00 a       507     0    17     1    27
  2.5907492364477772E+01 a       508     0    17     1    28
 -8.3338590922281020E-01 a       509     0    17     1    29
 -1.4985522479296502E+00 a       510     0    17     1    30
  1.5354213732788113E+01 a       511     0    18     1     1
  1.4202075479200976E+01 a       512     0    18     1     2
 -3.3897896724550352E+00 a       513     0    18     1     3
 -5.7729562872294640E+00 a       514     0    18     1     4
 -1.0565059536780330E+01 a       515     0    18     1     5
  1.8861032493946883E+01 a       516     0    18     1     6
 -8.3699673086696507E+00 a       517     0    18     1     7
  2.5490419251596411E+01 a       518     0    18     1     8
 -1.6639415443139168E+01 a       519     0    18     1     9
  1.0612946279934843E-02 a       520     0    18     1    10
  3.3900086214331154E+01 a       521     0    18     1    11
 -1.5045132097735978E+01 a       522     0    18     1    12
 -1.6960784173977224E+01 a       523     0    18     1    13
 -9.2925283392199809E+00 a       524     0    18     1    14
  3.4029174929010757E+01 a       525     0    18     1    15
 -1.0425149158116478E+00 a       526     0    18     1    16
 -9.3929717211430912E+00 a       527     0    18     1    17
 -3.4236323795763880E+01 a       528     0    18     1    18
 -2.6868255924134026E+01 a       529     0    18     1    19
  1.1048866296678016E+01 a       530     0    18     1    20
 -1.0010767823496387E+01 a       531     0    18     1    21
  8.6364359969779780E+00 a       532     0    18     1    22
 -3.4408463383635798E+01 a       533     0    18     1    23
 -5.6264562571667058E+00 a       534     0    18     1    24
  2.4814509558823133E+01 a       535     0    18     1    25
 -4.7315215787181097E+00 a       536     0    18     1    26
  6.8628257160100343E+00 a       537     0    18     1    27
  8.3864137555231155E-01 a       538     0    18     1    28
 -1.2247612300466276E+01 a       539     0    18     1    29
 -1.7447343332603843E+01 a       540     0    18     1    30
  9.3336897957956317E+00 a       541     0    19     1     1
  1.3449485645976480E+01 a       542     0    19     1     2
 -4.0049799643162940E+00 a       543     0    19     1     3
 -5.4153640119185589E+00 a       544     0    19     1     4
 -1.4839496379368109E+01 a       545     0    19     1     5
  3.7857899182825534E+01 a       546     0    19     1     6
  2.1126165163234209E+01 a       547     0    19     1     7
  1.4201079380178729E+00 a       548     0    19     1     8
  2.3539874800177575E+01 a       549     0    19     1     9
  1.5939608205971108E+01 a       550     0    19     1    10
 -7.6360043307870367E+00 a       551     0    19     1    11
 -2.1934231710414313E+01 a       552     0    19     1    12
 -4.5831858465615311E-01 a       553     0    19     1    13
 -2.2364552292932231E+01 a       554     0    19     1    14
  1.0353499296568772E+01 a       555     0    19     1    15
 -2.4168843994990436E+01 a       556     0    19     1    16
 -1.6487939022784055E+01 a       557     0    19     1    17
 -1.1388725590952978E+01 a       558     0    19     1    18
  5.5848681053832561E+00 a       559     0    19     1    19
 -3.6462915113178738E+01 a       560     0    19     1    20
 -2.7347192694627104E+01 a       561     0    19     1    21
 -2.8982420703439074E+00 a       562     0    19     1    22
  1.0466047408704895E+00 a       563     0    19     1    23
  1.9900253155031262E+00 a       564     0    19     1    24
  2.5305386133234329E+01 a       565     0    19     1    25
  1.0454734304178228E+01 a       566     0    19     1    26
  5.9084127684396300E+01 a       567     0    19     1    27
 -4.0889727048252289E-01 a       568     0    19     1    28
  3.7210554316607578E+01 a       569     0    19     1    29
  2.2458249539834721E+01 a       570     0    19     1    30
 -1.7845317679864980E+00 a       571     0    20     1     1
  2.0582357074224610E+01 a       572     0    20     1     2
 -2.8536391061050018E+01 a       573     0    20     1     3
  3.1562576043874468E+00 a       574     0    20     1     4
 -3.2355872267761640E+01 a       575     0    20     1     5
 -2.0616453843325684E+00 a       576     0    20     1     6
 -1.1238998604131513E+01 a       577     0    20     1     7
 -7.0683799451334144E+00 a       578     0    20     1     8
 -9.9175130528808673E+00 a       579     0    20     1     9
 -1.9108251305278803E-01 a       580     0    20     1    10
  2.5760995114010271E+01 a       581     0    20     1    11
 -1.9732136275817883E+01 a       582     0    20     1    12
  1.9948032159905885E+01 a       583     0    20     1    13
  1.6804369336277471E+01 a       584     0    20     1    14
  2.1301491550596062E+01 a       585     0    20     1    15
 -3.8597041107056079E+01 a       586     0    20     1    16
 -4.6675929703493557E-01 a       587     0    20     1    17
 -1.0792376756219486E+01 a       588     0    20     1    18
 -5.1020105504839481E+00 a       589     0    20     1    19
 -3.4178338195962108E+00 a       590     0    20     1    20
 -4.3007633336314859E+00 a       591     0    20     1    21
  1.1593223554092368E+01 a       592     0    20     1    22
 -2.1552644929173976E+01 a       593     0    20     1    23
  2.5339690335120270E+01 a       594     0    20     1    24
 -5.3598110449358050E+00 a       595     0    20     1    25
  2.7550789394022871E+01 a       596     0    20     1    26
  7.6437274162778417E+00 a       597     0    20     1    27
 -1.8444616242503201E+01 a       598     0    20     1    28
 -1.9183108493690039E+01 a       599     0    20     1    29
 -2.1673547167326344E+01 a       600     0    20     1    30
 -9.1668805395123858E+00 a       601     0    21     1     1
 -1.5706146483363661E+00 a       602     0    21     1     2
  9.2282816969582964E+00 a       603     0    21     1     3
 -1.0181969189554506E+01 a       604     0    21     1     4
  1.0648625033409525E+01 a       605     0    21     1     5
  5.3389484265365539E-01 a       606     0    21     1     6
  5.9532326611150985E+00 a       607     0    21     1     7
  5.5193303920106584E-01 a       608     0    21     1     8
  4.4935147808424940E+00 a       609     0    21     1     9
 -1.4107024927378113E+01 a       610     0    21     1    10
 -1.8554938951629338E+00 a       611     0    21     1    11
 -4.7818078893342388E+00 a       612     0    21     1    12
 -3.8659946332984609E+00 a       613     0    21     1    13
 -1.2030413951886276E+01 a       614     0    21     1    14
 -1.8759946454181250E+01 a       615     0    21     1    15
 -7.8548141609613280E+00 a       616     0    21     1    16
 -9.8881672757382688E+00 a       617     0    21     1    17
 -1.3090963283945525E+00 a       618     0    21     1    18
  5.6817751013819473E-01 a       619     0    21     1    19
  2.2332161409623819E+01 a       620     0    21     1    20
  9.7650699913717602E+00 a       621     0    21     1    21
  3.5145856851210311E+01 a       622     0    21     1    22
  9.1219600650833055E+00 a       623     0    21     1    23
 -1.0012137227216749E+01 a       624     0    21     1    24
  7.7275368188397842E+00 a       625     0    21     1    25
  4.2471404638644206E+00 a       626     0    21     1    26
  3.9413641805711748E+01 a       627     0    21     1    27
 -2.5484835336743640E+01 a       628     0    21     1    28
  5.2106215507798588E+01 a       629     0    21     1    29
 -2.4227733868952981E+01 a       630     0    21     1    30
 -4.8077467293695832E+00 a       631     0    22     1     1
 -1.0650738342194549E+01 a       632     0    22     1     2
  8.2595788090104083E+00 a       633     0    22     1     3
 -4.3973699527189929E+00 a       634     0    22     1     4
  2.9490604601091853E+01 a       635     0    22     1     5
 -2.9435091347599268E-01 a       636     0    22     1     6
 -3.5875878540458185E-02 a       637     0    22     1     7
 -3.3563666221532285E+00 a       638     0    22     1     8
  9.2957156966553145E-01 a       639     0    22     1     9
 -3.0605619597352103E+01 a       640     0    22     1    10
 -2.2473960373708898E+01 a       641     0    22     1    11
  1.8957574189228097E+01 a       642     0    22     1    12
 -4.3172026298785457E+00 a       643     0    22     1    13
  7.3470628120305399E+00 a       644     0    22     1    14
 -1.6582476823680572E+01 a       645     0    22     1    15
  6.9222960182455004E+00 a       646     0    22     1    16
  5.3879712484786362E+00 a       647     0    22     1    17
  3.4740501019460403E+01 a       648     0    22     1    18
  3.3045116034187153E+01 a       649     0    22     1    19
 -1.8463239974061050E+01 a       650     0    22     1    20
  2.2446839439950441E+01 a       651     0    22     1    21
  1.0166161820628540E+01 a       652     0    22     1    22
 -3.5833607327411436E+00 a       653     0    22     1    23
  2.9425338957831326E+00 a       654     0    22     1    24
 -4.8527989943085004E+00 a       655     0    22     1    25
  1.0421101451247303E+01 a       656     0    22     1    26
 -1.7238251193418638E+01 a       657     0    22     1    27
 -1.2638826842479732E+01 a       658     0    22     1    28
  9.6892336436538375E+00 a       659     0    22     1    29
  1.8900107251468672E+01 a       660     0    22     1    30
  6.7570213024552555E+00 a       661     0    23     1     1
  1.5020387561922501E+01 a       662     0    23     1     2
  5.5681889291739353E+00 a       663     0    23     1     3
  1.3143162435796141E+01 a       664     0    23     1     4
 -1.2115664244709634E+00 a       665     0    23     1     5
 -1.6615930932698969E+01 a       666     0    23     1     6
  6.3845389221768905E+00 a       667     0    23     1     7
 -1.3850492520471235E+01 a       668     0    23     1     8
 -9.9622681763607321E+00 a       669     0    23     1     9
  1.0088034910409212E+01 a       670     0    23     1    10
 -5.9282091759194913E+00 a       671     0    23     1    11
  1.5741464837762118E+01 a       672     0    23     1    12
 -2.0114100162446663E-02 a       673     0    23     1    13
  2.0594809917982193E+01 a       674     0    23     1    14
 -1.6322757964706542E+00 a       675     0    23     1    15
 -2.6419272541749233E+01 a       676     0    23     1    16
  2.6023853589532582E+01 a       677     0    23     1    17
 -1.6981533067909722E+00 a       678     0    23     1    18
  3.9235735434063317E+00 a       679     0    23     1    19
 -1.0924209102955658E+01 a       680     0    23     1    20
 -7.7748440044364315E+00 a       681     0    23     1    21
  2.0459386570944980E+00 a       682     0    23     1    22
 -4.5471751113573760E+00 a       683     0    23     1    23
  1.0269676165096222E+01 a       684     0    23     1    24
 -3.1114284104971414E+01 a       685     0    23     1    25
  9.5211549376360747E+00 a       686     0    23     1    26
 -1.9417225694108584E+01 a       687     0    23     1    27
 -6.8131126658658836E+00 a       688     0    23     1    28
 -2.5713783242416395E+00 a       689     0    23     1    29
 -2.3454683930804215E+01 a       690     0    23     1    30
 -1.5655008022022395E+01 a       691     0    24     1     1
  5.2688489431745100E-01 a       692     0    24     1     2
 -1.2528530240987962E+01 a       693     0    24     1     3
  3.1391364311865413E+01 a       694     0    24     1     4
  2.4460212495097633E+01 a       695     0    24     1     5
  1.4841544854267392E+01 a       696     0    24     1     6
 -2.5386116692265755E+01 a       697     0    24     1     7
 -9.7926893221560007E+00 a       698     0    24     1     8
 -2.8256011204371885E-03 a       699     0    24     1     9
 -3.2182613854475342E+01 a       700     0    24     1    10
 -2.2822574683010426E+01 a       701     0    24     1    11
 -1.5826459920796912E+01 a       702     0    24     1    12
  1.1827219340057587E+01 a       703     0    24     1    13
  1.5408588365010392E+01 a       704     0    24     1    14
 -9.4362653547654070E+00 a       705     0    24     1    15
  5.3219942841429804E+00 a       706     0    24     1    16
  3.8682204314119906E+00 a       707     0    24     1    17
  2.7857370713930212E+01 a       708     0    24     1    18
 -2.1317784530920059E+00 a       709     0    24     1    19
 -2.6210008375001884E+01 a       710     0    24     1    20
 -8.5130745791468598E+00 a       711     0    24     1    21
  9.5795579769069299E+00 a       712     0    24     1    22
  4.9153238517099949E+00 a       713     0    24     1    23
 -9.7684735630544353E+00 a       714     0    24     1    24
 -2.9295281388074303E+00 a       715     0    24     1    25
 -8.4924170311653349E+00 a       716     0    24     1    26
  4.5875075584569460E+00 a       717     0    24     1    27
 -1.0752254736059479E+01 a       718     0    24     1    28
  9.0439551653090486E+00 a       719     0    24     1    29
 -4.9854763125478367E+00 a       720     0    24     1    30
 -6.1093843412483828E+00 a       721     0    25     1     1
 -1.3858701602407542E+01 a       722     0    25     1     2
 -1.0619526230606706E+01 a       723     0    25     1     3
  4.1194976872302016E+00 a       724     0    25     1     4
 -6.4576475024674196E-01 a       725     0    25     1     5
 -2.0362773859137281E+01 a       726     0    25     1     6
 -2.2701388060328554E+01 a       727     0    25     1     7
 -7.6668918723658539E+00 a       728     0    25     1     8
 -1.3823430958105483E+01 a       729     0    25     1     9
 -2.2242940454101909E+01 a       730     0    25     1    10
  6.2710420057676446E+00 a       731     0    25     1    11
  9.2685513412079157E+00 a       732     0    25     1    12
 -8.5303658338903210E-01 a       733     0    25     1    13
  1.6328687322598494E+01 a       734     0    25     1    14
 -1.1213138093606139E+01 a       735     0    25     1    15
  2.8031863355184775E+01 a       736     0    25     1    16
  1.0459350735710640E+01 a       737     0    25     1    17
  1.5079612156779030E+01 a       738     0    25     1    18
 -6.8295066982030450E-01 a       739     0    25     1    19
  1.9327255916584281E+01 a       740     0    25     1    20
  1.9418830648583175E+01 a       741     0    25     1    21
  2.2104861874448956E+00 a       742     0    25     1    22
  1.7294343976484499E+00 a       743     0    25     1    23
  1.3489970031080015E-01 a       744     0    25     1    24
 -1.7862347231651007E+01 a       745     0    25     1    25
 -5.5453402659324169E+00 a       746     0    25     1    26
 -3.9850076876629878E+01 a       747     0    25     1    27
 -3.1409928095455668E+00 a       748     0    25     1    28
 -2.4958045890144085E+01 a       749     0    25     1    29
 -6.6139298722959801E+00 a       750     0    25     1    30
  4.2623647371789657E+00 a       751     0    26     1     1
 -2.0492614571438065E+01 a       752     0    26     1     2
  1.6835392555081540E+01 a       753     0    26     1     3
 -1.3217079147118845E+01 a       754     0    26     1     4
  6.0691528963993973E+00 a       755     0    26     1     5
 -1.5063352434508081E+01 a       756     0    26     1     6
  2.0224308795110169E+01 a       757     0    26     1     7
 -7.3687427740765687E-01 a       758     0    26     1     8
  3.5907053883898610E+00 a       759     0    26     1     9
  1.4188476180013025E+01 a       760     0    26     1    10
 -1.0157738744098685E+01 a       761     0    26     1    11
  2.4375147880139490E+01 a       762     0    26     1    12
 -8.8316944237626149E+00 a       763     0    26     1    13
 -1.7151720798975870E+01 a       764     0    26     1    14
 -3.0052484615768005E+01 a       765     0    26     1    15
  1.7863798878928169E+01 a       766     0    26     1    16
 -9.9667269599662536E+00 a       767     0    26     1    17
  1.6325590685767960E+01 a       768     0    26     1    18
  2.5423258563019651E+01 a       769     0    26     1    19
  1.3109989298508895E+00 a       770     0    26     1    20
  9.9993220532972629E+00 a       771     0    26     1    21
 -8.8762316048317160E+00 a       772     0    26     1    22
  2.3447815679251573E+01 a       773     0    26     1    23
 -4.6185519991076553E+00 a       774     0    26     1    24
 -8.4932953107373237E+00 a       775     0    26     1    25
 -1.0741358526386140E+01 a       776     0    26     1    26
 -9.4644374636372959E+00 a       777     0    26     1    27
  1.6561982704559608E+01 a       778     0    26     1    28
  9.5994823550245716E+00 a       779     0    26     1    29
  3.1419658639928926E+01 a       780     0    26     1    30
  5.3489124677292157E+00 a       781     0    27     1     1
  1.0042561122400560E+01 a       782     0    27     1     2
 -6.8914009797993554E+00 a       783     0    27     1     3
  9.8966641674180078E+00 a       784     0    27     1     4
  3.5475216293745717E+00 a       785     0    27     1     5
 -5.2341881573496281E+00 a       786     0    27     1     6
  2.9581159743191185E+00 a       787     0    27     1     7
  6.7220616085300708E+00 a       788     0    27     1     8
 -8.6855377072222808E+00 a       789     0    27     1     9
  1.4629559659979382E+01 a       790     0    27     1    10
  9.3087286670736553E+00 a       791     0    27     1    11
  5.0432569139661307E+00 a       792     0    27     1    12
  5.6956351570175983E+00 a       793     0    27     1    13
  4.6698988922653983E+00 a       794     0    27     1    14
  2.9236564352541230E+01 a       795     0    27     1    15
  4.6841781450694713E+00 a       796     0    27     1    16
  8.8852526436022383E-01 a       797     0    27     1    17
 -1.1000103457739854E+00 a       798     0    27     1    18
  3.6828334072858349E+00 a       799     0    27     1    19
 -1.9501921086482447E+01 a       800     0    27     1    20
 -1.3329305171438593E+01 a       801     0    27     1    21
 -2.6587300160182476E+01 a       802     0    27     1    22
 -1.2049708309497422E+01 a       803     0    27     1    23
  1.3812069232130547E+01 a       804     0    27     1    24
 -6.7751190136061279E+00 a       805     0    27     1    25
 -4.2173533030207286E+00 a       806     0    27     1    26
 -2.6712447429094144E+01 a       807     0    27     1    27
  2.6455029156359743E+01 a       808     0    27     1    28
 -4.7179055828454331E+01 a       809     0    27     1    29
  1.6822434120626014E+01 a       810     0    27     1    30
  3.9214815097553126E+00 a       811     0    28     1     1
  5.4777120780304669E+00 a       812     0    28     1     2
  1.3229668561724901E+00 a       813     0    28     1     3
  2.8520841324898845E+00 a       814     0    28     1     4
 -1.6440678409194678E+01 a       815     0    28     1     5
  1.0048922474040485E+00 a       816     0    28     1     6
 -5.2754471095430344E-01 a       817     0    28     1     7
 -9.9650640297124027E-01 a       818     0    28     1     8
 -2.3915662027707585E+00 a       819     0    28     1     9
  1.3288291022801108E+01 a       820     0    28     1    10
  7.2308670371313752E+00 a       821     0    28     1    11
 -9.8889759543791111E+00 a       822     0    28     1    12
  7.0186650914612270E-01 a       823     0    28     1    13
 -1.2234378892181108E+00 a       824     0    28     1    14
  7.0164545748095719E+00 a       825     0    28     1    15
 -6.2679162849707704E-01 a       826     0    28     1    16
 -3.6784866830048479E-01 a       827     0    28     1    17
 -1.5869015045663557E+01 a       828     0    28     1    18
 -1.6746043095568741E+01 a       829     0    28     1    19
  1.0747218963541945E+01 a       830     0    28     1    20
 -1.1386397298067395E+01 a       831     0    28     1    21
 -5.8473625427369269E+00 a       832     0    28     1    22
  7.6015702817764019E-01 a       833     0    28     1    23
 -3.5496931586830640E+00 a       834     0    28     1    24
  2.8451082365446245E+00 a       835     0    28     1    25
 -8.3692179320521909E+00 a       836     0    28     1    26
  8.5614213673228381E+00 a       837     0    28     1    27
  7.7886845938145388E+00 a       838     0    28     1    28
 -5.4411847305614449E+00 a       839     0    28     1    29
 -9.8719671577894506E+00 a       840     0    28     1    30
 -7.5989201968863052E+00 a       841     0    29     1     1
 -4.5659472872404621E+00 a       842     0    29     1     2
 -1.6774490010175622E+00 a       843     0    29     1     3
  1.2898757877502682E+01 a       844     0    29     1     4
 -4.1575503031518855E+00 a       845     0    29     1     5
  6.5176529648611004E+00 a       846     0    29     1     6
 -1.3138019640495588E+00 a       847     0    29     1     7
  1.1350811520485751E+00 a       848     0    29     1     8
 -9.2469269763058914E+00 a       849     0    29     1     9
 -1.4523429866956855E+01 a       850     0    29     1    10
  2.1269316717192407E+01 a       851     0    29     1    11
 -1.1973332092670615E+01 a       852     0    29     1    12
  3.5673867961992889E-01 a       853     0    29     1    13
 -8.5883760370240765E+00 a       854     0    29     1    14
  3.5289093686417567E+00 a       855     0    29     1    15
  1.4258099876483195E+01 a       856     0    29     1    16
 -1.2350152116076153E+01 a       857     0    29     1    17
 -7.0376360522655768E+00 a       858     0    29     1    18
 -3.7271443626627865E+00 a       859     0    29     1    19
 -6.5687366395028812E+00 a       860     0    29     1    20
 -3.0816970472089307E+00 a       861     0    29     1    21
  1.8548820527003118E+00 a       862     0    29     1    22
 -5.8561430655691160E-01 a       863     0    29     1    23
 -1.1722239315551640E+01 a       864     0    29     1    24
  1.2479637804711947E+01 a       865     0    29     1    25
 -9.6266997243208792E+00 a       866     0    29     1    26
  1.6036060242001305E+01 a       867     0    29     1    27
  2.7345871742218568E+00 a       868     0    29     1    28
  1.4419511027557172E-01 a       869     0    29     1    29
  1.6638547009009791E+01 a       870     0    29     1    30
 -8.0669232975999172E-01 a       871     0    30     1     1
 -8.8636694611258591E+00 a       872     0    30     1     2
  5.2269081474779122E-01 a       873     0    30     1     3
 -2.5743904171256759E+01 a       874     0    30     1     4
 -5.8724362813041502E+00 a       875     0    30     1     5
 -1.1345188153022633E+01 a       876     0    30     1     6
  4.9336323782937335E+00 a       877     0    30     1     7
  1.4836922551756244E+00 a       878     0    30     1     8
  2.3161050347445070E+01 a       879     0    30     1     9
  6.5782836562759108E+00 a       880     0    30     1    10
 -1.3385217546952413E+01 a       881     0    30     1    11
  1.6572921582904623E+01 a       882     0    30     1    12
 -1.2360119183117737E+00 a       883     0    30     1    13
 -8.7218766509352330E-01 a       884     0    30     1    14
 -1.3770708307544220E+01 a       885     0    30     1    15
 -4.1652288842573365E-01 a       886     0    30     1    16
 -2.7965083397844821E+00 a       887     0    30     1    17
  1.4256285721783186E+01 a       888     0    30     1    18
  1.5638511581413717E+01 a       889     0    30     1    19
  7.0682324624537474E+00 a       890     0    30     1    20
  1.4049986669847728E+01 a       891     0    30     1    21
 -8.9907648279292420E+00 a       892     0    30     1    22
  1.2399468271128182E+01 a       893     0    30     1    23
  1.4077099637049281E+01 a       894     0    30     1    24
 -6.6552722379643035E+00 a       895     0    30     1    25
  1.2433511982092996E+01 a       896     0    30     1    26
 -1.1316616921308187E+01 a       897     0    30     1    27
 -5.6605775225700050E+00 a       898     0    30     1    28
  2.5189555335931577E+00 a       899     0    30     1    29
  1.1871316423926205E+01 a       900     0    30     1    30
  1.3637657203004869E+00 a       901     0    31     1     1
  4.7621088679005590E+00 a       902     0    31     1     2
  8.8603529825807410E+00 a       903     0    31     1     3
 -2.7710645534997278E+00 a       904     0    31     1     4
  5.3838978545122451E+00 a       905     0    31     1     5
  5.0861184148546954E+00 a       906     0    31     1     6
  7.6060053167912587E+00 a       907     0    31     1     7
  5.1864862984759235E+00 a       908     0    31     1     8
  3.5802514956466682E+00 a       909     0    31     1     9
  1.0724173348530474E+01 a       910     0    31     1    10
 -5.9389061387038860E+00 a       911     0    31     1    11
  4.4140857668797367E-01 a       912     0    31     1    12
  1.4181755979598953E+00 a       913     0    31     1    13
 -4.8740529521393041E+00 a       914     0    31     1    14
  5.2073564690661067E+00 a       915     0    31     1    15
 -1.0755342591916744E+01 a       916     0    31     1    16
 -2.7436529530484974E+00 a       917     0    31     1    17
 -3.5774924160718204E+00 a       918     0    31     1    18
 -6.8676961320530616E-01 a       919     0    31     1    19
 -3.7862538900421927E+00 a       920     0    31     1    20
 -3.6912044570389875E+00 a       921     0    31     1    21
 -1.9936592960043122E+00 a       922     0    31     1    22
 -2.1065506393871178E+00 a       923     0    31     1    23
  1.2424414368991521E+00 a       924     0    31     1    24
  5.0996475562600603E+00 a       925     0    31     1    25
  2.3535084918191655E+00 a       926     0    31     1    26
  1.3038386497071320E+01 a       927     0    31     1    27
  2.6223474501291388E+00 a       928     0    31     1    28
  4.5032614916520570E+00 a       929     0    31     1    29
 -2.3383016131431442E+00 a       930     0    31     1    30
  3.1301988439864838E+00 a       931     0    32     1     1
  9.2574614479102362E+00 a       932     0    32     1     2
  2.0265088590074382E-01 a       933     0    32     1     3
  8.4681941072857523E+00 a       934     0    32     1     4
 -1.3307073962323257E-01 a       935     0    32     1     5
  5.5129579242673499E+00 a       936     0    32     1     6
 -4.6741187148398229E+00 a       937     0    32     1     7
  1.4165895194251863E+00 a       938     0    32     1     8
 -6.3409425350355813E+00 a       939     0    32     1     9
 -5.1175729852251839E-01 a       940     0    32     1    10
  7.3763687758053811E+00 a       941     0    32     1    11
 -1.2244049716222861E+01 a       942     0    32     1    12
  1.7799532034677729E-01 a       943     0    32     1    13
  4.0279539171677934E+00 a       944     0    32     1    14
  1.6965420836014612E+01 a       945     0    32     1    15
 -3.4175267606705773E+00 a       946     0    32     1    16
  6.9893977039581792E+00 a       947     0    32     1    17
 -1.7378117941850100E+01 a       948     0    32     1    18
 -1.7159955727951441E+01 a       949     0    32     1    19
  5.1213761841704661E+00 a       950     0    32     1    20
 -7.3759682374667426E+00 a       951     0    32     1    21
  4.1401460242715125E+00 a       952     0    32     1    22
 -1.0948117155656634E+01 a       953     0    32     1    23
 -4.7588990111092508E+00 a       954     0    32     1    24
  7.8177187235463013E+00 a       955     0    32     1    25
 -2.4976542155742121E+00 a       956     0    32     1    26
  3.9691850336530430E+00 a       957     0    32     1    27
  1.1251108972156973E+00 a       958     0    32     1    28
 -5.0180284289303767E+00 a       959     0    32     1    29
 -1.4290705042829257E+01 a       960     0    32     1    30
  3.3992572955869167E+00 a       961     0    33     1     1
 -6.7046761731344713E+00 a       962     0    33     1     2
  2.3879380598982962E+00 a       963     0    33     1     3
 -4.1778520672795212E+00 a       964     0    33     1     4
 -7.3235384767436074E+00 a       965     0    33     1     5
  4.1193124930276124E+00 a       966     0    33     1     6
 -5.9794685362656956E+00 a       967     0    33     1     7
 -6.5736280245752026E+00 a       968     0    33     1     8
  8.7267301203653656E+00 a       969     0    33     1     9
 -8.2669212984242630E+00 a       970     0    33     1    10
 -5.5827519204393230E+00 a       971     0    33     1    11
 -1.4211063548043188E+00 a       972     0    33     1    12
 -4.2796239276650505E+00 a       973     0    33     1    13
  1.3182055221928572E+00 a       974     0    33     1    14
 -2.1658803553927250E+01 a       975     0    33     1    15
 -2.9623491520898857E+00 a       976     0    33     1    16
  3.2738071810527636E+00 a       977     0    33     1    17
  3.8171137071263922E-01 a       978     0    33     1    18
 -3.9598152265399675E+00 a       979     0    33     1    19
  8.4105950085818630E+00 a       980     0    33     1    20
  7.0431086445154492E+00 a       981     0    33     1    21
  1.1572193568014121E+01 a       982     0    33     1    22
  1.0441199577795492E+01 a       983     0    33     1    23
 -1.2206663939962148E+01 a       984     0    33     1    24
  4.7456869178775598E+00 a       985     0    33     1    25
  2.1682149198108860E+00 a       986     0    33     1    26
  6.0616594961099617E+00 a       987     0    33     1    27
 -1.4854458559892796E+01 a       988     0    33     1    28
  2.5499218898629188E+01 a       989     0    33     1    29
 -2.2036882090703500E+00 a       990     0    33     1    30
 -1.4005164846733063E+00 a       991     0    34     1     1
 -1.1298065799919452E+00 a       992     0    34     1     2
 -2.1686684598542318E+00 a       993     0    34     1     3
 -7.8820918087479730E-01 a       994     0    34     1     4
  3.9885990933177520E+00 a       995     0    34     1     5
 -9.3889500953182670E-01 a       996     0    34     1     6
  3.3924335401882688E-01 a       997     0    34     1     7
  1.0578004508324983E+00 a       998     0    34     1     8
  8.7244455537846677E-01 a       999     0    34     1     9
 -3.0288212105778132E+00 a      1000     0    34     1    10
 -2.6505611017669606E-01 a      1001     0    34     1    11
  2.8917313328389405E+00 a      1002     0    34     1    12
  1.8638477193054864E-01 a      1003     0    34     1    13
 -2.8600377140794003E-01 a      1004     0    34     1    14
 -9.6646676196531678E-01 a      1005     0    34     1    15
 -6.0363170467497551E-01 a      1006     0    34     1    16
 -4.6503838856896365E-02 a      1007     0    34     1    17
  2.5840275908919157E+00 a      1008     0    34     1    18
  4.1336973836034749E+00 a      1009     0    34     1    19
 -3.3088588716973666E+00 a      1010     0    34     1    20
  2.7860592955364658E+00 a      1011     0    34     1    21
  1.7013700518401007E+00 a      1012     0    34     1    22
  1.3609042894616721E-02 a      1013     0    34     1    23
  1.1686048112041008E+00 a      1014     0    34     1    24
 -7.1936193626608325E-01 a      1015     0    34     1    25
  3.2240857558833107E+00 a      1016     0    34     1    26
 -2.1901587248241516E+00 a      1017     0    34     1    27
 -2.6530962837911898E+00 a      1018     0    34     1    28
  1.4308380072604145E+00 a      1019     0    34     1    29
  1.7027880745997974E+00 a      1020     0    34     1    30
 -1.6471854733590803E+00 a      1021     0    35     1     1
  3.3933171309680481E+00 a      1022     0    35     1     2
  2.1178302096632655E+00 a      1023     0    35     1     3
 -7.8677578771778398E+00 a      1024     0    35     1     4
 -1.9726072553457714E+00 a      1025     0    35     1     5
  1.0200641233732106E+00 a      1026     0    35     1     6
 -2.0117533452657521E+00 a      1027     0    35     1     7
 -1.9153579763797808E+00 a      1028     0    35     1     8
  4.4930537549050920E+00 a      1029     0    35     1     9
  1.7216132019945198E+00 a      1030     0    35     1    10
 -9.4165740586953426E+00 a      1031     0    35     1    11
  6.8691176490980856E+00 a      1032     0    35     1    12
  1.5849526889369114E+00 a      1033     0    35     1    13
  1.9790836468349651E-01 a      1034     0    35     1    14
 -1.7391631428835226E+00 a      1035     0    35     1    15
 -1.8715296725391179E+00 a      1036     0    35     1    16
  3.8777096649396028E+00 a      1037     0    35     1    17
  9.7037561661627034E+00 a      1038     0    35     1    18
  2.4518036622376038E+00 a      1039     0    35     1    19
 -2.5150403228485265E+00 a      1040     0    35     1    20
  9.4309028879122681E-01 a      1041     0    35     1    21
 -1.5147288955551050E+00 a      1042     0    35     1    22
  1.3590153066378114E+00 a      1043     0    35     1    23
  4.9145578900387017E+00 a      1044     0    35     1    24
 -4.0223175645197600E+00 a      1045     0    35     1    25
  8.2422881356786899E+00 a      1046     0    35     1    26
 -5.5286304344730075E+00 a      1047     0    35     1    27
 -5.1818917675482723E+00 a      1048     0    35     1    28
  1.1883693261144552E+00 a      1049     0    35     1    29
 -4.2252762121532790E+00 a      1050     0    35     1    30
  5.8984257804398590E+00 a      1051     0    36     1     1
 -1.3864656163583213E+00 a      1052     0    36     1     2
 -1.9423023191126048E+00 a      1053     0    36     1     3
  8.9182205212902996E+00 a      1054     0    36     1     4
  3.0583702698723494E+00 a      1055     0    36     1     5
  1.4499508760988020E-01 a      1056     0    36     1     6
  1.7210951461381987E+00 a      1057     0    36     1     7
  1.7509115598976002E+00 a      1058     0    36     1     8
 -8.4108963442811042E+00 a      1059     0    36     1     9
  3.7315291764342926E+00 a      1060     0    36     1    10
  8.4079521791559788E+00 a      1061     0    36     1    11
 -9.6958867804001212E+00 a      1062     0    36     1    12
 -2.1153955433830181E+00 a      1063     0    36     1    13
  8.3196618967753833E-01 a      1064     0    36     1    14
  6.0677643119308389E+00 a      1065     0    36     1    15
  1.8921354296970877E-01 a      1066     0    36     1    16
 -4.1531185393806935E-01 a      1067     0    36     1    17
 -1.3818397575392321E+01 a      1068     0    36     1    18
 -7.5471955787910803E+00 a      1069     0    36     1    19
  6.0481649080780402E+00 a      1070     0    36     1    20
 -4.1440245940267477E+00 a      1071     0    36     1    21
  3.1402641373573612E+00 a      1072     0    36     1    22
 -5.9024632729250452E+00 a      1073     0    36     1    23
 -5.6906918950826828E+00 a      1074     0    36     1    24
  4.9178185174663733E+00 a      1075     0    36     1    25
 -9.6513929479517433E+00 a      1076     0    36     1    26
  4.3453258177474563E+00 a      1077     0    36     1    27
  9.8855076084736631E+00 a      1078     0    36     1    28
 -3.7984809540656048E+00 a      1079     0    36     1    29
 -3.3845366321750587E+00 a      1080     0    36     1    30
  2.8496974899795297E-01 a      1081     0    37     1     1
 -1.2880046894457233E+00 a      1082     0    37     1     2
 -2.8803878391097459E+00 a      1083     0    37     1     3
  1.4184045983127653E+00 a      1084     0    37     1     4
 -1.3037944813073783E+00 a      1085     0    37     1     5
 -1.4277805814069442E+00 a      1086     0    37     1     6
 -7.0561036963519774E-01 a      1087     0    37     1     7
 -1.0650392080866384E+00 a      1088     0    37     1     8
  3.0812756020107593E-02 a      1089     0    37     1     9
 -2.6604373107834891E+00 a      1090     0    37     1    10
  3.1567816945063658E+00 a      1091     0    37     1    11
 -1.8134773804752495E+00 a      1092     0    37     1    12
 -7.5274170398731366E-01 a      1093     0    37     1    13
  1.0713541745340560E+00 a      1094     0    37     1    14
 -1.7820908146463179E+00 a      1095     0    37     1    15
  1.7034985626253900E+00 a      1096     0    37     1    16
 -6.1176821692489980E-01 a      1097     0    37     1    17
 -1.7962834643201757E+00 a      1098     0    37     1    18
  5.6044117624236822E-01 a      1099     0    37     1    19
  9.3127629172101323E-01 a      1100     0    37     1    20
 -3.1069397836046713E-02 a      1101     0    37     1    21
  1.2671131255911954E+00 a      1102     0    37     1    22
  1.1434788780241281E+00 a      1103     0    37     1    23
 -1.0820413823824897E+00 a      1104     0    37     1    24
 -3.8850509588234783E-01 a      1105     0    37     1    25
 -1.8096093615634992E+00 a      1106     0    37     1    26
 -2.5095431001253439E+00 a      1107     0    37     1    27
 -6.7068931697779410E-01 a      1108     0    37     1    28
  3.2218776148920353E-01 a      1109     0    37     1    29
  1.6119506865393558E+00 a      1110     0    37     1    30
 -3.0463231080507804E+00 a      1111     0    38     1     1
 -2.5829232685227521E-01 a      1112     0    38     1     2
  6.7815451436443616E-02 a      1113     0    38     1     3
 -2.5933959480086943E+00 a      1114     0    38     1     4
 -9.7712895166700797E-01 a      1115     0    38     1     5
  1.1448909523421442E-01 a      1116     0    38     1     6
  2.3552982168878153E-01 a      1117     0    38     1     7
 -5.0528723315345769E-01 a      1118     0    38     1     8
  2.1006749864720944E+00 a      1119     0    38     1     9
 -1.0273008854891976E+00 a      1120     0    38     1    10
 -2.2704847226737521E+00 a      1121     0    38     1    11
  4.9856864759149282E+00 a      1122     0    38     1    12
  8.6934937801595824E-01 a      1123     0    38     1    13
 -1.4494753809457361E+00 a      1124     0    38     1    14
 -3.9427332702755340E+00 a      1125     0    38     1    15
 -4.2269461420065685E-01 a      1126     0    38     1    16
 -1.0534136696445555E+00 a      1127     0    38     1    17
  6.3292119815632466E+00 a      1128     0    38     1    18
  5.5571562400883892E+00 a      1129     0    38     1    19
 -4.2891649560161520E+00 a      1130     0    38     1    20
  1.5751718442185705E+00 a      1131     0    38     1    21
 -2.0823048721333572E+00 a      1132     0    38     1    22
  2.5012538484177833E+00 a      1133     0    38     1    23
  2.0092614447776271E+00 a      1134     0    38     1    24
 -3.1811860878384013E+00 a      1135     0    38     1    25
  3.9427605812319801E+00 a      1136     0    38     1    26
 -1.4729822695892930E-01 a      1137     0    38     1    27
 -3.9397636180470013E+00 a      1138     0    38     1    28
  2.3005725540949937E+00 a      1139     0    38     1    29
  1.3220557535059643E+00 a      1140     0    38     1    30
 -4.6617088942879956E+00 a      1141     0    39     1     1
  1.1225144245116883E+00 a      1142     0    39     1     2
 -5.6967772844509545E-01 a      1143     0    39     1     3
  3.0521090928490879E-01 a      1144     0    39     1     4
  2.1745219242325695E+00 a      1145     0    39     1     5
 -6.0076703427573941E-01 a      1146     0    39     1     6
  1.8081466452413160E+00 a      1147     0    39     1     7
  1.8800968990134823E+00 a      1148     0    39     1     8
 -4.1518055846871249E+00 a      1149     0    39     1     9
  3.4727918051021773E+00 a      1150     0    39     1    10
 -1.5007034104105627E-01 a      1151     0    39     1    11
 -3.8903784229332494E-01 a      1152     0    39     1    12
  1.5507546672537065E+00 a      1153     0    39     1    13
 -1.2944620118456003E+00 a      1154     0    39     1    14
  8.5883802285583641E+00 a      1155     0    39     1    15
  2.0686040755594699E+00 a      1156     0    39     1    16
 -1.0691534401523697E+00 a      1157     0    39     1    17
  9.9942064946236964E-01 a      1158     0    39     1    18
  1.5913831000746479E+00 a      1159     0    39     1    19
 -1.8137124335682713E+00 a      1160     0    39     1    20
 -1.2774561949188983E+00 a      1161     0    39     1    21
 -3.5214605332595212E+00 a      1162     0    39     1    22
 -5.1040778555480912E+00 a      1163     0    39     1    23
  5.7570405954841837E+00 a      1164     0    39     1    24
 -2.5711509462221995E+00 a      1165     0    39     1    25
 -3.6161743451295753E-01 a      1166     0    39     1    26
  5.8375448845988887E-01 a      1167     0    39     1    27
  5.3267991695978152E+00 a      1168     0    39     1    28
 -7.5849042771547968E+00 a      1169     0    39     1    29
 -1.5945694154764503E+00 a      1170     0    39     1    30
  2.6168867915082311E-01 a      1171     0    40     1     1
  4.3186360580642236E-02 a      1172     0    40     1     2
  3.9722500244530684E-01 a      1173     0    40     1     3
  1.3988545047017625E-01 a      1174     0    40     1     4
 -8.2142571498583694E-01 a      1175     0    40     1     5
  2.2254337714126424E-01 a      1176     0    40     1     6
 -1.7395810302872070E-01 a      1177     0    40     1     7
 -6.5329549952124144E-01 a      1178     0    40     1     8
 -5.0133342652461632E-01 a      1179     0    40     1     9
  2.4597834642001185E-01 a      1180     0    40     1    10
 -4.4096402591375644E-01 a      1181     0    40     1    11
 -1.1388340947707203E+00 a      1182     0    40     1    12
 -1.6182112179887159E-01 a      1183     0    40     1    13
  9.9626371720319506E-01 a      1184     0    40     1    14
 -7.6629140497885245E-02 a      1185     0    40     1    15
  4.5601336922866992E-01 a      1186     0    40     1    16
 -2.4713831105416742E-01 a      1187     0    40     1    17
  1.6828243911031684E-01 a      1188     0    40     1    18
 -1.6181559727341714E+00 a      1189     0    40     1    19
  5.2827159816731462E-01 a      1190     0    40     1    20
 -5.6698703500919045E-01 a      1191     0    40     1    21
 -3.2069158596672875E-01 a      1192     0    40     1    22
 -4.1397486421149501E-02 a      1193     0    40     1    23
 -2.8767609162972113E-01 a      1194     0    40     1    24
  4.6499083618472109E-01 a      1195     0    40     1    25
 -1.5058275789227569E+00 a      1196     0    40     1    26
  3.3340530869618040E-01 a      1197     0    40     1    27
  5.5868771952945107E-01 a      1198     0    40     1    28
 -5.2527241743797437E-01 a      1199     0    40     1    29
  3.4007554410083707E-01 a      1200     0    40     1    30
 -2.8201382246760043E-01 a      1201     0    41     1     1
 -1.1356281561366626E+00 a      1202     0    41     1     2
 -2.0435741064342527E-01 a      1203     0    41     1     3
  9.7730400354497093E-01 a      1204     0    41     1     4
  5.9273550042102774E-01 a      1205     0    41     1     5
 -8.4038670481870625E-01 a      1206     0    41     1     6
  1.1706182397761942E+00 a      1207     0    41     1     7
  7.2287358957888692E-01 a      1208     0    41     1     8
 -1.3987456859074321E+00 a      1209     0    41     1     9
 -1.2996927132520166E+00 a      1210     0    41     1    10
  1.5387414561081394E+00 a      1211     0    41     1    11
 -2.0232649436887460E+00 a      1212     0    41     1    12
 -4.6881264407657353E-01 a      1213     0    41     1    13
 -1.8961798791263521E-01 a      1214     0    41     1    14
 -1.2902980399035832E-01 a      1215     0    41     1    15
  1.1126071297757759E-01 a      1216     0    41     1    16
  1.1080935834105321E-01 a      1217     0    41     1    17
 -2.5068040620516960E+00 a      1218     0    41     1    18
  5.5416145140317286E-01 a      1219     0    41     1    19
  6.0606489632243199E-01 a      1220     0    41     1    20
  2.6529358842702283E-01 a      1221     0    41     1    21
 -2.8793849446250419E-01 a      1222     0    41     1    22
  1.4848168628880638E+00 a      1223     0    41     1    23
 -6.2814585947588208E-01 a      1224     0    41     1    24
  6.3818690302309578E-01 a      1225     0    41     1    25
 -2.4334129150130392E+00 a      1226     0    41     1    26
 -2.4514270759505449E-02 a      1227     0    41     1    27
 -5.2667060414112454E-01 a      1228     0    41     1    28
  1.1413824155769121E+00 a      1229     0    41     1    29
  1.5801936374087373E+00 a      1230     0    41     1    30
  9.3172001721181716E-02 a      1231     0    42     1     1
  1.8529060324710427E+00 a      1232     0    42     1     2
  8.5943594295743303E-02 a      1233     0    42     1     3
 -1.3561543312983322E+00 a      1234     0    42     1     4
 -6.3839813575297621E-01 a      1235     0    42     1     5
  1.4323747905332538E+00 a      1236     0    42     1     6
 -1.4432746497792159E+00 a      1237     0    42     1     7
 -9.8396224318658565E-01 a      1238     0    42     1     8
  2.5226041571256395E+00 a      1239     0    42     1     9
  1.1697064041495104E+00 a      1240     0    42     1    10
 -1.8506217341939986E+00 a      1241     0    42     1    11
  3.0700044850926709E+00 a      1242     0    42     1    12
  6.9775736965073187E-01 a      1243     0    42     1    13
  4.0892704066602820E-01 a      1244     0    42     1    14
 -9.7240361043473578E-01 a      1245     0    42     1    15
 -7.8583746898387652E-01 a      1246     0    42     1    16
 -1.0226978229355370E+00 a      1247     0    42     1    17
  3.9356636204107738E+00 a      1248     0    42     1    18
  1.6536780198221257E-01 a      1249     0    42     1    19
 -1.6690314571468541E+00 a      1250     0    42     1    20
  1.2601647233316204E-01 a      1251     0    42     1    21
  4.0898859617596406E-01 a      1252     0    42     1    22
 -1.3358877586901876E+00 a      1253     0    42     1    23
  7.9266310492569525E-01 a      1254     0    42     1    24
 -1.1616041689744339E+00 a      1255     0    42     1    25
  4.1077105205936180E+00 a      1256     0    42     1    26
  7.4260959576886110E-01 a      1257     0    42     1    27
 -1.0628368648500532E-01 a      1258     0    42     1    28
 -6.7116274632013451E-01 a      1259     0    42     1    29
 -1.1200598889971900E+00 a      1260     0    42     1    30
  3.3923158070490296E-02 a      1261     0    43     1     1
  3.3485467095666116E-01 a      1262     0    43     1     2
  2.8308879564525347E-01 a      1263     0    43     1     3
 -3.0907646241086689E-01 a      1264     0    43     1     4
  2.4147455285577291E-01 a      1265     0    43     1     5
  5.3815070155618350E-01 a      1266     0    43     1     6
 -2.3159889273726425E-01 a      1267     0    43     1     7
  9.5114795535002225E-02 a      1268     0    43     1     8
 -1.2987388487101700E-01 a      1269     0    43     1     9
  8.5669349854049537E-01 a      1270     0    43     1    10
 -9.2844630222969315E-01 a      1271     0    43     1    11
  7.4148825473536450E-01 a      1272     0    43     1    12
  1.9200812440986459E-01 a      1273     0    43     1    13
 -3.2961129372877769E-02 a      1274     0    43     1    14
  8.8184232206374269E-01 a      1275     0    43     1    15
 -8.4281254237777478E-02 a      1276     0    43     1    16
  2.6742446934932790E-01 a      1277     0    43     1    17
  8.7899271331995210E-01 a      1278     0    43     1    18
 -4.5545760159459003E-01 a      1279     0    43     1    19
 -3.5146155623551466E-02 a      1280     0    43     1    20
  6.7363443419956093E-02 a      1281     0    43     1    21
 -1.5194084261079435E-01 a      1282     0    43     1    22
 -9.2465562197266205E-01 a      1283     0    43     1    23
  3.4786037560574423E-01 a      1284     0    43     1    24
 -4.0793317263076972E-02 a      1285     0    43     1    25
  7.2922472993955045E-01 a      1286     0    43     1    26
  7.5115363268677615E-01 a      1287     0    43     1    27
  8.9282346506019250E-01 a      1288     0    43     1    28
 -3.1151500679576805E-01 a      1289     0    43     1    29
 -4.6428785876687334E-01 a      1290     0    43     1    30
 -5.0781500811242303E-02 a      1291     0    44     1     1
 -1.0034065032874382E+00 a      1292     0    44     1     2
  1.1556485599346250E-01 a      1293     0    44     1     3
  6.6537382405696222E-01 a      1294     0    44     1     4
  7.9399802927725846E-02 a      1295     0    44     1     5
 -1.2578113436758722E+00 a      1296     0    44     1     6
  1.1689503995024038E-01 a      1297     0    44     1     7
  1.4518420496896681E-01 a      1298     0    44     1     8
 -5.8529561725060519E-01 a      1299     0    44     1     9
 -1.6477224274541860E+00 a      1300     0    44     1    10
  4.4487028324313294E-01 a      1301     0    44     1    11
 -2.0374702710707768E+00 a      1302     0    44     1    12
 -3.6893581316288554E-01 a      1303     0    44     1    13
  2.0628294579040167E+00 a      1304     0    44     1    14
  8.5189623294051531E-01 a      1305     0    44     1    15
  6.3057978667096937E-01 a      1306     0    44     1    16
  7.9079938639996838E-01 a      1307     0    44     1    17
 -2.0269189545469311E+00 a      1308     0    44     1    18
 -1.0805258142272423E+00 a      1309     0    44     1    19
  1.2120981259659431E+00 a      1310     0    44     1    20
 -8.3786560923252568E-02 a      1311     0    44     1    21
  7.5588361572444460E-02 a      1312     0    44     1    22
  7.3490846136956278E-01 a      1313     0    44     1    23
 -4.1408799988580947E-01 a      1314     0    44     1    24
  1.0083726404273785E+00 a      1315     0    44     1    25
 -2.8623565802199646E+00 a      1316     0    44     1    26
 -9.9653503689474932E-01 a      1317     0    44     1    27
  2.0374264549666959E-01 a      1318     0    44     1    28
  2.3101478152972427E-01 a      1319     0    44     1    29
  1.5167210328098319E+00 a      1320     0    44     1    30
  1.3871756019466783E+00 a      1321     0    45     1     1
  2.5201137607430264E-02 a      1322     0    45     1     2
  3.5037781080394143E-01 a      1323     0    45     1     3
  2.0659488339448751E-01 a      1324     0    45     1     4
 -2.5971634344421185E-01 a      1325     0    45     1     5
 -6.5992307947581310E-03 a      1326     0    45     1     6
  4.2340929310163221E-02 a      1327     0    45     1     7
 -1.2954207006715815E-01 a      1328     0    45     1     8
  5.9485732990257245E-01 a      1329     0    45     1     9
 -8.3429596730969147E-01 a      1330     0    45     1    10
  5.1247947009256811E-01 a      1331     0    45     1    11
  2.2157789619919385E-01 a      1332     0    45     1    12
 -1.5009832955697666E-01 a      1333     0    45     1    13
  1.2494852412919034E-01 a      1334     0    45     1    14
 -1.7163683126552296E+00 a      1335     0    45     1    15
 -5.9414020206448503E-01 a      1336     0    45     1    16
  1.8282145004141181E-01 a      1337     0    45     1    17
 -3.2640963574471699E-01 a      1338     0    45     1    18
 -2.6502523225730951E-01 a      1339     0    45     1    19
 -4.8993261275031815E-03 a      1340     0    45     1    20
  1.2313406302988490E-01 a      1341     0    45     1    21
  3.4821225436502529E-01 a      1342     0    45     1    22
  1.0425241489142267E+00 a      1343     0    45     1    23
 -1.0504206822731346E+00 a      1344     0    45     1    24
  6.7654389074942534E-01 a      1345     0    45     1    25
 -2.9463272972307299E-02 a      1346     0    45     1    26
 -4.6059051848806287E-01 a      1347     0    45     1    27
 -1.2415585300192218E+00 a      1348     0    45     1    28
  4.1095307459439534E-01 a      1349     0    45     1    29
  1.8960783058344000E-01 a      1350     0    45     1    30
  3.2781273729141602E-01 a      1351     0    46     1     1
  4.2320328724953608E-02 a      1352     0    46     1     2
  6.0479291343812129E-02 a      1353     0    46     1     3
 -1.6276883694444473E-02 a      1354     0    46     1     4
  2.8869940732192351E-01 a      1355     0    46     1     5
  2.9511402615916730E-02 a      1356     0    46     1     6
 -3.9674675691110609E-03 a      1357     0    46     1     7
  4.3862644972782466E-01 a      1358     0    46     1     8
 -1.2117945387109499E-01 a      1359     0    46     1     9
  2.1040311395980074E-01 a      1360     0    46     1    10
  4.1826883750949034E-01 a      1361     0    46     1    11
  4.2718025560190181E-01 a      1362     0    46     1    12
  2.8566624740784970E-02 a      1363     0    46     1    13
 -1.3827319238806390E+00 a      1364     0    46     1    14
 -1.3570453965004966E-02 a      1365     0    46     1    15
 -3.6189571350984287E-02 a      1366     0    46     1    16
 -1.3790181089474399E-01 a      1367     0    46     1    17
 -1.2135776613376630E-01 a      1368     0    46     1    18
  8.3948560449853393E-01 a      1369     0    46     1    19
 -1.5895619815243955E-02 a      1370     0    46     1    20
  3.0054545062435223E-01 a      1371     0    46     1    21
  2.4332373172854822E-02 a      1372     0    46     1    22
 -1.7832998960436075E-01 a      1373     0    46     1    23
  1.1022376821043531E-01 a      1374     0    46     1    24
 -2.2878298873062108E-01 a      1375     0    46     1    25
  1.4068125017051778E+00 a      1376     0    46     1    26
  2.4472139923537942E-01 a      1377     0    46     1    27
 -7.6633537180829187E-02 a      1378     0    46     1    28
  1.4446700991796246E-01 a      1379     0    46     1    29
 -5.4025885079103819E-01 a      1380     0    46     1    30
 -9.6195651626277190E-02 b      1381     1     1
 -6.8527021837316293E-01 b      1382     1     2
 -5.9230855013558859E-01 b      1383     1     3
 -1.6171117501895863E-01 b      1384     1     4
 -4.1213470661369828E-01 b      1385     1     5
 -4.5461446313291354E-01 b      1386     1     6
  6.5195532739665704E-02 b      1387     1     7
  8.7278361818903138E-02 b      1388     1     8
  1.1817540228919528E-01 b      1389     1     9
  2.7405022468249290E-01 b      1390     1    10
  3.5733058410173285E-01 b      1391     1    11
 -1.2224101349084050E-01 b      1392     1    12
  2.6665758225258074E-01 b      1393     1    13
  8.6809104922863922E-01 b      1394     1    14
 -1.7643306313655857E-01 b      1395     1    15
 -1.8841381872847179E-01 b      1396     1    16
  5.0724438058091879E-03 b      1397     1    17
  4.9252165834710116E-03 b      1398     1    18
 -1.5312890940319368E-01 b      1399     1    19
 -5.0650019901862120E-01 b      1400     1    20
 -1.0316843073238478E-01 b      1401     1    21
 -9.0315361608182820E-02 b      1402     1    22
  5.2197567174156911E-02 b      1403     1    23
 -1.3015955659679901E-01 b      1404     1    24
 -8.3481237087444060E-01 b      1405     1    25
  1.6385063771255076E-01 b      1406     1    26
 -8.1080998955502404E-01 b      1407     1    27
 -1.9592124282529863E-01 b      1408     1    28
 -6.6115159225004988E-03 b      1409     1    29
  3.1140240483762333E-01 b      1410     1    30
 -9.3370437676977031E-02 a      1411     1     1     2     1
 -4.1227834560651200E-01 a      1412     1     1     2     2
  8.7642381929840626E-02 a      1413     1     1     2     3
  1.2230014095421050E-01 a      1414     1     1     2     4
 -1.6788408296258511E-01 a      1415     1     1     2     5
 -1.9644099134640103E-02 a      1416     1     1     2     6
  1.0322949727954742E-01 a      1417     1     1     2     7
 -2.9283242831960210E-01 a      1418     1     1     2     8
 -1.3424030529924286E-01 a      1419     1     1     2     9
 -5.1525594699972443E-01 a      1420     1     1     2    10
  2.0100894412253295E-01 a      1421     1     1     2    11
 -1.1926620240785608E-01 a      1422     1     1     2    12
 -3.4818219740034850E-01 a      1423     1     1     2    13
 -4.2657300257292713E-01 a      1424     1     1     2    14
  1.1893751715855820E-01 a      1425     1     1     2    15
  9.0389338009718656E-02 a      1426     1     1     2    16
  2.6757185405823386E-01 a      1427     1     1     2    17
 -1.2531558006972832E-01 a      1428     1     1     2    18
  1.4236227495477496E-01 a      1429     1     1     2    19
  5.0201142976996316E-01 a      1430     1     1     2    20
 -3.9682250772270261E-01 a      1431     1     1     2    21
 -4.1205494435801043E-02 a      1432     1     1     2    22
 -2.7941940670956505E-01 a      1433     1     1     2    23
 -6.6524116321221904E-01 a      1434     1     1     2    24
 -1.8637336628911857E-01 a      1435     1     1     2    25
  1.4005498512285292E-01 a      1436     1     1     2    26
  3.1918756415158828E-01 a      1437     1     1     2    27
  6.2290064821671820E-01 a      1438     1     1     2    28
 -3.8191652564953477E-01 a      1439     1     1     2    29
  7.1878848526216554E-01 a      1440     1     1     2    30
 -9.7723292805789241E-01 a      1441     1     2     2     1
  4.3702718180606531E-02 a      1442     1     2     2     2
  2.8895283990205090E-01 a      1443     1     2     2     3
  1.7256377001533785E-01 a      1444     1     2     2     4
  3.2797284883272132E-01 a      1445     1     2     2     5
  7.8572079862619726E-01 a      1446     1     2     2     6
  2.0060985101023139E+00 a      1447     1     2     2     7
  7.4194815275906512E-01 a      1448     1     2     2     8
 -5.4242192746988338E-01 a      1449     1     2     2     9
 -7.8289904299842006E-01 a      1450     1     2     2    10
  1.7359427635780919E-01 a      1451     1     2     2    11
  1.5031080427560040E-01 a      1452     1     2     2    12
  2.0002724600103909E+00 a      1453     1     2     2    13
 -8.9597683352921842E-01 a      1454     1     2     2    14
 -1.7279187223264278E+00 a      1455     1     2     2    15
  3.0528677314708946E-01 a      1456     1     2     2    16
 -1.4215270771096573E+00 a      1457     1     2     2    17
  2.2618481887555641E-01 a      1458     1     2     2    18
 -1.0207800324788865E-01 a      1459     1     2     2    19
  3.5986142113688935E-01 a      1460     1     2     2    20
  1.3604121162103078E-01 a      1461     1     2     2    21
  9.8428805543520925E-01 a      1462     1     2     2    22
 -1.5371894221432675E-01 a      1463     1     2     2    23
 -1.4554516079616697E-01 a      1464     1     2     2    24
  1.6060752800917863E-01 a      1465     1     2     2    25
  1.0247323807676237E-01 a      1466     1     2     2    26
 -1.9158325187826425E-01 a      1467     1     2     2    27
 -1.6879031977699285E-01 a      1468     1     2     2    28
  5.2190535630453572E-01 a      1469     1     2     2    29
  1.6287187968719381E+00 a      1470     1     2     2    30
 -8.3895092176125929E-01 a      1471     1     3     2     1
  4.2956791810417627E-01 a      1472     1     3     2     2
 -3.8458546969634905E-01 a      1473     1     3     2     3
  1.0137740685363948E-01 a      1474     1     3     2     4
 -4.2577852923837056E-01 a      1475     1     3     2     5
 -6.2891954585250887E-01 a      1476     1     3     2     6
 -7.4179184800251574E-01 a      1477     1     3     2     7
  6.8079435829228518E-01 a      1478     1     3     2     8
  4.0755747123323882E-01 a      1479     1     3     2     9
 -3.0338887042040413E-01 a      1480     1     3     2    10
 -1.0510909083696851E-01 a      1481     1     3     2    11
 -5.7077833654497527E-02 a      1482     1     3     2    12
 -5.9161478107224985E-01 a      1483     1     3     2    13
  3.5934200040951936E-02 a      1484     1     3     2    14
  5.8883628272128741E-01 a      1485     1     3     2    15
  2.5466378543332985E-01 a      1486     1     3     2    16
 -2.9582870455580035E-01 a      1487     1     3     2    17
  2.1741607728449200E-01 a      1488     1     3     2    18
 -9.7541393469098583E-02 a      1489     1     3     2    19
 -5.1212260333841275E-01 a      1490     1     3     2    20
 -5.0022299194241560E-01 a      1491     1     3     2    21
 -3.5367136495514540E-02 a      1492     1     3     2    22
  4.5522862443819140E-01 a      1493     1     3     2    23
 -1.7320119631599779E-01 a      1494     1     3     2    24
  3.2386907018311006E-01 a      1495     1     3     2    25
 -1.5343909580636161E-01 a      1496     1     3     2    26
 -6.7528675687983958E-02 a      1497     1     3     2    27
 -2.5839906892003961E-01 a      1498     1     3     2    28
 -1.5312803079922503E+00 a      1499     1     3     2    29
 -3.2742051198830463E-01 a      1500     1     3     2    30
 -2.6197983177288930E-01 a      1501     1     4     2     1
 -9.4250114493102066E-01 a      1502     1     4     2     2
  5.1387705772498937E-01 a      1503     1     4     2     3
 -9.5559302759742459E-01 a      1504     1     4     2     4
  8.0869750113051664E-01 a      1505     1     4     2     5
  2.0420235481392382E-01 a      1506     1     4     2     6
  5.5352308046685297E-02 a      1507     1     4     2     7
  4.9694796041587663E-01 a      1508     1     4     2     8
  2.2090795739908856E-01 a      1509     1     4     2     9
 -4.1439044109426709E-01 a      1510     1     4     2    10
  1.3716243779160023E-01 a      1511     1     4     2    11
  2.8235709525239827E-01 a      1512     1     4     2    12
 -3.7931753710168870E-01 a      1513     1     4     2    13
  5.0967505724115703E-01 a      1514     1     4     2    14
 -5.7353805883757665E-03 a      1515     1     4     2    15
 -1.1154477824353231E+00 a      1516     1     4     2    16
  7.4748891006580997E-01 a      1517     1     4     2    17
 -2.5898511343174763E-01 a      1518     1     4     2    18
  4.6402113771790165E-01 a      1519     1     4     2    19
  2.8938764549304763E-01 a      1520     1     4     2    20
  8.5510982805367874E-01 a      1521     1     4     2    21
 -1.3612054376867144E-01 a      1522     1     4     2    22
  1.7385316040159624E-01 a      1523     1     4     2    23
  9.0628660206839656E-02 a      1524     1     4     2    24
 -8.4754233202963242E-02 a      1525     1     4     2    25
 -6.6447817329572140E-02 a      1526     1     4     2    26
 -2.3582371753901567E-02 a      1527     1     4     2    27
 -1.0830018878094687E+00 a      1528     1     4     2    28
 -1.1086508335380042E-01 a      1529     1     4     2    29
  6.0612670597768992E-01 a      1530     1     4     2    30
  2.0292450316616409E-01 a      1531     1     5     2     1
  5.3859736174633588E-01 a      1532     1     5     2     2
  2.2086330231172555E-01 a      1533     1     5     2     3
 -1.1819510089513650E-01 a      1534     1     5     2     4
  2.5403498497480204E-01 a      1535     1     5     2     5
 -4.2154833723901358E-01 a      1536     1     5     2     6
  6.6099886075453851E-01 a      1537     1     5     2     7
 -2.7204069274717718E-01 a      1538     1     5     2     8
 -3.3331614925947051E-01 a      1539     1     5     2     9
 -1.8092078367506995E-01 a      1540     1     5     2    10
  3.6835498086396395E-01 a      1541     1     5     2    11
  4.5947233780393149E-01 a      1542     1     5     2    12
  5.0174685762212901E-01 a      1543     1     5     2    13
 -2.2856268742236695E-02 a      1544     1     5     2    14
 -4.4426181487271188E-01 a      1545     1     5     2    15
  1.1072456391554400E-02 a      1546     1     5     2    16
 -6.3216622809795486E-01 a      1547     1     5     2    17
 -4.1860486111059697E-01 a      1548     1     5     2    18
 -6.3329238559248535E-01 a      1549     1     5     2    19
 -1.0530045528083898E+00 a      1550     1     5     2    20
  3.3963951335394155E-01 a      1551     1     5     2    21
 -1.6521018564232322E+00 a      1552     1     5     2    22
  2.5757360611294117E-01 a      1553     1     5     2    23
  1.8693706575679678E-01 a      1554     1     5     2    24
 -1.5243550381753843E-03 a      1555     1     5     2    25
 -1.9776873698609168E-01 a      1556     1     5     2    26
  2.5802501659324278E-01 a      1557     1     5     2    27
  1.2122085381203959E-01 a      1558     1     5     2    28
  4.1967614105259210E-01 a      1559     1     5     2    29
 -1.1984456607283711E+00 a      1560     1     5     2    30
  1.4907545707916497E-01 a      1561     1     6     2     1
 -3.6200372645605322E-01 a      1562     1     6     2     2
  6.1206492133197822E-02 a      1563     1     6     2     3
 -2.5293135901100233E-01 a      1564     1     6     2     4
 -1.6563676768566196E-01 a      1565     1     6     2     5
  8.8416149317489234E-01 a      1566     1     6     2     6
 -5.3773820960612240E-01 a      1567     1     6     2     7
 -1.5446246428588947E-01 a      1568     1     6     2     8
  5.6579935675485762E-02 a      1569     1     6     2     9
 -7.9000002602037944E-01 a      1570     1     6     2    10
  1.5329884041522020E-02 a      1571     1     6     2    11
  1.5675689627676706E-01 a      1572     1     6     2    12
  3.9928837789367122E-01 a      1573     1     6     2    13
 -5.3919884999363643E-01 a      1574     1     6     2    14
  6.0629841850419641E-01 a      1575     1     6     2    15
  8.8663239387851334E-01 a      1576     1     6     2    16
 -2.9340362248946555E-01 a      1577     1     6     2    17
  3.9172148284980218E-01 a      1578     1     6     2    18
  3.4166294773299061E-01 a      1579     1     6     2    19
  9.1660929912191069E-01 a      1580     1     6     2    20
 -5.7750659999232887E-02 a      1581     1     6     2    21
  8.2091063214482451E-01 a      1582     1     6     2    22
  5.1945147457796126E-01 a      1583     1     6     2    23
 -3.8256960719496652E-01 a      1584     1     6     2    24
  3.7444540962141681E-01 a      1585     1     6     2    25
  4.9415845624159856E-02 a      1586     1     6     2    26
 -2.8102933330264862E-01 a      1587     1     6     2    27
  1.1727926063927570E-01 a      1588     1     6     2    28
 -1.2569353225497340E-01 a      1589     1     6     2    29
  1.6559071152157454E-01 a      1590     1     6     2    30
 -1.2032134897698973E-01 a      1591     1     7     2     1
  6.8696308828794489E-02 a      1592     1     7     2     2
 -2.6097588571678554E-01 a      1593     1     7     2     3
 -6.4232134291035067E-02 a      1594     1     7     2     4
  6.0601920945706478E-01 a      1595     1     7     2     5
 -3.3628463152105620E-01 a      1596     1     7     2     6
 -1.5307123181128117E+00 a      1597     1     7     2     7
  5.0235711874606770E-01 a      1598     1     7     2     8
 -7.2797830828414246E-04 a      1599     1     7     2     9
  1.9757701862136931E-01 a      1600     1     7     2    10
 -1.5108628112575515E-01 a      1601     1     7     2    11
  3.6083998306994330E-01 a      1602     1     7     2    12
  7.4496659165599854E-01 a      1603     1     7     2    13
  5.2140928964755884E-01 a      1604     1     7     2    14
 -5.7723743302499131E-01 a      1605     1     7     2    15
  2.3776504998513701E-01 a      1606     1     7     2    16
  3.5640556956102348E-01 a      1607     1     7     2    17
 -8.9584889312120686E-01 a      1608     1     7     2    18
  8.4179836671154848E-02 a      1609     1     7     2    19
 -2.8084177159933771E-01 a      1610     1     7     2    20
 -2.2278771991894852E-01 a      1611     1     7     2    21
 -2.3511110676921203E+00 a      1612     1     7     2    22
 -6.0367653122553155E-01 a      1613     1     7     2    23
  2.2765811041682027E-01 a      1614     1     7     2    24
  5.2028538382367692E-02 a      1615     1     7     2    25
 -2.6243739222402435E-01 a      1616     1     7     2    26
  4.9696036756411564E-02 a      1617     1     7     2    27
 -2.2830925542184619E-01 a      1618     1     7     2    28
 -2.2423286488015698E-02 a      1619     1     7     2    29
 -1.6404991342270350E+00 a      1620     1     7     2    30
 -5.5584886959696067E-01 a      1621     1     8     2     1
 -1.2184000449488350E+00 a      1622     1     8     2     2
 -5.2125558487743850E-01 a      1623     1     8     2     3
 -7.6236829167787802E-03 a      1624     1     8     2     4
 -5.8522850842841395E-02 a      1625     1     8     2     5
  8.8788042670043477E-01 a      1626     1     8     2     6
 -1.0537661054299035E+00 a      1627     1     8     2     7
  4.1146352035817302E-01 a      1628     1     8     2     8
  2.9059601230747095E-01 a      1629     1     8     2     9
