################################################################################
# Neural network connection values (weights and biases).
################################################################################
# Col  Name       Description
################################################################################
# 1    connection Neural network connection value.
# 2    t          Connection type (a = weight, b = bias).
# 3    index      Index enumerating weights.
# 4    l_s        Starting point layer (end point layer for biases).
# 5    n_s        Starting point neuron in starting layer (end point neuron for biases).
# 6    l_e        End point layer.
# 7    n_e        End point neuron in end layer.
################################################################################
#                      1 2         3     4     5     6     7
#             connection t     index   l_s   n_s   l_e   n_e
############################################################
 -5.5563499320665116E+01 a         1     0     1     1     1
 -7.2232110945613304E+00 a         2     0     1     1     2
 -1.6616565781645136E+01 a         3     0     1     1     3
  1.2509155524449714E+01 a         4     0     1     1     4
 -9.7929924386863334E+00 a         5     0     1     1     5
 -3.2237905335398396E+00 a         6     0     1     1     6
  7.5336707991061735E-01 a         7     0     1     1     7
  2.1010818576695005E+01 a         8     0     1     1     8
  2.8032477252306851E+01 a         9     0     1     1     9
 -4.4171899292245911E+00 a        10     0     1     1    10
 -9.8829345195037561E+01 a        11     0     1     1    11
  1.1440875569973016E+01 a        12     0     1     1    12
 -2.8364259174896890E+01 a        13     0     1     1    13
  2.5376770697795403E+00 a        14     0     1     1    14
  2.4775560605537585E+01 a        15     0     1     1    15
 -2.2938952445481785E+01 a        16     0     1     1    16
  1.5792798356863839E+01 a        17     0     1     1    17
 -3.5893691982363904E+01 a        18     0     1     1    18
  1.3474708149759611E+00 a        19     0     1     1    19
 -6.3330242683309015E+00 a        20     0     1     1    20
 -1.8123225760790156E+01 a        21     0     1     1    21
  6.6646348923519849E-01 a        22     0     1     1    22
  9.2285268154644715E+00 a        23     0     1     1    23
 -9.9629665219754688E+00 a        24     0     1     1    24
 -8.1860098109043566E-01 a        25     0     1     1    25
  1.5277889404677729E+00 a        26     0     1     1    26
  3.2739453644740069E+00 a        27     0     1     1    27
 -8.5919262690633111E+00 a        28     0     1     1    28
 -3.3443082694208406E+00 a        29     0     1     1    29
  8.1079886570942996E+00 a        30     0     1     1    30
 -2.0611552590405083E+01 a        31     0     2     1     1
  2.0258378464804379E+00 a        32     0     2     1     2
 -5.0080942285486874E+00 a        33     0     2     1     3
 -8.0307691590214514E+00 a        34     0     2     1     4
  3.0764812803716963E+00 a        35     0     2     1     5
  5.3793905610935688E+00 a        36     0     2     1     6
 -1.9818942114746121E+00 a        37     0     2     1     7
  6.6291445595847875E+00 a        38     0     2     1     8
  8.0520059726788080E+00 a        39     0     2     1     9
 -8.7117357054479392E+00 a        40     0     2     1    10
 -2.0843170553109587E+01 a        41     0     2     1    11
 -5.1478059388922015E-01 a        42     0     2     1    12
 -6.4354700734596753E+00 a        43     0     2     1    13
 -1.3238840629526734E+00 a        44     0     2     1    14
 -2.8543053653246286E-01 a        45     0     2     1    15
 -1.4169499288419802E+00 a        46     0     2     1    16
 -4.2590435353631060E+00 a        47     0     2     1    17
 -2.2645942755049337E+01 a        48     0     2     1    18
 -9.7356047923680080E+00 a        49     0     2     1    19
  9.8032907219736707E+00 a        50     0     2     1    20
 -6.5416372060944337E+00 a        51     0     2     1    21
  3.4034965197026668E-01 a        52     0     2     1    22
  1.2588740183771526E+01 a        53     0     2     1    23
  1.5682371453699666E+01 a        54     0     2     1    24
 -6.4551443539412121E+00 a        55     0     2     1    25
  1.5419823138440620E+00 a        56     0     2     1    26
 -9.8430704262008319E+00 a        57     0     2     1    27
 -9.5236130309149374E+00 a        58     0     2     1    28
  1.4348004597173232E+00 a        59     0     2     1    29
  3.8899384837494808E+00 a        60     0     2     1    30
  3.8731294019116307E+00 a        61     0     3     1     1
  4.4254066243516696E+00 a        62     0     3     1     2
  6.0442404058102088E+00 a        63     0     3     1     3
 -2.8909745020424953E+01 a        64     0     3     1     4
  1.0781761311380464E+01 a        65     0     3     1     5
  1.2813501129976441E+01 a        66     0     3     1     6
 -6.5460262586094906E+00 a        67     0     3     1     7
 -3.1209464279186561E+00 a        68     0     3     1     8
 -1.0222063822889131E+01 a        69     0     3     1     9
 -1.5708036952356643E+01 a        70     0     3     1    10
  3.6439123628574620E+01 a        71     0     3     1    11
 -8.5237896417817858E+00 a        72     0     3     1    12
  1.1862774677810295E+01 a        73     0     3     1    13
 -7.2527416610578914E+00 a        74     0     3     1    14
 -1.5064832914761720E+01 a        75     0     3     1    15
  1.4410265022905925E+01 a        76     0     3     1    16
 -1.9972345381974257E+01 a        77     0     3     1    17
 -1.8806422517666171E+01 a        78     0     3     1    18
 -1.8945985017471251E+01 a        79     0     3     1    19
  2.5019766687939605E+01 a        80     0     3     1    20
  2.4128029512955362E+00 a        81     0     3     1    21
  6.6258220742120573E+00 a        82     0     3     1    22
  1.7605862905611900E+01 a        83     0     3     1    23
  3.8024105467493065E+01 a        84     0     3     1    24
 -7.8404408663172083E+00 a        85     0     3     1    25
 -1.1825329324615501E+00 a        86     0     3     1    26
 -2.0599252079424772E+01 a        87     0     3     1    27
 -1.5974209280637126E+01 a        88     0     3     1    28
  5.4518571298273484E+00 a        89     0     3     1    29
  3.5745726875745567E+00 a        90     0     3     1    30
  8.2211969119463610E+00 a        91     0     4     1     1
  1.7574818474693593E+01 a        92     0     4     1     2
  1.6932745298654357E+01 a        93     0     4     1     3
 -4.7591095031376739E+01 a        94     0     4     1     4
  8.1129198312755406E+00 a        95     0     4     1     5
  1.2818364028870697E+01 a        96     0     4     1     6
  1.9164361576228257E+00 a        97     0     4     1     7
 -1.9187223472801726E+01 a        98     0     4     1     8
 -7.2868298987981897E+00 a        99     0     4     1     9
 -2.3392054829902602E+01 a       100     0     4     1    10
  2.8602206268766839E+01 a       101     0     4     1    11
  2.4628244666046628E+00 a       102     0     4     1    12
  1.5543204586082169E+01 a       103     0     4     1    13
 -1.5052134608296980E+01 a       104     0     4     1    14
 -2.6263657198715581E+01 a       105     0     4     1    15
  2.2777135079274696E+01 a       106     0     4     1    16
 -2.0461145197697135E+01 a       107     0     4     1    17
  6.2878403114100196E+00 a       108     0     4     1    18
 -1.1521811107346278E+00 a       109     0     4     1    19
  3.2112265096318154E+01 a       110     0     4     1    20
  4.2492341535831342E+00 a       111     0     4     1    21
 -2.1988579373300670E+01 a       112     0     4     1    22
  1.3033912881798743E+01 a       113     0     4     1    23
  4.2439011173532784E+01 a       114     0     4     1    24
 -8.5114156435860231E+00 a       115     0     4     1    25
 -1.9295236295737446E+01 a       116     0     4     1    26
 -1.9188856648774728E+01 a       117     0     4     1    27
  8.6603046472672744E+00 a       118     0     4     1    28
  5.9372390356179441E+00 a       119     0     4     1    29
  1.0448336901454361E+01 a       120     0     4     1    30
  6.9525301746919839E+00 a       121     0     5     1     1
 -1.0449909507513878E+01 a       122     0     5     1     2
  1.4216015816253236E+01 a       123     0     5     1     3
 -3.4290930120790662E+01 a       124     0     5     1     4
 -1.2601626060717217E+00 a       125     0     5     1     5
  6.7655090784113545E+00 a       126     0     5     1     6
  4.5780272512087050E+00 a       127     0     5     1     7
 -1.8712981509729403E+01 a       128     0     5     1     8
  7.7254051923297231E+00 a       129     0     5     1     9
 -1.3831656908875857E+01 a       130     0     5     1    10
 -6.3117266832434806E+00 a       131     0     5     1    11
  1.6623772503578149E+01 a       132     0     5     1    12
  8.6180509396336848E+00 a       133     0     5     1    13
 -1.6385883915940841E+01 a       134     0     5     1    14
 -1.0969041850217659E+01 a       135     0     5     1    15
  1.8953734548380741E+01 a       136     0     5     1    16
 -6.1543110973804849E+00 a       137     0     5     1    17
  2.7873385753793830E+01 a       138     0     5     1    18
  2.8241857746389439E+01 a       139     0     5     1    19
  2.4420775019448424E+01 a       140     0     5     1    20
  6.7394328448623213E+00 a       141     0     5     1    21
 -3.6430648815314363E+01 a       142     0     5     1    22
 -1.0383832605140426E+00 a       143     0     5     1    23
  1.5467137228984205E+01 a       144     0     5     1    24
  7.7937265564818825E-01 a       145     0     5     1    25
 -2.5231659256952483E+01 a       146     0     5     1    26
 -5.0205286633267194E+00 a       147     0     5     1    27
  2.1734788370554028E+01 a       148     0     5     1    28
  1.5805672511777633E-01 a       149     0     5     1    29
  1.0510041313404367E+01 a       150     0     5     1    30
  1.8535831895872043E+01 a       151     0     6     1     1
  7.0585698582463829E-01 a       152     0     6     1     2
  2.5531077948264502E+00 a       153     0     6     1     3
 -1.9319342437282032E+00 a       154     0     6     1     4
  1.1535099558424269E+00 a       155     0     6     1     5
 -6.3664250296018199E-01 a       156     0     6     1     6
  2.6012530592131861E-01 a       157     0     6     1     7
 -7.8039935333087413E+00 a       158     0     6     1     8
 -9.6212256580991866E+00 a       159     0     6     1     9
  2.7784874819871557E+00 a       160     0     6     1    10
  2.5009340088721718E+01 a       161     0     6     1    11
 -2.5262723785867349E+00 a       162     0     6     1    12
  7.8386430163382963E+00 a       163     0     6     1    13
 -6.0337707178319433E-01 a       164     0     6     1    14
 -5.6152980123142076E+00 a       165     0     6     1    15
  5.2321126741595796E+00 a       166     0     6     1    16
 -1.3153426327128279E+00 a       167     0     6     1    17
  1.1094903414312380E+01 a       168     0     6     1    18
  3.9708115147377367E+00 a       169     0     6     1    19
 -2.0581532881849873E+00 a       170     0     6     1    20
  5.7782866598041567E+00 a       171     0     6     1    21
 -1.8779629087077130E+00 a       172     0     6     1    22
 -7.9944797458797980E+00 a       173     0     6     1    23
 -3.3828438599094266E+00 a       174     0     6     1    24
  3.2636336674765487E+00 a       175     0     6     1    25
  4.5928584492708124E-01 a       176     0     6     1    26
  1.2620147755983131E+00 a       177     0     6     1    27
  7.1172727938269009E+00 a       178     0     6     1    28
  3.6972802285923140E-01 a       179     0     6     1    29
 -5.5132274709765650E+00 a       180     0     6     1    30
  1.2068122343205008E+01 a       181     0     7     1     1
 -1.4374103755979681E+00 a       182     0     7     1     2
 -1.0177349149156786E+01 a       183     0     7     1     3
  3.4632182990198146E+01 a       184     0     7     1     4
 -5.3313420311747262E+00 a       185     0     7     1     5
  4.7143536936530364E+00 a       186     0     7     1     6
 -2.4037545695468260E+01 a       187     0     7     1     7
  2.2811387962803000E+01 a       188     0     7     1     8
  4.9438983894392781E+00 a       189     0     7     1     9
  3.0451473922012539E+01 a       190     0     7     1    10
  1.4295983573719238E+00 a       191     0     7     1    11
  7.0498526761380722E+00 a       192     0     7     1    12
 -5.6840548723285620E+00 a       193     0     7     1    13
  1.5230774674903051E+01 a       194     0     7     1    14
  8.8859338118437883E+00 a       195     0     7     1    15
  1.3019587421207515E+00 a       196     0     7     1    16
  1.2874039606642338E+01 a       197     0     7     1    17
 -1.1688022059714912E+01 a       198     0     7     1    18
 -6.2352735253125031E+00 a       199     0     7     1    19
 -3.0409008685683641E+00 a       200     0     7     1    20
  1.1098064541241383E+01 a       201     0     7     1    21
  2.2760871250375107E+01 a       202     0     7     1    22
  3.2047525397658307E+00 a       203     0     7     1    23
 -3.8343742743373951E+01 a       204     0     7     1    24
 -1.1646520455637409E+01 a       205     0     7     1    25
  1.6118103214972326E+01 a       206     0     7     1    26
  1.4179777301928882E+01 a       207     0     7     1    27
 -1.3112386624330743E+01 a       208     0     7     1    28
 -2.6414576834030195E+00 a       209     0     7     1    29
 -7.5627031904304616E+00 a       210     0     7     1    30
  2.1591671248032554E+01 a       211     0     8     1     1
 -4.2561501222508769E+00 a       212     0     8     1     2
 -1.1716702176245193E+00 a       213     0     8     1     3
  3.6282863680372387E+01 a       214     0     8     1     4
 -4.4130462901618230E+00 a       215     0     8     1     5
 -1.4513381109978006E+01 a       216     0     8     1     6
  2.7719333709674125E+00 a       217     0     8     1     7
  1.8603086636688211E+00 a       218     0     8     1     8
 -4.0961341561630222E+00 a       219     0     8     1     9
  2.2540057262192672E+01 a       220     0     8     1    10
  2.1850505151243059E+01 a       221     0     8     1    11
 -3.9520733606576641E-01 a       222     0     8     1    12
  5.1063143043265402E-01 a       223     0     8     1    13
  9.9222921705350302E+00 a       224     0     8     1    14
  7.2530146720486446E+00 a       225     0     8     1    15
 -5.9113244302630568E+00 a       226     0     8     1    16
  1.7965946134911825E+01 a       227     0     8     1    17
  2.3384176816445805E+01 a       228     0     8     1    18
  7.2923630730321305E+00 a       229     0     8     1    19
 -2.6417252118609039E+01 a       230     0     8     1    20
  7.7140099207310442E+00 a       231     0     8     1    21
  1.0070390004433877E+01 a       232     0     8     1    22
 -1.9226359112307872E+01 a       233     0     8     1    23
 -3.4084603461636291E+01 a       234     0     8     1    24
  7.1417197720860770E+00 a       235     0     8     1    25
  8.3413860004652154E+00 a       236     0     8     1    26
  1.7823816417291738E+01 a       237     0     8     1    27
  6.1344074153371615E+00 a       238     0     8     1    28
 -3.6175024832088409E+00 a       239     0     8     1    29
 -1.1989279720276979E+01 a       240     0     8     1    30
 -1.4108844369501293E+01 a       241     0     9     1     1
  1.6463319298875849E+00 a       242     0     9     1     2
 -2.5524399054429816E+00 a       243     0     9     1     3
  2.4072524178201364E+00 a       244     0     9     1     4
  3.0910104008793398E+00 a       245     0     9     1     5
 -9.9257990326340928E-01 a       246     0     9     1     6
  1.7495711692178653E+00 a       247     0     9     1     7
  4.0488809845633025E+00 a       248     0     9     1     8
  8.3978600582411286E-02 a       249     0     9     1     9
 -2.6087412664785177E+00 a       250     0     9     1    10
 -1.5335913754141790E+01 a       251     0     9     1    11
 -1.2819125719936801E+00 a       252     0     9     1    12
  3.1360762666143507E+00 a       253     0     9     1    13
 -2.6894159311412871E+00 a       254     0     9     1    14
 -1.7004143638406799E+00 a       255     0     9     1    15
  4.3148345091197120E+00 a       256     0     9     1    16
 -5.3477971375811970E+00 a       257     0     9     1    17
  5.6625790354741545E-01 a       258     0     9     1    18
  7.3264964887537609E-01 a       259     0     9     1    19
  1.4206428004067311E+01 a       260     0     9     1    20
  1.1340934132587448E+00 a       261     0     9     1    21
 -2.5343720576958120E+00 a       262     0     9     1    22
  1.1037969486242141E+00 a       263     0     9     1    23
  9.3236012051461685E+00 a       264     0     9     1    24
 -1.4446388220553921E+00 a       265     0     9     1    25
 -4.1783552667435488E+00 a       266     0     9     1    26
 -3.8453560535584477E+00 a       267     0     9     1    27
  4.8178229459012663E+00 a       268     0     9     1    28
  1.1379652323807432E+00 a       269     0     9     1    29
  3.7532763209886437E+00 a       270     0     9     1    30
  2.8664074242721109E+00 a       271     0    10     1     1
 -3.2505085847734894E-01 a       272     0    10     1     2
  7.1945274098250900E-01 a       273     0    10     1     3
 -1.1606288827054063E+00 a       274     0    10     1     4
 -4.1976588472316340E-01 a       275     0    10     1     5
 -7.9795356168079368E-02 a       276     0    10     1     6
  4.6170429750815184E-01 a       277     0    10     1     7
 -1.5191255790511675E+00 a       278     0    10     1     8
 -3.0079669931907771E-01 a       279     0    10     1     9
 -2.8367249296269703E-01 a       280     0    10     1    10
  3.4971316826399739E+00 a       281     0    10     1    11
 -8.5608887162628308E-02 a       282     0    10     1    12
 -7.3160669463487848E-01 a       283     0    10     1    13
  3.9127151920750197E-01 a       284     0    10     1    14
  3.3632572795456478E-01 a       285     0    10     1    15
 -1.5201971047250245E+00 a       286     0    10     1    16
  7.6756911948063056E-01 a       287     0    10     1    17
  4.3306877257900667E-02 a       288     0    10     1    18
 -1.8004478324226219E-03 a       289     0    10     1    19
 -3.5445082461450990E+00 a       290     0    10     1    20
 -8.0303869660403027E-01 a       291     0    10     1    21
  2.6350770317912425E-01 a       292     0    10     1    22
 -5.5732264752367378E-01 a       293     0    10     1    23
 -1.2339291787111424E+00 a       294     0    10     1    24
  8.5663401186036547E-01 a       295     0    10     1    25
  6.6175301871292547E-01 a       296     0    10     1    26
  5.5407764968777196E-01 a       297     0    10     1    27
 -5.4457639306017269E-01 a       298     0    10     1    28
 -2.6458003857368628E-01 a       299     0    10     1    29
 -7.8291457267423559E-01 a       300     0    10     1    30
  3.4991504439833037E+00 a       301     0    11     1     1
 -2.2531602672653142E+00 a       302     0    11     1     2
 -7.4837349502349602E+00 a       303     0    11     1     3
  3.8213537352428446E+01 a       304     0    11     1     4
 -3.4647929445478107E+00 a       305     0    11     1     5
 -1.6997559653065576E+01 a       306     0    11     1     6
  8.7007096828919526E+00 a       307     0    11     1     7
  1.7484608807051518E+00 a       308     0    11     1     8
 -1.0388353468218126E+01 a       309     0    11     1     9
  1.7846212738477330E+01 a       310     0    11     1    10
  7.6538909972450693E+00 a       311     0    11     1    11
 -1.2775687717140046E+01 a       312     0    11     1    12
 -3.2586852798665173E+00 a       313     0    11     1    13
  1.1005879839588125E+01 a       314     0    11     1    14
  1.3719474580018924E+01 a       315     0    11     1    15
 -2.2157519871981723E+01 a       316     0    11     1    16
  1.4728398779982713E+01 a       317     0    11     1    17
  1.1615994594838844E+01 a       318     0    11     1    18
 -2.4948489786660386E+00 a       319     0    11     1    19
 -3.7343924223265034E+01 a       320     0    11     1    20
 -2.9657988964489541E+00 a       321     0    11     1    21
  2.0293326613038285E+01 a       322     0    11     1    22
 -2.1630740009744454E+01 a       323     0    11     1    23
 -3.1265017348554480E+01 a       324     0    11     1    24
  1.5493104605694988E+01 a       325     0    11     1    25
  1.7408602846455516E+01 a       326     0    11     1    26
  1.6891864638993123E+01 a       327     0    11     1    27
  1.5118908390585466E+00 a       328     0    11     1    28
 -4.0782209508040115E+00 a       329     0    11     1    29
 -1.5084194879859737E+01 a       330     0    11     1    30
  7.8212821907496899E+00 a       331     0    12     1     1
 -6.7318856547995776E-01 a       332     0    12     1     2
  1.4870092370205505E+00 a       333     0    12     1     3
  3.7777290088481008E+00 a       334     0    12     1     4
 -9.1116286923273571E-01 a       335     0    12     1     5
 -5.6550889637635837E+00 a       336     0    12     1     6
  1.0765303314449618E+01 a       337     0    12     1     7
 -9.4680330859359927E+00 a       338     0    12     1     8
 -4.9924507020008599E+00 a       339     0    12     1     9
 -1.1871852699098289E+00 a       340     0    12     1    10
  1.6888558196219215E+01 a       341     0    12     1    11
 -7.6469679783717952E+00 a       342     0    12     1    12
 -3.3335160607525154E+00 a       343     0    12     1    13
  2.0520393754528206E+00 a       344     0    12     1    14
  4.5848949336660247E+00 a       345     0    12     1    15
 -1.5257272835774813E+01 a       346     0    12     1    16
  2.1096335731085691E+00 a       347     0    12     1    17
  4.4686928967754538E+00 a       348     0    12     1    18
 -2.0553094684410982E+00 a       349     0    12     1    19
 -2.8903045673509919E+01 a       350     0    12     1    20
 -8.4648687735000596E+00 a       351     0    12     1    21
  3.7175780793359738E+00 a       352     0    12     1    22
 -9.3883678236739669E+00 a       353     0    12     1    23
 -5.5031214101575312E+00 a       354     0    12     1    24
  1.0859353121896655E+01 a       355     0    12     1    25
  5.0434842192163094E+00 a       356     0    12     1    26
  5.1166335577237572E+00 a       357     0    12     1    27
 -1.0993123913909257E+00 a       358     0    12     1    28
 -9.8029288206403242E-01 a       359     0    12     1    29
 -6.2739109476652395E+00 a       360     0    12     1    30
  3.6389259860263707E+00 a       361     0    13     1     1
 -2.7944752491707492E-01 a       362     0    13     1     2
  1.0011700885099082E+00 a       363     0    13     1     3
 -1.5399976677853082E+00 a       364     0    13     1     4
  4.2563314780435693E-02 a       365     0    13     1     5
 -2.6152464626209371E-01 a       366     0    13     1     6
  1.1571841846156590E+00 a       367     0    13     1     7
 -2.3381284131976616E+00 a       368     0    13     1     8
 -9.5698292486026304E-01 a       369     0    13     1     9
 -1.4515750553564211E+00 a       370     0    13     1    10
  4.5345675635721756E+00 a       371     0    13     1    11
 -2.8409231407758528E-01 a       372     0    13     1    12
 -1.3093464423186030E+00 a       373     0    13     1    13
  5.9816605470603523E-01 a       374     0    13     1    14
  5.6018811703458471E-01 a       375     0    13     1    15
 -3.4003447796264643E+00 a       376     0    13     1    16
 -1.3243327138726989E-02 a       377     0    13     1    17
 -7.6573498991100428E-02 a       378     0    13     1    18
 -3.8634225421308532E-01 a       379     0    13     1    19
 -5.1235090896977900E+00 a       380     0    13     1    20
 -1.8892576928787290E+00 a       381     0    13     1    21
  4.0403299482442512E-01 a       382     0    13     1    22
 -1.4166761772607528E+00 a       383     0    13     1    23
 -9.5457286905052230E-01 a       384     0    13     1    24
  1.9183502945459074E+00 a       385     0    13     1    25
  6.9189128376578113E-01 a       386     0    13     1    26
  4.0574563410067926E-01 a       387     0    13     1    27
 -5.7220879210445319E-01 a       388     0    13     1    28
 -4.3557591454182876E-01 a       389     0    13     1    29
 -1.0884899574182392E+00 a       390     0    13     1    30
  2.1685159583365132E-01 a       391     0    14     1     1
  1.2104069466171941E-01 a       392     0    14     1     2
  8.4468072177904668E-02 a       393     0    14     1     3
 -1.1587269021278566E-01 a       394     0    14     1     4
 -1.2630409970063539E-01 a       395     0    14     1     5
  4.1478384124956622E-02 a       396     0    14     1     6
  1.1406259823443909E-01 a       397     0    14     1     7
 -1.7641319522082094E-01 a       398     0    14     1     8
 -7.0957514452428525E-02 a       399     0    14     1     9
  5.3458075784782004E-02 a       400     0    14     1    10
  3.5291169214831625E-01 a       401     0    14     1    11
  3.4152712431801649E-03 a       402     0    14     1    12
 -4.7500279811220396E-02 a       403     0    14     1    13
 -6.5929514859019711E-03 a       404     0    14     1    14
 -1.8017278995132679E-02 a       405     0    14     1    15
 -1.0491048810751800E-01 a       406     0    14     1    16
  3.4180486416476849E-02 a       407     0    14     1    17
  1.9124201944364181E-02 a       408     0    14     1    18
 -1.5439833306193160E-01 a       409     0    14     1    19
 -3.8376887061251685E-01 a       410     0    14     1    20
 -6.4077234130944835E-02 a       411     0    14     1    21
 -6.9635329003446350E-02 a       412     0    14     1    22
 -1.0925040898226177E-01 a       413     0    14     1    23
 -4.7732505738404513E-02 a       414     0    14     1    24
  3.4505184082230765E-02 a       415     0    14     1    25
  1.7433226093757379E-01 a       416     0    14     1    26
 -6.4253887071535499E-03 a       417     0    14     1    27
 -1.2486209306497971E-01 a       418     0    14     1    28
  6.5510497447484869E-02 a       419     0    14     1    29
 -7.5189681691280208E-02 a       420     0    14     1    30
 -5.3593916194012312E+00 a       421     0    15     1     1
 -2.4356942871746576E+00 a       422     0    15     1     2
 -6.7888563083407533E+01 a       423     0    15     1     3
 -6.4364961846228992E+00 a       424     0    15     1     4
 -1.6647171519297249E+01 a       425     0    15     1     5
  3.5614340625046687E+01 a       426     0    15     1     6
 -6.0908733054947186E+00 a       427     0    15     1     7
  1.0952217553903433E+01 a       428     0    15     1     8
 -9.0873099755416348E+01 a       429     0    15     1     9
  8.2295849515955890E+00 a       430     0    15     1    10
  1.3412970894311153E+01 a       431     0    15     1    11
  1.0269574241261401E+01 a       432     0    15     1    12
 -5.9898144643676039E+00 a       433     0    15     1    13
 -5.1634576053993747E+01 a       434     0    15     1    14
  1.1926815058427893E+01 a       435     0    15     1    15
 -4.2441435721007409E+01 a       436     0    15     1    16
 -2.2837858688583335E+01 a       437     0    15     1    17
 -2.4851650805185031E+01 a       438     0    15     1    18
 -1.2641886456237383E+01 a       439     0    15     1    19
 -2.1101493639680101E+01 a       440     0    15     1    20
 -4.4525429345272670E+01 a       441     0    15     1    21
 -5.5167173477063267E+00 a       442     0    15     1    22
 -2.2053904551030129E+01 a       443     0    15     1    23
  1.0278343233618100E+01 a       444     0    15     1    24
 -9.8624289158185174E+00 a       445     0    15     1    25
 -3.2239581931261355E+01 a       446     0    15     1    26
 -1.0969177503341172E+01 a       447     0    15     1    27
 -1.0826954113837758E+01 a       448     0    15     1    28
 -1.5062377364355495E+01 a       449     0    15     1    29
  2.4750405614906501E+01 a       450     0    15     1    30
  3.3464859104516471E+01 a       451     0    16     1     1
  2.7752724899082870E+00 a       452     0    16     1     2
 -3.7418205212458709E+01 a       453     0    16     1     3
  1.5586486838923555E+01 a       454     0    16     1     4
  3.8895697254478940E+00 a       455     0    16     1     5
  1.3887263537717446E+01 a       456     0    16     1     6
  1.5131209741241396E+01 a       457     0    16     1     7
  1.2741908182423787E+01 a       458     0    16     1     8
  1.1228943819845277E+01 a       459     0    16     1     9
  4.3390033712533986E+00 a       460     0    16     1    10
 -2.0576547776387613E+01 a       461     0    16     1    11
 -9.3962524384177613E+00 a       462     0    16     1    12
 -3.1297455469470432E+01 a       463     0    16     1    13
  3.1134472223003105E+01 a       464     0    16     1    14
 -3.8159014935724869E+01 a       465     0    16     1    15
 -2.9247204061110685E+00 a       466     0    16     1    16
  1.5329720521622059E+01 a       467     0    16     1    17
  5.2167310643228824E+01 a       468     0    16     1    18
  8.0252610178955344E+00 a       469     0    16     1    19
  3.0399659075545635E+01 a       470     0    16     1    20
  3.9247853497447828E+01 a       471     0    16     1    21
 -3.0100310062231699E+01 a       472     0    16     1    22
 -2.1501113060205719E+00 a       473     0    16     1    23
 -2.2952016377915871E+01 a       474     0    16     1    24
  2.5199291092741287E+01 a       475     0    16     1    25
 -2.0057348281628125E+00 a       476     0    16     1    26
 -4.5818111087530426E+01 a       477     0    16     1    27
  9.8135576590582108E-01 a       478     0    16     1    28
  7.5724213052112797E+00 a       479     0    16     1    29
  1.7231432770664810E+01 a       480     0    16     1    30
  5.0084800340203079E+00 a       481     0    17     1     1
 -4.7067041317795892E+00 a       482     0    17     1     2
 -2.7436094571684947E+01 a       483     0    17     1     3
 -1.3157846759128722E+01 a       484     0    17     1     4
  3.4062697170225187E+00 a       485     0    17     1     5
  2.1201640444694005E+00 a       486     0    17     1     6
 -1.7292862193420742E+01 a       487     0    17     1     7
 -2.0072950365099295E+01 a       488     0    17     1     8
  2.0902643099512055E+01 a       489     0    17     1     9
 -1.2118866892732951E+00 a       490     0    17     1    10
 -1.4359713865047626E+01 a       491     0    17     1    11
 -1.5058836662999619E+01 a       492     0    17     1    12
  5.8881382838730207E+00 a       493     0    17     1    13
 -9.2915501074101825E-01 a       494     0    17     1    14
 -1.0429228919585814E+01 a       495     0    17     1    15
  1.0447760116840602E+01 a       496     0    17     1    16
  1.6743921287144257E+01 a       497     0    17     1    17
  1.7312343262407680E+01 a       498     0    17     1    18
  1.0673481842429307E+01 a       499     0    17     1    19
 -1.8944746814661815E+00 a       500     0    17     1    20
  2.7262571496210885E+01 a       501     0    17     1    21
  2.4025988405913914E+01 a       502     0    17     1    22
  2.9523423578739717E+01 a       503     0    17     1    23
  5.9725778397023959E+00 a       504     0    17     1    24
 -3.5890585535572335E+00 a       505     0    17     1    25
  6.1464827009367102E+00 a       506     0    17     1    26
 -1.0421223283858192E+01 a       507     0    17     1    27
  1.8749186455396753E+01 a       508     0    17     1    28
 -9.4027105888138980E+00 a       509     0    17     1    29
  1.6476773336404417E+01 a       510     0    17     1    30
  1.1976410497139046E+01 a       511     0    18     1     1
  1.4136611576191713E+01 a       512     0    18     1     2
  1.4449474682875250E+01 a       513     0    18     1     3
  1.0037583848739116E+01 a       514     0    18     1     4
  1.6358204385164001E+01 a       515     0    18     1     5
  1.2632136206962844E+01 a       516     0    18     1     6
  3.8521589745349516E+01 a       517     0    18     1     7
 -1.8395576409843073E+01 a       518     0    18     1     8
  2.4377744928459432E+01 a       519     0    18     1     9
  6.0640654941763970E+00 a       520     0    18     1    10
 -1.0423489201672799E+01 a       521     0    18     1    11
  3.6354640360533383E+00 a       522     0    18     1    12
  9.8779549990120596E+00 a       523     0    18     1    13
 -2.7255283502781044E+01 a       524     0    18     1    14
  2.3788137517024475E+00 a       525     0    18     1    15
  2.6337823999088059E+01 a       526     0    18     1    16
 -2.3211739153607375E+01 a       527     0    18     1    17
  4.1187626471076747E+01 a       528     0    18     1    18
  2.2952092834817939E+00 a       529     0    18     1    19
  6.1257039735172114E-01 a       530     0    18     1    20
  8.8434338961125185E+00 a       531     0    18     1    21
  3.1083139037073224E+01 a       532     0    18     1    22
  1.1178395641757700E+01 a       533     0    18     1    23
  5.0415409212514689E+01 a       534     0    18     1    24
 -1.9141970842147643E+01 a       535     0    18     1    25
  4.7195294813652779E+00 a       536     0    18     1    26
  4.5274209310826720E+01 a       537     0    18     1    27
  1.7142755068100776E+01 a       538     0    18     1    28
 -3.0484047687278693E+01 a       539     0    18     1    29
  3.3150370784203623E+01 a       540     0    18     1    30
  2.0913818744055686E+01 a       541     0    19     1     1
  1.6152018059745676E+00 a       542     0    19     1     2
  4.4633048847279175E+00 a       543     0    19     1     3
  2.2491032808193768E+01 a       544     0    19     1     4
 -6.2799597286211135E+00 a       545     0    19     1     5
 -3.3984380100329381E+00 a       546     0    19     1     6
  1.6574760838065782E+01 a       547     0    19     1     7
 -1.2602188730838575E+00 a       548     0    19     1     8
 -2.0137407355647763E+01 a       549     0    19     1     9
  6.0169587352838483E-01 a       550     0    19     1    10
  4.1222144616968723E+00 a       551     0    19     1    11
  5.7148378268257130E+00 a       552     0    19     1    12
 -2.6013275046508962E+01 a       553     0    19     1    13
 -3.0553687166229089E+01 a       554     0    19     1    14
 -1.3215457127256885E+01 a       555     0    19     1    15
 -9.4212586679427552E+00 a       556     0    19     1    16
 -1.1674201518951264E+01 a       557     0    19     1    17
 -8.3024137447859303E+00 a       558     0    19     1    18
  2.1837574376183690E+00 a       559     0    19     1    19
 -4.3870728626272779E+00 a       560     0    19     1    20
  2.3388734069167203E+01 a       561     0    19     1    21
  9.7528573367416573E+00 a       562     0    19     1    22
 -6.8859847505708993E-01 a       563     0    19     1    23
  1.9297120177745004E+01 a       564     0    19     1    24
 -7.1693921212775296E+00 a       565     0    19     1    25
 -7.7519364717745001E+00 a       566     0    19     1    26
 -4.9711702383614913E+00 a       567     0    19     1    27
 -1.6361612501089371E+00 a       568     0    19     1    28
 -4.8824556620840278E+00 a       569     0    19     1    29
  1.0245613441230329E+01 a       570     0    19     1    30
  1.2003786745935402E+01 a       571     0    20     1     1
  1.4194772832100570E+01 a       572     0    20     1     2
  1.2148317213673494E+01 a       573     0    20     1     3
  3.8482887776731722E+01 a       574     0    20     1     4
  1.0898902723658495E+01 a       575     0    20     1     5
  9.9712016543914750E+00 a       576     0    20     1     6
  3.8411158522761095E+00 a       577     0    20     1     7
 -6.8583470800589397E-01 a       578     0    20     1     8
 -1.7809504557666177E+01 a       579     0    20     1     9
  1.8642841304854301E+01 a       580     0    20     1    10
  3.9616476328362445E+01 a       581     0    20     1    11
 -6.6362014892998094E+00 a       582     0    20     1    12
  2.6408931927243177E+01 a       583     0    20     1    13
 -2.4376453898567377E+01 a       584     0    20     1    14
 -1.4133709720830801E+01 a       585     0    20     1    15
  1.0510096794221138E+00 a       586     0    20     1    16
  3.2499898103483467E+01 a       587     0    20     1    17
  1.3433893217046397E-01 a       588     0    20     1    18
 -8.6982307879984422E+00 a       589     0    20     1    19
 -1.4114356137947562E+01 a       590     0    20     1    20
  5.0499165878644220E+01 a       591     0    20     1    21
 -2.6393877424644137E+00 a       592     0    20     1    22
 -2.4816028024527297E+00 a       593     0    20     1    23
 -2.6668589936562107E+01 a       594     0    20     1    24
 -8.9045867716009184E+00 a       595     0    20     1    25
  1.7201882049120080E+01 a       596     0    20     1    26
  1.0436311577502332E+01 a       597     0    20     1    27
  8.0287247993227968E+00 a       598     0    20     1    28
  3.1168537330614807E+00 a       599     0    20     1    29
 -1.0591765093656159E+01 a       600     0    20     1    30
 -2.5716700025531839E+01 a       601     0    21     1     1
 -4.2500272588582853E+00 a       602     0    21     1     2
  6.3542822198526430E+01 a       603     0    21     1     3
  2.9125854620912270E+00 a       604     0    21     1     4
  2.4845113985597756E+01 a       605     0    21     1     5
 -2.7636035109073845E+01 a       606     0    21     1     6
 -1.9775468896467623E+00 a       607     0    21     1     7
 -2.3005644934570673E+00 a       608     0    21     1     8
  7.3439745285291309E+01 a       609     0    21     1     9
 -1.0170349996018428E+01 a       610     0    21     1    10
 -3.3875489160822490E+01 a       611     0    21     1    11
 -2.0133720130322108E+00 a       612     0    21     1    12
 -2.0258813373923548E+01 a       613     0    21     1    13
  4.2799979616746320E+01 a       614     0    21     1    14
  2.2853275367732961E+00 a       615     0    21     1    15
  2.2047448247904011E+01 a       616     0    21     1    16
 -9.7616773647116286E+00 a       617     0    21     1    17
 -1.6044920561392448E+01 a       618     0    21     1    18
  1.6811664404818760E+01 a       619     0    21     1    19
  9.8001762971046471E+00 a       620     0    21     1    20
  4.2977951385357818E+00 a       621     0    21     1    21
 -2.2457865205478347E-01 a       622     0    21     1    22
  2.1668942157815483E+01 a       623     0    21     1    23
 -6.4858398362375036E+00 a       624     0    21     1    24
  8.5020212968503905E+00 a       625     0    21     1    25
  2.7487019969808472E+01 a       626     0    21     1    26
  2.0999964608614722E+01 a       627     0    21     1    27
  4.7576808780451438E+00 a       628     0    21     1    28
  1.7343865976307487E+01 a       629     0    21     1    29
 -3.3244501748593272E+01 a       630     0    21     1    30
  8.4616265624886253E+00 a       631     0    22     1     1
 -1.1056594026743081E+01 a       632     0    22     1     2
  2.2657983877930825E+01 a       633     0    22     1     3
 -8.9109981563822416E+00 a       634     0    22     1     4
 -1.0414251469770695E+01 a       635     0    22     1     5
 -3.6046349519513313E+01 a       636     0    22     1     6
 -2.1428329674704976E+01 a       637     0    22     1     7
  9.9102382815723686E+00 a       638     0    22     1     8
  3.0347435220723284E+01 a       639     0    22     1     9
  1.4071744810047022E+01 a       640     0    22     1    10
  8.0191214421270800E+00 a       641     0    22     1    11
 -1.1902895821108705E+01 a       642     0    22     1    12
  1.3651313116846651E+01 a       643     0    22     1    13
  2.5980627585117148E+01 a       644     0    22     1    14
  2.9459200622436896E+01 a       645     0    22     1    15
 -1.2813156400380386E+01 a       646     0    22     1    16
  9.2452709361885166E+00 a       647     0    22     1    17
 -5.3042384445305224E+00 a       648     0    22     1    18
  4.8228374354729855E+00 a       649     0    22     1    19
  1.0900476415224965E+01 a       650     0    22     1    20
 -1.3364602709542060E+01 a       651     0    22     1    21
 -1.5861545305200938E+01 a       652     0    22     1    22
 -4.2420935807349354E+00 a       653     0    22     1    23
 -4.8386185744117689E+01 a       654     0    22     1    24
  1.0550196808482990E+01 a       655     0    22     1    25
  8.9700106700454718E+00 a       656     0    22     1    26
  1.1498671683728780E+01 a       657     0    22     1    27
 -1.1342232254894043E+01 a       658     0    22     1    28
  1.6809911675006223E+01 a       659     0    22     1    29
 -3.8359504336038199E+01 a       660     0    22     1    30
 -2.3138706944424744E+01 a       661     0    23     1     1
  1.1052787069288248E+01 a       662     0    23     1     2
  4.9747471774456130E+01 a       663     0    23     1     3
  4.9964254993537551E+01 a       664     0    23     1     4
 -5.2118726116826561E+00 a       665     0    23     1     5
  2.6118826705956806E+01 a       666     0    23     1     6
  9.8533798051991184E+00 a       667     0    23     1     7
  1.2387171644687342E+01 a       668     0    23     1     8
 -9.6797235268069723E+00 a       669     0    23     1     9
  4.5087887861078335E-01 a       670     0    23     1    10
  4.0622242456863411E+00 a       671     0    23     1    11
  2.4503800259966003E+01 a       672     0    23     1    12
 -5.0591173149665298E+00 a       673     0    23     1    13
  1.8299222847131226E+01 a       674     0    23     1    14
  1.6540887595387741E+01 a       675     0    23     1    15
  2.6193320970050326E+01 a       676     0    23     1    16
 -4.1131034482450541E+00 a       677     0    23     1    17
 -1.3564555340076052E+00 a       678     0    23     1    18
 -2.0764870359402511E+01 a       679     0    23     1    19
 -2.1838307258781867E+01 a       680     0    23     1    20
 -3.6988651840060527E+01 a       681     0    23     1    21
 -3.8287344545896779E+01 a       682     0    23     1    22
 -3.7187874616031522E+01 a       683     0    23     1    23
 -1.6269171976362060E+01 a       684     0    23     1    24
  1.4361190594082903E+01 a       685     0    23     1    25
 -1.0851116013607880E+00 a       686     0    23     1    26
  2.4139438364562773E+00 a       687     0    23     1    27
 -3.4653247606346902E+01 a       688     0    23     1    28
  2.1052091499767059E+01 a       689     0    23     1    29
 -3.5609390143274624E+01 a       690     0    23     1    30
 -1.3292788704095182E+01 a       691     0    24     1     1
 -8.3117657428044711E-01 a       692     0    24     1     2
  3.5863032944632550E+01 a       693     0    24     1     3
 -2.9121432053300239E+01 a       694     0    24     1     4
 -2.1856782302686618E+01 a       695     0    24     1     5
 -1.6568039311103696E+01 a       696     0    24     1     6
 -1.6204337287010368E+01 a       697     0    24     1     7
 -1.6113264912732490E+00 a       698     0    24     1     8
 -2.5642308367946093E+01 a       699     0    24     1     9
 -1.1662069811215796E+01 a       700     0    24     1    10
 -1.0936808737022290E+00 a       701     0    24     1    11
 -7.5363721853054217E+00 a       702     0    24     1    12
  2.4990596058715134E+01 a       703     0    24     1    13
  9.9964291585252729E-01 a       704     0    24     1    14
  3.2232947702763738E+01 a       705     0    24     1    15
 -1.3822371838515097E+00 a       706     0    24     1    16
 -1.1992678657538420E+01 a       707     0    24     1    17
 -6.2497317958526416E+01 a       708     0    24     1    18
 -4.8357738863240343E+00 a       709     0    24     1    19
 -1.7979108875329036E+01 a       710     0    24     1    20
 -3.3608754194242522E+01 a       711     0    24     1    21
  1.6431748370442531E+01 a       712     0    24     1    22
  1.7382783747779428E+01 a       713     0    24     1    23
 -1.1076820086738833E+01 a       714     0    24     1    24
 -6.2571995110375829E+00 a       715     0    24     1    25
  1.0570915292105553E+01 a       716     0    24     1    26
 -1.2579090144034183E+01 a       717     0    24     1    27
 -9.8569473212270609E+00 a       718     0    24     1    28
  2.8995083353590626E+01 a       719     0    24     1    29
 -3.2258197106100830E+01 a       720     0    24     1    30
 -3.5316947052295006E+01 a       721     0    25     1     1
 -3.8550525002969787E+00 a       722     0    25     1     2
 -1.2410099901043901E+01 a       723     0    25     1     3
 -3.7683169946983625E+01 a       724     0    25     1     4
  1.3375040508391059E+01 a       725     0    25     1     5
 -3.6895262743519286E+00 a       726     0    25     1     6
 -2.3491963896520563E+01 a       727     0    25     1     7
  4.8127523854369620E+00 a       728     0    25     1     8
  4.7652374303060803E+01 a       729     0    25     1     9
  1.9907909797311634E+00 a       730     0    25     1    10
 -7.4320703539459467E+00 a       731     0    25     1    11
 -9.1002911779934372E+00 a       732     0    25     1    12
  4.7970985632625940E+01 a       733     0    25     1    13
  5.7862577823816309E+01 a       734     0    25     1    14
  3.1118526308965674E+01 a       735     0    25     1    15
  1.7515369023359444E+01 a       736     0    25     1    16
  8.6441795409633215E+00 a       737     0    25     1    17
  1.6912482782103250E+01 a       738     0    25     1    18
 -4.8229028462345731E+00 a       739     0    25     1    19
  4.3974830856729694E+00 a       740     0    25     1    20
 -4.8706552697209538E+01 a       741     0    25     1    21
 -2.3832862359015845E+01 a       742     0    25     1    22
  8.9574157573340241E-01 a       743     0    25     1    23
 -3.0259898841534945E+01 a       744     0    25     1    24
  1.4705152612749039E+01 a       745     0    25     1    25
  1.1649480373636061E+01 a       746     0    25     1    26
  2.2928876277987420E+01 a       747     0    25     1    27
  3.0976810007661291E+00 a       748     0    25     1    28
  1.1620925136367550E+01 a       749     0    25     1    29
 -1.3635160510019263E+01 a       750     0    25     1    30
 -2.8016918164054733E+01 a       751     0    26     1     1
 -3.4856783007825356E+01 a       752     0    26     1     2
 -1.8806923253177438E+01 a       753     0    26     1     3
 -4.6153036506313988E+01 a       754     0    26     1     4
 -2.9681836899869985E+01 a       755     0    26     1     5
 -2.3314866636241270E+01 a       756     0    26     1     6
 -3.4747236164851884E+01 a       757     0    26     1     7
 -5.3810119302559798E+00 a       758     0    26     1     8
  8.1166713368053784E+00 a       759     0    26     1     9
 -2.5121891114167070E+01 a       760     0    26     1    10
 -3.5619151113594256E+01 a       761     0    26     1    11
  9.5042607014070732E+00 a       762     0    26     1    12
 -1.5559654166844290E+01 a       763     0    26     1    13
  4.6227334429920703E+01 a       764     0    26     1    14
  4.1936921470096607E+01 a       765     0    26     1    15
 -1.0103580555454043E+01 a       766     0    26     1    16
 -1.8895320245700244E+01 a       767     0    26     1    17
 -8.4517217419774315E+00 a       768     0    26     1    18
  1.5253821320047983E+01 a       769     0    26     1    19
  4.3280533236284349E+00 a       770     0    26     1    20
 -9.5020433796394499E+01 a       771     0    26     1    21
  8.2281126848178854E+00 a       772     0    26     1    22
  1.8210897245903233E+00 a       773     0    26     1    23
  1.3789750716351339E+01 a       774     0    26     1    24
 -1.5210562578887303E+00 a       775     0    26     1    25
 -2.5594873175046775E+01 a       776     0    26     1    26
 -5.9418774334825004E+00 a       777     0    26     1    27
 -2.2517178182836290E+01 a       778     0    26     1    28
 -4.2152001679974420E+00 a       779     0    26     1    29
 -2.0471134483188788E-01 a       780     0    26     1    30
 -9.3687701850989722E+00 a       781     0    27     1     1
  2.2461978683765871E+01 a       782     0    27     1     2
  2.7761416385953712E+01 a       783     0    27     1     3
 -2.6200414372881681E+01 a       784     0    27     1     4
  2.6171247677493583E+00 a       785     0    27     1     5
 -1.7557594977256681E+01 a       786     0    27     1     6
  6.1005834898727445E+00 a       787     0    27     1     7
 -1.8834286886044286E+01 a       788     0    27     1     8
  7.0521932518935699E+01 a       789     0    27     1     9
 -3.8854111164352474E+01 a       790     0    27     1    10
 -5.3378076308317146E+00 a       791     0    27     1    11
 -4.1984095116021223E+00 a       792     0    27     1    12
 -2.9590794108984051E+00 a       793     0    27     1    13
  4.4519748332147053E+01 a       794     0    27     1    14
 -4.1029758832198397E+01 a       795     0    27     1    15
  2.9660090201452903E+01 a       796     0    27     1    16
  1.6492675186216392E+01 a       797     0    27     1    17
  2.5389773440578352E+01 a       798     0    27     1    18
 -2.9685188805612137E+00 a       799     0    27     1    19
  3.1073861090132237E+01 a       800     0    27     1    20
  5.3836661593776029E+01 a       801     0    27     1    21
  1.4371522970804680E+01 a       802     0    27     1    22
  1.9652433248102209E+01 a       803     0    27     1    23
  1.8236627057983188E+01 a       804     0    27     1    24
 -8.8124519306353637E+00 a       805     0    27     1    25
  2.1233598679204810E+01 a       806     0    27     1    26
  1.2292354463930222E+01 a       807     0    27     1    27
  2.7335399979322055E+01 a       808     0    27     1    28
 -1.2909909773125510E+00 a       809     0    27     1    29
  1.3829958249474412E+01 a       810     0    27     1    30
  2.6259348303273446E+00 a       811     0    28     1     1
 -6.6321408914933517E+00 a       812     0    28     1     2
 -1.8405035303870094E+00 a       813     0    28     1     3
 -5.8814778133296848E+00 a       814     0    28     1     4
 -9.1853399217668201E+00 a       815     0    28     1     5
 -8.7128892754202991E-01 a       816     0    28     1     6
 -2.1711885693155175E+01 a       817     0    28     1     7
 -5.5258507273498987E+00 a       818     0    28     1     8
 -1.8027827219516922E+01 a       819     0    28     1     9
  2.0418130383605096E+01 a       820     0    28     1    10
  6.4447388651564879E+01 a       821     0    28     1    11
  8.4419520433079267E+00 a       822     0    28     1    12
  3.2350148572594939E+01 a       823     0    28     1    13
 -4.4803131291491844E+01 a       824     0    28     1    14
  1.9657775059105646E+01 a       825     0    28     1    15
 -2.0841824837954977E+01 a       826     0    28     1    16
  1.0911401337233409E+01 a       827     0    28     1    17
  1.6110293877367859E+01 a       828     0    28     1    18
 -2.1779043492114617E+01 a       829     0    28     1    19
 -7.4555032803626355E+00 a       830     0    28     1    20
 -8.0351012823859183E+00 a       831     0    28     1    21
  9.2754733004585770E+00 a       832     0    28     1    22
 -3.7529967284594335E+01 a       833     0    28     1    23
 -4.0272753716503340E+00 a       834     0    28     1    24
 -2.0459246977157097E+01 a       835     0    28     1    25
 -1.9386038919809309E+01 a       836     0    28     1    26
  6.3444562446608636E+01 a       837     0    28     1    27
 -7.3341462167299856E+00 a       838     0    28     1    28
 -3.0412081580565800E+01 a       839     0    28     1    29
  1.4574592268394992E+01 a       840     0    28     1    30
  2.6381301997280520E+01 a       841     0    29     1     1
 -9.8098763589244733E+00 a       842     0    29     1     2
 -1.6167660142455976E+01 a       843     0    29     1     3
 -5.2046290989742388E+01 a       844     0    29     1     4
  1.1406649648582567E+00 a       845     0    29     1     5
 -3.6929677828931652E+01 a       846     0    29     1     6
  2.4418295789849765E+01 a       847     0    29     1     7
  2.1469860661576035E+01 a       848     0    29     1     8
 -3.2128792947312910E+01 a       849     0    29     1     9
  4.8427078961432830E+00 a       850     0    29     1    10
  2.9060551097090539E+01 a       851     0    29     1    11
 -1.3985922741521980E+01 a       852     0    29     1    12
 -1.1978162710878786E+00 a       853     0    29     1    13
 -3.2481973254836205E+01 a       854     0    29     1    14
 -2.7688066894894106E+00 a       855     0    29     1    15
 -4.5393725683976918E+01 a       856     0    29     1    16
 -2.2010145768609675E+01 a       857     0    29     1    17
 -1.8442844660340718E+01 a       858     0    29     1    18
  1.4325273211013455E+01 a       859     0    29     1    19
  3.5448194570932692E+01 a       860     0    29     1    20
  1.4955305531087104E+01 a       861     0    29     1    21
  1.5234349379903961E+01 a       862     0    29     1    22
  6.5898229168123050E+00 a       863     0    29     1    23
  1.3242449391335393E+01 a       864     0    29     1    24
 -1.7310198261311829E+01 a       865     0    29     1    25
 -1.2199122188641381E+01 a       866     0    29     1    26
  1.6249412806405488E+01 a       867     0    29     1    27
  1.9871909738776498E+01 a       868     0    29     1    28
 -1.6646271701832308E+01 a       869     0    29     1    29
  2.3360236415066336E+01 a       870     0    29     1    30
 -2.5314138338002710E+01 a       871     0    30     1     1
 -1.8973166081991643E+01 a       872     0    30     1     2
 -5.2703655855231784E+00 a       873     0    30     1     3
 -6.7912941389489323E-01 a       874     0    30     1     4
  7.1977030947247842E+00 a       875     0    30     1     5
  1.6072729112916594E+01 a       876     0    30     1     6
 -2.0339222839736081E+01 a       877     0    30     1     7
  5.6854603292630268E-01 a       878     0    30     1     8
 -6.1284574166617382E+01 a       879     0    30     1     9
 -2.0365130571139101E+01 a       880     0    30     1    10
  1.6407884344988830E+01 a       881     0    30     1    11
  1.0153505223314802E+01 a       882     0    30     1    12
  5.5249798260411529E+00 a       883     0    30     1    13
 -2.3258135194915294E+01 a       884     0    30     1    14
 -3.3379415929759354E+01 a       885     0    30     1    15
 -9.0436906000247372E+00 a       886     0    30     1    16
  7.8731156540235459E+00 a       887     0    30     1    17
 -3.7661054365354005E+01 a       888     0    30     1    18
 -6.9388300979071609E+00 a       889     0    30     1    19
 -1.9066228788571653E+01 a       890     0    30     1    20
  1.3794770324180146E+01 a       891     0    30     1    21
 -1.0026947125198491E+01 a       892     0    30     1    22
 -7.6744030493720254E+00 a       893     0    30     1    23
 -1.5060008281244748E+01 a       894     0    30     1    24
  3.8072660299376175E+00 a       895     0    30     1    25
 -1.4572089576405098E+01 a       896     0    30     1    26
 -3.6117039687397572E+01 a       897     0    30     1    27
 -3.4578793467487574E+00 a       898     0    30     1    28
  3.5117284923743388E+00 a       899     0    30     1    29
  1.0325676418824280E+01 a       900     0    30     1    30
  2.0574678710616624E+01 a       901     0    31     1     1
  3.4891670558131773E+00 a       902     0    31     1     2
  7.1661567852168622E+00 a       903     0    31     1     3
  1.6564623790241839E+01 a       904     0    31     1     4
 -1.0208999053533935E+01 a       905     0    31     1     5
  2.0413516317388972E+01 a       906     0    31     1     6
  3.1877740835052402E+00 a       907     0    31     1     7
 -5.6480312095191065E+00 a       908     0    31     1     8
 -3.2862619481956393E+01 a       909     0    31     1     9
 -6.1840767847540050E+00 a       910     0    31     1    10
  3.2334366331678330E+00 a       911     0    31     1    11
  2.5863201485519345E+00 a       912     0    31     1    12
 -2.7515164305536018E+01 a       913     0    31     1    13
 -3.4424330638548440E+01 a       914     0    31     1    14
 -2.7850625017837299E+01 a       915     0    31     1    15
 -1.3550973003673246E+01 a       916     0    31     1    16
  8.1832667337294964E+00 a       917     0    31     1    17
 -1.3835559280038215E+01 a       918     0    31     1    18
  3.7366418440732772E+00 a       919     0    31     1    19
 -1.2542734323354496E+00 a       920     0    31     1    20
  3.3735806082635975E+01 a       921     0    31     1    21
  2.2167347682044742E+01 a       922     0    31     1    22
 -1.9865428203098408E+00 a       923     0    31     1    23
  1.1866107134945070E+01 a       924     0    31     1    24
 -1.0756317201861474E+01 a       925     0    31     1    25
 -2.4544528957875165E+00 a       926     0    31     1    26
 -2.9154375362871512E+01 a       927     0    31     1    27
 -1.8370140362823948E+00 a       928     0    31     1    28
 -1.0697023984203225E+01 a       929     0    31     1    29
  1.2429801437024770E+00 a       930     0    31     1    30
  1.1334055178173259E+01 a       931     0    32     1     1
  2.6350995432576685E+01 a       932     0    32     1     2
  2.4362195323604992E+00 a       933     0    32     1     3
  1.8031692777783128E+01 a       934     0    32     1     4
  2.7612499855525154E+01 a       935     0    32     1     5
  1.6463858587425282E+01 a       936     0    32     1     6
  4.0687983971206620E+01 a       937     0    32     1     7
  1.4993618446735686E+01 a       938     0    32     1     8
  2.3068136910117282E+01 a       939     0    32     1     9
  5.8272699034425628E+00 a       940     0    32     1    10
 -4.6994344080377601E+00 a       941     0    32     1    11
  3.1115886129875969E+00 a       942     0    32     1    12
 -3.0844663930278852E+01 a       943     0    32     1    13
 -1.4988054234978094E+01 a       944     0    32     1    14
 -4.5394820894792936E+01 a       945     0    32     1    15
  1.3629144137246440E+01 a       946     0    32     1    16
 -2.1098109248117815E+01 a       947     0    32     1    17
  1.0903561350177366E+01 a       948     0    32     1    18
 -6.1982829345826156E+00 a       949     0    32     1    19
  1.6192113879503622E+00 a       950     0    32     1    20
  5.3271014514430995E+01 a       951     0    32     1    21
 -1.5052360328705781E+01 a       952     0    32     1    22
 -2.5387095824329209E-01 a       953     0    32     1    23
  3.0947047018512343E+01 a       954     0    32     1    24
  2.1963113464682156E+01 a       955     0    32     1    25
  3.8568058520316768E+00 a       956     0    32     1    26
 -1.8280390084869442E+01 a       957     0    32     1    27
  1.8117995172120438E+01 a       958     0    32     1    28
  1.2929395615623043E+00 a       959     0    32     1    29
  1.5261589416785206E+01 a       960     0    32     1    30
  4.5328527352375822E+01 a       961     0    33     1     1
 -1.7741162035280286E+01 a       962     0    33     1     2
 -1.9268325722822812E+01 a       963     0    33     1     3
  2.8844216642249211E+01 a       964     0    33     1     4
 -1.1793756401399074E+01 a       965     0    33     1     5
  1.5590957936188193E+01 a       966     0    33     1     6
  1.5150573746061010E+01 a       967     0    33     1     7
  6.6254575595934275E+00 a       968     0    33     1     8
 -8.7161013956042723E+01 a       969     0    33     1     9
  1.6947395299005375E+01 a       970     0    33     1    10
  1.5686606751156107E+01 a       971     0    33     1    11
 -3.5935928750457369E+00 a       972     0    33     1    12
  3.5198493630430285E+01 a       973     0    33     1    13
 -5.1718738358097802E+01 a       974     0    33     1    14
  2.1568718698630480E+01 a       975     0    33     1    15
 -2.4828973332361364E+00 a       976     0    33     1    16
  1.9992189348738560E+01 a       977     0    33     1    17
  4.0765743530531724E+00 a       978     0    33     1    18
 -6.2225374781667186E-01 a       979     0    33     1    19
 -3.8218226342767075E+01 a       980     0    33     1    20
 -1.7528606255117161E+01 a       981     0    33     1    21
 -7.7757282148723528E+00 a       982     0    33     1    22
 -8.8559814657474263E+00 a       983     0    33     1    23
 -4.6650001673570616E+00 a       984     0    33     1    24
  1.2106383757466210E+01 a       985     0    33     1    25
 -1.2667326277551059E+01 a       986     0    33     1    26
 -5.8509987999564800E+01 a       987     0    33     1    27
 -2.5464919041423897E+01 a       988     0    33     1    28
  2.7736820191470986E+00 a       989     0    33     1    29
 -1.2722055406308016E+01 a       990     0    33     1    30
  1.9646499826974239E+01 a       991     0    34     1     1
  4.1814734563907461E+00 a       992     0    34     1     2
 -2.0127980490396268E+01 a       993     0    34     1     3
  1.5350598867307443E+01 a       994     0    34     1     4
  3.0841607056462532E+00 a       995     0    34     1     5
  3.1208269523460146E+01 a       996     0    34     1     6
  1.0038676064103411E+01 a       997     0    34     1     7
  2.2532076008624959E+00 a       998     0    34     1     8
 -1.4240958249697412E+01 a       999     0    34     1     9
  2.8951303232715102E+01 a      1000     0    34     1    10
  5.7643946846424301E+00 a      1001     0    34     1    11
 -1.1072654858239103E+01 a      1002     0    34     1    12
 -2.1156391672828214E+01 a      1003     0    34     1    13
 -2.3584728174767420E+01 a      1004     0    34     1    14
  2.7875761003149197E+01 a      1005     0    34     1    15
  4.5047142800869215E+00 a      1006     0    34     1    16
 -3.4854494206450917E+00 a      1007     0    34     1    17
 -4.8021862324176183E+00 a      1008     0    34     1    18
  8.9358880633809061E+00 a      1009     0    34     1    19
 -1.8314855939479550E+01 a      1010     0    34     1    20
 -2.3390108268660420E+01 a      1011     0    34     1    21
  2.9694473030890347E+01 a      1012     0    34     1    22
 -5.0679100644190000E-01 a      1013     0    34     1    23
  4.9253730252687674E+01 a      1014     0    34     1    24
 -8.6055026741568685E+00 a      1015     0    34     1    25
 -4.9862554735204734E+00 a      1016     0    34     1    26
  1.4006169711423992E+01 a      1017     0    34     1    27
  4.8187595685861506E+00 a      1018     0    34     1    28
 -5.2370640525810082E+00 a      1019     0    34     1    29
  9.9324914672520261E+00 a      1020     0    34     1    30
 -7.9891224771393805E+00 a      1021     0    35     1     1
  4.1615612673662978E+00 a      1022     0    35     1     2
 -1.6362537811761687E+01 a      1023     0    35     1     3
  2.1468854820248051E+01 a      1024     0    35     1     4
  9.1656498440224099E-01 a      1025     0    35     1     5
  3.1098351759560212E+00 a      1026     0    35     1     6
 -2.5045646375768321E+01 a      1027     0    35     1     7
 -2.0829615124338279E+01 a      1028     0    35     1     8
  2.9118558014458909E+01 a      1029     0    35     1     9
 -1.8230632834965452E+00 a      1030     0    35     1    10
 -2.4556043332602581E+01 a      1031     0    35     1    11
  3.6644349535958525E+00 a      1032     0    35     1    12
  5.1405542661264318E+00 a      1033     0    35     1    13
  2.0497030622734286E+01 a      1034     0    35     1    14
 -3.0403704176722903E+00 a      1035     0    35     1    15
  5.2100363640799836E+00 a      1036     0    35     1    16
  1.8712618820338399E+01 a      1037     0    35     1    17
  4.5138893437907335E+00 a      1038     0    35     1    18
 -5.6993116981381480E+00 a      1039     0    35     1    19
 -1.2446774230418834E+01 a      1040     0    35     1    20
 -5.5943446972694097E+00 a      1041     0    35     1    21
 -4.6777274684101239E-01 a      1042     0    35     1    22
  2.9289986884786576E+00 a      1043     0    35     1    23
 -5.7822852310889328E+00 a      1044     0    35     1    24
  1.0204164131023264E+01 a      1045     0    35     1    25
  1.0947153205279077E+01 a      1046     0    35     1    26
 -1.0139589547048089E+01 a      1047     0    35     1    27
 -4.6547971527172294E+00 a      1048     0    35     1    28
  6.1696757458425440E+00 a      1049     0    35     1    29
 -4.2358592320412853E+00 a      1050     0    35     1    30
 -1.8436731079330748E+01 a      1051     0    36     1     1
  2.1215056231742352E+01 a      1052     0    36     1     2
 -3.4709784025977235E+01 a      1053     0    36     1     3
  3.1824495737381497E+01 a      1054     0    36     1     4
  1.4409912116419784E+01 a      1055     0    36     1     5
 -2.5717385032557214E+00 a      1056     0    36     1     6
  1.4049164251450062E+01 a      1057     0    36     1     7
  7.3691669831513575E+00 a      1058     0    36     1     8
  6.3159639156506316E+01 a      1059     0    36     1     9
 -1.1085086853606171E+01 a      1060     0    36     1    10
 -5.9156443697575469E+01 a      1061     0    36     1    11
  1.8563263871673389E+01 a      1062     0    36     1    12
 -4.7629815611921721E+01 a      1063     0    36     1    13
  7.5678312632736393E+01 a      1064     0    36     1    14
 -3.6562901433491810E+01 a      1065     0    36     1    15
  2.4236605737712306E+01 a      1066     0    36     1    16
 -1.1770298919764777E+01 a      1067     0    36     1    17
  1.5446478555611373E+01 a      1068     0    36     1    18
  1.6145124051123346E+01 a      1069     0    36     1    19
  1.6504683744936955E+01 a      1070     0    36     1    20
  1.3445806536556379E+01 a      1071     0    36     1    21
 -2.7898407838964157E+01 a      1072     0    36     1    22
  2.0564740567693985E+01 a      1073     0    36     1    23
  9.1291421022340131E+00 a      1074     0    36     1    24
  1.8497522363712097E+01 a      1075     0    36     1    25
  7.0021340759359063E+00 a      1076     0    36     1    26
 -2.7493915515765156E+01 a      1077     0    36     1    27
  1.1734756224332605E+01 a      1078     0    36     1    28
  3.4984493509775443E+00 a      1079     0    36     1    29
  9.3175769402223487E+00 a      1080     0    36     1    30
 -7.7331564962365764E+00 a      1081     0    37     1     1
 -1.6352656111756463E+00 a      1082     0    37     1     2
  1.6246206310301143E+00 a      1083     0    37     1     3
 -1.5708261972975057E-01 a      1084     0    37     1     4
  3.8092517470345322E+00 a      1085     0    37     1     5
 -2.0397699732372228E+01 a      1086     0    37     1     6
  6.2933393137699563E+00 a      1087     0    37     1     7
  3.0262940165755503E+00 a      1088     0    37     1     8
  4.9540212676364428E+00 a      1089     0    37     1     9
  5.3073684633547220E+00 a      1090     0    37     1    10
  6.5911756448862002E-01 a      1091     0    37     1    11
  2.2855739772164254E+00 a      1092     0    37     1    12
  4.7625534353961827E+00 a      1093     0    37     1    13
  6.7779435941422213E+00 a      1094     0    37     1    14
  1.3461204007272990E+01 a      1095     0    37     1    15
  6.6264865399412951E+00 a      1096     0    37     1    16
 -7.7670954024545527E+00 a      1097     0    37     1    17
  7.1898774285635740E+00 a      1098     0    37     1    18
 -1.2889103480201374E+00 a      1099     0    37     1    19
  1.4981232332531838E+00 a      1100     0    37     1    20
 -9.3407804956936982E+00 a      1101     0    37     1    21
 -1.0702456553083385E+01 a      1102     0    37     1    22
  2.4552041069622019E+00 a      1103     0    37     1    23
 -4.2223640253895789E-01 a      1104     0    37     1    24
  4.0994768345450341E+00 a      1105     0    37     1    25
 -3.1718105768717781E+00 a      1106     0    37     1    26
  1.3664619000643450E+01 a      1107     0    37     1    27
  3.1416327344301281E-01 a      1108     0    37     1    28
  5.4796977504113622E+00 a      1109     0    37     1    29
  3.0333199566608378E+00 a      1110     0    37     1    30
  3.4953822853904009E+00 a      1111     0    38     1     1
 -6.8940431855607240E+00 a      1112     0    38     1     2
  4.4779506812389652E-01 a      1113     0    38     1     3
 -9.1547273273327114E+00 a      1114     0    38     1     4
 -1.0335169721545119E+01 a      1115     0    38     1     5
 -5.3554908106164811E+00 a      1116     0    38     1     6
 -1.4419084416215020E+01 a      1117     0    38     1     7
 -8.8379087170815946E+00 a      1118     0    38     1     8
 -1.2558547094458348E+01 a      1119     0    38     1     9
  1.3043761703340000E+00 a      1120     0    38     1    10
  2.5187513229367533E+00 a      1121     0    38     1    11
 -7.6360390022291247E+00 a      1122     0    38     1    12
  2.0847298473973922E+01 a      1123     0    38     1    13
 -5.8725541859877168E+00 a      1124     0    38     1    14
  2.0862803286470776E+01 a      1125     0    38     1    15
 -8.9475684528213026E+00 a      1126     0    38     1    16
  1.5587162185397037E+01 a      1127     0    38     1    17
 -4.2909114718769170E-01 a      1128     0    38     1    18
 -1.8495652792991613E-01 a      1129     0    38     1    19
  1.0031906832775825E+01 a      1130     0    38     1    20
 -9.0992941886943139E+00 a      1131     0    38     1    21
  7.3349805928215224E+00 a      1132     0    38     1    22
 -2.8469770549029407E+00 a      1133     0    38     1    23
 -2.2402214571125469E+01 a      1134     0    38     1    24
 -1.2344983594319098E+01 a      1135     0    38     1    25
  5.5984140441619612E+00 a      1136     0    38     1    26
  1.5381731983808713E+01 a      1137     0    38     1    27
 -5.4982425935885564E+00 a      1138     0    38     1    28
 -2.4115029738701796E-01 a      1139     0    38     1    29
 -1.2449955454473505E+01 a      1140     0    38     1    30
 -2.1219842478494240E+01 a      1141     0    39     1     1
  3.0083724215893253E+00 a      1142     0    39     1     2
 -6.3408170871326748E+00 a      1143     0    39     1     3
 -4.8295834388376164E+00 a      1144     0    39     1     4
  3.2610689024269082E+00 a      1145     0    39     1     5
 -2.2084333809114817E+01 a      1146     0    39     1     6
 -8.7518324124608835E+00 a      1147     0    39     1     7
  8.2147375668525644E+00 a      1148     0    39     1     8
  2.5374214941995149E+01 a      1149     0    39     1     9
  8.6942070412788812E+00 a      1150     0    39     1    10
 -1.5031657591796749E+01 a      1151     0    39     1    11
  2.1810945343173845E+01 a      1152     0    39     1    12
 -6.5051854544575303E+00 a      1153     0    39     1    13
  2.9138762866932488E+01 a      1154     0    39     1    14
  2.3721625326127840E+00 a      1155     0    39     1    15
  1.3195640008133731E+00 a      1156     0    39     1    16
 -2.6633754324538153E+01 a      1157     0    39     1    17
 -8.1611536703639782E+00 a      1158     0    39     1    18
 -3.7348794262216534E+00 a      1159     0    39     1    19
  2.4958832954590779E+01 a      1160     0    39     1    20
 -2.4165833314972711E+00 a      1161     0    39     1    21
 -3.5565315553281671E+00 a      1162     0    39     1    22
 -2.8129688320955903E+00 a      1163     0    39     1    23
 -1.6139474591931364E+01 a      1164     0    39     1    24
 -2.5983552136311663E+00 a      1165     0    39     1    25
 -3.5972982256342032E+00 a      1166     0    39     1    26
  3.6299984452209458E+01 a      1167     0    39     1    27
 -3.3707029571936142E-01 a      1168     0    39     1    28
 -1.1128325759094821E+01 a      1169     0    39     1    29
  1.2323759778182188E+01 a      1170     0    39     1    30
 -3.2732021158684695E+01 a      1171     0    40     1     1
  1.0700694832748933E+01 a      1172     0    40     1     2
  8.7184032635409441E+00 a      1173     0    40     1     3
 -1.8219899574989093E+01 a      1174     0    40     1     4
  1.1318557741626741E+01 a      1175     0    40     1     5
  2.0154056414588187E+01 a      1176     0    40     1     6
 -7.0243464627095440E+00 a      1177     0    40     1     7
 -1.5259734121592896E+01 a      1178     0    40     1     8
  1.4147200266439324E+01 a      1179     0    40     1     9
 -3.8931455264842128E+01 a      1180     0    40     1    10
 -3.0473843502209334E+01 a      1181     0    40     1    11
 -3.8211990177924399E+01 a      1182     0    40     1    12
 -2.8849932774393146E+01 a      1183     0    40     1    13
  3.0536097735758232E+00 a      1184     0    40     1    14
 -3.9669298948571708E+01 a      1185     0    40     1    15
 -1.3434296879786518E+00 a      1186     0    40     1    16
  2.1342793327437612E+01 a      1187     0    40     1    17
 -2.0647291770720098E+01 a      1188     0    40     1    18
  8.7000356259850413E+00 a      1189     0    40     1    19
  5.4934438611188092E+00 a      1190     0    40     1    20
  7.5378578880810898E-01 a      1191     0    40     1    21
  2.1750856202552096E+00 a      1192     0    40     1    22
  1.1619742808169603E+01 a      1193     0    40     1    23
  1.4705329933480927E+01 a      1194     0    40     1    24
 -3.5361754622592803E+00 a      1195     0    40     1    25
  1.0785820476840103E+01 a      1196     0    40     1    26
 -3.2520562088549802E+01 a      1197     0    40     1    27
  2.7708416442041710E+01 a      1198     0    40     1    28
  3.9531582901877719E+01 a      1199     0    40     1    29
 -6.4022908755348906E+00 a      1200     0    40     1    30
 -1.1637547071169312E+00 a      1201     0    41     1     1
 -1.0853709092510380E+00 a      1202     0    41     1     2
  1.4628052730186132E+01 a      1203     0    41     1     3
 -5.6502343717419397E+00 a      1204     0    41     1     4
 -6.9699949677996742E-01 a      1205     0    41     1     5
  1.4970172973560336E+01 a      1206     0    41     1     6
  1.0358198264864910E+01 a      1207     0    41     1     7
  8.0242521135669644E+00 a      1208     0    41     1     8
 -7.6448294420006384E+00 a      1209     0    41     1     9
 -1.6337506973471800E+00 a      1210     0    41     1    10
  1.0662266267728867E+01 a      1211     0    41     1    11
 -1.5315954916336350E+00 a      1212     0    41     1    12
 -5.9286535553041091E+00 a      1213     0    41     1    13
 -7.6583232890193846E+00 a      1214     0    41     1    14
  9.1923674953222645E-01 a      1215     0    41     1    15
  6.5094347984328582E+00 a      1216     0    41     1    16
 -7.7428691502972677E+00 a      1217     0    41     1    17
  3.2488911547027013E+00 a      1218     0    41     1    18
  2.1114262923915192E+00 a      1219     0    41     1    19
 -4.8325510062673926E-01 a      1220     0    41     1    20
  3.5771564426657703E+00 a      1221     0    41     1    21
 -7.6922858682863049E-01 a      1222     0    41     1    22
 -2.9371012446045333E+00 a      1223     0    41     1    23
  2.1970567108687020E+00 a      1224     0    41     1    24
 -4.2324339815414360E+00 a      1225     0    41     1    25
 -5.4341237923487009E+00 a      1226     0    41     1    26
  4.3722707336117450E+00 a      1227     0    41     1    27
  1.3526712381600150E+00 a      1228     0    41     1    28
 -1.2819049161990379E+00 a      1229     0    41     1    29
  1.3228143941343813E+00 a      1230     0    41     1    30
  3.5513553833587345E+01 a      1231     0    42     1     1
 -1.6161003026486743E+01 a      1232     0    42     1     2
  3.3971216859234858E+01 a      1233     0    42     1     3
 -1.7278163427405275E+01 a      1234     0    42     1     4
 -1.8595642022522728E+01 a      1235     0    42     1     5
 -3.6780173113058353E+01 a      1236     0    42     1     6
  5.7852731294456410E+00 a      1237     0    42     1     7
  1.8319696802420220E+00 a      1238     0    42     1     8
 -1.6438790950720460E+01 a      1239     0    42     1     9
  1.7005282484815094E+01 a      1240     0    42     1    10
  5.2297851973263334E+01 a      1241     0    42     1    11
  1.4910424321490790E+01 a      1242     0    42     1    12
  4.9694105816468415E+01 a      1243     0    42     1    13
 -2.9695371982593535E+01 a      1244     0    42     1    14
  4.1864237309635151E+01 a      1245     0    42     1    15
 -2.1116872519170698E+01 a      1246     0    42     1    16
 -1.0889771003405286E+01 a      1247     0    42     1    17
  2.4343105417516991E+01 a      1248     0    42     1    18
 -1.4949643294155413E+01 a      1249     0    42     1    19
  5.6177137831714918E-01 a      1250     0    42     1    20
  6.6912405554744880E-01 a      1251     0    42     1    21
 -1.5801693853952632E+00 a      1252     0    42     1    22
 -1.6748216080171044E+01 a      1253     0    42     1    23
 -3.3429679549266730E+01 a      1254     0    42     1    24
 -2.2649961330069739E+00 a      1255     0    42     1    25
  1.0982045287312119E+00 a      1256     0    42     1    26
  3.1456822404426109E+01 a      1257     0    42     1    27
 -2.5864285581097889E+01 a      1258     0    42     1    28
 -2.7124050700352885E+01 a      1259     0    42     1    29
 -1.9953250569631894E+01 a      1260     0    42     1    30
  3.3431561842932060E+00 a      1261     0    43     1     1
  4.8306715872781281E-01 a      1262     0    43     1     2
 -2.2219335808053753E+00 a      1263     0    43     1     3
 -1.8356353088876725E+00 a      1264     0    43     1     4
 -8.9871782365734676E-01 a      1265     0    43     1     5
  9.9006582935666536E+00 a      1266     0    43     1     6
 -3.5788210787226982E+00 a      1267     0    43     1     7
 -1.0006243679134350E+00 a      1268     0    43     1     8
  2.2654686738123946E+00 a      1269     0    43     1     9
 -1.9975749328418346E+00 a      1270     0    43     1    10
 -1.2876248801935568E+00 a      1271     0    43     1    11
 -1.7953507034814362E+00 a      1272     0    43     1    12
  1.1317120621252096E-01 a      1273     0    43     1    13
  5.0376798939631051E-01 a      1274     0    43     1    14
 -4.5941457837786084E+00 a      1275     0    43     1    15
 -7.4360519383072021E-01 a      1276     0    43     1    16
  1.3736331438368716E+00 a      1277     0    43     1    17
 -2.7263125206730749E+00 a      1278     0    43     1    18
  1.8966171147205596E-01 a      1279     0    43     1    19
 -9.8776416515145693E-01 a      1280     0    43     1    20
  7.4169328495952291E-01 a      1281     0    43     1    21
  3.1540451600286676E+00 a      1282     0    43     1    22
 -1.4769084870785312E+00 a      1283     0    43     1    23
  2.7603412198336152E-01 a      1284     0    43     1    24
 -1.1085782741762098E+00 a      1285     0    43     1    25
  2.7161942938384320E+00 a      1286     0    43     1    26
 -2.6696479679424225E+00 a      1287     0    43     1    27
  8.0826582878498518E-02 a      1288     0    43     1    28
 -2.0544682932567140E+00 a      1289     0    43     1    29
 -2.0350184178478523E+00 a      1290     0    43     1    30
 -5.9024218610421189E+00 a      1291     0    44     1     1
  2.1426093877074259E+00 a      1292     0    44     1     2
 -2.3652494436083571E+00 a      1293     0    44     1     3
  6.4791598741197314E+00 a      1294     0    44     1     4
  6.2970490586608578E+00 a      1295     0    44     1     5
  8.6875472334656845E+00 a      1296     0    44     1     6
  9.9649772944902111E+00 a      1297     0    44     1     7
  6.0888962927528469E+00 a      1298     0    44     1     8
  4.4002007658619471E+00 a      1299     0    44     1     9
  2.0214944842570473E-01 a      1300     0    44     1    10
  2.5845103198770725E-01 a      1301     0    44     1    11
  3.0890505460217890E+00 a      1302     0    44     1    12
 -1.3912635535652511E+01 a      1303     0    44     1    13
  6.2988950388852487E+00 a      1304     0    44     1    14
 -1.4159135138177207E+01 a      1305     0    44     1    15
  1.0564929675429399E+01 a      1306     0    44     1    16
 -7.3538609886938744E+00 a      1307     0    44     1    17
 -3.3071825226590166E+00 a      1308     0    44     1    18
  9.5851081143791828E-01 a      1309     0    44     1    19
 -1.3366346492509155E+01 a      1310     0    44     1    20
  3.2939938159495199E+00 a      1311     0    44     1    21
 -1.5208731708042547E+00 a      1312     0    44     1    22
  5.8390816800491274E+00 a      1313     0    44     1    23
  1.7498989365873069E+01 a      1314     0    44     1    24
  7.0472694623016752E+00 a      1315     0    44     1    25
 -4.9161621824765804E+00 a      1316     0    44     1    26
 -1.2080439264707586E+01 a      1317     0    44     1    27
  4.1393504438136484E+00 a      1318     0    44     1    28
  2.3654257825129026E+00 a      1319     0    44     1    29
  1.4885415162137370E+01 a      1320     0    44     1    30
  1.0472493457944383E+01 a      1321     0    45     1     1
  2.8585109265837221E+00 a      1322     0    45     1     2
  8.9581605355306788E+00 a      1323     0    45     1     3
  2.6634551280048213E+00 a      1324     0    45     1     4
 -1.4892792663939520E+00 a      1325     0    45     1     5
  1.2227645370044753E+01 a      1326     0    45     1     6
 -5.6450207604084079E+00 a      1327     0    45     1     7
 -3.9097443697142311E+00 a      1328     0    45     1     8
 -7.4369631658332640E+00 a      1329     0    45     1     9
 -2.2259400666126541E+00 a      1330     0    45     1    10
  1.5241525806655652E+01 a      1331     0    45     1    11
 -8.2797236821675799E+00 a      1332     0    45     1    12
 -3.2526065999044889E+00 a      1333     0    45     1    13
 -3.5462810284858577E+00 a      1334     0    45     1    14
 -1.2824120333832012E+00 a      1335     0    45     1    15
 -3.2216245363941631E+00 a      1336     0    45     1    16
  3.8721519887626772E+00 a      1337     0    45     1    17
  2.6264840066419753E-01 a      1338     0    45     1    18
  5.1054979795344035E+00 a      1339     0    45     1    19
 -1.2200832907892750E-01 a      1340     0    45     1    20
  5.9356807726734164E+00 a      1341     0    45     1    21
  2.2065346699729114E+00 a      1342     0    45     1    22
 -5.1294318825004188E+00 a      1343     0    45     1    23
  1.7955483501814779E+01 a      1344     0    45     1    24
  1.2065549869892471E+00 a      1345     0    45     1    25
  1.5072546637203867E+00 a      1346     0    45     1    26
 -7.4494799662400162E+00 a      1347     0    45     1    27
  5.3402736785365921E+00 a      1348     0    45     1    28
  4.6858074762464490E+00 a      1349     0    45     1    29
 -6.6457903935176326E+00 a      1350     0    45     1    30
 -7.9231703924233576E+00 a      1351     0    46     1     1
 -1.3857713496521660E+01 a      1352     0    46     1     2
 -8.1172830876200113E+00 a      1353     0    46     1     3
  8.9715588340782981E-01 a      1354     0    46     1     4
 -3.1649477877254832E+00 a      1355     0    46     1     5
 -1.2798798659028925E+01 a      1356     0    46     1     6
  1.6973391206933858E+01 a      1357     0    46     1     7
  3.0975282586023183E+00 a      1358     0    46     1     8
  1.1575458876405603E+01 a      1359     0    46     1     9
 -1.1830835549388792E+00 a      1360     0    46     1    10
 -4.9060204250341917E+00 a      1361     0    46     1    11
  1.9092715643955959E+01 a      1362     0    46     1    12
  2.1950124638998702E+01 a      1363     0    46     1    13
 -1.1281642877823240E+01 a      1364     0    46     1    14
  6.0978953068132329E+00 a      1365     0    46     1    15
  6.7591729693174751E-01 a      1366     0    46     1    16
  7.9417962623222698E+00 a      1367     0    46     1    17
  1.4770819967780806E+01 a      1368     0    46     1    18
 -1.3887061477622748E+01 a      1369     0    46     1    19
 -1.3409785886641224E+01 a      1370     0    46     1    20
 -6.3294275237382722E-02 a      1371     0    46     1    21
 -7.4958782447666383E+00 a      1372     0    46     1    22
  1.3447176226968340E+01 a      1373     0    46     1    23
 -4.0764611331998758E+01 a      1374     0    46     1    24
 -2.9461792684169197E-01 a      1375     0    46     1    25
  3.3317913324489674E+00 a      1376     0    46     1    26
 -8.7745134316385098E-01 a      1377     0    46     1    27
 -2.2967880241345945E+01 a      1378     0    46     1    28
 -2.1241996174047117E+01 a      1379     0    46     1    29
 -9.4342608843260656E-01 a      1380     0    46     1    30
  9.6761513057548376E-01 a      1381     0    47     1     1
  3.5542425029047517E-03 a      1382     0    47     1     2
 -5.3400955151854763E+00 a      1383     0    47     1     3
  1.1340364409662953E+00 a      1384     0    47     1     4
  1.4533310232826158E-01 a      1385     0    47     1     5
 -1.0363718598978089E+01 a      1386     0    47     1     6
 -2.1861947627389142E+00 a      1387     0    47     1     7
 -3.1275021263703500E+00 a      1388     0    47     1     8
  1.3111599362203754E+00 a      1389     0    47     1     9
  1.4050797197831284E+00 a      1390     0    47     1    10
 -5.3997094021841949E+00 a      1391     0    47     1    11
  2.1584224816303721E-01 a      1392     0    47     1    12
  3.3853372300615967E+00 a      1393     0    47     1    13
  1.2247701077724178E+00 a      1394     0    47     1    14
 -2.5954113065970291E-01 a      1395     0    47     1    15
 -2.0094378037457408E+00 a      1396     0    47     1    16
  4.5681979553418408E+00 a      1397     0    47     1    17
 -7.7541786001148083E-01 a      1398     0    47     1    18
 -1.0305271254763937E+00 a      1399     0    47     1    19
 -1.4119565639174561E+00 a      1400     0    47     1    20
 -2.5479053390244046E+00 a      1401     0    47     1    21
  8.1508078105926707E-01 a      1402     0    47     1    22
  3.2884978990734313E+00 a      1403     0    47     1    23
 -1.2582086599983804E+00 a      1404     0    47     1    24
  1.0376584045131116E+00 a      1405     0    47     1    25
  2.6790526223808206E+00 a      1406     0    47     1    26
 -1.8534776837643712E+00 a      1407     0    47     1    27
 -1.0458006644017346E+00 a      1408     0    47     1    28
  5.3058002997646081E-01 a      1409     0    47     1    29
 -1.0368563823247048E+00 a      1410     0    47     1    30
 -3.8478129468734745E-01 a      1411     0    48     1     1
  1.1344705714119595E+01 a      1412     0    48     1     2
 -1.1973243047925502E+01 a      1413     0    48     1     3
  1.0391065678074028E+01 a      1414     0    48     1     4
  5.7571667793539181E+00 a      1415     0    48     1     5
  1.8131275679003330E+01 a      1416     0    48     1     6
 -9.9007618015937062E+00 a      1417     0    48     1     7
  3.1961190398401604E+00 a      1418     0    48     1     8
 -9.7148650096507705E+00 a      1419     0    48     1     9
  7.6199077198771779E+00 a      1420     0    48     1    10
 -1.0362059916697785E+01 a      1421     0    48     1    11
 -1.0742671975210284E+01 a      1422     0    48     1    12
 -2.4573072132860634E+01 a      1423     0    48     1    13
  1.4221067510553574E+01 a      1424     0    48     1    14
 -8.3445633272162407E+00 a      1425     0    48     1    15
  1.0723597163522639E+01 a      1426     0    48     1    16
 -3.9274615339494585E+00 a      1427     0    48     1    17
 -1.4298670797734712E+01 a      1428     0    48     1    18
  1.1798482556712161E+01 a      1429     0    48     1    19
  9.6997184901478317E-01 a      1430     0    48     1    20
  1.5320694995850233E+00 a      1431     0    48     1    21
  7.0665580958909198E+00 a      1432     0    48     1    22
 -4.5062519285788714E+00 a      1433     0    48     1    23
  3.5324809623893039E+01 a      1434     0    48     1    24
  7.7208069736542850E-01 a      1435     0    48     1    25
 -8.7353336520716880E+00 a      1436     0    48     1    26
 -2.4984632051142102E+00 a      1437     0    48     1    27
  1.8611983916800494E+01 a      1438     0    48     1    28
  1.5366862412245682E+01 a      1439     0    48     1    29
  1.4312578714630622E+01 a      1440     0    48     1    30
 -1.2862902439005250E+00 a      1441     0    49     1     1
 -1.1762237509957120E-01 a      1442     0    49     1     2
  1.0951204979736908E+00 a      1443     0    49     1     3
  1.4479240266095368E+00 a      1444     0    49     1     4
  2.2541907095274943E-01 a      1445     0    49     1     5
 -4.3467175403987488E+00 a      1446     0    49     1     6
  1.4853603896617684E+00 a      1447     0    49     1     7
  4.3481914238029845E-01 a      1448     0    49     1     8
 -1.3563154332368763E+00 a      1449     0    49     1     9
  3.2755643968968529E-01 a      1450     0    49     1    10
  7.9245008035809195E-01 a      1451     0    49     1    11
  4.9103321128964644E-01 a      1452     0    49     1    12
  3.1552546930699650E-02 a      1453     0    49     1    13
 -5.7513646264630058E-01 a      1454     0    49     1    14
  1.5663607441048091E+00 a      1455     0    49     1    15
 -9.9202494422868304E-01 a      1456     0    49     1    16
  6.2214542387933047E-01 a      1457     0    49     1    17
  7.1956160029580174E-01 a      1458     0    49     1    18
  4.5008837851650413E-02 a      1459     0    49     1    19
  2.5880071626910062E-01 a      1460     0    49     1    20
  2.5940613368238458E-01 a      1461     0    49     1    21
 -7.6379573370233522E-01 a      1462     0    49     1    22
  6.8343588590282134E-01 a      1463     0    49     1    23
 -3.9202336964406087E-01 a      1464     0    49     1    24
  2.9805041027508716E-01 a      1465     0    49     1    25
 -1.2817894865935404E+00 a      1466     0    49     1    26
  3.7493495305030883E-01 a      1467     0    49     1    27
 -1.0955084079274331E-01 a      1468     0    49     1    28
  8.5454288687319269E-01 a      1469     0    49     1    29
  9.2497240395561764E-01 a      1470     0    49     1    30
  4.8896550870067239E+00 a      1471     0    50     1     1
 -1.5845400315026026E+00 a      1472     0    50     1     2
  7.0948941780816650E+00 a      1473     0    50     1     3
 -4.1336210390354289E+00 a      1474     0    50     1     4
 -5.7450937495514633E+00 a      1475     0    50     1     5
 -1.4869499789802607E+01 a      1476     0    50     1     6
 -1.3359390042519429E+01 a      1477     0    50     1     7
 -7.4689253255348209E+00 a      1478     0    50     1     8
  8.3741291830972764E-01 a      1479     0    50     1     9
 -5.8291593360011982E+00 a      1480     0    50     1    10
 -4.1918368410569856E-01 a      1481     0    50     1    11
  4.3788233664021048E+00 a      1482     0    50     1    12
  1.3599807872929594E+01 a      1483     0    50     1    13
 -5.6071473443008708E+00 a      1484     0    50     1    14
  1.1549646826372303E+01 a      1485     0    50     1    15
 -1.5082868690328660E+01 a      1486     0    50     1    16
  3.8360976011786974E-01 a      1487     0    50     1    17
  4.0945998385103719E+00 a      1488     0    50     1    18
 -1.7446253731063999E+00 a      1489     0    50     1    19
  1.4249090491465315E+01 a      1490     0    50     1    20
 -4.9136846229899112E+00 a      1491     0    50     1    21
 -2.8443281855145139E+00 a      1492     0    50     1    22
 -8.9827739001965927E+00 a      1493     0    50     1    23
 -2.0507482726612828E+01 a      1494     0    50     1    24
 -5.7125122089997440E+00 a      1495     0    50     1    25
  6.1996236429389571E+00 a      1496     0    50     1    26
  1.1323430261018034E+01 a      1497     0    50     1    27
 -6.4495085649227333E+00 a      1498     0    50     1    28
 -4.8691873160272303E+00 a      1499     0    50     1    29
 -2.1155621820987463E+01 a      1500     0    50     1    30
 -1.0901831119397809E+01 a      1501     0    51     1     1
 -2.2987456175213068E+00 a      1502     0    51     1     2
 -9.7865656125028018E+00 a      1503     0    51     1     3
  2.1600540453803108E+00 a      1504     0    51     1     4
 -9.2294151002872216E-01 a      1505     0    51     1     5
 -2.9306534188859104E+00 a      1506     0    51     1     6
  2.6547681742649454E+00 a      1507     0    51     1     7
 -6.4571517752657428E+00 a      1508     0    51     1     8
  3.8408197245014324E+00 a      1509     0    51     1     9
  7.3197157060210072E-01 a      1510     0    51     1    10
 -6.7654928759547346E+00 a      1511     0    51     1    11
  7.4194245621277455E-01 a      1512     0    51     1    12
  6.8907787424585054E+00 a      1513     0    51     1    13
 -2.1653886256513784E+00 a      1514     0    51     1    14
 -7.4360146389842019E-01 a      1515     0    51     1    15
  2.8759433364072309E+00 a      1516     0    51     1    16
  2.1262763955513773E+00 a      1517     0    51     1    17
  2.3538156876717857E+00 a      1518     0    51     1    18
 -4.3095635074848211E+00 a      1519     0    51     1    19
 -5.7608508756501164E+00 a      1520     0    51     1    20
 -1.0148412395398466E+01 a      1521     0    51     1    21
  1.2253584509283344E+00 a      1522     0    51     1    22
  2.9716670581571263E+00 a      1523     0    51     1    23
 -1.1727143401527837E+01 a      1524     0    51     1    24
  6.5198616014053190E-01 a      1525     0    51     1    25
  4.4816303842753520E+00 a      1526     0    51     1    26
  6.1868511757212783E+00 a      1527     0    51     1    27
 -6.0617374488373867E+00 a      1528     0    51     1    28
 -4.1590996999985397E-01 a      1529     0    51     1    29
 -1.0785543820055836E+00 a      1530     0    51     1    30
  2.0623486708362371E+01 a      1531     0    52     1     1
  6.6066035131763501E+00 a      1532     0    52     1     2
  1.1883897647366554E+01 a      1533     0    52     1     3
 -1.0520105784394529E+01 a      1534     0    52     1     4
  2.1112083412998812E+00 a      1535     0    52     1     5
 -7.9094814208707298E+00 a      1536     0    52     1     6
 -2.9108690013838525E+00 a      1537     0    52     1     7
  1.4399115285552801E+01 a      1538     0    52     1     8
 -1.1063517936730978E+01 a      1539     0    52     1     9
  3.8094644711597287E+00 a      1540     0    52     1    10
  6.3516992093183848E+00 a      1541     0    52     1    11
 -3.8986789949064926E+00 a      1542     0    52     1    12
 -1.3636725445035614E+01 a      1543     0    52     1    13
  7.1978442297082967E+00 a      1544     0    52     1    14
  3.4887425388228110E+00 a      1545     0    52     1    15
  9.1962945736871504E-01 a      1546     0    52     1    16
 -4.5827156208565558E+00 a      1547     0    52     1    17
 -6.9627656197564898E+00 a      1548     0    52     1    18
  9.7956825105126626E+00 a      1549     0    52     1    19
  7.6708248042844440E+00 a      1550     0    52     1    20
  1.2065907327282119E+01 a      1551     0    52     1    21
 -1.1014387305849953E+00 a      1552     0    52     1    22
 -3.1738133015852368E+00 a      1553     0    52     1    23
  2.3888949638699334E+01 a      1554     0    52     1    24
 -5.4872385943562707E-01 a      1555     0    52     1    25
 -1.3564707914405130E+01 a      1556     0    52     1    26
 -6.6756446022973455E+00 a      1557     0    52     1    27
  1.3009289436813480E+01 a      1558     0    52     1    28
  5.3788647001126444E+00 a      1559     0    52     1    29
  7.9964814578585903E+00 a      1560     0    52     1    30
  3.9662543979081610E-01 a      1561     0    53     1     1
  2.4720494829484552E-01 a      1562     0    53     1     2
  3.0988444220160463E+00 a      1563     0    53     1     3
 -1.5417221981373279E+00 a      1564     0    53     1     4
 -6.4118307401852287E-02 a      1565     0    53     1     5
  4.5539535362328092E+00 a      1566     0    53     1     6
  2.3309487023936051E-01 a      1567     0    53     1     7
  3.1136568001177598E+00 a      1568     0    53     1     8
 -7.5741854916593776E-01 a      1569     0    53     1     9
 -2.4035740372280887E-01 a      1570     0    53     1    10
  2.0701449627351831E+00 a      1571     0    53     1    11
 -5.6303214347516402E-02 a      1572     0    53     1    12
 -2.6647094544883667E+00 a      1573     0    53     1    13
  3.3887929756416291E-01 a      1574     0    53     1    14
  4.6843061468274699E-01 a      1575     0    53     1    15
  2.6063362717316457E-01 a      1576     0    53     1    16
 -2.3027481808943580E+00 a      1577     0    53     1    17
 -2.7403392687962058E-01 a      1578     0    53     1    18
  8.8674110269047590E-01 a      1579     0    53     1    19
  2.6694334087562597E+00 a      1580     0    53     1    20
  3.4160384202242082E+00 a      1581     0    53     1    21
 -1.5394293129313921E+00 a      1582     0    53     1    22
 -1.6692246242229913E+00 a      1583     0    53     1    23
  1.1936413189072992E+00 a      1584     0    53     1    24
 -7.2259839643877988E-01 a      1585     0    53     1    25
 -2.0375338414263937E+00 a      1586     0    53     1    26
  3.8549491348889825E-01 a      1587     0    53     1    27
  1.1735225517644574E+00 a      1588     0    53     1    28
 -3.0506661575386235E-01 a      1589     0    53     1    29
  1.4225171029669332E+00 a      1590     0    53     1    30
 -1.1892322458161839E+01 a      1591     0    54     1     1
 -4.8578632208237833E+00 a      1592     0    54     1     2
 -6.0703176812095350E-01 a      1593     0    54     1     3
  2.8120299077432658E+00 a      1594     0    54     1     4
 -2.3338627617912611E+00 a      1595     0    54     1     5
  2.1053262353409954E+00 a      1596     0    54     1     6
  2.3678409702306208E-01 a      1597     0    54     1     7
 -1.0669746417838496E+01 a      1598     0    54     1     8
  8.6315099853291990E+00 a      1599     0    54     1     9
 -6.4398197244498263E+00 a      1600     0    54     1    10
 -1.1225389604512732E+00 a      1601     0    54     1    11
  2.4264409954854900E+00 a      1602     0    54     1    12
  1.1718851063077214E+01 a      1603     0    54     1    13
 -5.9632251100723597E+00 a      1604     0    54     1    14
 -1.4565917943883497E+00 a      1605     0    54     1    15
 -5.2537050161518382E+00 a      1606     0    54     1    16
  2.2015975241014267E+00 a      1607     0    54     1    17
  5.1982590753112801E+00 a      1608     0    54     1    18
 -7.1394788182041662E+00 a      1609     0    54     1    19
  8.1031247886044322E-01 a      1610     0    54     1    20
 -7.9532160631629454E+00 a      1611     0    54     1    21
 -2.6052527498612343E-01 a      1612     0    54     1    22
  4.6468551649746942E-01 a      1613     0    54     1    23
 -1.7781484560324092E+01 a      1614     0    54     1    24
 -3.2593320911724882E-01 a      1615     0    54     1    25
  1.1892280887086786E+01 a      1616     0    54     1    26
  4.3593611117432278E+00 a      1617     0    54     1    27
 -9.8040322515448217E+00 a      1618     0    54     1    28
 -4.2586802241951052E+00 a      1619     0    54     1    29
 -9.7490201378005583E+00 a      1620     0    54     1    30
  1.0368781858256554E-01 a      1621     0    55     1     1
  5.6869361431744821E-02 a      1622     0    55     1     2
 -6.6646452985047189E-01 a      1623     0    55     1     3
