################################################################################
# Neural network connection values (weights and biases).
################################################################################
# Col  Name       Description
################################################################################
# 1    connection Neural network connection value.
# 2    t          Connection type (a = weight, b = bias).
# 3    index      Index enumerating weights.
# 4    l_s        Starting point layer (end point layer for biases).
# 5    n_s        Starting point neuron in starting layer (end point neuron for biases).
# 6    l_e        End point layer.
# 7    n_e        End point neuron in end layer.
################################################################################
#                      1 2         3     4     5     6     7
#             connection t     index   l_s   n_s   l_e   n_e
############################################################
 -6.5347155553799006E+00 a         1     0     1     1     1
  1.9401847479751666E+01 a         2     0     1     1     2
  2.3177342666968389E+01 a         3     0     1     1     3
 -4.0363390798759845E+01 a         4     0     1     1     4
  1.7079699464164411E+00 a         5     0     1     1     5
 -2.3982236779441752E+01 a         6     0     1     1     6
 -3.2090092539361965E+00 a         7     0     1     1     7
 -9.5593213123919654E+00 a         8     0     1     1     8
  6.2402241165423789E+00 a         9     0     1     1     9
  1.0324192264023397E+01 a        10     0     1     1    10
  3.0014237976476581E+00 a        11     0     1     1    11
 -3.5737098670128944E+00 a        12     0     1     1    12
  7.2603055137042078E+00 a        13     0     1     1    13
 -1.5943261846406060E+01 a        14     0     1     1    14
  7.3493498579372867E+00 a        15     0     1     1    15
  1.6361554602505702E+01 a        16     0     1     1    16
  4.4723477099563045E+00 a        17     0     1     1    17
  1.3384603959280415E+01 a        18     0     1     1    18
 -1.9579148479566091E-01 a        19     0     1     1    19
 -7.2065982148536918E+00 a        20     0     1     1    20
  6.6207718413549852E+00 a        21     0     1     1    21
 -7.3310742857070883E+00 a        22     0     1     1    22
  1.0144595691104017E+01 a        23     0     1     1    23
  1.0083834799871427E+01 a        24     0     1     1    24
  8.9206096763552605E+00 a        25     0     1     1    25
 -4.3768271854463228E+00 a        26     0     1     1    26
 -1.0076030120477407E+01 a        27     0     1     1    27
  7.1765127690499553E-01 a        28     0     1     1    28
 -1.4911441189521250E+01 a        29     0     1     1    29
  7.8001368703252147E+00 a        30     0     1     1    30
  1.4619139173250076E+01 a        31     0     2     1     1
  2.0584223206053376E+00 a        32     0     2     1     2
  2.3423997845291471E+01 a        33     0     2     1     3
 -1.0715709783748643E+01 a        34     0     2     1     4
  1.5074116828173825E+01 a        35     0     2     1     5
 -9.9269747083059432E+00 a        36     0     2     1     6
  4.9366915434604595E+00 a        37     0     2     1     7
 -1.3209514935094315E+01 a        38     0     2     1     8
 -4.2333641471180252E+00 a        39     0     2     1     9
  9.9105570281329172E+00 a        40     0     2     1    10
  2.1011776724399166E+01 a        41     0     2     1    11
 -2.9993010123135988E+01 a        42     0     2     1    12
  8.0226818501611117E+00 a        43     0     2     1    13
 -1.8561587913802864E+01 a        44     0     2     1    14
  4.7712787433838324E+00 a        45     0     2     1    15
  8.3442141081774306E+00 a        46     0     2     1    16
  8.0667946746251484E+00 a        47     0     2     1    17
 -3.6560076015589966E+00 a        48     0     2     1    18
  2.7447182834416077E+00 a        49     0     2     1    19
 -1.9809421623335961E+01 a        50     0     2     1    20
  4.6746223181660254E+00 a        51     0     2     1    21
 -1.7858124627884226E+01 a        52     0     2     1    22
 -2.8682499295065922E+00 a        53     0     2     1    23
  6.9672388785711981E+00 a        54     0     2     1    24
  9.9785195779503084E+00 a        55     0     2     1    25
 -2.0106888271954119E+01 a        56     0     2     1    26
  4.2962850757809479E+00 a        57     0     2     1    27
 -2.8503432633383445E+00 a        58     0     2     1    28
  9.0116305193407538E+00 a        59     0     2     1    29
  3.0707569432322277E+00 a        60     0     2     1    30
  1.4298651250537343E+01 a        61     0     3     1     1
 -5.0179937678698591E-02 a        62     0     3     1     2
  1.3659895665906815E+01 a        63     0     3     1     3
  4.1281662162365871E+00 a        64     0     3     1     4
  1.6671608383456874E+01 a        65     0     3     1     5
 -2.6792646512392664E+00 a        66     0     3     1     6
  6.9828202599291096E+00 a        67     0     3     1     7
 -1.3999777323970376E+01 a        68     0     3     1     8
 -7.2025493586074851E-02 a        69     0     3     1     9
  1.3805672419057306E+01 a        70     0     3     1    10
  2.3970717282879150E+01 a        71     0     3     1    11
 -3.0788322689388629E+01 a        72     0     3     1    12
  5.8242987258485028E+00 a        73     0     3     1    13
 -1.8294252454465802E+01 a        74     0     3     1    14
  3.9277958723787201E+00 a        75     0     3     1    15
  1.2498957223787523E+00 a        76     0     3     1    16
  2.6946759955209419E+01 a        77     0     3     1    17
 -6.7721620655048484E+00 a        78     0     3     1    18
  8.3652518332984371E+00 a        79     0     3     1    19
 -2.5103173089350893E+01 a        80     0     3     1    20
  1.9185496920452948E+01 a        81     0     3     1    21
 -1.2622578394851814E+01 a        82     0     3     1    22
 -2.5073564944919098E+00 a        83     0     3     1    23
  4.4524544503956314E+00 a        84     0     3     1    24
 -3.2587511032933025E+00 a        85     0     3     1    25
 -3.0182407411776165E+01 a        86     0     3     1    26
  8.8821243457041508E+00 a        87     0     3     1    27
  2.8828846670630854E+00 a        88     0     3     1    28
  2.9405860781477287E+01 a        89     0     3     1    29
  1.1223892978674220E+01 a        90     0     3     1    30
 -3.5841537077663475E+00 a        91     0     4     1     1
 -8.8074529344713817E+00 a        92     0     4     1     2
 -4.1975304404082394E+01 a        93     0     4     1     3
  2.6517871520287045E+01 a        94     0     4     1     4
 -1.7972053204983265E+01 a        95     0     4     1     5
  4.2051006160176250E+01 a        96     0     4     1     6
 -1.9974930934796171E+00 a        97     0     4     1     7
  3.2454890295876837E+01 a        98     0     4     1     8
 -2.4367183107278447E+00 a        99     0     4     1     9
 -1.2370137016763691E+01 a       100     0     4     1    10
 -3.4028136729976396E+01 a       101     0     4     1    11
  4.3521479651129518E+01 a       102     0     4     1    12
 -2.5713240023845081E+01 a       103     0     4     1    13
  3.3393797668343446E+01 a       104     0     4     1    14
 -1.2041312861279676E+01 a       105     0     4     1    15
 -2.2964593160771461E+01 a       106     0     4     1    16
 -3.0135367796850549E+01 a       107     0     4     1    17
  5.9627228511221784E+00 a       108     0     4     1    18
 -8.6262763639190432E+00 a       109     0     4     1    19
  3.1060092914060789E+01 a       110     0     4     1    20
 -1.5822190335417025E+01 a       111     0     4     1    21
  1.2073088761665833E+01 a       112     0     4     1    22
 -1.9793516248442245E+01 a       113     0     4     1    23
 -1.4780268258698724E+01 a       114     0     4     1    24
 -2.2756548563212064E+01 a       115     0     4     1    25
  4.1322961402770595E+01 a       116     0     4     1    26
  1.0613754791146011E+01 a       117     0     4     1    27
  9.8854298696267295E-01 a       118     0     4     1    28
 -3.1925350084917117E+00 a       119     0     4     1    29
 -6.1510418577190693E+00 a       120     0     4     1    30
 -4.3150571497976502E+00 a       121     0     5     1     1
 -9.2692391095108757E+00 a       122     0     5     1     2
 -1.9029117395486313E+01 a       123     0     5     1     3
  1.9289905701207793E+01 a       124     0     5     1     4
 -8.1843924062818516E+00 a       125     0     5     1     5
  1.5410593907257025E+01 a       126     0     5     1     6
 -1.1232176694289084E+00 a       127     0     5     1     7
  1.1581095614705566E+01 a       128     0     5     1     8
 -1.5499742089251687E+00 a       129     0     5     1     9
 -9.0687043048835516E+00 a       130     0     5     1    10
 -1.3087706064108353E+01 a       131     0     5     1    11
  1.5574677359053513E+01 a       132     0     5     1    12
 -6.0466349237978321E+00 a       133     0     5     1    13
  1.5536843994807599E+01 a       134     0     5     1    14
 -5.3800753481381154E+00 a       135     0     5     1    15
 -1.1223633190357704E+01 a       136     0     5     1    16
 -8.8102785551308731E+00 a       137     0     5     1    17
 -3.0304903185866694E+00 a       138     0     5     1    18
 -2.1014711783692519E+00 a       139     0     5     1    19
  1.4431427574398395E+01 a       140     0     5     1    20
 -7.3907390491888023E+00 a       141     0     5     1    21
  1.0855266385704669E+01 a       142     0     5     1    22
 -1.7910975425676841E+00 a       143     0     5     1    23
 -6.2121769273706775E+00 a       144     0     5     1    24
 -7.2828557405308034E+00 a       145     0     5     1    25
  1.4330678315819725E+01 a       146     0     5     1    26
  2.1845536174121079E+00 a       147     0     5     1    27
  3.5728684381501669E-01 a       148     0     5     1    28
 -9.5825487163467615E-01 a       149     0     5     1    29
 -6.9494712793313838E+00 a       150     0     5     1    30
 -4.9394656580514065E+00 a       151     0     6     1     1
  3.6158893490496091E-01 a       152     0     6     1     2
  1.2253870559579982E+01 a       153     0     6     1     3
 -5.4230075639552959E+00 a       154     0     6     1     4
  2.7261872471649449E+00 a       155     0     6     1     5
 -1.0521168105544380E+01 a       156     0     6     1     6
 -2.3729921916456154E+00 a       157     0     6     1     7
 -4.4902203730400112E+00 a       158     0     6     1     8
 -9.3335154627677208E-01 a       159     0     6     1     9
 -5.8524038730317951E-01 a       160     0     6     1    10
 -7.7523838270555014E+00 a       161     0     6     1    11
 -7.4680398888160289E+00 a       162     0     6     1    12
 -2.2649815500630819E+00 a       163     0     6     1    13
 -4.2108703180471352E+00 a       164     0     6     1    14
  1.1426950383308325E+00 a       165     0     6     1    15
  6.9847328900752128E+00 a       166     0     6     1    16
  5.2001898791894341E+00 a       167     0     6     1    17
 -1.5116848404769025E+00 a       168     0     6     1    18
  5.8228613878493798E+00 a       169     0     6     1    19
 -9.4533580328700264E+00 a       170     0     6     1    20
  2.5296503860530364E+00 a       171     0     6     1    21
  5.8888942699253122E-01 a       172     0     6     1    22
  5.8555138877004973E+00 a       173     0     6     1    23
  8.3775597375097597E+00 a       174     0     6     1    24
  6.7293265484348916E+00 a       175     0     6     1    25
 -2.2177692027309055E+00 a       176     0     6     1    26
  1.1489178872304364E+00 a       177     0     6     1    27
  7.2304318906745114E-03 a       178     0     6     1    28
 -6.4063035873876562E+00 a       179     0     6     1    29
  4.0700557937251514E+00 a       180     0     6     1    30
 -8.8731668920498254E+00 a       181     0     7     1     1
 -4.0839349633188675E+00 a       182     0     7     1     2
 -8.9378153341297981E+00 a       183     0     7     1     3
  7.4095332690265492E+00 a       184     0     7     1     4
 -8.3711643052053617E+00 a       185     0     7     1     5
 -4.9459265864062179E+00 a       186     0     7     1     6
 -3.1583150705574061E+00 a       187     0     7     1     7
  2.0855409995623653E+00 a       188     0     7     1     8
  1.0410582406486950E+00 a       189     0     7     1     9
 -1.0649289491620452E+01 a       190     0     7     1    10
 -4.9911670894773934E+00 a       191     0     7     1    11
  1.2097242001166510E+01 a       192     0     7     1    12
  2.4482850040610211E+00 a       193     0     7     1    13
  8.8818228625152695E+00 a       194     0     7     1    14
 -1.8292642318107513E+00 a       195     0     7     1    15
 -1.4854119784100075E-01 a       196     0     7     1    16
 -6.2427019502986552E+00 a       197     0     7     1    17
 -2.0442865692671770E+00 a       198     0     7     1    18
 -1.9612924284069138E+00 a       199     0     7     1    19
  1.1801222011368305E+01 a       200     0     7     1    20
 -7.9034572493664461E+00 a       201     0     7     1    21
  1.1993346919082216E+01 a       202     0     7     1    22
  5.7933220970316714E+00 a       203     0     7     1    23
 -3.9227355783149020E+00 a       204     0     7     1    24
  3.5927701142650132E+00 a       205     0     7     1    25
  7.5060724276020103E+00 a       206     0     7     1    26
 -7.7369760660917750E+00 a       207     0     7     1    27
 -7.7355225275155071E-01 a       208     0     7     1    28
 -1.1732724861643925E+01 a       209     0     7     1    29
 -7.0088155949364666E+00 a       210     0     7     1    30
  4.9316205170261701E-01 a       211     0     8     1     1
  3.7356001209495138E-01 a       212     0     8     1     2
 -1.1594981048055975E+00 a       213     0     8     1     3
  1.1830079344813532E-01 a       214     0     8     1     4
  3.5671461373974711E-01 a       215     0     8     1     5
 -1.6065765714867494E-02 a       216     0     8     1     6
  8.1654763918940687E-01 a       217     0     8     1     7
 -6.3092068356157793E-01 a       218     0     8     1     8
  7.4707974026588309E-01 a       219     0     8     1     9
  8.4822988556351300E-02 a       220     0     8     1    10
  2.8887715977209014E+00 a       221     0     8     1    11
  6.3591026771291348E-01 a       222     0     8     1    12
  2.1380028393014556E+00 a       223     0     8     1    13
 -4.8529911987434604E-01 a       224     0     8     1    14
  6.9564935439538655E-01 a       225     0     8     1    15
 -2.8996554657985241E-01 a       226     0     8     1    16
 -5.0111866199240518E-01 a       227     0     8     1    17
  1.8995833807733665E-02 a       228     0     8     1    18
 -1.0503231008558087E+00 a       229     0     8     1    19
  1.4963546216835131E+00 a       230     0     8     1    20
 -1.2469776759092825E+00 a       231     0     8     1    21
 -2.8607034385729396E-01 a       232     0     8     1    22
 -1.8689997489472074E-02 a       233     0     8     1    23
 -1.5564279899696061E+00 a       234     0     8     1    24
 -3.1089027134194841E-01 a       235     0     8     1    25
 -9.3936026558053087E-01 a       236     0     8     1    26
 -1.4890478697679277E+00 a       237     0     8     1    27
  4.2339455722445757E-01 a       238     0     8     1    28
  1.0420059653538192E+00 a       239     0     8     1    29
 -9.7387757118389950E-01 a       240     0     8     1    30
 -1.4562680722628887E+00 a       241     0     9     1     1
 -4.3737682989918852E-01 a       242     0     9     1     2
 -1.0772736841116455E+00 a       243     0     9     1     3
 -8.9824823045586577E-01 a       244     0     9     1     4
 -2.3280418079991407E+00 a       245     0     9     1     5
 -5.0241074984360097E+00 a       246     0     9     1     6
  1.1093754514574236E-01 a       247     0     9     1     7
 -1.9742542059813450E+00 a       248     0     9     1     8
  7.9581214263025457E-01 a       249     0     9     1     9
 -1.4913336144456559E+00 a       250     0     9     1    10
  8.4982611646139699E+00 a       251     0     9     1    11
  1.5904627191023351E+00 a       252     0     9     1    12
  7.9862333844646720E+00 a       253     0     9     1    13
 -3.5744727874608911E-01 a       254     0     9     1    14
  1.5611374649348644E+00 a       255     0     9     1    15
 -6.1997015169204095E-01 a       256     0     9     1    16
  1.0406774556734059E-02 a       257     0     9     1    17
 -3.2580111778120395E+00 a       258     0     9     1    18
 -2.4999913592270171E+00 a       259     0     9     1    19
  6.4966161405341474E+00 a       260     0     9     1    20
 -2.1703124120404698E+00 a       261     0     9     1    21
  3.2883696113378482E+00 a       262     0     9     1    22
  6.4506671177476154E+00 a       263     0     9     1    23
 -2.6670356033854472E+00 a       264     0     9     1    24
  3.3358027298491999E+00 a       265     0     9     1    25
 -3.2035649339901027E+00 a       266     0     9     1    26
 -7.8615365019603125E+00 a       267     0     9     1    27
 -1.2987075822093381E+00 a       268     0     9     1    28
 -3.8141414233244957E+00 a       269     0     9     1    29
 -5.3084415212781257E+00 a       270     0     9     1    30
 -3.8902389505448623E-02 a       271     0    10     1     1
  3.3997492497892190E-01 a       272     0    10     1     2
 -6.9517376564110100E-01 a       273     0    10     1     3
 -5.5772986689848780E-01 a       274     0    10     1     4
 -5.2983213578657529E-01 a       275     0    10     1     5
 -1.2804295607263054E+00 a       276     0    10     1     6
  3.2761579305591332E-01 a       277     0    10     1     7
 -1.0404526390933739E+00 a       278     0    10     1     8
  1.8292915974211332E-01 a       279     0    10     1     9
 -3.8477189508982496E-01 a       280     0    10     1    10
  2.0555682504313184E+00 a       281     0    10     1    11
 -2.6670801156882373E-01 a       282     0    10     1    12
  1.8522728927979086E+00 a       283     0    10     1    13
 -1.9416773041617497E+00 a       284     0    10     1    14
 -2.1778994425750958E-01 a       285     0    10     1    15
 -9.3752646541821680E-02 a       286     0    10     1    16
  3.9155963536380478E-01 a       287     0    10     1    17
  1.3645026581852207E-01 a       288     0    10     1    18
 -4.5972052020760090E-01 a       289     0    10     1    19
  1.5207155003380610E+00 a       290     0    10     1    20
  3.5829168922915233E-01 a       291     0    10     1    21
  4.7937970515546036E-01 a       292     0    10     1    22
  3.1848234757405280E-01 a       293     0    10     1    23
 -9.7880701780076296E-01 a       294     0    10     1    24
  5.8654965447367480E-01 a       295     0    10     1    25
 -1.1085203674286848E+00 a       296     0    10     1    26
 -1.1335108274617740E+00 a       297     0    10     1    27
 -5.9677697657206574E-01 a       298     0    10     1    28
 -4.3128255215609385E-01 a       299     0    10     1    29
 -9.8769815806006633E-01 a       300     0    10     1    30
  1.8522965243608664E+00 a       301     0    11     1     1
  4.5320751896816347E+00 a       302     0    11     1     2
  1.6840046462807532E+01 a       303     0    11     1     3
 -1.0685191386276783E+01 a       304     0    11     1     4
 -3.2480216985147936E+00 a       305     0    11     1     5
  6.2546798785033104E+00 a       306     0    11     1     6
 -1.5565877084230307E+01 a       307     0    11     1     7
 -2.5183199485670169E+01 a       308     0    11     1     8
 -3.6666429790954794E+01 a       309     0    11     1     9
  1.0820608564422622E+01 a       310     0    11     1    10
  1.4789615380024458E+01 a       311     0    11     1    11
  2.8098350606345722E+01 a       312     0    11     1    12
  9.6068472883362350E+00 a       313     0    11     1    13
 -1.2820353151957422E+01 a       314     0    11     1    14
 -5.0566824224730009E+00 a       315     0    11     1    15
  1.6267517104789185E+01 a       316     0    11     1    16
 -6.6491199900799947E-01 a       317     0    11     1    17
  6.8434902883965991E+00 a       318     0    11     1    18
 -1.3069806764320295E+00 a       319     0    11     1    19
  7.2973091323483608E-01 a       320     0    11     1    20
  5.6575947560710995E+00 a       321     0    11     1    21
  1.5467800648476107E+00 a       322     0    11     1    22
  1.2386800260272177E+00 a       323     0    11     1    23
  2.1802766475412952E+01 a       324     0    11     1    24
 -9.1926084438324267E+00 a       325     0    11     1    25
  9.4645422008331064E+00 a       326     0    11     1    26
 -2.0748641377262668E+01 a       327     0    11     1    27
  5.1785652501247688E+00 a       328     0    11     1    28
 -2.0381136252755415E+01 a       329     0    11     1    29
  9.7027884759071874E+00 a       330     0    11     1    30
 -7.5001105115306943E-01 a       331     0    12     1     1
  2.0625946374060554E+01 a       332     0    12     1     2
 -4.6028655692050862E+01 a       333     0    12     1     3
 -2.7517403047532774E+01 a       334     0    12     1     4
  2.2708800602343317E+01 a       335     0    12     1     5
 -1.1768784545293295E+01 a       336     0    12     1     6
  5.3394000791464311E+00 a       337     0    12     1     7
  5.5751477457012207E+01 a       338     0    12     1     8
  3.5221988468353047E+01 a       339     0    12     1     9
  9.8751530594639085E+00 a       340     0    12     1    10
  2.6249503236149696E+00 a       341     0    12     1    11
 -3.4201293622628297E+00 a       342     0    12     1    12
 -2.7623067979244688E+01 a       343     0    12     1    13
  1.5939686946412966E+01 a       344     0    12     1    14
  3.0501561048726419E+01 a       345     0    12     1    15
  3.3303199353304841E+01 a       346     0    12     1    16
 -2.4621899673216276E+01 a       347     0    12     1    17
 -2.3254782768026061E+01 a       348     0    12     1    18
  1.9907857884203029E+01 a       349     0    12     1    19
 -2.3604572645869791E+01 a       350     0    12     1    20
 -1.5254770619575025E+01 a       351     0    12     1    21
  1.9513382224851321E+00 a       352     0    12     1    22
 -4.3791175951305821E+00 a       353     0    12     1    23
 -3.4135818977829679E+01 a       354     0    12     1    24
  2.2522842477885817E+01 a       355     0    12     1    25
 -3.2191668536521107E+01 a       356     0    12     1    26
  1.9861798617494486E+01 a       357     0    12     1    27
 -3.2566614234001006E+00 a       358     0    12     1    28
 -5.3508732524906799E+00 a       359     0    12     1    29
  2.1838501259889034E+00 a       360     0    12     1    30
  3.3185386613783501E+00 a       361     0    13     1     1
 -3.0983285584946838E+00 a       362     0    13     1     2
  1.1375089502831671E+01 a       363     0    13     1     3
 -9.9357092523212553E-01 a       364     0    13     1     4
  7.5410797420316505E-02 a       365     0    13     1     5
 -1.5450781555984152E+00 a       366     0    13     1     6
  3.1475919101257910E-01 a       367     0    13     1     7
  1.0088530862315334E+01 a       368     0    13     1     8
  1.0464529681046887E+01 a       369     0    13     1     9
  9.5859318185663884E+00 a       370     0    13     1    10
 -1.5734431100289545E+01 a       371     0    13     1    11
 -3.9678032822689486E+00 a       372     0    13     1    12
 -8.1021750175967870E+00 a       373     0    13     1    13
  4.0122514139557790E+00 a       374     0    13     1    14
 -5.0189530881472733E+00 a       375     0    13     1    15
 -1.4130520016084080E+01 a       376     0    13     1    16
  4.9251854562779984E+00 a       377     0    13     1    17
  1.0391741578874514E+01 a       378     0    13     1    18
 -2.5369965692862948E+00 a       379     0    13     1    19
 -2.4369654039992601E+00 a       380     0    13     1    20
 -5.5732619545892281E-01 a       381     0    13     1    21
  8.2519361486811231E+00 a       382     0    13     1    22
  2.8783202909538281E+00 a       383     0    13     1    23
 -6.0077334584345037E+00 a       384     0    13     1    24
  5.4894377472025093E+00 a       385     0    13     1    25
 -9.1101521784477502E+00 a       386     0    13     1    26
  1.0088218246702958E+01 a       387     0    13     1    27
  7.6537653074618983E-01 a       388     0    13     1    28
  6.5732876142101668E+00 a       389     0    13     1    29
 -5.0587485882421248E+00 a       390     0    13     1    30
  1.5513673357907505E+00 a       391     0    14     1     1
 -9.5178130457263954E+00 a       392     0    14     1     2
  2.1116218221272870E+01 a       393     0    14     1     3
 -2.8086562978099456E+00 a       394     0    14     1     4
 -2.2196216749240477E+01 a       395     0    14     1     5
  2.2034023517541648E+01 a       396     0    14     1     6
 -2.8898813495497890E+00 a       397     0    14     1     7
 -1.6975816421060994E+01 a       398     0    14     1     8
 -4.5135869817902430E+00 a       399     0    14     1     9
 -5.5967972457891557E+00 a       400     0    14     1    10
 -1.3980339975267821E+01 a       401     0    14     1    11
 -1.1984072074691463E+01 a       402     0    14     1    12
  1.6221927605185858E+01 a       403     0    14     1    13
  3.9208663918486466E+00 a       404     0    14     1    14
 -1.2508149185301560E+01 a       405     0    14     1    15
 -1.4443732433099424E+01 a       406     0    14     1    16
  9.5273277491700394E+00 a       407     0    14     1    17
 -1.5264602038863712E+01 a       408     0    14     1    18
 -1.5746379282864165E+01 a       409     0    14     1    19
 -1.3102985068348749E+01 a       410     0    14     1    20
  1.5381897272688642E+01 a       411     0    14     1    21
 -1.6546682605218965E+01 a       412     0    14     1    22
 -1.8832585678532109E+01 a       413     0    14     1    23
 -1.4530168846782455E+01 a       414     0    14     1    24
 -3.5593368593470989E+00 a       415     0    14     1    25
 -4.3682122080275620E+00 a       416     0    14     1    26
 -1.9914047772275985E+01 a       417     0    14     1    27
 -9.4382048423301743E+00 a       418     0    14     1    28
  1.8369337074668941E+01 a       419     0    14     1    29
  1.1005549635089059E+01 a       420     0    14     1    30
 -3.8675611951222844E-01 a       421     0    15     1     1
  1.0669801817019964E+00 a       422     0    15     1     2
 -3.8266886222755967E+00 a       423     0    15     1     3
 -1.9697835874883414E+00 a       424     0    15     1     4
 -4.4669658308714016E-01 a       425     0    15     1     5
 -6.6564451514933767E+00 a       426     0    15     1     6
 -1.6223012817925231E-01 a       427     0    15     1     7
  1.1195224480458442E+01 a       428     0    15     1     8
 -1.3881258450628797E-01 a       429     0    15     1     9
 -1.4100808453312554E+00 a       430     0    15     1    10
 -1.1337419858618992E+01 a       431     0    15     1    11
  9.7666917547684406E-01 a       432     0    15     1    12
 -7.9318219427539827E+00 a       433     0    15     1    13
  2.0313451105451565E+00 a       434     0    15     1    14
  2.0476344773882991E+00 a       435     0    15     1    15
 -8.6837369152628394E+00 a       436     0    15     1    16
 -3.1734282205074513E+00 a       437     0    15     1    17
 -1.1684239772523489E+01 a       438     0    15     1    18
 -5.0650611013969705E-04 a       439     0    15     1    19
 -2.9529823035907006E+00 a       440     0    15     1    20
  9.2621392349056664E-01 a       441     0    15     1    21
  4.7122568627192596E-01 a       442     0    15     1    22
 -8.6751863679702161E+00 a       443     0    15     1    23
  6.0351942092433868E+00 a       444     0    15     1    24
  4.5311003312212472E+00 a       445     0    15     1    25
  7.0944473541565358E+00 a       446     0    15     1    26
 -2.9617289085253722E+00 a       447     0    15     1    27
 -9.7535862782550642E-01 a       448     0    15     1    28
  4.3526261230148350E-01 a       449     0    15     1    29
 -9.8090519225696831E+00 a       450     0    15     1    30
 -1.2635086292677622E-01 a       451     0    16     1     1
 -5.7084998375097040E+00 a       452     0    16     1     2
 -2.4308699695954803E+00 a       453     0    16     1     3
  1.7166414476118351E+01 a       454     0    16     1     4
 -2.5943820579193306E+00 a       455     0    16     1     5
 -3.2087520342731612E+00 a       456     0    16     1     6
  3.2577553214945878E+00 a       457     0    16     1     7
 -5.0759252465888336E+00 a       458     0    16     1     8
 -5.8730566364721160E+00 a       459     0    16     1     9
 -9.8470628670223803E+00 a       460     0    16     1    10
  2.5457607931223518E+00 a       461     0    16     1    11
  3.2155565410731053E+00 a       462     0    16     1    12
  1.0720430374878470E+01 a       463     0    16     1    13
  8.9753884187627513E+00 a       464     0    16     1    14
 -6.2099837700161649E+00 a       465     0    16     1    15
 -5.9951101204686523E+00 a       466     0    16     1    16
  4.5300024082068813E-01 a       467     0    16     1    17
  3.7110832242932208E+00 a       468     0    16     1    18
  1.7236109502560621E+00 a       469     0    16     1    19
  1.8795915038981640E+01 a       470     0    16     1    20
 -4.5134234955222139E+00 a       471     0    16     1    21
  7.0751939572800682E+00 a       472     0    16     1    22
  3.8465507093471212E+00 a       473     0    16     1    23
  7.9568678943370283E+00 a       474     0    16     1    24
 -5.8655128218759529E+00 a       475     0    16     1    25
  6.4981909675513565E+00 a       476     0    16     1    26
  4.2558736980943230E+00 a       477     0    16     1    27
  5.7716425638432858E+00 a       478     0    16     1    28
 -3.2748242835573291E-03 a       479     0    16     1    29
 -5.6737260109272540E+00 a       480     0    16     1    30
 -6.3676277571115651E+00 a       481     0    17     1     1
 -1.8034576360959150E+01 a       482     0    17     1     2
 -1.0509110604870910E+01 a       483     0    17     1     3
  2.8499594354385462E+01 a       484     0    17     1     4
  2.5000273463598304E+00 a       485     0    17     1     5
 -2.5281314945258863E+01 a       486     0    17     1     6
  2.9624830292644798E+01 a       487     0    17     1     7
  2.1333672447405174E+01 a       488     0    17     1     8
  5.2919628492609952E+01 a       489     0    17     1     9
 -1.6257846251198981E+01 a       490     0    17     1    10
 -3.0361433692127562E+01 a       491     0    17     1    11
 -4.3923979460574735E+01 a       492     0    17     1    12
 -5.6139227876930109E+00 a       493     0    17     1    13
 -5.7766058531602829E+00 a       494     0    17     1    14
 -5.7294652279949521E+00 a       495     0    17     1    15
 -3.8401063809754355E+01 a       496     0    17     1    16
  6.2610128691147811E+00 a       497     0    17     1    17
  1.6089668989981720E+00 a       498     0    17     1    18
 -4.1930715445403592E+00 a       499     0    17     1    19
  5.0675965219190218E+00 a       500     0    17     1    20
 -6.2806730221814986E+00 a       501     0    17     1    21
 -8.6183016356854947E-01 a       502     0    17     1    22
 -1.1632599654456817E+01 a       503     0    17     1    23
 -2.3571490572957817E+01 a       504     0    17     1    24
  8.8181731960249010E+00 a       505     0    17     1    25
 -2.7681844131262596E+00 a       506     0    17     1    26
  1.9026461113657476E+01 a       507     0    17     1    27
 -6.9683675245468830E+00 a       508     0    17     1    28
  4.1588586781483585E+01 a       509     0    17     1    29
 -1.3987195340097278E+01 a       510     0    17     1    30
  1.0911218313132499E+01 a       511     0    18     1     1
 -1.9019052814348129E+01 a       512     0    18     1     2
  2.0776139321607733E+01 a       513     0    18     1     3
  8.9419110434320981E+00 a       514     0    18     1     4
 -3.1433857621673873E+01 a       515     0    18     1     5
  1.6037552853311596E-01 a       516     0    18     1     6
 -9.2720942261415225E+00 a       517     0    18     1     7
 -2.9548144131639479E+01 a       518     0    18     1     8
 -1.6344630534966857E+01 a       519     0    18     1     9
 -8.7704747898506046E+00 a       520     0    18     1    10
  1.1681893951981457E+00 a       521     0    18     1    11
 -4.3742272381561023E+00 a       522     0    18     1    12
  1.2458323978978147E+01 a       523     0    18     1    13
  3.4418652209169132E+00 a       524     0    18     1    14
 -1.9610608704182166E+01 a       525     0    18     1    15
 -1.8613706184345613E+01 a       526     0    18     1    16
  2.6876230706723657E+01 a       527     0    18     1    17
  2.5960813851327220E+01 a       528     0    18     1    18
 -2.5391122148342568E+01 a       529     0    18     1    19
  1.1066304154324863E+01 a       530     0    18     1    20
  1.3794749069549271E+01 a       531     0    18     1    21
  5.3581781459702542E+00 a       532     0    18     1    22
  1.7824022266065615E+01 a       533     0    18     1    23
  2.5703199576184385E+01 a       534     0    18     1    24
 -1.4135447529178499E+01 a       535     0    18     1    25
  1.8911942397269190E+01 a       536     0    18     1    26
  1.0401427108843743E+01 a       537     0    18     1    27
 -1.2167522651773696E+01 a       538     0    18     1    28
 -6.7329341405548915E+00 a       539     0    18     1    29
 -2.1287514742300012E+01 a       540     0    18     1    30
 -6.2849064595469928E+00 a       541     0    19     1     1
  6.6724060942149430E+00 a       542     0    19     1     2
 -2.0439009507823908E+01 a       543     0    19     1     3
 -1.1417374695698517E+00 a       544     0    19     1     4
  4.2462526611283924E-01 a       545     0    19     1     5
  7.4215697286651547E+00 a       546     0    19     1     6
 -1.8118871211462444E+00 a       547     0    19     1     7
 -1.5722518927056548E+01 a       548     0    19     1     8
 -1.6177076364687686E+01 a       549     0    19     1     9
 -1.4935267758839387E+01 a       550     0    19     1    10
  3.2184987683538743E+01 a       551     0    19     1    11
  6.6157040728971239E+00 a       552     0    19     1    12
  1.5678439133438980E+01 a       553     0    19     1    13
 -2.7591828845285042E+00 a       554     0    19     1    14
  1.0531755575814774E+01 a       555     0    19     1    15
  2.5535499044826825E+01 a       556     0    19     1    16
 -9.5644722061788698E+00 a       557     0    19     1    17
 -1.8244068252660124E+01 a       558     0    19     1    18
  5.3851487479875262E+00 a       559     0    19     1    19
  5.9215817900827394E-01 a       560     0    19     1    20
  5.1273371504960241E-01 a       561     0    19     1    21
 -1.6146569437170871E+01 a       562     0    19     1    22
 -4.3584500572598484E-01 a       563     0    19     1    23
  9.0904406125263488E+00 a       564     0    19     1    24
 -1.0537421106085256E+01 a       565     0    19     1    25
  1.4181338392339930E+01 a       566     0    19     1    26
 -1.3447745556273793E+01 a       567     0    19     1    27
 -1.3368583879995393E+00 a       568     0    19     1    28
 -1.1173593514626850E+01 a       569     0    19     1    29
  1.0296255873605592E+01 a       570     0    19     1    30
 -8.2428104541810630E+00 a       571     0    20     1     1
  8.8796842088234769E+00 a       572     0    20     1     2
  1.0619091480575760E+00 a       573     0    20     1     3
  3.0258711354006696E+01 a       574     0    20     1     4
  3.2276308391998477E+01 a       575     0    20     1     5
  9.4593438676245323E-01 a       576     0    20     1     6
  5.2889236551148118E+00 a       577     0    20     1     7
 -2.0847860308735672E+01 a       578     0    20     1     8
 -2.6822624208117762E+01 a       579     0    20     1     9
  5.4059864909620015E-01 a       580     0    20     1    10
  1.1019945381516646E+01 a       581     0    20     1    11
  2.5846078387973918E+01 a       582     0    20     1    12
 -8.3632417182447227E+00 a       583     0    20     1    13
 -2.4740700308610336E+01 a       584     0    20     1    14
  3.6208116181661194E+00 a       585     0    20     1    15
 -1.0909626073852685E+01 a       586     0    20     1    16
 -1.5377491607248515E+00 a       587     0    20     1    17
  2.6695252865745495E+01 a       588     0    20     1    18
  2.0254826616516578E+01 a       589     0    20     1    19
  4.1790695127903987E+01 a       590     0    20     1    20
 -1.7208482658445739E+01 a       591     0    20     1    21
  1.6162931160578363E+01 a       592     0    20     1    22
  2.2929874169202076E+01 a       593     0    20     1    23
  4.8028067237605363E+01 a       594     0    20     1    24
 -1.2296939041652999E+01 a       595     0    20     1    25
  2.8914677383543349E+01 a       596     0    20     1    26
  4.6866363901141064E+00 a       597     0    20     1    27
  3.0664636064430621E+01 a       598     0    20     1    28
 -1.8690723850624138E+01 a       599     0    20     1    29
 -5.3422138329662490E+00 a       600     0    20     1    30
  1.1857015255068597E+00 a       601     0    21     1     1
 -2.2284024077138271E+00 a       602     0    21     1     2
  7.4399470647317525E+00 a       603     0    21     1     3
  4.2575829101963478E+00 a       604     0    21     1     4
  9.5472992069849172E-01 a       605     0    21     1     5
  1.0715622905022528E+01 a       606     0    21     1     6
  4.5944539052349764E-01 a       607     0    21     1     7
 -1.8773502418273083E+01 a       608     0    21     1     8
 -1.5949574603145641E-01 a       609     0    21     1     9
  1.8486812614062040E+00 a       610     0    21     1    10
  1.6521265389675460E+01 a       611     0    21     1    11
 -1.7748441421274923E+00 a       612     0    21     1    12
  1.4920950349950397E+01 a       613     0    21     1    13
 -4.3131536958339174E+00 a       614     0    21     1    14
 -3.4123194010591740E+00 a       615     0    21     1    15
  1.3212064372329806E+01 a       616     0    21     1    16
  5.1619174236910190E+00 a       617     0    21     1    17
  1.9503050841978759E+01 a       618     0    21     1    18
 -3.2103364193599321E-01 a       619     0    21     1    19
  6.6359913987349861E+00 a       620     0    21     1    20
 -1.9230818854548297E+00 a       621     0    21     1    21
 -6.7994370793154335E-01 a       622     0    21     1    22
  1.4192241767639315E+01 a       623     0    21     1    23
 -1.1521165113177439E+01 a       624     0    21     1    24
 -8.8553400738031876E+00 a       625     0    21     1    25
 -1.3093055000563252E+01 a       626     0    21     1    26
  4.5200480937720924E+00 a       627     0    21     1    27
  1.4686296617766346E+00 a       628     0    21     1    28
 -3.4160692974115618E+00 a       629     0    21     1    29
  1.8089753839111250E+01 a       630     0    21     1    30
 -7.5883745496365645E-02 a       631     0    22     1     1
  8.0244996748008557E+00 a       632     0    22     1     2
  4.8558915045542852E+00 a       633     0    22     1     3
 -2.5261527800070539E+01 a       634     0    22     1     4
  5.0290274587409884E+00 a       635     0    22     1     5
 -3.8646602856952823E+00 a       636     0    22     1     6
 -5.5795771740826838E+00 a       637     0    22     1     7
  9.0271412961284199E+00 a       638     0    22     1     8
  1.0456903484837540E+01 a       639     0    22     1     9
  1.5726710307323909E+01 a       640     0    22     1    10
 -1.3377772335933045E+00 a       641     0    22     1    11
 -4.5267636130524194E+00 a       642     0    22     1    12
 -1.9700276235726758E+01 a       643     0    22     1    13
 -1.3970600549346301E+01 a       644     0    22     1    14
  9.8464336090341646E+00 a       645     0    22     1    15
  1.2925970679869785E+01 a       646     0    22     1    16
 -1.7780183376861780E+00 a       647     0    22     1    17
 -4.5121858675710245E+00 a       648     0    22     1    18
 -1.9962867501141546E+00 a       649     0    22     1    19
 -3.0327984621459233E+01 a       650     0    22     1    20
  7.0874956314681024E+00 a       651     0    22     1    21
 -9.2101769813333831E+00 a       652     0    22     1    22
 -6.1620586618945303E+00 a       653     0    22     1    23
 -1.2981978317576022E+01 a       654     0    22     1    24
  1.0285339414484065E+01 a       655     0    22     1    25
 -1.0388926261189365E+01 a       656     0    22     1    26
 -6.1480291249196393E+00 a       657     0    22     1    27
 -9.9170934391099141E+00 a       658     0    22     1    28
 -1.0760871279636546E+00 a       659     0    22     1    29
  9.6141081624108491E+00 a       660     0    22     1    30
  4.9816924692848535E-01 a       661     0    23     1     1
  1.7623798775249668E+01 a       662     0    23     1     2
 -7.1110593563225901E+00 a       663     0    23     1     3
 -1.1633686592803274E+01 a       664     0    23     1     4
  2.6514877473016907E+00 a       665     0    23     1     5
  3.3202193857315613E+01 a       666     0    23     1     6
 -2.2006773223082323E+01 a       667     0    23     1     7
  2.8770604166956542E+00 a       668     0    23     1     8
 -2.2676285990443816E+01 a       669     0    23     1     9
 -8.0156992313355135E-01 a       670     0    23     1    10
  1.3612343864549148E+01 a       671     0    23     1    11
  1.5862241096546809E+01 a       672     0    23     1    12
 -3.4622996668887320E+00 a       673     0    23     1    13
  1.4010602410847962E+01 a       674     0    23     1    14
  1.6892260395428078E+01 a       675     0    23     1    15
  2.2225588572154230E+01 a       676     0    23     1    16
 -7.6991570259139239E+00 a       677     0    23     1    17
 -1.5713674985180251E+01 a       678     0    23     1    18
  1.2536242774182057E+01 a       679     0    23     1    19
  2.4069729677851406E+00 a       680     0    23     1    20
  5.2180596524616414E+00 a       681     0    23     1    21
  2.4945906690152024E+00 a       682     0    23     1    22
  5.8101023856217013E+00 a       683     0    23     1    23
  4.7570673965757431E+00 a       684     0    23     1    24
  8.5358663753155817E+00 a       685     0    23     1    25
 -5.6914485124349854E+00 a       686     0    23     1    26
  2.8935013001470207E+00 a       687     0    23     1    27
  5.6630988292454676E+00 a       688     0    23     1    28
 -2.2479034571515037E+01 a       689     0    23     1    29
  1.9691165596815825E+01 a       690     0    23     1    30
 -5.7911264120267969E+00 a       691     0    24     1     1
 -3.1181678141655444E+00 a       692     0    24     1     2
  2.1922006308147079E+01 a       693     0    24     1     3
 -1.6455654362181775E+00 a       694     0    24     1     4
  7.4398833704095919E+00 a       695     0    24     1     5
  7.2959671253553520E+00 a       696     0    24     1     6
  1.0833730712816610E+01 a       697     0    24     1     7
 -3.8725829720938222E+01 a       698     0    24     1     8
 -2.6803915384336605E+01 a       699     0    24     1     9
  1.1616555248457644E+01 a       700     0    24     1    10
  5.9104378435468501E+00 a       701     0    24     1    11
  1.8487918676161186E+01 a       702     0    24     1    12
  2.3574488470625830E+01 a       703     0    24     1    13
  4.1938326871232174E+00 a       704     0    24     1    14
 -1.8299448069664113E+01 a       705     0    24     1    15
  3.1086732999963438E+00 a       706     0    24     1    16
  2.5545952635602944E+00 a       707     0    24     1    17
  2.5083878475976751E+00 a       708     0    24     1    18
 -1.6673356975428153E+00 a       709     0    24     1    19
 -8.4498958604845580E+00 a       710     0    24     1    20
 -1.1115535092228710E+01 a       711     0    24     1    21
 -1.7308482540735628E+01 a       712     0    24     1    22
 -7.7278990281439164E+00 a       713     0    24     1    23
  1.2372719021260997E+01 a       714     0    24     1    24
 -1.6653431425679056E+01 a       715     0    24     1    25
  1.2651976545374321E+01 a       716     0    24     1    26
 -4.1231926316404738E+01 a       717     0    24     1    27
  1.5237359372328251E+01 a       718     0    24     1    28
  1.6818717314041514E+00 a       719     0    24     1    29
  5.2105965486712846E-01 a       720     0    24     1    30
  4.1733498550817654E+00 a       721     0    25     1     1
 -4.5157532347246976E+00 a       722     0    25     1     2
  1.3450705588114033E+01 a       723     0    25     1     3
  2.2620106879772957E+00 a       724     0    25     1     4
 -8.3960902749336408E-01 a       725     0    25     1     5
 -1.2082790020561120E+01 a       726     0    25     1     6
  2.1331386393443648E+00 a       727     0    25     1     7
  1.0278445252693187E+01 a       728     0    25     1     8
  7.7619181375062682E+00 a       729     0    25     1     9
  8.2417795947248678E+00 a       730     0    25     1    10
 -2.2153145371748288E+01 a       731     0    25     1    11
 -3.3759438690847694E+00 a       732     0    25     1    12
 -1.0599597401219132E+01 a       733     0    25     1    13
 -1.8677234959264366E+00 a       734     0    25     1    14
 -7.2628749402190582E+00 a       735     0    25     1    15
 -1.6210932154233841E+01 a       736     0    25     1    16
  6.6656601735692860E+00 a       737     0    25     1    17
  1.0273220775547498E+01 a       738     0    25     1    18
 -4.9164782563871476E+00 a       739     0    25     1    19
  1.9323404752727871E-01 a       740     0    25     1    20
 -6.4491939243079943E-01 a       741     0    25     1    21
  1.1138235558026873E+01 a       742     0    25     1    22
 -2.9847734516383131E+00 a       743     0    25     1    23
 -5.3574789889658989E+00 a       744     0    25     1    24
  6.4456969195244422E+00 a       745     0    25     1    25
 -7.5702644092433564E+00 a       746     0    25     1    26
  3.8188032576344404E+00 a       747     0    25     1    27
 -3.2475469944980496E-02 a       748     0    25     1    28
  5.7567740757173951E+00 a       749     0    25     1    29
 -9.1243266391162230E+00 a       750     0    25     1    30
  4.8947147522743792E+00 a       751     0    26     1     1
  2.0734783521588733E+00 a       752     0    26     1     2
 -1.9973038241483160E+01 a       753     0    26     1     3
 -1.7931168641837502E+01 a       754     0    26     1     4
 -1.0040742591444651E+01 a       755     0    26     1     5
 -2.3471034358665154E+01 a       756     0    26     1     6
 -6.5235179308143838E+00 a       757     0    26     1     7
  4.9823055255497017E+01 a       758     0    26     1     8
  4.2579524504091125E+01 a       759     0    26     1     9
 -3.6290026190071978E+00 a       760     0    26     1    10
 -1.9859540021631432E+00 a       761     0    26     1    11
 -2.1441056261366583E+01 a       762     0    26     1    12
 -1.4373624482475535E+01 a       763     0    26     1    13
  7.8996511163798324E+00 a       764     0    26     1    14
  1.3948452132728782E+01 a       765     0    26     1    15
  1.8367869228905516E+01 a       766     0    26     1    16
 -1.4335763308360491E+01 a       767     0    26     1    17
 -1.6684365772168441E+01 a       768     0    26     1    18
 -1.6808877959222976E+00 a       769     0    26     1    19
 -1.7914490808029967E+01 a       770     0    26     1    20
  1.3291161773298912E+01 a       771     0    26     1    21
  3.8314815903363941E+00 a       772     0    26     1    22
 -5.8816441253614782E+00 a       773     0    26     1    23
 -4.4500275382713262E+01 a       774     0    26     1    24
  2.1756106233650470E+01 a       775     0    26     1    25
 -2.9322300362492630E+01 a       776     0    26     1    26
  1.8926132712066771E+01 a       777     0    26     1    27
 -2.4697867531122544E+01 a       778     0    26     1    28
  9.1727138363034069E+00 a       779     0    26     1    29
  2.8309139451820569E+00 a       780     0    26     1    30
 -1.1778541829145022E+00 a       781     0    27     1     1
  1.5856398114272203E+00 a       782     0    27     1     2
 -5.7956428107373466E+00 a       783     0    27     1     3
 -3.1975888325172686E+00 a       784     0    27     1     4
 -7.7995675979499102E-01 a       785     0    27     1     5
 -6.0223906231496995E+00 a       786     0    27     1     6
 -5.1963856852229373E-01 a       787     0    27     1     7
  1.0082837752528750E+01 a       788     0    27     1     8
  6.2151861492388294E-01 a       789     0    27     1     9
  4.1511491980543375E-03 a       790     0    27     1    10
 -7.5883711680827686E+00 a       791     0    27     1    11
  1.0271159786057229E+00 a       792     0    27     1    12
 -9.3388482778193609E+00 a       793     0    27     1    13
  4.2802777939195922E+00 a       794     0    27     1    14
  1.5859859216067391E+00 a       795     0    27     1    15
 -5.8518934357244987E+00 a       796     0    27     1    16
 -2.4656888563380570E+00 a       797     0    27     1    17
 -1.0302504280535125E+01 a       798     0    27     1    18
  6.1330174552195749E-01 a       799     0    27     1    19
 -5.3262611965606075E+00 a       800     0    27     1    20
  1.5600572540293574E+00 a       801     0    27     1    21
  5.0774353890257151E-01 a       802     0    27     1    22
 -7.4144612260613645E+00 a       803     0    27     1    23
  8.5000405354989201E+00 a       804     0    27     1    24
  7.1751524821187278E+00 a       805     0    27     1    25
  8.6019220912314420E+00 a       806     0    27     1    26
 -2.0332053490638202E+00 a       807     0    27     1    27
 -4.6626978523665558E-01 a       808     0    27     1    28
  4.8845244768059155E+00 a       809     0    27     1    29
 -1.1633330856575597E+01 a       810     0    27     1    30
  8.3427265515238902E-01 a       811     0    28     1     1
 -3.6150497270461637E+00 a       812     0    28     1     2
 -4.3157710674230225E+00 a       813     0    28     1     3
  1.0813921111050472E+01 a       814     0    28     1     4
 -3.4193800522808551E+00 a       815     0    28     1     5
  6.9731620359168467E+00 a       816     0    28     1     6
  3.2505085383409180E+00 a       817     0    28     1     7
 -4.1834004807263412E+00 a       818     0    28     1     8
 -6.2245576605219126E+00 a       819     0    28     1     9
 -6.4726386485211673E+00 a       820     0    28     1    10
 -3.7253042933859865E-01 a       821     0    28     1    11
  1.7223307340419403E+00 a       822     0    28     1    12
  1.3854175301632914E+01 a       823     0    28     1    13
  7.0470821665271961E+00 a       824     0    28     1    14
 -5.7314240917411983E+00 a       825     0    28     1    15
 -8.3742767224610564E+00 a       826     0    28     1    16
  1.6279382985550446E+00 a       827     0    28     1    17
  7.4665857803704216E-01 a       828     0    28     1    18
  5.0768540271501950E-01 a       829     0    28     1    19
  1.4677369792380199E+01 a       830     0    28     1    20
 -4.4738127367454057E+00 a       831     0    28     1    21
  3.5683319227392123E+00 a       832     0    28     1    22
  1.7301964869966919E+00 a       833     0    28     1    23
  6.8131417583531144E+00 a       834     0    28     1    24
 -5.4788787133799115E+00 a       835     0    28     1    25
  5.6211412654289230E+00 a       836     0    28     1    26
  3.2577199435709399E+00 a       837     0    28     1    27
  5.5988473824195841E+00 a       838     0    28     1    28
  1.3191733489810693E+00 a       839     0    28     1    29
 -4.1007853925800166E+00 a       840     0    28     1    30
 -4.9810085520575387E-01 a       841     0    29     1     1
 -4.1990032848534176E+00 a       842     0    29     1     2
  5.0801980013474566E+00 a       843     0    29     1     3
 -3.2648409460699348E+00 a       844     0    29     1     4
 -2.6642558611695359E+00 a       845     0    29     1     5
 -1.4551875669271995E+01 a       846     0    29     1     6
  6.8892271736151063E+00 a       847     0    29     1     7
 -6.8106659893954247E-01 a       848     0    29     1     8
  3.1410335092814310E+00 a       849     0    29     1     9
  2.7348359790555481E+00 a       850     0    29     1    10
 -1.5846022504694726E-01 a       851     0    29     1    11
  1.8097029418810315E-01 a       852     0    29     1    12
  1.7544386539778525E+00 a       853     0    29     1    13
  1.3050998422322366E+00 a       854     0    29     1    14
 -8.5213714541938330E+00 a       855     0    29     1    15
 -3.9765752855488583E+00 a       856     0    29     1    16
  4.0339871162154841E+00 a       857     0    29     1    17
  4.0408311492645179E+00 a       858     0    29     1    18
 -8.5636011586059322E+00 a       859     0    29     1    19
 -5.1115110772294985E+00 a       860     0    29     1    20
 -3.3566496709006324E+00 a       861     0    29     1    21
  2.6019480425827901E-01 a       862     0    29     1    22
  8.2629456205287415E+00 a       863     0    29     1    23
 -6.8256168185253916E+00 a       864     0    29     1    24
 -1.3764461609883664E+01 a       865     0    29     1    25
 -9.0822668590645161E-01 a       866     0    29     1    26
 -6.0908348124108604E+00 a       867     0    29     1    27
 -3.5996884656133621E+00 a       868     0    29     1    28
  1.9636123880593657E+00 a       869     0    29     1    29
 -1.0196852175450935E+01 a       870     0    29     1    30
  4.0895000885443817E+00 a       871     0    30     1     1
 -2.0787904572290067E-01 a       872     0    30     1     2
 -1.4081478508290616E+01 a       873     0    30     1     3
  1.3088896034527501E+01 a       874     0    30     1     4
  3.1521192844712265E+00 a       875     0    30     1     5
 -4.1989101269726827E+00 a       876     0    30     1     6
 -3.0168063506511809E+00 a       877     0    30     1     7
  1.5803689072587499E+01 a       878     0    30     1     8
  2.0334302446515895E+01 a       879     0    30     1     9
 -3.2920588029826829E+00 a       880     0    30     1    10
 -9.6325138871309370E+00 a       881     0    30     1    11
 -1.1804377435758129E+01 a       882     0    30     1    12
 -1.5845419280573273E+01 a       883     0    30     1    13
 -2.2717114819343056E+01 a       884     0    30     1    14
  1.1081111423665329E+01 a       885     0    30     1    15
 -2.1185576304441809E+00 a       886     0    30     1    16
 -6.5548316001940563E+00 a       887     0    30     1    17
  3.9924011489748392E+00 a       888     0    30     1    18
  8.3781769007089562E+00 a       889     0    30     1    19
  7.4158342285199179E+00 a       890     0    30     1    20
  8.0065594926803403E+00 a       891     0    30     1    21
  5.9815564546979676E+00 a       892     0    30     1    22
 -9.3448233527083939E+00 a       893     0    30     1    23
  2.2467984429203840E+00 a       894     0    30     1    24
  1.9514078768767288E+01 a       895     0    30     1    25
 -1.9180707535858745E+00 a       896     0    30     1    26
  2.4108401549689329E+01 a       897     0    30     1    27
 -4.1820118881624015E+00 a       898     0    30     1    28
  7.7642184311756717E+00 a       899     0    30     1    29
  1.4931697728675084E+00 a       900     0    30     1    30
 -4.2287338377014666E-01 a       901     0    31     1     1
  1.6239208870364419E+00 a       902     0    31     1     2
 -4.7457532431880143E+00 a       903     0    31     1     3
 -9.7058838938451630E-01 a       904     0    31     1     4
  4.1054078493397006E-01 a       905     0    31     1     5
  8.3222783491223016E+00 a       906     0    31     1     6
 -8.4279429892527480E-01 a       907     0    31     1     7
 -5.2974306198171046E+00 a       908     0    31     1     8
 -4.5100832675774399E-01 a       909     0    31     1     9
 -2.7713724895884551E+00 a       910     0    31     1    10
  8.9187990579433443E+00 a       911     0    31     1    11
  7.7686565224096704E-01 a       912     0    31     1    12
  4.2237072765458974E+00 a       913     0    31     1    13
  2.5214335623670205E+00 a       914     0    31     1    14
  2.2631222200665766E+00 a       915     0    31     1    15
  5.8688363532115400E+00 a       916     0    31     1    16
 -2.7204189725082051E+00 a       917     0    31     1    17
 -2.6699564934183826E+00 a       918     0    31     1    18
  2.3883667120453902E+00 a       919     0    31     1    19
  1.1001003999194612E+00 a       920     0    31     1    20
  7.7996081410086349E-01 a       921     0    31     1    21
 -5.2218265674211679E+00 a       922     0    31     1    22
  1.5500646564493354E+00 a       923     0    31     1    23
  3.6770383939820510E+00 a       924     0    31     1    24
 -9.0919102148193531E-01 a       925     0    31     1    25
  3.1470853359784243E+00 a       926     0    31     1    26
  1.4754014590047919E+00 a       927     0    31     1    27
  1.0608123219325110E+00 a       928     0    31     1    28
 -6.4345849867076177E-01 a       929     0    31     1    29
  2.6673093073920038E+00 a       930     0    31     1    30
 -3.6603925313087955E+00 a       931     0    32     1     1
  2.2463356280718877E-01 a       932     0    32     1     2
  9.5517760009998387E+00 a       933     0    32     1     3
 -5.3495260441395596E+00 a       934     0    32     1     4
 -1.4413719977904107E+00 a       935     0    32     1     5
  1.0392392786249665E+01 a       936     0    32     1     6
  1.9094011026090887E+00 a       937     0    32     1     7
 -1.5952436380319327E+01 a       938     0    32     1     8
 -2.0087961918142163E+01 a       939     0    32     1     9
  1.3705956891254849E+00 a       940     0    32     1    10
  1.5773388748205575E-01 a       941     0    32     1    11
  7.7721471690488082E+00 a       942     0    32     1    12
  1.0396225048189871E+01 a       943     0    32     1    13
  1.3780892292592831E+01 a       944     0    32     1    14
 -6.9745746113524643E+00 a       945     0    32     1    15
 -5.8399800337578887E+00 a       946     0    32     1    16
  8.1573270923841044E+00 a       947     0    32     1    17
 -9.6660540735095102E-01 a       948     0    32     1    18
 -3.6433710893208597E+00 a       949     0    32     1    19
 -6.2937045220945120E-01 a       950     0    32     1    20
 -7.8133197680199569E+00 a       951     0    32     1    21
 -2.1270107116697070E+00 a       952     0    32     1    22
  3.4165981913021497E+00 a       953     0    32     1    23
  8.2833508051108176E+00 a       954     0    32     1    24
 -1.2797051298978149E+01 a       955     0    32     1    25
  6.9505897184711873E+00 a       956     0    32     1    26
 -1.2566028049662815E+01 a       957     0    32     1    27
  7.3305366717456257E+00 a       958     0    32     1    28
 -6.7480900762550657E+00 a       959     0    32     1    29
  2.2182982599625944E+00 a       960     0    32     1    30
  4.7763167011075031E-01 a       961     0    33     1     1
 -6.8740698465282402E-01 a       962     0    33     1     2
  2.7816932432145336E+00 a       963     0    33     1     3
  1.8175223430761223E+00 a       964     0    33     1     4
  4.8174946753544529E-01 a       965     0    33     1     5
  2.5946884652364730E+00 a       966     0    33     1     6
  4.0942808683639065E-01 a       967     0    33     1     7
 -2.7478970294236782E+00 a       968     0    33     1     8
 -8.8963820057515430E-01 a       969     0    33     1     9
 -7.6168509379858496E-01 a       970     0    33     1    10
  1.6237869777401628E+00 a       971     0    33     1    11
 -2.5871728540063282E-01 a       972     0    33     1    12
  3.1012015658497170E+00 a       973     0    33     1    13
 -2.4687932889469475E+00 a       974     0    33     1    14
  1.8146718311481064E-01 a       975     0    33     1    15
  1.3599706395955204E+00 a       976     0    33     1    16
 -2.1956477605708905E-02 a       977     0    33     1    17
  2.8196501085749093E+00 a       978     0    33     1    18
 -5.6077583526842478E-01 a       979     0    33     1    19
  2.2826891107083891E+00 a       980     0    33     1    20
 -9.9582921979615857E-01 a       981     0    33     1    21
  4.5138035998482727E-02 a       982     0    33     1    22
  2.1769160463414532E+00 a       983     0    33     1    23
 -5.2029943211318370E+00 a       984     0    33     1    24
 -4.9569628372778327E+00 a       985     0    33     1    25
 -3.3207885409340347E+00 a       986     0    33     1    26
  1.8930145702519427E-01 a       987     0    33     1    27
 -3.7866442576392190E-01 a       988     0    33     1    28
 -3.6096346209812498E+00 a       989     0    33     1    29
  4.9509097229324910E+00 a       990     0    33     1    30
 -1.3081768576256092E+00 a       991     0    34     1     1
  9.7815502028417478E-01 a       992     0    34     1     2
  3.0177355683655183E+00 a       993     0    34     1     3
 -2.4314944103238778E+00 a       994     0    34     1     4
  1.9308420853347730E+00 a       995     0    34     1     5
 -4.0830383193795194E+00 a       996     0    34     1     6
 -1.6229530575827515E+00 a       997     0    34     1     7
  1.4910657241739751E+00 a       998     0    34     1     8
  3.0762657033713849E+00 a       999     0    34     1     9
  1.0127069692785189E+00 a      1000     0    34     1    10
  6.2661995053862929E-01 a      1001     0    34     1    11
 -1.6831756578184243E-01 a      1002     0    34     1    12
 -8.0525083449392554E+00 a      1003     0    34     1    13
 -3.2752256593799598E+00 a      1004     0    34     1    14
  2.9984651709326688E+00 a      1005     0    34     1    15
  3.5662907069085712E+00 a      1006     0    34     1    16
 -1.1274444277452462E+00 a      1007     0    34     1    17
  8.6545125402094714E-01 a      1008     0    34     1    18
 -8.0412191779705308E-02 a      1009     0    34     1    19
 -5.2111616729510972E+00 a      1010     0    34     1    20
  2.4726408562195283E+00 a      1011     0    34     1    21
 -1.2933998401159426E+00 a      1012     0    34     1    22
  1.2910016541463132E+00 a      1013     0    34     1    23
 -2.9382040927188964E+00 a      1014     0    34     1    24
  1.7340254864226705E+00 a      1015     0    34     1    25
 -2.7069942214342233E+00 a      1016     0    34     1    26
 -1.2527130336351142E+00 a      1017     0    34     1    27
 -2.6222112997474412E+00 a      1018     0    34     1    28
 -4.2522621193588661E-01 a      1019     0    34     1    29
  3.7261075449509956E-01 a      1020     0    34     1    30
  1.2011652745143333E+00 a      1021     0    35     1     1
 -2.4883603757639370E+00 a      1022     0    35     1     2
 -2.7189266740293005E+00 a      1023     0    35     1     3
  1.4465280660429682E+00 a      1024     0    35     1     4
  2.1361465577214815E+00 a      1025     0    35     1     5
  3.7224459321598404E+00 a      1026     0    35     1     6
 -1.5800644670799713E+00 a      1027     0    35     1     7
  1.5907248361939638E-01 a      1028     0    35     1     8
 -4.6297873762330205E-01 a      1029     0    35     1     9
  3.2567005051598166E+00 a      1030     0    35     1    10
  1.1867683438509575E+01 a      1031     0    35     1    11
 -7.9567251599746192E-01 a      1032     0    35     1    12
 -3.3518360355138077E-01 a      1033     0    35     1    13
 -3.6358032236360263E+00 a      1034     0    35     1    14
  2.1752085096074345E+00 a      1035     0    35     1    15
 -1.6883195430251428E+00 a      1036     0    35     1    16
 -9.8827921372942173E-01 a      1037     0    35     1    17
 -4.5621315941312052E-02 a      1038     0    35     1    18
  2.2236293522430843E+00 a      1039     0    35     1    19
  1.2553557227241847E+00 a      1040     0    35     1    20
  1.3470293610703197E+00 a      1041     0    35     1    21
 -3.6531236645449217E+00 a      1042     0    35     1    22
 -3.3888223973942684E+00 a      1043     0    35     1    23
  8.8197509291160010E+00 a      1044     0    35     1    24
  5.6952650382029315E+00 a      1045     0    35     1    25
 -1.3672637472109570E+00 a      1046     0    35     1    26
  3.6646012390149698E+00 a      1047     0    35     1    27
  2.0027155275852326E+00 a      1048     0    35     1    28
  1.2982216858281548E+00 a      1049     0    35     1    29
  3.4482167154662120E+00 a      1050     0    35     1    30
 -3.1460698302994639E-01 a      1051     0    36     1     1
  5.7531900787425450E+00 a      1052     0    36     1     2
  5.7474172068667890E+00 a      1053     0    36     1     3
 -5.1929398513269778E+00 a      1054     0    36     1     4
 -3.6866322195018544E+00 a      1055     0    36     1     5
  1.2557649880716648E+00 a      1056     0    36     1     6
  2.4751114280619077E-01 a      1057     0    36     1     7
 -2.5115366298495672E+00 a      1058     0    36     1     8
 -7.3906376954072295E+00 a      1059     0    36     1     9
 -4.5971037035930733E+00 a      1060     0    36     1    10
 -1.3225547018753783E+01 a      1061     0    36     1    11
  3.4763003674755502E+00 a      1062     0    36     1    12
  5.3499257665952928E+00 a      1063     0    36     1    13
  1.1230275147897663E+01 a      1064     0    36     1    14
 -1.9022970543669362E+00 a      1065     0    36     1    15
  3.2962777114432136E+00 a      1066     0    36     1    16
  2.2206776746776735E+00 a      1067     0    36     1    17
 -1.7680053315277069E+00 a      1068     0    36     1    18
 -3.1722832051664405E+00 a      1069     0    36     1    19
 -2.7431431331911738E-01 a      1070     0    36     1    20
 -2.6935147123800456E+00 a      1071     0    36     1    21
  3.6137288491639405E+00 a      1072     0    36     1    22
 -1.0495937694229136E+00 a      1073     0    36     1    23
 -9.0947423190248564E+00 a      1074     0    36     1    24
 -4.7799981718792468E+00 a      1075     0    36     1    25
  4.1101851940795147E+00 a      1076     0    36     1    26
 -9.5257364704429097E+00 a      1077     0    36     1    27
  1.4124314841187741E-01 a      1078     0    36     1    28
 -4.4785962211194041E+00 a      1079     0    36     1    29
 -1.0774336678404042E+00 a      1080     0    36     1    30
 -7.5700997626437894E-01 a      1081     0    37     1     1
 -7.1703702732648283E-02 a      1082     0    37     1     2
  1.7173460860388901E+00 a      1083     0    37     1     3
  9.6360579644620470E-01 a      1084     0    37     1     4
 -4.4569141597372092E-01 a      1085     0    37     1     5
 -3.6863408547929581E+00 a      1086     0    37     1     6
 -2.3898838523856492E-02 a      1087     0    37     1     7
  1.8709987805224002E+00 a      1088     0    37     1     8
 -1.3240078860390676E+00 a      1089     0    37     1     9
 -2.5004080635037446E-01 a      1090     0    37     1    10
 -6.0107039554951376E+00 a      1091     0    37     1    11
  5.5499699436468604E-02 a      1092     0    37     1    12
 -1.6595755563805521E+00 a      1093     0    37     1    13
 -3.9534531672897094E-01 a      1094     0    37     1    14
 -1.9192477114026765E-01 a      1095     0    37     1    15
 -1.7476409353259912E+00 a      1096     0    37     1    16
  6.2524795707798134E-02 a      1097     0    37     1    17
  1.5165324018668629E+00 a      1098     0    37     1    18
 -1.0190097785148049E+00 a      1099     0    37     1    19
 -1.4288474948859455E+00 a      1100     0    37     1    20
 -6.9165019621480328E-01 a      1101     0    37     1    21
  3.0276409017796091E+00 a      1102     0    37     1    22
  1.1251262145543145E-01 a      1103     0    37     1    23
 -3.7287232647082686E+00 a      1104     0    37     1    24
 -4.1814337818219138E-01 a      1105     0    37     1    25
 -4.2732145722335156E-02 a      1106     0    37     1    26
 -1.7103855093120284E+00 a      1107     0    37     1    27
 -1.1132705048862823E+00 a      1108     0    37     1    28
 -1.7652877647292042E-01 a      1109     0    37     1    29
 -1.6085682581797606E-01 a      1110     0    37     1    30
  3.4914251074708696E-01 a      1111     0    38     1     1
 -3.2131759035827283E+00 a      1112     0    38     1     2
 -3.0440039335014784E+00 a      1113     0    38     1     3
  3.7276057921614147E+00 a      1114     0    38     1     4
  2.2807988309532758E+00 a      1115     0    38     1     5
 -2.2445497412022943E+00 a      1116     0    38     1     6
 -3.7211881846456296E-01 a      1117     0    38     1     7
  2.3404399382394185E+00 a      1118     0    38     1     8
  5.8050969307948632E+00 a      1119     0    38     1     9
  2.0578684279347828E+00 a      1120     0    38     1    10
  9.7805865927854683E+00 a      1121     0    38     1    11
 -1.7247729766907376E+00 a      1122     0    38     1    12
 -3.3113116439634673E+00 a      1123     0    38     1    13
 -6.4826571928044263E+00 a      1124     0    38     1    14
  1.6369421776883535E+00 a      1125     0    38     1    15
 -4.5810439496675015E-01 a      1126     0    38     1    16
 -2.2213434440727049E+00 a      1127     0    38     1    17
  1.6542088595788873E+00 a      1128     0    38     1    18
  1.5473269844264241E+00 a      1129     0    38     1    19
 -1.1531617400804837E+00 a      1130     0    38     1    20
  2.2065697785874967E+00 a      1131     0    38     1    21
 -2.4828000943147899E+00 a      1132     0    38     1    22
  1.7195491392428575E+00 a      1133     0    38     1    23
  2.9316908407156590E+00 a      1134     0    38     1    24
  2.0572261609436397E+00 a      1135     0    38     1    25
 -3.6784420976212284E+00 a      1136     0    38     1    26
  5.3416511076298399E+00 a      1137     0    38     1    27
 -1.1541649673896988E+00 a      1138     0    38     1    28
  3.3922196979498276E+00 a      1139     0    38     1    29
 -6.6880278080184330E-01 a      1140     0    38     1    30
 -9.1400746063773283E-02 a      1141     0    39     1     1
  1.7521955664992309E-01 a      1142     0    39     1     2
 -1.6547746189160126E+00 a      1143     0    39     1     3
 -1.0243605754219873E+00 a      1144     0    39     1     4
 -3.1133304055659139E-01 a      1145     0    39     1     5
 -1.3370333379449963E+00 a      1146     0    39     1     6
 -4.1695041353689399E-01 a      1147     0    39     1     7
  1.5805106647248029E-01 a      1148     0    39     1     8
  6.4980731638981104E-01 a      1149     0    39     1     9
  1.0890207367562287E-01 a      1150     0    39     1    10
  1.7142023832814839E+00 a      1151     0    39     1    11
 -7.2510581983592434E-02 a      1152     0    39     1    12
 -1.9345497791955391E-01 a      1153     0    39     1    13
  1.0428508814777706E+00 a      1154     0    39     1    14
 -1.1153341297857207E+00 a      1155     0    39     1    15
  3.1170664618200083E-01 a      1156     0    39     1    16
  2.2499878929434245E+00 a      1157     0    39     1    17
 -1.8696432738050603E+00 a      1158     0    39     1    18
  5.9352016838397148E-01 a      1159     0    39     1    19
 -6.5802379884057616E-01 a      1160     0    39     1    20
  7.3214651494002636E-01 a      1161     0    39     1    21
 -7.4719078204675049E-01 a      1162     0    39     1    22
 -7.5911934458408681E-01 a      1163     0    39     1    23
  5.6936273118177398E+00 a      1164     0    39     1    24
  4.1239321212352733E+00 a      1165     0    39     1    25
  6.3474815967889220E-01 a      1166     0    39     1    26
  2.0301450746893160E-01 a      1167     0    39     1    27
  7.2824159543424827E-01 a      1168     0    39     1    28
  1.9200760047080925E+00 a      1169     0    39     1    29
 -1.9510964417261851E+00 a      1170     0    39     1    30
  1.0381272919574724E+00 a      1171     0    40     1     1
  8.3063185931992245E-02 a      1172     0    40     1     2
 -1.4021900400739757E+00 a      1173     0    40     1     3
 -3.2369850983138271E-01 a      1174     0    40     1     4
 -8.7821974663235680E-01 a      1175     0    40     1     5
  1.1105645970792732E+00 a      1176     0    40     1     6
  6.7416810248494485E-01 a      1177     0    40     1     7
 -6.7644575216569414E-01 a      1178     0    40     1     8
 -1.1528020453008034E+00 a      1179     0    40     1     9
  3.6558880964079926E-01 a      1180     0    40     1    10
 -1.1453147411043503E+00 a      1181     0    40     1    11
 -2.0822133266441353E-01 a      1182     0    40     1    12
  3.3162529388175086E+00 a      1183     0    40     1    13
  9.5814307337903837E-01 a      1184     0    40     1    14
 -1.3891652332568587E+00 a      1185     0    40     1    15
 -2.7991094530001415E-01 a      1186     0    40     1    16
  5.8946512143396301E-01 a      1187     0    40     1    17
 -7.7847416168923778E-01 a      1188     0    40     1    18
  1.2049699155429089E-01 a      1189     0    40     1    19
  1.3994823596861417E+00 a      1190     0    40     1    20
 -8.5988823103892942E-01 a      1191     0    40     1    21
  9.0996650963955006E-01 a      1192     0    40     1    22
 -1.8218842777381625E+00 a      1193     0    40     1    23
  7.4463927615919878E-01 a      1194     0    40     1    24
  1.6432492039903746E-01 a      1195     0    40     1    25
  1.2827022212189381E+00 a      1196     0    40     1    26
 -1.1170456775831028E-01 a      1197     0    40     1    27
  9.0308952174169466E-01 a      1198     0    40     1    28
 -3.3866534288455602E-01 a      1199     0    40     1    29
  3.9087889439166390E-01 a      1200     0    40     1    30
 -3.3314356969679097E-02 a      1201     0    41     1     1
  2.1179248009014349E+00 a      1202     0    41     1     2
  1.3876492571135506E+00 a      1203     0    41     1     3
  1.4284640681224523E+00 a      1204     0    41     1     4
 -1.3297699874893654E+00 a      1205     0    41     1     5
  5.8193577505249927E-01 a      1206     0    41     1     6
 -3.2959818140801028E-01 a      1207     0    41     1     7
  9.3769989659706343E-01 a      1208     0    41     1     8
 -8.8870083526270016E-01 a      1209     0    41     1     9
 -5.6985662710283810E-02 a      1210     0    41     1    10
 -1.2990249159367199E+01 a      1211     0    41     1    11
  2.4727522458530379E-01 a      1212     0    41     1    12
 -2.7092795559387228E-01 a      1213     0    41     1    13
  3.7286949954713959E+00 a      1214     0    41     1    14
  1.0758391685517057E-01 a      1215     0    41     1    15
  1.5057888118826976E+00 a      1216     0    41     1    16
 -1.6371243084415734E+00 a      1217     0    41     1    17
 -2.5226224216000395E+00 a      1218     0    41     1    18
 -3.7089676024737156E-01 a      1219     0    41     1    19
 -4.8550271582364907E-01 a      1220     0    41     1    20
  1.2366292548269438E-02 a      1221     0    41     1    21
  3.2755298335127319E+00 a      1222     0    41     1    22
 -1.5967679131121946E+00 a      1223     0    41     1    23
 -4.0904414911889910E+00 a      1224     0    41     1    24
 -1.1156104584591022E+00 a      1225     0    41     1    25
  2.2376427600326738E+00 a      1226     0    41     1    26
 -1.0352938489324184E+00 a      1227     0    41     1    27
 -5.0628519288502782E-01 a      1228     0    41     1    28
 -4.5056278326374505E-01 a      1229     0    41     1    29
  1.0103743383556320E-01 a      1230     0    41     1    30
 -7.4484455650414694E-01 a      1231     0    42     1     1
 -3.3571539432667943E+00 a      1232     0    42     1     2
 -1.9475686307672440E+00 a      1233     0    42     1     3
 -1.0038595360203346E+00 a      1234     0    42     1     4
  1.9802323293426953E+00 a      1235     0    42     1     5
 -1.5052803134305388E+00 a      1236     0    42     1     6
  5.3813167961217478E-01 a      1237     0    42     1     7
 -4.7710626743715473E-01 a      1238     0    42     1     8
  2.2519929321940655E+00 a      1239     0    42     1     9
 -9.3523128337375638E-01 a      1240     0    42     1    10
  1.4968314828042500E+01 a      1241     0    42     1    11
 -4.2303002470994017E-01 a      1242     0    42     1    12
 -2.4508174768000237E+00 a      1243     0    42     1    13
 -4.7051767938611677E+00 a      1244     0    42     1    14
 -1.6519792112617096E-01 a      1245     0    42     1    15
 -2.3564113676684371E+00 a      1246     0    42     1    16
  1.9300102539626574E+00 a      1247     0    42     1    17
  5.1331419441220216E+00 a      1248     0    42     1    18
  2.2846354570546198E-01 a      1249     0    42     1    19
  9.9247355514435853E-01 a      1250     0    42     1    20
  1.1670762452829679E-02 a      1251     0    42     1    21
 -4.3538371000992804E+00 a      1252     0    42     1    22
  6.5629966600940053E+00 a      1253     0    42     1    23
  2.9873413683201600E+00 a      1254     0    42     1    24
  1.0955296748222139E+00 a      1255     0    42     1    25
 -3.9567397927907431E+00 a      1256     0    42     1    26
  2.7463682185991258E+00 a      1257     0    42     1    27
 -5.6382210238492592E-01 a      1258     0    42     1    28
  1.0364129996289595E+00 a      1259     0    42     1    29
 -1.5508887391861934E+00 a      1260     0    42     1    30
  2.0405597930457722E-01 a      1261     0    43     1     1
 -2.9159622890505354E-01 a      1262     0    43     1     2
 -3.2569420653608411E-01 a      1263     0    43     1     3
 -6.7438317601081232E-01 a      1264     0    43     1     4
  1.4018559542314257E-01 a      1265     0    43     1     5
  5.7588143765273114E-01 a      1266     0    43     1     6
  3.0385713989993363E-01 a      1267     0    43     1     7
 -6.3583147316316058E-01 a      1268     0    43     1     8
  7.4982352084902892E-01 a      1269     0    43     1     9
 -1.2684454285608915E-01 a      1270     0    43     1    10
  4.0737077775692168E+00 a      1271     0    43     1    11
 -7.6175970741826499E-02 a      1272     0    43     1    12
  4.6500127250328549E-01 a      1273     0    43     1    13
 -6.6811444717244772E-01 a      1274     0    43     1    14
 -3.6184076764945466E-01 a      1275     0    43     1    15
  2.1424649182976366E-01 a      1276     0    43     1    16
  9.2465572674203667E-01 a      1277     0    43     1    17
 -1.7673156435044921E-01 a      1278     0    43     1    18
  3.6750170654436082E-01 a      1279     0    43     1    19
 -3.9325104103224817E-02 a      1280     0    43     1    20
  3.9387873793961581E-01 a      1281     0    43     1    21
 -7.4147267914017345E-01 a      1282     0    43     1    22
  7.3003453110975738E-02 a      1283     0    43     1    23
  5.9907819666942927E+00 a      1284     0    43     1    24
  1.9905919462121843E-01 a      1285     0    43     1    25
 -6.7515533985574161E-01 a      1286     0    43     1    26
  6.0256380419274058E-01 a      1287     0    43     1    27
  2.4836866044730743E-01 a      1288     0    43     1    28
  8.2100854821405694E-02 a      1289     0    43     1    29
 -3.0155641675413108E-01 a      1290     0    43     1    30
  4.4462880081981326E-01 a      1291     0    44     1     1
  1.6256157374253231E+00 a      1292     0    44     1     2
  5.1611925259569447E-01 a      1293     0    44     1     3
 -2.8177473671320914E-02 a      1294     0    44     1     4
 -1.1419691098103943E+00 a      1295     0    44     1     5
  1.0927432835032089E+00 a      1296     0    44     1     6
 -1.4037169935934060E-01 a      1297     0    44     1     7
 -3.5293065287979160E-02 a      1298     0    44     1     8
 -1.2323288527012586E+00 a      1299     0    44     1     9
  1.1678159891598334E+00 a      1300     0    44     1    10
 -8.6776059847310485E+00 a      1301     0    44     1    11
 -5.7675387393690096E-03 a      1302     0    44     1    12
  1.7065606725125919E+00 a      1303     0    44     1    13
  1.9025954381541268E+00 a      1304     0    44     1    14
 -2.5974103481454314E-01 a      1305     0    44     1    15
  1.3364584578515213E+00 a      1306     0    44     1    16
 -8.1987911277942027E-01 a      1307     0    44     1    17
 -3.6012439108029728E+00 a      1308     0    44     1    18
  1.6899954949446305E-02 a      1309     0    44     1    19
 -6.7331739459872628E-02 a      1310     0    44     1    20
 -1.2758411010040099E-01 a      1311     0    44     1    21
  2.5277783681686401E+00 a      1312     0    44     1    22
 -4.0719821873198185E+00 a      1313     0    44     1    23
 -7.5804347255989479E-01 a      1314     0    44     1    24
 -2.6559529359605627E-01 a      1315     0    44     1    25
  2.3843055468015519E+00 a      1316     0    44     1    26
 -1.5447396715759454E+00 a      1317     0    44     1    27
  7.1251378208650495E-01 a      1318     0    44     1    28
 -4.6032863463916501E-01 a      1319     0    44     1    29
  1.1319592655882154E+00 a      1320     0    44     1    30
  1.2601224168327829E-01 a      1321     0    45     1     1
  1.5634192967499669E-02 a      1322     0    45     1     2
  3.5738187576832131E-01 a      1323     0    45     1     3
  3.5996101081355991E-01 a      1324     0    45     1     4
  1.1290625068212384E-01 a      1325     0    45     1     5
  5.8531170643863561E-01 a      1326     0    45     1     6
  1.4688021120184125E-01 a      1327     0    45     1     7
  6.4850350519997124E-01 a      1328     0    45     1     8
 -1.2991081231291809E-01 a      1329     0    45     1     9
  3.5626147669970126E-01 a      1330     0    45     1    10
 -1.7446114929179630E+00 a      1331     0    45     1    11
  7.7593512819209065E-02 a      1332     0    45     1    12
 -4.3281337627728711E-01 a      1333     0    45     1    13
 -1.3477944985952589E-01 a      1334     0    45     1    14
  8.5640214330860254E-01 a      1335     0    45     1    15
 -3.3309934066697749E-01 a      1336     0    45     1    16
 -9.1702141473064402E-01 a      1337     0    45     1    17
  2.3596367426800446E-02 a      1338     0    45     1    18
 -3.6474916942453273E-01 a      1339     0    45     1    19
  3.5550115901172824E-01 a      1340     0    45     1    20
 -3.5035993891330730E-01 a      1341     0    45     1    21
  2.1696996411299435E-01 a      1342     0    45     1    22
  8.4028155675929153E-02 a      1343     0    45     1    23
 -4.1890514626638081E-01 a      1344     0    45     1    24
 -1.8540713710179983E+00 a      1345     0    45     1    25
  1.8064966633869042E-01 a      1346     0    45     1    26
 -1.6695759233172083E-01 a      1347     0    45     1    27
 -3.5486962630839541E-01 a      1348     0    45     1    28
 -4.9504861527155397E-01 a      1349     0    45     1    29
  5.3903773330300431E-01 a      1350     0    45     1    30
 -3.3977670379791863E-01 a      1351     0    46     1     1
 -3.3738078870066725E-02 a      1352     0    46     1     2
  4.1450589530571241E-01 a      1353     0    46     1     3
  1.0363518024763521E-01 a      1354     0    46     1     4
  1.6040002342558696E-01 a      1355     0    46     1     5
 -8.6461903779760971E-02 a      1356     0    46     1     6
 -1.9272663677714774E-01 a      1357     0    46     1     7
  1.7251378420576460E-01 a      1358     0    46     1     8
  2.2894780600374556E-02 a      1359     0    46     1     9
 -4.3712064347096091E-01 a      1360     0    46     1    10
  4.1138447787197407E-01 a      1361     0    46     1    11
  1.1785030327215271E-01 a      1362     0    46     1    12
 -9.3046694250050566E-01 a      1363     0    46     1    13
  1.3546034387108746E-01 a      1364     0    46     1    14
  2.2105334279363811E-01 a      1365     0    46     1    15
 -4.8870592305418487E-01 a      1366     0    46     1    16
  2.1748266846450891E-02 a      1367     0    46     1    17
  4.3179788260101754E-01 a      1368     0    46     1    18
 -1.4232972895915602E-01 a      1369     0    46     1    19
 -3.5399984156414141E-02 a      1370     0    46     1    20
  8.1544295438323047E-02 a      1371     0    46     1    21
 -3.4473160459386676E-01 a      1372     0    46     1    22
  9.4022863431682091E-01 a      1373     0    46     1    23
 -1.0561124849750235E-01 a      1374     0    46     1    24
 -1.5524684586812393E-01 a      1375     0    46     1    25
 -3.2646625459668416E-01 a      1376     0    46     1    26
  1.0406621312317298E-01 a      1377     0    46     1    27
 -1.5158343843486868E-01 a      1378     0    46     1    28
  2.9286142218737175E-02 a      1379     0    46     1    29
 -2.9651897768423674E-01 a      1380     0    46     1    30
 -2.2715729429131921E-02 b      1381     1     1
 -1.8499848177886893E-01 b      1382     1     2
  5.5155626860416329E-01 b      1383     1     3
  1.3136722269945261E-01 b      1384     1     4
 -5.7423020477843333E-02 b      1385     1     5
  5.1577050208126485E-01 b      1386     1     6
 -5.8252277094396576E-01 b      1387     1     7
  1.6143728458479856E-01 b      1388     1     8
 -4.2148015902015175E-02 b      1389     1     9
 -8.0591571969017872E-01 b      1390     1    10
 -4.7456724760416857E-01 b      1391     1    11
 -1.0926058836541244E+00 b      1392     1    12
 -6.5876083563345100E-01 b      1393     1    13
 -2.6369525469662308E-01 b      1394     1    14
  4.7676866336772855E-01 b      1395     1    15
 -3.0295440532980340E-02 b      1396     1    16
  6.5760057960316010E-01 b      1397     1    17
 -2.1666614700715062E-01 b      1398     1    18
  3.9865641747752339E-01 b      1399     1    19
  2.4856592090635066E-01 b      1400     1    20
  6.9580464464241820E-01 b      1401     1    21
 -3.6182575047502435E-01 b      1402     1    22
  4.4035374049689452E-01 b      1403     1    23
  3.3155512503470014E-01 b      1404     1    24
 -1.6258222976182329E-01 b      1405     1    25
  4.4314326217876593E-01 b      1406     1    26
  3.4964971108603921E-01 b      1407     1    27
  5.5150378884529105E-01 b      1408     1    28
 -4.1108765143339121E-01 b      1409     1    29
  6.4061526441818867E-02 b      1410     1    30
  1.2365344642601465E-01 a      1411     1     1     2     1
 -4.8173135968513925E-01 a      1412     1     1     2     2
 -2.2333775000686298E-02 a      1413     1     1     2     3
  4.6707906574689718E-03 a      1414     1     1     2     4
 -3.7738134998792283E-01 a      1415     1     1     2     5
 -1.8984708834058076E-01 a      1416     1     1     2     6
 -8.5678125965650787E-01 a      1417     1     1     2     7
  5.4010379078163284E-01 a      1418     1     1     2     8
 -2.1015120562774744E-01 a      1419     1     1     2     9
 -1.5579646012313056E-01 a      1420     1     1     2    10
 -1.8836545221647119E-01 a      1421     1     1     2    11
  2.1865590224145772E+00 a      1422     1     1     2    12
 -1.5004840049447979E-02 a      1423     1     1     2    13
  6.0093907264042556E-01 a      1424     1     1     2    14
  6.8506358361014730E-01 a      1425     1     1     2    15
  6.5499523336386678E-01 a      1426     1     1     2    16
 -2.9681715876903036E-01 a      1427     1     1     2    17
 -1.0517880282666327E-01 a      1428     1     1     2    18
 -1.6306843462413118E-01 a      1429     1     1     2    19
  1.5596554785971994E-01 a      1430     1     1     2    20
 -4.6040270877760324E-02 a      1431     1     1     2    21
  3.4182916245483830E-01 a      1432     1     1     2    22
 -6.1562275956297752E-01 a      1433     1     1     2    23
 -5.8685330801273017E-01 a      1434     1     1     2    24
 -4.7611660403536710E-01 a      1435     1     1     2    25
 -9.1389268322765629E-02 a      1436     1     1     2    26
 -2.3259705157868238E-01 a      1437     1     1     2    27
  3.4525421182474253E-01 a      1438     1     1     2    28
  4.0606136782729407E-01 a      1439     1     1     2    29
  3.5104793756822561E-01 a      1440     1     1     2    30
  3.1754630947639839E-01 a      1441     1     2     2     1
 -7.3238939906547965E-02 a      1442     1     2     2     2
 -1.0970029945971023E-01 a      1443     1     2     2     3
  1.4779286784119375E-01 a      1444     1     2     2     4
 -9.8317329204918549E-02 a      1445     1     2     2     5
  1.8385777018504887E-01 a      1446     1     2     2     6
  9.9127444273958509E-01 a      1447     1     2     2     7
 -1.8861374486798759E+00 a      1448     1     2     2     8
  1.3942319423978011E-01 a      1449     1     2     2     9
  2.9824339084278022E+00 a      1450     1     2     2    10
  5.8238479050796488E-01 a      1451     1     2     2    11
 -1.9942032309685967E-01 a      1452     1     2     2    12
 -5.0217890286869171E-01 a      1453     1     2     2    13
 -1.5182656847332605E+00 a      1454     1     2     2    14
 -5.6967305033226490E-01 a      1455     1     2     2    15
 -7.6811878287899837E-01 a      1456     1     2     2    16
  8.3077575840306050E-01 a      1457     1     2     2    17
 -1.0476268122538022E-01 a      1458     1     2     2    18
  7.1277866973531978E-01 a      1459     1     2     2    19
  8.3797436707627992E-01 a      1460     1     2     2    20
 -2.3859033127499552E+00 a      1461     1     2     2    21
 -2.4302837158774079E-01 a      1462     1     2     2    22
 -4.4498978257355454E-03 a      1463     1     2     2    23
  1.3160235132148785E+00 a      1464     1     2     2    24
 -5.4566184324455991E-01 a      1465     1     2     2    25
 -8.4371572495512570E-01 a      1466     1     2     2    26
  2.3661321157544718E-01 a      1467     1     2     2    27
 -4.2815007483273548E-01 a      1468     1     2     2    28
 -1.3000853790019125E+00 a      1469     1     2     2    29
  3.2026658502355948E-01 a      1470     1     2     2    30
  1.9723871132836313E-01 a      1471     1     3     2     1
  1.5141019003446662E-01 a      1472     1     3     2     2
  2.0625145360917990E-01 a      1473     1     3     2     3
 -3.5936884503611388E-01 a      1474     1     3     2     4
 -3.3904973979348485E-01 a      1475     1     3     2     5
 -7.3976056819734626E-02 a      1476     1     3     2     6
 -4.7033933647691811E-01 a      1477     1     3     2     7
  1.1778050123778558E+00 a      1478     1     3     2     8
  2.2139589854191394E-01 a      1479     1     3     2     9
  3.4223705367705475E+00 a      1480     1     3     2    10
  8.7967614412185091E-01 a      1481     1     3     2    11
 -1.3387729622745140E-01 a      1482     1     3     2    12
 -1.3297973852922620E-01 a      1483     1     3     2    13
  9.8924692962898719E-01 a      1484     1     3     2    14
 -4.3263905126291829E-02 a      1485     1     3     2    15
 -4.5037677752074795E-01 a      1486     1     3     2    16
 -4.4989960836609411E-01 a      1487     1     3     2    17
  4.9290928350553140E-02 a      1488     1     3     2    18
 -1.8797729053658979E-01 a      1489     1     3     2    19
  5.7397795001914864E-01 a      1490     1     3     2    20
 -5.5143446687889375E-01 a      1491     1     3     2    21
 -4.2894783873796760E-01 a      1492     1     3     2    22
  2.6309948780726861E-01 a      1493     1     3     2    23
 -6.6380533621714977E-01 a      1494     1     3     2    24
 -2.5524879285516894E-01 a      1495     1     3     2    25
  6.7197111835122239E-02 a      1496     1     3     2    26
 -5.4796484014717345E-02 a      1497     1     3     2    27
 -3.4318848765532212E-01 a      1498     1     3     2    28
  1.0421517157700586E+00 a      1499     1     3     2    29
  1.9640054597418150E-01 a      1500     1     3     2    30
 -7.1791555583580546E-01 a      1501     1     4     2     1
 -2.7179184419807489E-01 a      1502     1     4     2     2
  8.0322020435008679E-01 a      1503     1     4     2     3
  9.2525380125157292E-02 a      1504     1     4     2     4
 -8.9327985437876484E-02 a      1505     1     4     2     5
  9.5591871017088170E-03 a      1506     1     4     2     6
 -1.3817787702000228E+00 a      1507     1     4     2     7
 -1.3749717942224662E+00 a      1508     1     4     2     8
  4.6841772752425753E-01 a      1509     1     4     2     9
 -8.1539885571544302E-01 a      1510     1     4     2    10
  1.1681557957636741E+00 a      1511     1     4     2    11
 -3.7625920626156431E+00 a      1512     1     4     2    12
 -6.1978881561401793E-02 a      1513     1     4     2    13
 -1.4037809728443931E+00 a      1514     1     4     2    14
  2.6370540172801610E-01 a      1515     1     4     2    15
 -3.2350052908124460E-01 a      1516     1     4     2    16
 -3.6476651485767853E-01 a      1517     1     4     2    17
  9.5287026645428263E-02 a      1518     1     4     2    18
  1.5741384034262396E-01 a      1519     1     4     2    19
 -1.4734156903387030E-01 a      1520     1     4     2    20
  7.2433033686779502E-01 a      1521     1     4     2    21
  1.5718021905171400E-01 a      1522     1     4     2    22
  7.9679060816809055E-01 a      1523     1     4     2    23
 -9.9524953754823386E-01 a      1524     1     4     2    24
 -4.4156809042062828E-01 a      1525     1     4     2    25
 -1.8586657615397087E-01 a      1526     1     4     2    26
  4.3909274359568595E-02 a      1527     1     4     2    27
  2.3109799712741248E-02 a      1528     1     4     2    28
 -1.4456766961890275E+00 a      1529     1     4     2    29
 -3.2114379676802229E-01 a      1530     1     4     2    30
  9.0450699561014647E-01 a      1531     1     5     2     1
  7.4990673928458407E-01 a      1532     1     5     2     2
 -1.1279449332690497E+00 a      1533     1     5     2     3
  8.9390867168181509E-01 a      1534     1     5     2     4
 -2.2885340659892711E-01 a      1535     1     5     2     5
  3.0825801175916917E-01 a      1536     1     5     2     6
 -5.7493382068964971E-01 a      1537     1     5     2     7
  1.3845610607091252E+00 a      1538     1     5     2     8
 -3.3423707155407295E-01 a      1539     1     5     2     9
  9.1874981207480222E-01 a      1540     1     5     2    10
 -1.0952811719342146E+00 a      1541     1     5     2    11
  1.3922213076689320E+00 a      1542     1     5     2    12
 -7.9431041468390820E-02 a      1543     1     5     2    13
  1.3764538465615130E+00 a      1544     1     5     2    14
  7.6191153991029048E-01 a      1545     1     5     2    15
  5.5915494877955281E-02 a      1546     1     5     2    16
 -5.1388198418688513E-01 a      1547     1     5     2    17
 -2.5054697282754290E-01 a      1548     1     5     2    18
 -7.6952350729855890E-01 a      1549     1     5     2    19
  8.4337861965109151E-01 a      1550     1     5     2    20
  8.7898365113741966E-02 a      1551     1     5     2    21
  2.2354137292475398E-02 a      1552     1     5     2    22
 -8.4595799285668727E-01 a      1553     1     5     2    23
 -3.5974313008679537E-01 a      1554     1     5     2    24
  1.7932966291377023E-01 a      1555     1     5     2    25
 -1.8341786354855777E-01 a      1556     1     5     2    26
  6.8835433178740957E-01 a      1557     1     5     2    27
 -6.2136138464215118E-01 a      1558     1     5     2    28
 -1.7235559401061321E-01 a      1559     1     5     2    29
 -2.8899064306220607E-01 a      1560     1     5     2    30
 -5.6990981483299763E-01 a      1561     1     6     2     1
  1.9277482938987200E-01 a      1562     1     6     2     2
 -8.6728047457298807E-01 a      1563     1     6     2     3
 -4.1762535628102232E-01 a      1564     1     6     2     4
 -4.4298830450982207E-01 a      1565     1     6     2     5
  1.9605072510913670E-02 a      1566     1     6     2     6
  3.2018859497396873E-01 a      1567     1     6     2     7
  1.4445270357857505E+00 a      1568     1     6     2     8
 -2.6919832157521484E-01 a      1569     1     6     2     9
 -5.1960701331169656E-01 a      1570     1     6     2    10
  4.0699350499219428E-01 a      1571     1     6     2    11
  1.3078429281413184E+00 a      1572     1     6     2    12
 -4.9471261450178279E-02 a      1573     1     6     2    13
 -2.0768195740863757E-01 a      1574     1     6     2    14
 -5.0573307439085398E-02 a      1575     1     6     2    15
 -2.5705797049807877E-01 a      1576     1     6     2    16
 -5.9139044508800261E-02 a      1577     1     6     2    17
 -2.2550436227433749E-02 a      1578     1     6     2    18
 -3.8126419053297979E-02 a      1579     1     6     2    19
  1.5571695981603081E-01 a      1580     1     6     2    20
 -1.4637277821146546E+00 a      1581     1     6     2    21
 -6.2778723692966409E-01 a      1582     1     6     2    22
 -2.9635975611239013E-01 a      1583     1     6     2    23
 -7.0953433433897117E-01 a      1584     1     6     2    24
 -3.6744707832784540E-01 a      1585     1     6     2    25
 -1.7669757352676310E-01 a      1586     1     6     2    26
  3.4431293299411431E-04 a      1587     1     6     2    27
 -9.0451346788500753E-02 a      1588     1     6     2    28
  1.2519601882686415E+00 a      1589     1     6     2    29
  1.1305481868938592E-01 a      1590     1     6     2    30
 -6.2628667880059075E-01 a      1591     1     7     2     1
 -6.6682901386453819E-01 a      1592     1     7     2     2
  6.7250193499894717E-01 a      1593     1     7     2     3
 -1.3597001408772826E+00 a      1594     1     7     2     4
 -4.4273210216927933E-01 a      1595     1     7     2     5
  3.6300005155828696E-01 a      1596     1     7     2     6
  1.1175292932791969E+00 a      1597     1     7     2     7
  1.1392968972533877E+00 a      1598     1     7     2     8
  3.4563662345131568E-01 a      1599     1     7     2     9
  3.8440752807194589E-01 a      1600     1     7     2    10
  1.8099309680229708E-01 a      1601     1     7     2    11
  1.9062503864857989E+00 a      1602     1     7     2    12
  4.1789543954994057E-01 a      1603     1     7     2    13
  1.2163376756344433E+00 a      1604     1     7     2    14
  4.8430719071522033E-01 a      1605     1     7     2    15
  1.1920102126247559E-01 a      1606     1     7     2    16
  1.0516100898772668E-01 a      1607     1     7     2    17
 -2.5222472415870784E-01 a      1608     1     7     2    18
 -1.5274555466440681E-01 a      1609     1     7     2    19
 -4.1698868677657397E-01 a      1610     1     7     2    20
  1.3390334672378408E+00 a      1611     1     7     2    21
 -1.7509418776887095E-01 a      1612     1     7     2    22
  8.2355035944067467E-01 a      1613     1     7     2    23
 -2.3452361106246600E-01 a      1614     1     7     2    24
  1.1320387661176755E-01 a      1615     1     7     2    25
  9.5427875615381830E-01 a      1616     1     7     2    26
  5.0153418883215606E-01 a      1617     1     7     2    27
  1.9376769195823212E-01 a      1618     1     7     2    28
 -1.1172080881306146E-01 a      1619     1     7     2    29
 -2.0719272281554693E-01 a      1620     1     7     2    30
  1.8512108593167831E-01 a      1621     1     8     2     1
  9.4397450706435382E-01 a      1622     1     8     2     2
 -1.4824028859796665E-01 a      1623     1     8     2     3
  1.2572701192725981E+00 a      1624     1     8     2     4
  1.0908575131457450E+00 a      1625     1     8     2     5
  2.9630366587324086E-01 a      1626     1     8     2     6
 -1.4214296943683675E+00 a      1627     1     8     2     7
  1.0933835404307384E+00 a      1628     1     8     2     8
  9.7031862372822664E-01 a      1629     1     8     2     9
