################################################################################
# Neural network connection values (weights and biases).
################################################################################
# Col  Name       Description
################################################################################
# 1    connection Neural network connection value.
# 2    t          Connection type (a = weight, b = bias).
# 3    index      Index enumerating weights.
# 4    l_s        Starting point layer (end point layer for biases).
# 5    n_s        Starting point neuron in starting layer (end point neuron for biases).
# 6    l_e        End point layer.
# 7    n_e        End point neuron in end layer.
################################################################################
#                      1 2         3     4     5     6     7
#             connection t     index   l_s   n_s   l_e   n_e
############################################################
 -9.6540716738276444E+00 a         1     0     1     1     1
  1.8906128676150541E+01 a         2     0     1     1     2
  1.0026922592375909E+00 a         3     0     1     1     3
  5.1986852945564358E+01 a         4     0     1     1     4
 -7.8982425037351440E+00 a         5     0     1     1     5
 -2.1090178608441293E-01 a         6     0     1     1     6
  9.0284343362407018E+00 a         7     0     1     1     7
 -7.2785377019928163E+01 a         8     0     1     1     8
  8.0147218926134425E+00 a         9     0     1     1     9
  3.6902547858357437E+01 a        10     0     1     1    10
  9.4031856528642130E+00 a        11     0     1     1    11
 -7.8645662676213455E+00 a        12     0     1     1    12
 -8.7846752275504727E+00 a        13     0     1     1    13
 -8.2186321916880285E+00 a        14     0     1     1    14
  2.4161993831366591E+00 a        15     0     1     1    15
  1.1933164069926859E+01 a        16     0     1     1    16
  1.3172979471523103E+01 a        17     0     1     1    17
  4.9776790432094868E+00 a        18     0     1     1    18
  1.3235279911858967E+01 a        19     0     1     1    19
  4.8793515751659008E+01 a        20     0     1     1    20
  3.2012536806606938E+01 a        21     0     1     1    21
  8.1156330935017653E+00 a        22     0     1     1    22
 -9.8896158681456665E+00 a        23     0     1     1    23
  1.8861553482523011E+01 a        24     0     1     1    24
 -1.7601009341965852E+01 a        25     0     1     1    25
 -6.0110844612999665E+00 a        26     0     1     1    26
 -1.0542729344994561E+00 a        27     0     1     1    27
 -2.0579594291119769E+00 a        28     0     1     1    28
  1.3543585937507439E+01 a        29     0     1     1    29
  6.1790801078813047E+00 a        30     0     1     1    30
  1.9739186330767262E+00 a        31     0     2     1     1
  1.7379217526585762E+00 a        32     0     2     1     2
 -6.0906461825077107E+00 a        33     0     2     1     3
  3.3923143662135438E+01 a        34     0     2     1     4
  2.1022491307903106E+01 a        35     0     2     1     5
  7.9340452048926400E+00 a        36     0     2     1     6
 -9.4137023917237332E+00 a        37     0     2     1     7
 -1.3209289708636579E+01 a        38     0     2     1     8
 -1.1526013363901665E+01 a        39     0     2     1     9
  6.1058385359634659E+00 a        40     0     2     1    10
  8.3628096739160203E+00 a        41     0     2     1    11
  2.2196237960041298E+01 a        42     0     2     1    12
  2.3482977981581690E+00 a        43     0     2     1    13
  8.4486698814593009E+00 a        44     0     2     1    14
 -6.5128884784725942E+00 a        45     0     2     1    15
 -4.0191715228347018E+00 a        46     0     2     1    16
  9.6181811634717640E+00 a        47     0     2     1    17
  5.9931394672930716E-01 a        48     0     2     1    18
  5.5317579354392947E+00 a        49     0     2     1    19
  1.5863063422586732E+01 a        50     0     2     1    20
  1.5656461513034463E+00 a        51     0     2     1    21
  1.3438239888467583E+01 a        52     0     2     1    22
  7.0628910272883303E+00 a        53     0     2     1    23
  1.4074826557565912E+01 a        54     0     2     1    24
 -7.0039518075957989E+00 a        55     0     2     1    25
  3.3566118402823758E-01 a        56     0     2     1    26
  1.0453482127231103E+01 a        57     0     2     1    27
 -1.1106825592502787E+01 a        58     0     2     1    28
  1.6130755546606996E+00 a        59     0     2     1    29
  1.4527219367013247E+00 a        60     0     2     1    30
  1.4237775899102779E+01 a        61     0     3     1     1
 -1.0840936613552499E+01 a        62     0     3     1     2
 -1.3011708524954257E+01 a        63     0     3     1     3
  1.8132510278566254E+01 a        64     0     3     1     4
  3.8111393885842148E+01 a        65     0     3     1     5
  1.5417789207159448E+01 a        66     0     3     1     6
 -2.1735116349317753E+01 a        67     0     3     1     7
  2.7256479466398165E+01 a        68     0     3     1     8
 -1.3966817094471685E+01 a        69     0     3     1     9
 -1.3384346511270827E+01 a        70     0     3     1    10
  6.1029807769725419E+00 a        71     0     3     1    11
  4.5069833191836068E+01 a        72     0     3     1    12
  9.7294572471869376E+00 a        73     0     3     1    13
  1.6913856635348139E+01 a        74     0     3     1    14
 -1.4242065276132827E+01 a        75     0     3     1    15
 -1.8721852932473993E+01 a        76     0     3     1    16
  6.2011412472753102E+00 a        77     0     3     1    17
 -3.3502811469600724E+00 a        78     0     3     1    18
  1.3574190968270530E-02 a        79     0     3     1    19
 -1.0539010910204780E+01 a        80     0     3     1    20
 -1.9537166831302414E+01 a        81     0     3     1    21
 -1.8564144485682643E+00 a        82     0     3     1    22
  2.1861335761080610E+01 a        83     0     3     1    23
  8.3144336209782352E+00 a        84     0     3     1    24
 -2.2896570551981479E+00 a        85     0     3     1    25
  2.5493167849061069E+00 a        86     0     3     1    26
  1.7499752338339086E+01 a        87     0     3     1    27
 -1.4529000295978921E+01 a        88     0     3     1    28
 -6.1271669688032020E+00 a        89     0     3     1    29
 -7.9459831567159274E+00 a        90     0     3     1    30
  6.7367408846200405E+00 a        91     0     4     1     1
  6.0078870021415760E+00 a        92     0     4     1     2
 -2.3683347648379765E+01 a        93     0     4     1     3
  2.0849263121025995E+01 a        94     0     4     1     4
  1.3556164815820674E+01 a        95     0     4     1     5
  2.8651494606628944E+01 a        96     0     4     1     6
 -1.4531857906824618E+01 a        97     0     4     1     7
  2.1513902680463193E+01 a        98     0     4     1     8
 -2.3033044401142053E+01 a        99     0     4     1     9
 -2.2739420814454547E+01 a       100     0     4     1    10
  1.0507330266865342E+01 a       101     0     4     1    11
  3.8941812427093396E+01 a       102     0     4     1    12
  1.1518397784328439E+01 a       103     0     4     1    13
  3.1919295264410550E+01 a       104     0     4     1    14
  1.3933293009247123E+01 a       105     0     4     1    15
 -2.1231317040676650E+01 a       106     0     4     1    16
  2.4432380742251598E+00 a       107     0     4     1    17
 -9.4467610756991398E+00 a       108     0     4     1    18
 -4.4515488385222604E+00 a       109     0     4     1    19
 -3.0621276211230008E+01 a       110     0     4     1    20
 -1.0772353764099320E+01 a       111     0     4     1    21
 -5.5208140322722219E+00 a       112     0     4     1    22
  1.4975550164625169E+00 a       113     0     4     1    23
  8.5697950343739948E-01 a       114     0     4     1    24
  9.9850686907125965E+00 a       115     0     4     1    25
  7.6526144731976702E+00 a       116     0     4     1    26
  9.0153452296395855E+00 a       117     0     4     1    27
 -1.0741227152868143E+01 a       118     0     4     1    28
 -5.0983647567039538E+00 a       119     0     4     1    29
  9.3860041757196448E+00 a       120     0     4     1    30
  9.4613798854163349E+00 a       121     0     5     1     1
  1.8174544622587280E+01 a       122     0     5     1     2
 -2.9089409597465362E+01 a       123     0     5     1     3
 -2.9476455178569989E+01 a       124     0     5     1     4
 -4.1030975366760067E+01 a       125     0     5     1     5
  3.2307034729348246E+01 a       126     0     5     1     6
  2.0341743449489329E+01 a       127     0     5     1     7
 -2.9119407116688141E+00 a       128     0     5     1     8
  3.7130821751967609E+01 a       129     0     5     1     9
  3.9503628921709083E-01 a       130     0     5     1    10
 -1.1521156746522124E+01 a       131     0     5     1    11
 -3.1832211431598987E+00 a       132     0     5     1    12
  1.0954453291060413E+00 a       133     0     5     1    13
  4.9532559539934748E+00 a       134     0     5     1    14
  2.8096319985023808E+01 a       135     0     5     1    15
 -1.7592598063955229E+01 a       136     0     5     1    16
 -1.5077645287842234E+01 a       137     0     5     1    17
 -5.8077207644131299E+00 a       138     0     5     1    18
 -1.2721268792972795E+01 a       139     0     5     1    19
 -3.4414483669467508E+01 a       140     0     5     1    20
  1.3228472526162927E+01 a       141     0     5     1    21
 -4.8624199541398568E+01 a       142     0     5     1    22
 -1.1660042950854114E+01 a       143     0     5     1    23
 -7.0786903631410354E+00 a       144     0     5     1    24
  1.1583260270845335E+01 a       145     0     5     1    25
 -1.4368244129658390E+01 a       146     0     5     1    26
 -8.8531607894264521E+00 a       147     0     5     1    27
  2.1538277087944675E+01 a       148     0     5     1    28
  1.6098294000354290E+00 a       149     0     5     1    29
 -1.8190391548124918E+01 a       150     0     5     1    30
  1.9935358321806913E+00 a       151     0     6     1     1
 -2.6254729807808350E+00 a       152     0     6     1     2
  4.4000758858161744E+00 a       153     0     6     1     3
 -2.2350761425429990E+01 a       154     0     6     1     4
 -6.1830879714574554E+00 a       155     0     6     1     5
 -5.0153010723373610E+00 a       156     0     6     1     6
  1.6099999123946411E+00 a       157     0     6     1     7
  2.1570008221645583E+01 a       158     0     6     1     8
  1.8057510806867256E+00 a       159     0     6     1     9
 -8.1386788350065462E+00 a       160     0     6     1    10
 -5.4124168109909983E+00 a       161     0     6     1    11
 -5.9880612879923492E+00 a       162     0     6     1    12
 -2.4471306964293884E+00 a       163     0     6     1    13
  5.8929959169730073E-01 a       164     0     6     1    14
  1.7219819132273670E+00 a       165     0     6     1    15
  9.7428802736747408E-02 a       166     0     6     1    16
 -6.1917676350866211E+00 a       167     0     6     1    17
 -1.2927962349384925E+00 a       168     0     6     1    18
 -4.9585163762025584E+00 a       169     0     6     1    19
 -1.0905040509014558E+01 a       170     0     6     1    20
 -8.4854538337724783E+00 a       171     0     6     1    21
 -5.0463871835417455E+00 a       172     0     6     1    22
  6.0312257456850249E-01 a       173     0     6     1    23
 -8.5652199988149427E+00 a       174     0     6     1    24
  6.0358845229462270E+00 a       175     0     6     1    25
  2.0362024349962686E+00 a       176     0     6     1    26
 -3.3267367364426454E+00 a       177     0     6     1    27
  3.4804042497367598E+00 a       178     0     6     1    28
 -3.5743355241434207E+00 a       179     0     6     1    29
 -2.0412685079162523E+00 a       180     0     6     1    30
 -2.6452078694895022E+01 a       181     0     7     1     1
 -1.1493164511697756E+01 a       182     0     7     1     2
  2.1377218795588188E+01 a       183     0     7     1     3
 -6.2907233106850747E+01 a       184     0     7     1     4
  1.0922700936607166E+01 a       185     0     7     1     5
 -2.8285729568363539E+01 a       186     0     7     1     6
  1.0542602871830510E+01 a       187     0     7     1     7
 -6.5217654501199034E+00 a       188     0     7     1     8
 -1.6763478493178493E+01 a       189     0     7     1     9
  1.0872558372774650E+01 a       190     0     7     1    10
 -2.7498169091029098E+01 a       191     0     7     1    11
 -2.1216996439509192E+01 a       192     0     7     1    12
  1.0897710941476003E+01 a       193     0     7     1    13
 -2.9601719038887197E+01 a       194     0     7     1    14
 -2.1427536936783763E+01 a       195     0     7     1    15
  2.9991597605619177E+01 a       196     0     7     1    16
 -1.4209929342195173E+00 a       197     0     7     1    17
  5.3523875365544082E+00 a       198     0     7     1    18
  3.7505611956414159E-01 a       199     0     7     1    19
  1.9458358846608796E+01 a       200     0     7     1    20
 -9.6035197615023371E+00 a       201     0     7     1    21
  4.3721043010550268E+01 a       202     0     7     1    22
  1.8155303146442552E+01 a       203     0     7     1    23
  3.9182044858656564E+00 a       204     0     7     1    24
  7.2030268441299686E-02 a       205     0     7     1    25
 -1.6220779481445617E+00 a       206     0     7     1    26
 -1.3647571535055201E+00 a       207     0     7     1    27
 -3.5458994592556459E+00 a       208     0     7     1    28
  1.1357558121260155E+01 a       209     0     7     1    29
  1.5197129588016857E+01 a       210     0     7     1    30
 -5.9386591265089370E+00 a       211     0     8     1     1
 -4.5234483187779500E+00 a       212     0     8     1     2
  1.0215282393220924E+01 a       213     0     8     1     3
 -2.8276800021010729E+01 a       214     0     8     1     4
 -1.4447567314712938E+01 a       215     0     8     1     5
 -1.2711984562479698E+01 a       216     0     8     1     6
  8.8289552241836837E+00 a       217     0     8     1     7
  3.3068762828817992E+00 a       218     0     8     1     8
  7.0269673916394275E+00 a       219     0     8     1     9
 -3.7788934532783656E+00 a       220     0     8     1    10
 -7.5427311529463763E+00 a       221     0     8     1    11
 -2.4775728885422637E+01 a       222     0     8     1    12
 -1.0305460166611424E+00 a       223     0     8     1    13
 -1.2323889666249022E+01 a       224     0     8     1    14
 -5.4691434723041332E-01 a       225     0     8     1    15
  7.8416630907305374E+00 a       226     0     8     1    16
 -6.7776707388421178E+00 a       227     0     8     1    17
  3.3964875458475325E+00 a       228     0     8     1    18
 -3.2411309314515533E+00 a       229     0     8     1    19
 -7.1056593767167593E+00 a       230     0     8     1    20
 -3.4075502400395261E+00 a       231     0     8     1    21
 -3.2393843494117969E-01 a       232     0     8     1    22
 -5.1461820949729127E+00 a       233     0     8     1    23
 -1.0894730730350908E+01 a       234     0     8     1    24
  5.9705595086138512E+00 a       235     0     8     1    25
 -6.9684302832086842E-01 a       236     0     8     1    26
 -9.2420457637978775E+00 a       237     0     8     1    27
  1.4274297248235056E+01 a       238     0     8     1    28
 -4.3802920414501151E-01 a       239     0     8     1    29
  2.5052699858034766E-02 a       240     0     8     1    30
  1.4002082339756386E+01 a       241     0     9     1     1
 -2.2154095127477809E+00 a       242     0     9     1     2
  6.7853951879354857E-01 a       243     0     9     1     3
  2.1038818610159172E+01 a       244     0     9     1     4
 -7.0175393755549376E+00 a       245     0     9     1     5
 -4.0731679711673445E+00 a       246     0     9     1     6
 -3.2583802822426051E+00 a       247     0     9     1     7
  1.8097833043632804E+01 a       248     0     9     1     8
  3.7920132885342639E+00 a       249     0     9     1     9
 -8.0683340253384781E+00 a       250     0     9     1    10
  5.1718123946632630E+00 a       251     0     9     1    11
 -3.0996266099693077E+00 a       252     0     9     1    12
 -3.1980720342131042E+00 a       253     0     9     1    13
  1.5433527153071354E+01 a       254     0     9     1    14
  1.1686748750651196E+01 a       255     0     9     1    15
 -8.0364135697299979E+00 a       256     0     9     1    16
  9.0587631348345887E+00 a       257     0     9     1    17
 -1.5232579984134718E+00 a       258     0     9     1    18
  3.1753438745641960E+00 a       259     0     9     1    19
 -7.1633454420610254E-01 a       260     0     9     1    20
 -3.8197636013602700E+00 a       261     0     9     1    21
 -8.5240520005541711E+00 a       262     0     9     1    22
 -6.1090393769357236E+00 a       263     0     9     1    23
  3.3455687012850235E+00 a       264     0     9     1    24
 -4.8924645247080338E+00 a       265     0     9     1    25
  4.9266729761304280E+00 a       266     0     9     1    26
 -3.3256018181164975E+00 a       267     0     9     1    27
  1.4208427600323184E+00 a       268     0     9     1    28
 -2.9964084420557495E+00 a       269     0     9     1    29
 -3.1251865901039091E+00 a       270     0     9     1    30
 -9.9355200244513819E-01 a       271     0    10     1     1
  3.4029370219582938E-01 a       272     0    10     1     2
  3.0065576262038821E-02 a       273     0    10     1     3
 -5.0924890987195137E-01 a       274     0    10     1     4
  6.3305276164265689E-01 a       275     0    10     1     5
  3.9425153736706886E-01 a       276     0    10     1     6
  1.3104215976376626E-02 a       277     0    10     1     7
 -2.0443279619907426E+00 a       278     0    10     1     8
 -2.1716544558224909E-01 a       279     0    10     1     9
  7.3412495627891261E-01 a       280     0    10     1    10
  3.4638478924151637E-02 a       281     0    10     1    11
  2.1526273923228226E-01 a       282     0    10     1    12
 -2.3356825313336407E-01 a       283     0    10     1    13
 -1.5434048797147617E+00 a       284     0    10     1    14
 -1.2154555917000014E+00 a       285     0    10     1    15
  5.9040191848195811E-01 a       286     0    10     1    16
 -1.1982850577022064E+00 a       287     0    10     1    17
  2.7460657167232783E-01 a       288     0    10     1    18
 -4.6205284166915794E-01 a       289     0    10     1    19
  4.6062457322302514E-03 a       290     0    10     1    20
 -1.6079942702253439E-01 a       291     0    10     1    21
  3.4783793412703373E-01 a       292     0    10     1    22
 -3.9537610296633940E-01 a       293     0    10     1    23
 -7.0457360880316466E-01 a       294     0    10     1    24
  3.5176550668206524E-01 a       295     0    10     1    25
 -4.4999515363245424E-01 a       296     0    10     1    26
  3.9539581612193658E-01 a       297     0    10     1    27
 -2.7286208318633287E-01 a       298     0    10     1    28
  4.0668886820417340E-02 a       299     0    10     1    29
  4.2836528231253654E-02 a       300     0    10     1    30
 -3.0674833364788245E+00 a       301     0    11     1     1
 -9.9004742723758845E+00 a       302     0    11     1     2
  1.9733495736801206E+01 a       303     0    11     1     3
 -1.6588857448964497E+01 a       304     0    11     1     4
 -1.0184573329107675E+01 a       305     0    11     1     5
 -2.5062063870616843E+01 a       306     0    11     1     6
  3.5333655389613905E+00 a       307     0    11     1     7
  9.6211498011823124E+00 a       308     0    11     1     8
  4.6201522988011163E+00 a       309     0    11     1     9
 -2.6972159701900661E-01 a       310     0    11     1    10
 -2.2541712222250418E+00 a       311     0    11     1    11
 -2.8292311548399741E+01 a       312     0    11     1    12
 -8.9908011546704962E+00 a       313     0    11     1    13
 -1.2689436217331160E+01 a       314     0    11     1    14
 -4.2787002892613524E+00 a       315     0    11     1    15
  1.4113305229423437E+01 a       316     0    11     1    16
 -5.1731295715536865E+00 a       317     0    11     1    17
  5.5200646941083349E+00 a       318     0    11     1    18
 -1.0381925105497238E+00 a       319     0    11     1    19
  7.2655503174375422E+00 a       320     0    11     1    20
 -1.9032317615447409E+00 a       321     0    11     1    21
  5.0139952413643325E+00 a       322     0    11     1    22
 -5.5234866362209916E+00 a       323     0    11     1    23
 -1.1309859841291320E+01 a       324     0    11     1    24
 -2.2310225967442334E+00 a       325     0    11     1    25
  3.4882710212677939E+00 a       326     0    11     1    26
 -8.3845699959004616E+00 a       327     0    11     1    27
  6.5293316152274530E+00 a       328     0    11     1    28
 -4.1286630257629158E+00 a       329     0    11     1    29
  4.6084848181510774E-01 a       330     0    11     1    30
 -2.7323217836122327E+00 a       331     0    12     1     1
 -6.9950204823244926E+00 a       332     0    12     1     2
  1.8069216441231280E+01 a       333     0    12     1     3
  1.1679383889608060E+01 a       334     0    12     1     4
 -8.3764688090677841E-01 a       335     0    12     1     5
 -1.6184458502803214E+01 a       336     0    12     1     6
 -3.1357273382971482E+00 a       337     0    12     1     7
 -2.6010687593294173E+00 a       338     0    12     1     8
  3.4265280162747249E+00 a       339     0    12     1     9
  6.8728640285718379E-01 a       340     0    12     1    10
  1.1381080099956396E+01 a       341     0    12     1    11
 -1.7953209647571722E+01 a       342     0    12     1    12
 -1.4378756964926906E+01 a       343     0    12     1    13
 -1.2257612968965178E+01 a       344     0    12     1    14
 -7.7125239872747020E+00 a       345     0    12     1    15
  8.3914330797070456E+00 a       346     0    12     1    16
 -6.4308043203240439E+00 a       347     0    12     1    17
  5.7827792800097511E+00 a       348     0    12     1    18
  1.9729977581482911E+00 a       349     0    12     1    19
  9.4950411237106884E+00 a       350     0    12     1    20
  4.2433915312624526E+00 a       351     0    12     1    21
  4.8625649677689320E-01 a       352     0    12     1    22
 -1.1833103355517286E+01 a       353     0    12     1    23
 -1.2458438723055307E+01 a       354     0    12     1    24
 -1.4630027378302035E+00 a       355     0    12     1    25
  1.7713058827950858E+00 a       356     0    12     1    26
 -5.1878892581483793E+00 a       357     0    12     1    27
  4.6658386679315766E+00 a       358     0    12     1    28
 -5.7993639175034613E+00 a       359     0    12     1    29
 -9.3305977109758564E-01 a       360     0    12     1    30
 -2.2924910947308668E+00 a       361     0    13     1     1
 -3.2871607666418251E-02 a       362     0    13     1     2
  2.2411356098730089E+00 a       363     0    13     1     3
  2.3897930485794303E+00 a       364     0    13     1     4
  1.5327534005177530E+00 a       365     0    13     1     5
 -5.4236943205038401E-01 a       366     0    13     1     6
 -1.1776679816911630E+00 a       367     0    13     1     7
 -5.2016435017519402E+00 a       368     0    13     1     8
  2.8371553832393542E-01 a       369     0    13     1     9
  2.0663532189895615E+00 a       370     0    13     1    10
  3.4086177640605446E+00 a       371     0    13     1    11
 -7.7336291726637596E-01 a       372     0    13     1    12
 -2.9611557925544187E+00 a       373     0    13     1    13
 -4.0527973591662896E+00 a       374     0    13     1    14
 -3.7780891822699951E+00 a       375     0    13     1    15
  1.6812930726812223E+00 a       376     0    13     1    16
 -2.9806910443799159E+00 a       377     0    13     1    17
  9.9894526675361039E-01 a       378     0    13     1    18
 -3.4549551819742491E-01 a       379     0    13     1    19
  1.2232996940866123E+00 a       380     0    13     1    20
  2.4514329842755305E+00 a       381     0    13     1    21
  9.7035224738944340E-02 a       382     0    13     1    22
 -1.3738354753136941E+00 a       383     0    13     1    23
 -3.3287544964538367E+00 a       384     0    13     1    24
  4.7908793896993573E-01 a       385     0    13     1    25
 -5.4407035943013604E-01 a       386     0    13     1    26
  3.1533583279920085E-01 a       387     0    13     1    27
 -8.2923235901380565E-02 a       388     0    13     1    28
 -1.5387990859836065E+00 a       389     0    13     1    29
 -3.7260983784633869E-02 a       390     0    13     1    30
 -2.0634027304168345E-01 a       391     0    14     1     1
  1.1919995480330169E-01 a       392     0    14     1     2
  5.5836681720000236E-03 a       393     0    14     1     3
  8.2697720732796947E-03 a       394     0    14     1     4
  3.2175685206931487E-01 a       395     0    14     1     5
  3.7608973027997189E-01 a       396     0    14     1     6
  6.2139458512892674E-02 a       397     0    14     1     7
 -5.8236855777161278E-01 a       398     0    14     1     8
  9.8173678303356635E-03 a       399     0    14     1     9
  2.1155436797763474E-01 a       400     0    14     1    10
  7.4538086442919399E-02 a       401     0    14     1    11
  1.4866358672651564E-01 a       402     0    14     1    12
 -8.2895849641264688E-03 a       403     0    14     1    13
 -3.7437605061809154E-01 a       404     0    14     1    14
 -3.5330414151401984E-01 a       405     0    14     1    15
  2.3058423716953321E-02 a       406     0    14     1    16
 -2.2099420041223244E-01 a       407     0    14     1    17
  2.6102680039462295E-01 a       408     0    14     1    18
  6.1397263379390200E-02 a       409     0    14     1    19
  2.0545891613249775E-01 a       410     0    14     1    20
  8.6747028043388008E-01 a       411     0    14     1    21
 -6.7478212127111470E-02 a       412     0    14     1    22
  6.2162751748624380E-02 a       413     0    14     1    23
 -3.0732493259823684E-01 a       414     0    14     1    24
  3.6650747231056560E-02 a       415     0    14     1    25
  8.2192482773169248E-02 a       416     0    14     1    26
  1.3823453198723409E-01 a       417     0    14     1    27
  6.8852099583620111E-02 a       418     0    14     1    28
  5.7305622178187967E-03 a       419     0    14     1    29
 -3.4336126785818918E-02 a       420     0    14     1    30
  9.3623497987510262E+00 a       421     0    15     1     1
 -5.8120587401594888E+00 a       422     0    15     1     2
  3.6948293999337075E+01 a       423     0    15     1     3
  1.0959423238921636E+01 a       424     0    15     1     4
 -8.1616195968327467E+00 a       425     0    15     1     5
  3.1800462352182546E+00 a       426     0    15     1     6
 -1.2759596102796474E+01 a       427     0    15     1     7
 -1.0499248109661838E+01 a       428     0    15     1     8
 -4.5482355791979616E+00 a       429     0    15     1     9
 -1.5352944979843899E+01 a       430     0    15     1    10
 -4.6923417386736901E+00 a       431     0    15     1    11
 -2.8487004270584276E+01 a       432     0    15     1    12
 -1.4437717859604708E+01 a       433     0    15     1    13
 -1.0450623762109519E+01 a       434     0    15     1    14
  1.2061300845729351E+01 a       435     0    15     1    15
 -1.1590684666681707E+01 a       436     0    15     1    16
  2.1648050204438043E+01 a       437     0    15     1    17
 -1.6518692952736117E+01 a       438     0    15     1    18
  6.8564980278246503E+00 a       439     0    15     1    19
 -1.8763374755079763E+01 a       440     0    15     1    20
  2.2574340967520094E+01 a       441     0    15     1    21
  5.7897850064046852E-01 a       442     0    15     1    22
 -6.7089582148694271E+00 a       443     0    15     1    23
  2.1264855630395903E+01 a       444     0    15     1    24
  1.3264270240469153E-01 a       445     0    15     1    25
  3.8893930353425624E+01 a       446     0    15     1    26
  1.5011665224728725E+00 a       447     0    15     1    27
 -2.1837102820456309E+01 a       448     0    15     1    28
  1.4541101649455859E+00 a       449     0    15     1    29
  1.0047166158672063E+01 a       450     0    15     1    30
  8.9947190284568759E+00 a       451     0    16     1     1
  1.3081920993553098E+00 a       452     0    16     1     2
 -3.7068313345125425E+01 a       453     0    16     1     3
 -2.0384830376955357E+01 a       454     0    16     1     4
 -1.3249282337431987E+01 a       455     0    16     1     5
  2.9689175411006232E+01 a       456     0    16     1     6
 -7.7495454941252122E+00 a       457     0    16     1     7
 -1.2922006155778131E+01 a       458     0    16     1     8
  2.8914314556435880E+01 a       459     0    16     1     9
  5.8012008159244237E+00 a       460     0    16     1    10
  9.1979624720888942E-01 a       461     0    16     1    11
 -1.2510024716164660E+01 a       462     0    16     1    12
  3.6733410545518886E+01 a       463     0    16     1    13
  8.2091804671763633E+00 a       464     0    16     1    14
 -1.2676237179790091E+01 a       465     0    16     1    15
 -1.4672961078938936E+01 a       466     0    16     1    16
 -1.2053789833671257E+01 a       467     0    16     1    17
  3.2412758758226001E+00 a       468     0    16     1    18
 -2.0992334347084185E+01 a       469     0    16     1    19
  1.0280858939512582E+01 a       470     0    16     1    20
  1.0117938239272769E+01 a       471     0    16     1    21
  5.9723129677585378E+00 a       472     0    16     1    22
 -1.8737917577418060E+01 a       473     0    16     1    23
  1.1713889832656792E+01 a       474     0    16     1    24
 -2.1810007611033213E+00 a       475     0    16     1    25
  7.3238518845721803E+00 a       476     0    16     1    26
 -7.6496006858184602E+00 a       477     0    16     1    27
 -1.3716319290822639E+01 a       478     0    16     1    28
 -9.2408499645165687E+00 a       479     0    16     1    29
  7.8369554169034297E+00 a       480     0    16     1    30
  5.7895226733232903E+00 a       481     0    17     1     1
 -2.8045038614443282E+01 a       482     0    17     1     2
 -4.2288560741851793E+00 a       483     0    17     1     3
  2.3960837033591293E+01 a       484     0    17     1     4
  1.6830973931643552E+01 a       485     0    17     1     5
 -3.2641187044441278E+00 a       486     0    17     1     6
 -5.9641104672096379E+00 a       487     0    17     1     7
  8.4220436754268047E+00 a       488     0    17     1     8
  1.2069877003669729E+00 a       489     0    17     1     9
 -9.5657599779028644E+00 a       490     0    17     1    10
  6.4314333589389570E+00 a       491     0    17     1    11
 -1.9426379661718460E+01 a       492     0    17     1    12
 -3.6577692272582736E+00 a       493     0    17     1    13
  5.8792492403281296E+00 a       494     0    17     1    14
 -1.4880878390208970E+01 a       495     0    17     1    15
  1.4870403287196501E+01 a       496     0    17     1    16
  9.0333275395799745E-02 a       497     0    17     1    17
  6.8364246995138389E+00 a       498     0    17     1    18
  9.6037428901335140E+00 a       499     0    17     1    19
  2.3748935122763804E+01 a       500     0    17     1    20
 -8.2262394574224569E+00 a       501     0    17     1    21
  1.1692111344427943E+01 a       502     0    17     1    22
 -5.6919553774218201E+00 a       503     0    17     1    23
  3.8169649780239352E+00 a       504     0    17     1    24
  1.4838952477520488E+01 a       505     0    17     1    25
 -3.3100125214414966E+00 a       506     0    17     1    26
  4.1702681249682003E+00 a       507     0    17     1    27
 -9.8906571866083244E+00 a       508     0    17     1    28
  2.6310935898848781E-01 a       509     0    17     1    29
  9.8373764446444749E+00 a       510     0    17     1    30
 -3.7171095952475547E+01 a       511     0    18     1     1
 -1.8099528988042735E-01 a       512     0    18     1     2
 -1.7623765868172345E+01 a       513     0    18     1     3
  1.4826445008084541E+01 a       514     0    18     1     4
  1.4182068698112902E+01 a       515     0    18     1     5
  1.0076467486948749E+01 a       516     0    18     1     6
 -1.2855154497030563E+00 a       517     0    18     1     7
 -2.0888676592973972E+01 a       518     0    18     1     8
 -4.3959920282839413E+01 a       519     0    18     1     9
  1.0646220261063164E+00 a       520     0    18     1    10
  1.7153204862045317E+01 a       521     0    18     1    11
  3.1009678160350762E-01 a       522     0    18     1    12
  2.5393472555209289E+01 a       523     0    18     1    13
  1.8690047463771531E+01 a       524     0    18     1    14
  4.7053903519946644E+01 a       525     0    18     1    15
  6.3700153669130346E+00 a       526     0    18     1    16
  2.8749091448907286E+01 a       527     0    18     1    17
 -2.6880926791996199E+01 a       528     0    18     1    18
  2.1021170462884701E+01 a       529     0    18     1    19
 -2.6271363110504645E+01 a       530     0    18     1    20
  1.1180060789313606E+01 a       531     0    18     1    21
  1.3301045136268824E+01 a       532     0    18     1    22
 -2.8954466343570529E+00 a       533     0    18     1    23
  9.8359006584733493E+00 a       534     0    18     1    24
  1.1899233479738220E+01 a       535     0    18     1    25
  7.1380346189239718E+00 a       536     0    18     1    26
  9.8957876170201953E+00 a       537     0    18     1    27
  4.5345244418738320E+00 a       538     0    18     1    28
 -7.9417250037746951E+00 a       539     0    18     1    29
  3.0917208652541369E+01 a       540     0    18     1    30
  5.8564885663839048E+00 a       541     0    19     1     1
  3.8907254610404318E+00 a       542     0    19     1     2
 -3.7357042151071113E-01 a       543     0    19     1     3
  2.1230080845966235E+01 a       544     0    19     1     4
 -1.0131923744390798E+01 a       545     0    19     1     5
  3.2784275843421331E+00 a       546     0    19     1     6
 -2.1425896563489417E+01 a       547     0    19     1     7
 -2.0372616833917206E-01 a       548     0    19     1     8
 -1.4904140549697826E+00 a       549     0    19     1     9
 -1.1303175166072544E+01 a       550     0    19     1    10
  4.0833472931107373E+00 a       551     0    19     1    11
  3.0523831085475659E+00 a       552     0    19     1    12
  1.1492641498187034E+01 a       553     0    19     1    13
  4.6976328211691181E+00 a       554     0    19     1    14
  1.3560106223598936E+01 a       555     0    19     1    15
  1.1921229425439105E+01 a       556     0    19     1    16
 -9.5600838796931136E+00 a       557     0    19     1    17
  9.3073634067522948E-02 a       558     0    19     1    18
 -2.7451858434691880E+00 a       559     0    19     1    19
 -6.7181856973057350E+00 a       560     0    19     1    20
  2.4686785794853474E+00 a       561     0    19     1    21
 -4.2075392945804380E+00 a       562     0    19     1    22
 -2.1796343907504556E+00 a       563     0    19     1    23
  1.9898611141166288E+01 a       564     0    19     1    24
  6.1339242960563398E+00 a       565     0    19     1    25
 -2.1651126630546116E+01 a       566     0    19     1    26
  1.8652047366653792E+00 a       567     0    19     1    27
  1.0988063381511848E+01 a       568     0    19     1    28
 -4.7757893517515698E-01 a       569     0    19     1    29
  3.7523294367784397E+00 a       570     0    19     1    30
 -1.6633932247090613E+01 a       571     0    20     1     1
  1.6504843004185965E+01 a       572     0    20     1     2
  4.8509670683645467E+00 a       573     0    20     1     3
 -9.1777383290456416E-01 a       574     0    20     1     4
  8.2039669020333612E+00 a       575     0    20     1     5
 -9.4071294276364725E-01 a       576     0    20     1     6
 -1.8025105273660017E+01 a       577     0    20     1     7
  9.2091861649113671E-01 a       578     0    20     1     8
  1.8055368433688894E+01 a       579     0    20     1     9
 -1.3729672850064439E+01 a       580     0    20     1    10
 -1.3845669775622053E+01 a       581     0    20     1    11
  1.5570541949879420E+01 a       582     0    20     1    12
 -6.0916516765500779E+00 a       583     0    20     1    13
 -3.1957102740517489E+00 a       584     0    20     1    14
  8.0925299215619031E+00 a       585     0    20     1    15
 -6.3674074958592533E+00 a       586     0    20     1    16
 -4.4062053873230256E-01 a       587     0    20     1    17
 -1.7641776068450419E+00 a       588     0    20     1    18
 -1.2429384297287074E+01 a       589     0    20     1    19
 -5.0551093116372805E+01 a       590     0    20     1    20
 -7.6813846927369411E+00 a       591     0    20     1    21
 -2.6178081262103852E+01 a       592     0    20     1    22
  7.8975262144056679E-01 a       593     0    20     1    23
 -3.2196420866421349E+01 a       594     0    20     1    24
 -3.6066939690784601E+01 a       595     0    20     1    25
 -1.0954841882935506E+01 a       596     0    20     1    26
  5.7257087906801365E+00 a       597     0    20     1    27
 -1.0780792424223762E+01 a       598     0    20     1    28
  7.0238916709814712E+00 a       599     0    20     1    29
 -2.0326872742858356E+01 a       600     0    20     1    30
 -7.5163570346699373E+00 a       601     0    21     1     1
  6.0807842878384291E+00 a       602     0    21     1     2
 -1.8316069939171896E+01 a       603     0    21     1     3
 -2.9947204251343443E+01 a       604     0    21     1     4
  1.5743660471464150E+01 a       605     0    21     1     5
 -5.3471641594163097E+00 a       606     0    21     1     6
  1.9552758554223196E+01 a       607     0    21     1     7
  1.2789352730482397E+01 a       608     0    21     1     8
 -1.4383543869755464E+00 a       609     0    21     1     9
  2.0930491779667701E+01 a       610     0    21     1    10
  6.9425382382115410E+00 a       611     0    21     1    11
  4.0255922305970351E+01 a       612     0    21     1    12
 -1.2025468442461346E+01 a       613     0    21     1    13
 -1.0263862824399763E+00 a       614     0    21     1    14
 -2.1802412754126411E+01 a       615     0    21     1    15
  1.5725070116566481E+01 a       616     0    21     1    16
 -2.1269793127677503E+00 a       617     0    21     1    17
  1.6311008969173582E+01 a       618     0    21     1    18
  5.0343376697112312E+00 a       619     0    21     1    19
  8.4270651030784478E+00 a       620     0    21     1    20
 -1.5238046668232675E+01 a       621     0    21     1    21
 -6.9543026544823068E+00 a       622     0    21     1    22
  9.5108787874110163E+00 a       623     0    21     1    23
 -2.7178130414871589E+01 a       624     0    21     1    24
 -1.1112165327530354E+01 a       625     0    21     1    25
 -3.7504546295847277E+01 a       626     0    21     1    26
 -2.5866085570444164E+00 a       627     0    21     1    27
  6.6938617313402142E+00 a       628     0    21     1    28
  7.0397815633911864E-01 a       629     0    21     1    29
 -1.2864404375998221E+01 a       630     0    21     1    30
  8.8431002876086424E+00 a       631     0    22     1     1
 -7.3039426398355696E+00 a       632     0    22     1     2
  5.8844223027883125E-01 a       633     0    22     1     3
 -1.6356039978341162E+01 a       634     0    22     1     4
  1.6476945293432614E+01 a       635     0    22     1     5
 -1.5931296033937551E+01 a       636     0    22     1     6
  2.1953871530741086E+01 a       637     0    22     1     7
  1.7715450134244634E+01 a       638     0    22     1     8
 -2.3823227524500385E+00 a       639     0    22     1     9
  4.2655219747599880E+00 a       640     0    22     1    10
  7.0445370292806175E-01 a       641     0    22     1    11
  1.5919552061347748E+01 a       642     0    22     1    12
 -3.7063134356687564E+00 a       643     0    22     1    13
 -1.4336674102803078E+01 a       644     0    22     1    14
 -3.3950233892222720E+01 a       645     0    22     1    15
 -4.0735791900254714E+00 a       646     0    22     1    16
 -2.3362410129706305E+01 a       647     0    22     1    17
  8.4970465674318074E+00 a       648     0    22     1    18
 -7.8194206586617812E+00 a       649     0    22     1    19
  1.8326114310566542E+01 a       650     0    22     1    20
 -1.0010861080634387E+01 a       651     0    22     1    21
  8.1142177064186960E+00 a       652     0    22     1    22
  6.1829283742943373E+00 a       653     0    22     1    23
 -7.6557950084251036E+00 a       654     0    22     1    24
 -4.0690963064698229E+00 a       655     0    22     1    25
 -2.2069226912137641E+01 a       656     0    22     1    26
  1.4218008760005926E+01 a       657     0    22     1    27
  7.6560038146221459E+00 a       658     0    22     1    28
  7.8941151599927553E+00 a       659     0    22     1    29
 -2.6980030776999570E+01 a       660     0    22     1    30
 -2.3658379696114245E+01 a       661     0    23     1     1
  2.7604275938911215E+01 a       662     0    23     1     2
 -2.2808696976411267E+00 a       663     0    23     1     3
 -4.3033282363794278E+01 a       664     0    23     1     4
 -7.7052852013060678E+00 a       665     0    23     1     5
  5.6005131095029697E+00 a       666     0    23     1     6
  2.3535291185265194E+01 a       667     0    23     1     7
  1.8147391992935183E-01 a       668     0    23     1     8
  1.2515294278846723E-01 a       669     0    23     1     9
  1.4219364313219717E+01 a       670     0    23     1    10
 -2.8843169969745941E+00 a       671     0    23     1    11
  3.0726100767262807E+01 a       672     0    23     1    12
  4.3997728976268098E+00 a       673     0    23     1    13
 -1.6917558347383115E+00 a       674     0    23     1    14
  1.7040437170961884E+01 a       675     0    23     1    15
 -1.8483847463837694E+01 a       676     0    23     1    16
 -3.3524923916574298E+00 a       677     0    23     1    17
 -5.7486714353293760E+00 a       678     0    23     1    18
 -1.0534607720556082E+01 a       679     0    23     1    19
 -1.9452419078620665E+01 a       680     0    23     1    20
  7.3350429635988084E+00 a       681     0    23     1    21
 -2.6293989811277498E+01 a       682     0    23     1    22
  3.2917589896568233E+00 a       683     0    23     1    23
 -1.7158849435028582E+01 a       684     0    23     1    24
 -1.5750680421933055E+01 a       685     0    23     1    25
  3.3377613525781444E+00 a       686     0    23     1    26
 -1.9857660528113460E+01 a       687     0    23     1    27
  3.2163727211617119E+00 a       688     0    23     1    28
  6.1142260115120339E-01 a       689     0    23     1    29
 -1.5458403474513418E+01 a       690     0    23     1    30
  3.2183610429726663E+01 a       691     0    24     1     1
 -2.5090656307377387E+01 a       692     0    24     1     2
  2.3534732738992975E+01 a       693     0    24     1     3
  4.6062023114994419E+00 a       694     0    24     1     4
  4.3741882604441162E+00 a       695     0    24     1     5
 -2.1308081648113177E+01 a       696     0    24     1     6
 -1.1201504405906504E+00 a       697     0    24     1     7
  1.7926329021531906E+01 a       698     0    24     1     8
  5.6651310363810978E+01 a       699     0    24     1     9
  1.0618348205515098E+01 a       700     0    24     1    10
  5.2063034517861659E+00 a       701     0    24     1    11
  1.6308581920239740E+00 a       702     0    24     1    12
 -2.1329100695366666E+01 a       703     0    24     1    13
 -2.8259792215306799E+01 a       704     0    24     1    14
 -2.2378083638082597E+01 a       705     0    24     1    15
  5.0537262000190317E+00 a       706     0    24     1    16
 -9.7798543791989854E+00 a       707     0    24     1    17
  1.0267587759404188E+01 a       708     0    24     1    18
 -2.2489812451292170E+00 a       709     0    24     1    19
  2.2115111960459320E+01 a       710     0    24     1    20
 -2.6585916559374856E+00 a       711     0    24     1    21
 -4.1904937991306596E+01 a       712     0    24     1    22
  9.6245937282887137E+00 a       713     0    24     1    23
  8.7796578918801256E+00 a       714     0    24     1    24
  3.0735154593628482E+00 a       715     0    24     1    25
 -1.2578535447388514E+01 a       716     0    24     1    26
 -2.0811364408793114E+01 a       717     0    24     1    27
  8.0172948157741235E+00 a       718     0    24     1    28
  3.5137803436728858E+00 a       719     0    24     1    29
 -4.7565506261382325E+01 a       720     0    24     1    30
 -1.4155816504224786E+01 a       721     0    25     1     1
 -6.0006723460762430E+00 a       722     0    25     1     2
  1.0638121770232645E+00 a       723     0    25     1     3
 -2.9075674185113126E+01 a       724     0    25     1     4
  2.1731872313728157E+01 a       725     0    25     1     5
 -4.7075880601115516E+00 a       726     0    25     1     6
  4.5732537098672474E+01 a       727     0    25     1     7
 -4.8958395736407452E+00 a       728     0    25     1     8
  3.7425673565682303E+00 a       729     0    25     1     9
  1.9211339071932148E+01 a       730     0    25     1    10
 -3.4129276484766544E+00 a       731     0    25     1    11
  7.6337416479527418E+00 a       732     0    25     1    12
 -1.9728142145320010E+01 a       733     0    25     1    13
 -4.5818767949022918E+00 a       734     0    25     1    14
 -3.2465028069149731E+01 a       735     0    25     1    15
 -1.4694603636649036E+01 a       736     0    25     1    16
  1.9198493537587673E+01 a       737     0    25     1    17
 -1.2790229547940401E+01 a       738     0    25     1    18
  4.8909874246149467E+00 a       739     0    25     1    19
  1.1358250129799922E+01 a       740     0    25     1    20
 -1.5918507804548570E+01 a       741     0    25     1    21
  8.8805627282546808E+00 a       742     0    25     1    22
  3.0740457408751030E+00 a       743     0    25     1    23
 -3.5241842243752586E+01 a       744     0    25     1    24
 -9.3680680319136354E+00 a       745     0    25     1    25
  3.9067155540432893E+01 a       746     0    25     1    26
 -6.6678180301588768E+00 a       747     0    25     1    27
 -1.3630940377443439E+01 a       748     0    25     1    28
  2.8098176768740029E+00 a       749     0    25     1    29
 -1.0910350634318002E+01 a       750     0    25     1    30
  3.4676655449949841E+01 a       751     0    26     1     1
 -1.4942436744047800E+01 a       752     0    26     1     2
  2.5452130800142778E+00 a       753     0    26     1     3
 -2.6971835201804972E-02 a       754     0    26     1     4
  2.4653348426013260E+00 a       755     0    26     1     5
  5.3583896183472546E-01 a       756     0    26     1     6
  3.9778851558704972E+01 a       757     0    26     1     7
 -1.1904690271785421E+01 a       758     0    26     1     8
 -3.4574129521106421E+01 a       759     0    26     1     9
 -9.4342404488569684E+00 a       760     0    26     1    10
  1.1380866532946410E+01 a       761     0    26     1    11
 -1.6951271603134703E+01 a       762     0    26     1    12
 -2.9153570498189540E+00 a       763     0    26     1    13
 -1.7937794138864053E+01 a       764     0    26     1    14
 -2.7434729889850573E+01 a       765     0    26     1    15
 -1.9578107901678259E+00 a       766     0    26     1    16
 -1.0486658628001324E+01 a       767     0    26     1    17
  9.7893383379928167E+00 a       768     0    26     1    18
  1.4146619136443828E+01 a       769     0    26     1    19
  5.8578024036121960E+01 a       770     0    26     1    20
  3.3369788447845070E+00 a       771     0    26     1    21
  5.2080930690870005E+01 a       772     0    26     1    22
 -3.8090655926428796E-01 a       773     0    26     1    23
  5.3460247079511696E+01 a       774     0    26     1    24
  5.9678886269350393E+01 a       775     0    26     1    25
 -7.1101429666615052E+00 a       776     0    26     1    26
 -1.4778925357625699E+01 a       777     0    26     1    27
  2.9077458854889535E+01 a       778     0    26     1    28
  1.9257048639798282E+00 a       779     0    26     1    29
  3.7442665752502300E+01 a       780     0    26     1    30
 -9.6257864675421647E+00 a       781     0    27     1     1
  1.3156717891124853E+01 a       782     0    27     1     2
 -1.6704879925169507E+01 a       783     0    27     1     3
  6.6302077233287662E+00 a       784     0    27     1     4
 -1.2229199353322825E+01 a       785     0    27     1     5
 -7.3171931268096992E+00 a       786     0    27     1     6
 -1.5827101825193122E+01 a       787     0    27     1     7
  2.0451310601139582E+01 a       788     0    27     1     8
  1.1984208152990185E+01 a       789     0    27     1     9
  3.9547039756943264E-01 a       790     0    27     1    10
 -2.2876349510698653E+00 a       791     0    27     1    11
  1.2075191867845973E+01 a       792     0    27     1    12
  1.1028808594914427E+01 a       793     0    27     1    13
  2.1555435619098684E+01 a       794     0    27     1    14
  1.0862842822885591E+01 a       795     0    27     1    15
  1.9285765576920731E+01 a       796     0    27     1    16
 -1.4008494767960217E+01 a       797     0    27     1    17
  1.5174195457566045E+01 a       798     0    27     1    18
 -5.8552080374671944E-01 a       799     0    27     1    19
  7.4339030291037353E+00 a       800     0    27     1    20
 -2.3402429956883626E+01 a       801     0    27     1    21
 -8.0017241436693727E+00 a       802     0    27     1    22
 -2.8767932684083695E+00 a       803     0    27     1    23
 -5.9336087453379296E+00 a       804     0    27     1    24
  1.1805268916116649E+01 a       805     0    27     1    25
 -1.6938915346067930E+01 a       806     0    27     1    26
 -5.6691154439491989E+00 a       807     0    27     1    27
  1.0262612299648826E+01 a       808     0    27     1    28
 -1.9487889159008753E+00 a       809     0    27     1    29
  3.3048899124792959E+00 a       810     0    27     1    30
 -1.8765194329940968E+01 a       811     0    28     1     1
  2.4173958998843691E+01 a       812     0    28     1     2
  2.9364116580917759E+01 a       813     0    28     1     3
  2.6288506593499278E+01 a       814     0    28     1     4
  1.0964644320362877E+00 a       815     0    28     1     5
 -2.1431305123492219E+01 a       816     0    28     1     6
 -1.7451415051361210E-01 a       817     0    28     1     7
  1.9526968865709815E+01 a       818     0    28     1     8
 -6.1386150380427964E+01 a       819     0    28     1     9
 -2.9263825573928251E+01 a       820     0    28     1    10
 -1.2989281257704208E+01 a       821     0    28     1    11
 -7.4392269006175793E+00 a       822     0    28     1    12
 -1.9457021569327789E+01 a       823     0    28     1    13
  1.4145371439969916E+01 a       824     0    28     1    14
  3.5285386995334072E+01 a       825     0    28     1    15
  2.0110508901221764E+00 a       826     0    28     1    16
 -1.0883932777782180E+01 a       827     0    28     1    17
 -1.3645033765809677E+01 a       828     0    28     1    18
  1.4142720822083795E+01 a       829     0    28     1    19
 -2.4344300685532502E+01 a       830     0    28     1    20
  9.5383609491593080E-02 a       831     0    28     1    21
  4.6728874399319729E+00 a       832     0    28     1    22
  1.0483363515535229E+01 a       833     0    28     1    23
 -3.1605277401561505E+01 a       834     0    28     1    24
 -9.0151953908212299E+00 a       835     0    28     1    25
  3.2623803049206432E+00 a       836     0    28     1    26
  1.9482100131002323E+01 a       837     0    28     1    27
 -7.7443917360045402E+00 a       838     0    28     1    28
  1.7048005664593973E+01 a       839     0    28     1    29
  2.5042639878109572E+01 a       840     0    28     1    30
  3.0140285210404606E+01 a       841     0    29     1     1
  1.5598760346781605E+01 a       842     0    29     1     2
  9.7206084112431643E+00 a       843     0    29     1     3
  1.8039386376145064E+01 a       844     0    29     1     4
 -3.4415977214293207E+01 a       845     0    29     1     5
  6.3923673791303965E+00 a       846     0    29     1     6
 -3.6006442064730003E+01 a       847     0    29     1     7
 -1.6902224704773996E+01 a       848     0    29     1     8
 -1.8604123784968145E+00 a       849     0    29     1     9
 -1.5631202478017769E+00 a       850     0    29     1    10
 -1.8062609517518098E+01 a       851     0    29     1    11
 -9.5605821858067479E+00 a       852     0    29     1    12
  3.7105577473996618E+00 a       853     0    29     1    13
 -6.3631940677602010E+00 a       854     0    29     1    14
  2.5013743798419032E+01 a       855     0    29     1    15
 -7.1309442240344190E+00 a       856     0    29     1    16
 -3.4714849321652745E+00 a       857     0    29     1    17
 -5.0295105533572917E+00 a       858     0    29     1    18
 -9.4714630623640286E+00 a       859     0    29     1    19
 -1.3403435922007443E+01 a       860     0    29     1    20
  1.2859563402393530E+01 a       861     0    29     1    21
  2.5759533006433163E+01 a       862     0    29     1    22
  7.8360071256396644E+00 a       863     0    29     1    23
  3.0588978524230715E+01 a       864     0    29     1    24
 -4.3742221666243815E+00 a       865     0    29     1    25
 -6.2976478505648004E+00 a       866     0    29     1    26
  3.1891373451626347E+01 a       867     0    29     1    27
  1.8558266540563590E+01 a       868     0    29     1    28
 -5.6373540836839275E+00 a       869     0    29     1    29
  6.0534850063174206E+00 a       870     0    29     1    30
  1.0306896818270715E+01 a       871     0    30     1     1
  3.4153533454747937E+00 a       872     0    30     1     2
  2.7112828019430971E+01 a       873     0    30     1     3
 -6.6020517456574481E+00 a       874     0    30     1     4
 -2.3738015417273736E+01 a       875     0    30     1     5
 -1.6632560316964902E+01 a       876     0    30     1     6
 -1.7784674153020553E+01 a       877     0    30     1     7
  2.2432962477081997E+01 a       878     0    30     1     8
 -6.0032644851644061E+00 a       879     0    30     1     9
  2.7870171861118509E-01 a       880     0    30     1    10
 -2.6341168047764377E+01 a       881     0    30     1    11
  9.7375449514080548E-01 a       882     0    30     1    12
 -3.3872088960943366E+01 a       883     0    30     1    13
 -1.4107393342961896E+00 a       884     0    30     1    14
 -7.2473731586875818E+00 a       885     0    30     1    15
  1.4524918539788647E+01 a       886     0    30     1    16
 -1.1388552963384258E+01 a       887     0    30     1    17
  2.9267682704194524E+01 a       888     0    30     1    18
 -1.3220737550645316E+01 a       889     0    30     1    19
  5.6617649149854694E+00 a       890     0    30     1    20
 -1.1940944391500754E+01 a       891     0    30     1    21
  2.3386538839713523E+01 a       892     0    30     1    22
  6.0391227440107107E+00 a       893     0    30     1    23
 -4.0252460069411782E+01 a       894     0    30     1    24
 -3.8200477370830200E+01 a       895     0    30     1    25
  1.0879903391765383E+01 a       896     0    30     1    26
 -4.9559873329864851E-01 a       897     0    30     1    27
 -1.7618371334686586E+01 a       898     0    30     1    28
  4.3662179353149853E+00 a       899     0    30     1    29
  2.2717302529183971E+01 a       900     0    30     1    30
  1.4305049726478467E+01 a       901     0    31     1     1
 -3.2556116754811737E+00 a       902     0    31     1     2
  1.6088357888661295E+00 a       903     0    31     1     3
 -5.4947163382437414E-01 a       904     0    31     1     4
 -1.1505864302526165E+01 a       905     0    31     1     5
 -6.8198757714303069E+00 a       906     0    31     1     6
 -2.1506655183895496E+01 a       907     0    31     1     7
  1.0172833991146721E+01 a       908     0    31     1     8
 -4.1236731353414635E+00 a       909     0    31     1     9
  2.3085399066277628E+00 a       910     0    31     1    10
 -1.2549090632190753E+01 a       911     0    31     1    11
 -1.9894733315200419E+01 a       912     0    31     1    12
  1.8506243750801159E+00 a       913     0    31     1    13
 -7.8068007839910214E+00 a       914     0    31     1    14
  2.2117063422304206E+01 a       915     0    31     1    15
 -1.3025307598607309E+01 a       916     0    31     1    16
 -2.6564833353136366E+00 a       917     0    31     1    17
  2.0103371893554154E+01 a       918     0    31     1    18
 -2.8549781422937919E+00 a       919     0    31     1    19
 -2.4935744606395329E+00 a       920     0    31     1    20
  8.4061937936431761E+00 a       921     0    31     1    21
 -3.7053002677782381E+00 a       922     0    31     1    22
  1.6865588574280853E+01 a       923     0    31     1    23
  1.5294013354255687E+00 a       924     0    31     1    24
 -8.0959129048105698E+00 a       925     0    31     1    25
 -1.1046975077283346E+01 a       926     0    31     1    26
  9.3831036732905346E+00 a       927     0    31     1    27
 -9.2855506318132957E+00 a       928     0    31     1    28
 -4.1130537028040166E+00 a       929     0    31     1    29
  1.1314045653975295E+01 a       930     0    31     1    30
 -2.3256549788035798E+01 a       931     0    32     1     1
  2.5632325184395230E+00 a       932     0    32     1     2
 -1.7665111855807023E+01 a       933     0    32     1     3
  2.4853127198597318E+00 a       934     0    32     1     4
 -3.7523970828842828E+01 a       935     0    32     1     5
  8.4136511471754272E+00 a       936     0    32     1     6
 -2.3451770734995513E+01 a       937     0    32     1     7
  9.1594002237304899E+00 a       938     0    32     1     8
  1.9779095512083291E+01 a       939     0    32     1     9
  3.2171462962991704E+01 a       940     0    32     1    10
 -2.3580825161075545E+00 a       941     0    32     1    11
 -9.7540337656302079E+00 a       942     0    32     1    12
  1.0435862706831704E+01 a       943     0    32     1    13
  3.3429403607332802E+01 a       944     0    32     1    14
  1.3384544517545132E+01 a       945     0    32     1    15
  1.0202480563190790E+01 a       946     0    32     1    16
  2.0162628278423043E+01 a       947     0    32     1    17
 -3.5011266709939628E+00 a       948     0    32     1    18
  1.4088616684233282E+01 a       949     0    32     1    19
  4.6577791103869863E+00 a       950     0    32     1    20
  8.1208259717965579E+00 a       951     0    32     1    21
 -3.0122144999937330E+01 a       952     0    32     1    22
 -6.7283034666929398E-01 a       953     0    32     1    23
 -2.7325232977544960E+01 a       954     0    32     1    24
 -1.2662431856808185E+01 a       955     0    32     1    25
  3.5197827807938509E+01 a       956     0    32     1    26
  1.1660372548629748E+01 a       957     0    32     1    27
 -1.9786386252342332E+01 a       958     0    32     1    28
 -1.3950640873606888E+01 a       959     0    32     1    29
 -2.4613093890493523E+01 a       960     0    32     1    30
  8.5001728451517806E+00 a       961     0    33     1     1
 -2.3014116032236501E+01 a       962     0    33     1     2
  2.5565888986304111E+00 a       963     0    33     1     3
  6.4574286121252369E+00 a       964     0    33     1     4
 -1.0160121309023696E+01 a       965     0    33     1     5
 -2.1048978148327310E-01 a       966     0    33     1     6
  1.2910101058591479E+01 a       967     0    33     1     7
 -2.0406763683119834E+01 a       968     0    33     1     8
  9.4561982573804060E-01 a       969     0    33     1     9
  2.5970248388581654E+00 a       970     0    33     1    10
  6.4233073224052992E+00 a       971     0    33     1    11
 -3.0292185144795965E+01 a       972     0    33     1    12
  2.1550649234293093E+01 a       973     0    33     1    13
 -2.7339392096206311E+01 a       974     0    33     1    14
 -4.7242672950191675E+00 a       975     0    33     1    15
 -1.8338828487434661E+01 a       976     0    33     1    16
  6.8591182109101467E+00 a       977     0    33     1    17
 -8.6680883528758095E+00 a       978     0    33     1    18
 -1.5009699419042324E+01 a       979     0    33     1    19
  1.8522135513545599E+01 a       980     0    33     1    20
 -8.7983102445385253E+00 a       981     0    33     1    21
  4.1027721085921378E+01 a       982     0    33     1    22
 -1.7958255982693057E+01 a       983     0    33     1    23
  3.6714331221287360E+01 a       984     0    33     1    24
  3.0128360494347302E+01 a       985     0    33     1    25
  3.5409803939267846E+01 a       986     0    33     1    26
 -2.5875135999681835E+00 a       987     0    33     1    27
  8.5919245258780119E+00 a       988     0    33     1    28
 -3.7835524108509517E+00 a       989     0    33     1    29
  7.9147989355857158E+00 a       990     0    33     1    30
  7.3772469577013879E+00 a       991     0    34     1     1
  9.9685271547133159E-01 a       992     0    34     1     2
  2.0769767773387047E+00 a       993     0    34     1     3
  2.2041095498653299E+01 a       994     0    34     1     4
  2.6768469654287022E+00 a       995     0    34     1     5
  2.7747976844474195E+01 a       996     0    34     1     6
 -3.0501163475066497E+00 a       997     0    34     1     7
 -3.8803369435916046E+01 a       998     0    34     1     8
  3.5381441785334239E+01 a       999     0    34     1     9
 -3.1016597366469663E+00 a      1000     0    34     1    10
  7.5726443596573088E+00 a      1001     0    34     1    11
 -3.6306230946744535E+01 a      1002     0    34     1    12
 -6.3472716038221479E+00 a      1003     0    34     1    13
 -1.5752677959537682E+01 a      1004     0    34     1    14
  2.5437126295568859E+01 a      1005     0    34     1    15
 -1.9974576865613507E+01 a      1006     0    34     1    16
  2.6261235017357997E+01 a      1007     0    34     1    17
 -4.3760700782362349E+01 a      1008     0    34     1    18
  2.3440061878170059E+01 a      1009     0    34     1    19
 -2.1877855051585545E+01 a      1010     0    34     1    20
  2.7852609461996639E+01 a      1011     0    34     1    21
 -5.0025473466356260E+01 a      1012     0    34     1    22
  4.7507204866662454E+00 a      1013     0    34     1    23
  3.1371033580359555E+01 a      1014     0    34     1    24
  2.6204589950134135E+01 a      1015     0    34     1    25
  5.6992410793271580E+00 a      1016     0    34     1    26
 -2.6861185122905226E+01 a      1017     0    34     1    27
  1.9176441094434744E+00 a      1018     0    34     1    28
 -5.1975350269306482E+00 a      1019     0    34     1    29
 -1.9535023324754167E+01 a      1020     0    34     1    30
 -1.6704163630182276E+01 a      1021     0    35     1     1
 -2.4615015911538361E+01 a      1022     0    35     1     2
 -7.1301876415935395E+00 a      1023     0    35     1     3
  1.5330216811015658E+01 a      1024     0    35     1     4
  4.3788851102572167E+01 a      1025     0    35     1     5
 -9.4666390334164952E+00 a      1026     0    35     1     6
  2.9497406250188138E+01 a      1027     0    35     1     7
  8.9566932603220906E+00 a      1028     0    35     1     8
 -5.7258348600922115E-01 a      1029     0    35     1     9
 -1.1494871516693449E+01 a      1030     0    35     1    10
  2.2663698839862313E+01 a      1031     0    35     1    11
 -9.9270828679293164E+00 a      1032     0    35     1    12
 -1.3657594708620786E+00 a      1033     0    35     1    13
  6.9541158122052957E+00 a      1034     0    35     1    14
 -5.0240650672496812E+01 a      1035     0    35     1    15
  1.3861844240439860E+01 a      1036     0    35     1    16
  9.8112676237591430E+00 a      1037     0    35     1    17
  2.0997942642748639E+00 a      1038     0    35     1    18
  1.6555779760238668E+01 a      1039     0    35     1    19
  1.5713692318177982E+01 a      1040     0    35     1    20
 -1.1952906038912618E+01 a      1041     0    35     1    21
 -1.7889636286302267E+01 a      1042     0    35     1    22
 -4.4959226842705169E+00 a      1043     0    35     1    23
 -2.8719256940535978E+01 a      1044     0    35     1    24
  1.3269778693560607E+01 a      1045     0    35     1    25
  1.2883320138687193E+01 a      1046     0    35     1    26
 -2.2837861989509967E+01 a      1047     0    35     1    27
 -9.9861281154920878E+00 a      1048     0    35     1    28
  1.1173402968917948E+01 a      1049     0    35     1    29
 -9.4536037683263308E-01 a      1050     0    35     1    30
 -1.2683975678582835E+01 a      1051     0    36     1     1
  1.1414935441359097E+01 a      1052     0    36     1     2
 -3.6639004872534336E+01 a      1053     0    36     1     3
 -1.9430072648726988E+01 a      1054     0    36     1     4
 -1.6218371003326102E+00 a      1055     0    36     1     5
  3.1199161779205351E+01 a      1056     0    36     1     6
  1.5251250119958941E+01 a      1057     0    36     1     7
 -2.7703541261235188E+01 a      1058     0    36     1     8
 -2.8170002138906831E+00 a      1059     0    36     1     9
  6.6627288008175718E+00 a      1060     0    36     1    10
  1.3764407880600851E+00 a      1061     0    36     1    11
  1.4184612225875302E+01 a      1062     0    36     1    12
  3.4802354511685643E+01 a      1063     0    36     1    13
  1.8174082708105416E+01 a      1064     0    36     1    14
 -2.2400468221731003E+01 a      1065     0    36     1    15
 -9.3786382600540268E+00 a      1066     0    36     1    16
  2.2659342081702583E+01 a      1067     0    36     1    17
 -3.1071814373344395E+00 a      1068     0    36     1    18
 -4.9947644152132922E+00 a      1069     0    36     1    19
 -7.1467736062756950E+00 a      1070     0    36     1    20
 -2.8304077098351801E+00 a      1071     0    36     1    21
  1.8067062873067478E+01 a      1072     0    36     1    22
 -1.1183488072407512E+01 a      1073     0    36     1    23
  3.5808506391088919E+01 a      1074     0    36     1    24
  3.0538473868686207E+01 a      1075     0    36     1    25
  5.4693748300227556E+00 a      1076     0    36     1    26
  9.4781397715360445E+00 a      1077     0    36     1    27
  1.8347012470615283E+01 a      1078     0    36     1    28
 -2.4171514019309559E+01 a      1079     0    36     1    29
 -1.4773302645078465E+00 a      1080     0    36     1    30
 -7.9416442240642668E+00 a      1081     0    37     1     1
  1.4971658235212486E+01 a      1082     0    37     1     2
 -8.4544127066274193E+00 a      1083     0    37     1     3
  1.8146891994161691E+00 a      1084     0    37     1     4
 -6.8230806150835539E+00 a      1085     0    37     1     5
  6.2663852800648510E+00 a      1086     0    37     1     6
 -1.8503688779916221E+01 a      1087     0    37     1     7
  2.8454678354168417E+00 a      1088     0    37     1     8
  4.7756217133285599E+00 a      1089     0    37     1     9
 -1.8146905790503070E+01 a      1090     0    37     1    10
  1.5713080381695748E+01 a      1091     0    37     1    11
  1.5020499270406977E+00 a      1092     0    37     1    12
  1.5624284122979709E+01 a      1093     0    37     1    13
  1.4871608551767968E+01 a      1094     0    37     1    14
  2.0463935083786847E+01 a      1095     0    37     1    15
  1.8186471019461866E+01 a      1096     0    37     1    16
 -2.1988260525252219E+01 a      1097     0    37     1    17
  4.5700513145927024E+00 a      1098     0    37     1    18
  6.3782997134347819E-01 a      1099     0    37     1    19
 -9.6226114546758303E+00 a      1100     0    37     1    20
  2.0749694755154707E+01 a      1101     0    37     1    21
 -4.1110069968739893E+00 a      1102     0    37     1    22
 -2.2536448793066391E+01 a      1103     0    37     1    23
  2.7460485219216448E+01 a      1104     0    37     1    24
  1.3728275674134043E+01 a      1105     0    37     1    25
 -1.7349828646860118E+01 a      1106     0    37     1    26
 -5.0395196434406788E+00 a      1107     0    37     1    27
  1.5081379518445972E+01 a      1108     0    37     1    28
 -4.0536849337364957E+00 a      1109     0    37     1    29
 -2.9947492456647762E+00 a      1110     0    37     1    30
  6.5960964536146953E+00 a      1111     0    38     1     1
  2.3218653763139905E+00 a      1112     0    38     1     2
  1.1116228002399247E+01 a      1113     0    38     1     3
  1.2092475177754631E+00 a      1114     0    38     1     4
  3.3549787061458588E+01 a      1115     0    38     1     5
 -9.4753893174089630E+00 a      1116     0    38     1     6
  3.0630722267218178E+00 a      1117     0    38     1     7
 -1.0334053200596787E+00 a      1118     0    38     1     8
 -4.4076182853015400E+00 a      1119     0    38     1     9
 -1.7059665810187173E+01 a      1120     0    38     1    10
  8.2208529090205804E+00 a      1121     0    38     1    11
  1.6738508974584843E+01 a      1122     0    38     1    12
 -4.4753004319096670E+00 a      1123     0    38     1    13
 -1.4199634742413355E+01 a      1124     0    38     1    14
  8.0841452499254807E+00 a      1125     0    38     1    15
 -3.9347867978452244E+00 a      1126     0    38     1    16
 -1.1249734255215495E+01 a      1127     0    38     1    17
 -4.4366836556681752E+00 a      1128     0    38     1    18
 -2.5065834794647355E+01 a      1129     0    38     1    19
 -1.9931094706171187E+01 a      1130     0    38     1    20
 -4.1878220118959231E+00 a      1131     0    38     1    21
  4.4991689390049387E+00 a      1132     0    38     1    22
 -1.6956474121125884E+00 a      1133     0    38     1    23
  5.6956249672393540E+00 a      1134     0    38     1    24
 -1.6170770524981396E+01 a      1135     0    38     1    25
 -2.3800693118977698E+01 a      1136     0    38     1    26
 -1.9063983700631848E+00 a      1137     0    38     1    27
  2.4740669535407087E+00 a      1138     0    38     1    28
  8.7499414970051248E+00 a      1139     0    38     1    29
  8.1667376255738713E+00 a      1140     0    38     1    30
  1.3232514932027700E+01 a      1141     0    39     1     1
  1.4509921595174339E+01 a      1142     0    39     1     2
 -1.1385721887367581E+00 a      1143     0    39     1     3
 -1.2688871118490688E+00 a      1144     0    39     1     4
  2.5122974266619386E-01 a      1145     0    39     1     5
 -3.4444814991450761E+00 a      1146     0    39     1     6
  1.2089440893275885E+00 a      1147     0    39     1     7
  5.4384630441457569E+00 a      1148     0    39     1     8
 -1.4099465398877275E+01 a      1149     0    39     1     9
 -8.8821774046652617E+00 a      1150     0    39     1    10
 -4.3133888651937351E+00 a      1151     0    39     1    11
  8.5127227426012340E+00 a      1152     0    39     1    12
  1.0919970728402978E+01 a      1153     0    39     1    13
  1.9717098530709919E+01 a      1154     0    39     1    14
 -3.6152569848949661E+00 a      1155     0    39     1    15
 -4.1298204207853093E+00 a      1156     0    39     1    16
 -1.0567653455026118E+01 a      1157     0    39     1    17
  1.6498463016616732E+01 a      1158     0    39     1    18
 -5.9727491795759056E+00 a      1159     0    39     1    19
 -1.7792590647205870E+01 a      1160     0    39     1    20
  1.7415737059646254E+01 a      1161     0    39     1    21
 -3.5018767996378166E+01 a      1162     0    39     1    22
  6.1209915135164907E+00 a      1163     0    39     1    23
 -2.8012053114662738E+01 a      1164     0    39     1    24
 -2.5224970770206426E+01 a      1165     0    39     1    25
 -3.2029365154926475E+00 a      1166     0    39     1    26
  1.5854420852201008E+01 a      1167     0    39     1    27
  9.6042260346630677E+00 a      1168     0    39     1    28
  5.2442128160732304E-01 a      1169     0    39     1    29
 -9.5424906264811078E+00 a      1170     0    39     1    30
 -1.6099952193569720E+01 a      1171     0    40     1     1
 -2.3158617849205065E+01 a      1172     0    40     1     2
  1.7485657578990963E+00 a      1173     0    40     1     3
 -1.5840385482873964E+01 a      1174     0    40     1     4
  8.0672221852524491E+00 a      1175     0    40     1     5
 -1.3095164158762747E+00 a      1176     0    40     1     6
 -2.4093156509761393E+01 a      1177     0    40     1     7
  4.8912111897802868E+00 a      1178     0    40     1     8
  7.0012198658748206E+00 a      1179     0    40     1     9
  2.0462641528955345E+01 a      1180     0    40     1    10
 -6.4297095265225170E+00 a      1181     0    40     1    11
  3.1014288349824810E+01 a      1182     0    40     1    12
 -2.1798502614907235E+01 a      1183     0    40     1    13
  8.9779564054107031E+00 a      1184     0    40     1    14
 -1.4703174076891179E+01 a      1185     0    40     1    15
  2.2879859883080353E+01 a      1186     0    40     1    16
  1.1082349100167979E+01 a      1187     0    40     1    17
  2.5627140566237660E+01 a      1188     0    40     1    18
  5.6884411574416545E+00 a      1189     0    40     1    19
 -9.7657918070508143E-01 a      1190     0    40     1    20
  2.7740002140858047E+00 a      1191     0    40     1    21
  3.9366382791868773E+01 a      1192     0    40     1    22
  1.6216866316680978E+01 a      1193     0    40     1    23
 -1.6420152072238590E+01 a      1194     0    40     1    24
 -4.6353905312050529E+01 a      1195     0    40     1    25
 -1.5775898541273463E+01 a      1196     0    40     1    26
  4.8722312140641426E+00 a      1197     0    40     1    27
 -1.1730537662169733E+00 a      1198     0    40     1    28
 -3.5914905693753667E+00 a      1199     0    40     1    29
  9.3050551247951194E+00 a      1200     0    40     1    30
  2.3397751678106462E+00 a      1201     0    41     1     1
  9.8249217351256970E+00 a      1202     0    41     1     2
  4.8854056263807459E+00 a      1203     0    41     1     3
 -1.9672130717161625E+01 a      1204     0    41     1     4
 -1.9382400428689081E+01 a      1205     0    41     1     5
  5.9111183595662924E+00 a      1206     0    41     1     6
 -1.2867911248170209E+01 a      1207     0    41     1     7
  1.9790445739881476E-01 a      1208     0    41     1     8
  1.8656531621558758E+00 a      1209     0    41     1     9
  1.0066386199238258E+01 a      1210     0    41     1    10
 -1.2053896824210874E+01 a      1211     0    41     1    11
  1.2692841633314158E+01 a      1212     0    41     1    12
 -6.2552382551590053E+00 a      1213     0    41     1    13
 -4.9421865688744067E+00 a      1214     0    41     1    14
  3.3457174924246090E+01 a      1215     0    41     1    15
 -7.2226257898080330E+00 a      1216     0    41     1    16
 -2.4004072524054560E+00 a      1217     0    41     1    17
 -1.2085541076532624E+00 a      1218     0    41     1    18
 -6.2245376134935571E+00 a      1219     0    41     1    19
 -2.7688664172291459E+00 a      1220     0    41     1    20
 -9.6860699054897403E-01 a      1221     0    41     1    21
  8.5283792510514278E+00 a      1222     0    41     1    22
  6.7366271789042012E+00 a      1223     0    41     1    23
  1.1794114074261373E+01 a      1224     0    41     1    24
 -1.1674465626595738E+01 a      1225     0    41     1    25
 -1.2808027300049813E+01 a      1226     0    41     1    26
  6.7471868631141341E+00 a      1227     0    41     1    27
 -9.3383293898830786E+00 a      1228     0    41     1    28
 -6.2225820431874004E+00 a      1229     0    41     1    29
  6.7404014597475148E-01 a      1230     0    41     1    30
  7.1974260852340981E+00 a      1231     0    42     1     1
  1.3117972438080954E+00 a      1232     0    42     1     2
  5.8881707106715657E+00 a      1233     0    42     1     3
  1.1801550588041339E+01 a      1234     0    42     1     4
  1.1763220021398507E+01 a      1235     0    42     1     5
 -1.5848539932326997E+01 a      1236     0    42     1     6
  3.7272028664871555E+00 a      1237     0    42     1     7
  1.4685775716375430E+01 a      1238     0    42     1     8
 -6.1892842035250561E+00 a      1239     0    42     1     9
 -1.0316413830649365E+01 a      1240     0    42     1    10
  1.5329132540663917E+01 a      1241     0    42     1    11
  4.2789688811695509E-01 a      1242     0    42     1    12
  1.7698037856434081E+00 a      1243     0    42     1    13
 -7.4792303766741002E+00 a      1244     0    42     1    14
  1.2218859550353194E+01 a      1245     0    42     1    15
  1.6447814157942260E+00 a      1246     0    42     1    16
 -2.3033740307950502E+01 a      1247     0    42     1    17
  1.6674859749775557E+00 a      1248     0    42     1    18
 -7.3560422198539515E+00 a      1249     0    42     1    19
  1.3874412884547715E+01 a      1250     0    42     1    20
 -9.9910459286611299E+00 a      1251     0    42     1    21
 -1.5128597138005333E+01 a      1252     0    42     1    22
 -6.8492746024178803E+00 a      1253     0    42     1    23
 -1.0403768739965942E+01 a      1254     0    42     1    24
  1.6559360796674085E+00 a      1255     0    42     1    25
 -5.8615135123618956E+00 a      1256     0    42     1    26
 -9.0121109796982768E-01 a      1257     0    42     1    27
 -1.0020670995162231E+01 a      1258     0    42     1    28
  2.2363151503164886E+01 a      1259     0    42     1    29
  6.2612517345367158E-01 a      1260     0    42     1    30
  1.5785925853230203E+00 a      1261     0    43     1     1
 -1.5779793695604797E+01 a      1262     0    43     1     2
  1.2849874043158506E+01 a      1263     0    43     1     3
  1.4428542453387720E+01 a      1264     0    43     1     4
  5.9447562223814412E+00 a      1265     0    43     1     5
  6.1436167143774041E+00 a      1266     0    43     1     6
  2.1653713286926532E+01 a      1267     0    43     1     7
 -1.7796403276926689E+01 a      1268     0    43     1     8
 -5.5228854767672360E+00 a      1269     0    43     1     9
  6.9633915550869681E+00 a      1270     0    43     1    10
  2.8940100693600317E+00 a      1271     0    43     1    11
  1.9807455188128127E+01 a      1272     0    43     1    12
 -1.6472987465382349E+01 a      1273     0    43     1    13
 -1.1715702134800553E+01 a      1274     0    43     1    14
 -4.0835007940157489E+01 a      1275     0    43     1    15
  7.4540435967834604E+00 a      1276     0    43     1    16
  1.7068338479980657E+01 a      1277     0    43     1    17
 -2.5284196060398571E+01 a      1278     0    43     1    18
  2.2165675516798755E-01 a      1279     0    43     1    19
  1.0675150275645295E+01 a      1280     0    43     1    20
 -2.1801119177439432E+01 a      1281     0    43     1    21
  5.2739754830122489E+00 a      1282     0    43     1    22
 -1.0714628134513649E+01 a      1283     0    43     1    23
 -1.1415453888403054E+01 a      1284     0    43     1    24
  8.9848164954156431E+00 a      1285     0    43     1    25
  1.5290129797240743E+01 a      1286     0    43     1    26
  1.0983102687615323E+00 a      1287     0    43     1    27
  6.6070604592567443E+00 a      1288     0    43     1    28
  9.1334338994013695E+00 a      1289     0    43     1    29
 -3.4117766075664435E+00 a      1290     0    43     1    30
 -1.0696727221291067E+00 a      1291     0    44     1     1
 -2.7242554764033078E+00 a      1292     0    44     1     2
 -1.6423444849489566E+00 a      1293     0    44     1     3
 -2.2277214111664008E+00 a      1294     0    44     1     4
 -9.7445354429088020E+00 a      1295     0    44     1     5
  2.7239873200341482E+00 a      1296     0    44     1     6
  3.9688460785719010E-01 a      1297     0    44     1     7
  1.5729770083124759E+00 a      1298     0    44     1     8
  5.6874018917229596E-01 a      1299     0    44     1     9
  3.0678521180650136E+00 a      1300     0    44     1    10
 -5.4835521664139852E+00 a      1301     0    44     1    11
 -7.2174525337637876E+00 a      1302     0    44     1    12
  8.4486890765827105E-01 a      1303     0    44     1    13
  1.2805429044907948E+00 a      1304     0    44     1    14
 -4.7792387686547544E+00 a      1305     0    44     1    15
 -8.6931287344975727E-01 a      1306     0    44     1    16
  2.0080479200353154E+00 a      1307     0    44     1    17
  1.7098262521019076E+00 a      1308     0    44     1    18
  1.1234570294140529E+01 a      1309     0    44     1    19
  6.8853492848270657E+00 a      1310     0    44     1    20
  1.1977581305780816E-01 a      1311     0    44     1    21
  2.0320869578618328E-01 a      1312     0    44     1    22
  1.4281615791864524E+00 a      1313     0    44     1    23
 -3.9417171571597492E-01 a      1314     0    44     1    24
  7.5951257596588002E+00 a      1315     0    44     1    25
  5.8907435618891606E+00 a      1316     0    44     1    26
 -7.6083623096818531E-01 a      1317     0    44     1    27
  2.2490053437750121E-01 a      1318     0    44     1    28
 -1.1080680935278475E+00 a      1319     0    44     1    29
 -1.7462967642461591E+00 a      1320     0    44     1    30
 -1.5339073701838263E+01 a      1321     0    45     1     1
  2.0259399968467915E+00 a      1322     0    45     1     2
  6.6195956431593093E+00 a      1323     0    45     1     3
  1.9257511805679388E+00 a      1324     0    45     1     4
  1.5872815830997833E+01 a      1325     0    45     1     5
  1.1680772415753417E+01 a      1326     0    45     1     6
 -5.9159701712234813E+00 a      1327     0    45     1     7
 -5.5184846413180848E+00 a      1328     0    45     1     8
  7.3132100411854921E+00 a      1329     0    45     1     9
 -1.1116705974857677E+00 a      1330     0    45     1    10
 -1.1985140942730920E+01 a      1331     0    45     1    11
 -2.2344746841269934E+01 a      1332     0    45     1    12
 -2.9672819008530613E+01 a      1333     0    45     1    13
 -1.4712202700024111E+01 a      1334     0    45     1    14
 -4.5292447772792815E-01 a      1335     0    45     1    15
 -1.4535803975714554E-01 a      1336     0    45     1    16
 -4.6512113010246097E+00 a      1337     0    45     1    17
 -1.6249007733539752E+01 a      1338     0    45     1    18
  1.3682578369443386E+01 a      1339     0    45     1    19
 -7.6077410995336221E+00 a      1340     0    45     1    20
 -1.6023320689662854E+00 a      1341     0    45     1    21
  7.6766662540370820E+00 a      1342     0    45     1    22
 -1.6021959440257554E+00 a      1343     0    45     1    23
  3.5856963099190837E+00 a      1344     0    45     1    24
 -3.0574534409292067E+00 a      1345     0    45     1    25
 -4.1960801520241615E+00 a      1346     0    45     1    26
 -1.6222655714662146E+01 a      1347     0    45     1    27
 -9.6646826896057654E+00 a      1348     0    45     1    28
  1.4879989297709175E+01 a      1349     0    45     1    29
 -9.5093449536943808E-01 a      1350     0    45     1    30
  1.4170959926830298E+01 a      1351     0    46     1     1
  8.9980230686350957E+00 a      1352     0    46     1     2
 -9.4683896809549246E+00 a      1353     0    46     1     3
  1.2793850200462162E+00 a      1354     0    46     1     4
 -1.3904569411021393E+01 a      1355     0    46     1     5
 -1.3889230212741683E+01 a      1356     0    46     1     6
  2.1177703845212683E+01 a      1357     0    46     1     7
  8.7957806631049937E+00 a      1358     0    46     1     8
 -7.2342703202533079E+00 a      1359     0    46     1     9
 -1.7930607294635370E+00 a      1360     0    46     1    10
  2.1795676980449844E+01 a      1361     0    46     1    11
  2.1156954793793535E+01 a      1362     0    46     1    12
  2.7383462241576762E+01 a      1363     0    46     1    13
  5.4221817780080093E+00 a      1364     0    46     1    14
 -2.1111854589373453E+00 a      1365     0    46     1    15
  3.0710105320972416E+00 a      1366     0    46     1    16
 -1.5692896090446914E-01 a      1367     0    46     1    17
 -4.8056485751510438E+00 a      1368     0    46     1    18
 -1.8575218018594384E+01 a      1369     0    46     1    19
  2.2417675365434047E+01 a      1370     0    46     1    20
 -1.4870496643582943E+01 a      1371     0    46     1    21
 -9.9299347512414897E+00 a      1372     0    46     1    22
 -1.3771138786305645E+01 a      1373     0    46     1    23
  6.9791301626099926E+00 a      1374     0    46     1    24
  2.8577442741956162E+01 a      1375     0    46     1    25
  4.8695809973358601E+00 a      1376     0    46     1    26
  1.2335796111266188E+01 a      1377     0    46     1    27
 -8.3892880089173776E+00 a      1378     0    46     1    28
 -1.6680698643356120E+01 a      1379     0    46     1    29
  3.1813269717960790E+00 a      1380     0    46     1    30
  1.1959205677174540E+00 a      1381     0    47     1     1
 -3.6849945391230379E+00 a      1382     0    47     1     2
 -3.4112025160331245E+00 a      1383     0    47     1     3
  7.6043426209803133E+00 a      1384     0    47     1     4
  1.4000496919910268E+00 a      1385     0    47     1     5
 -1.6591116011718350E+00 a      1386     0    47     1     6
  1.3600939693508078E+00 a      1387     0    47     1     7
 -1.1905072811047512E+00 a      1388     0    47     1     8
 -7.1192916995032751E-01 a      1389     0    47     1     9
 -3.6418675829019835E+00 a      1390     0    47     1    10
  6.2158003074688049E+00 a      1391     0    47     1    11
 -1.9835711298529424E+00 a      1392     0    47     1    12
  5.6453060694846302E+00 a      1393     0    47     1    13
  3.2399449881131539E+00 a      1394     0    47     1    14
 -7.0492924225800424E+00 a      1395     0    47     1    15
  3.7899598566179358E+00 a      1396     0    47     1    16
 -1.7741914371381845E-01 a      1397     0    47     1    17
  1.6020792432628885E+00 a      1398     0    47     1    18
  1.1243204831103304E+00 a      1399     0    47     1    19
 -4.5317061662297137E-01 a      1400     0    47     1    20
  5.2938318865222591E+00 a      1401     0    47     1    21
 -1.5162841077367919E+00 a      1402     0    47     1    22
 -1.7616959496224989E+00 a      1403     0    47     1    23
 -7.1458669253908091E-02 a      1404     0    47     1    24
  6.8340782107431952E+00 a      1405     0    47     1    25
  4.3654151314239797E+00 a      1406     0    47     1    26
  1.4775526669611274E+00 a      1407     0    47     1    27
  7.5163237062691373E+00 a      1408     0    47     1    28
 -1.3923199273639713E+00 a      1409     0    47     1    29
  5.6152433157676884E-01 a      1410     0    47     1    30
 -2.6938894958719786E+00 a      1411     0    48     1     1
 -1.2338726111464304E+00 a      1412     0    48     1     2
  3.6828584834200377E+00 a      1413     0    48     1     3
 -3.9973716961954380E+00 a      1414     0    48     1     4
 -7.2119121917282198E+00 a      1415     0    48     1     5
  5.3334563176022014E+00 a      1416     0    48     1     6
 -3.2844187147428463E+00 a      1417     0    48     1     7
 -3.3584190666647631E+00 a      1418     0    48     1     8
  2.7702851406518212E+00 a      1419     0    48     1     9
  1.3070649544515249E+00 a      1420     0    48     1    10
 -1.6258764317264458E+01 a      1421     0    48     1    11
 -1.7101481729989207E+01 a      1422     0    48     1    12
 -6.5099901738879371E+00 a      1423     0    48     1    13
 -1.8419097474968122E+00 a      1424     0    48     1    14
 -1.8052507790359049E+00 a      1425     0    48     1    15
 -5.4820024402344245E+00 a      1426     0    48     1    16
  4.3482989986781559E+00 a      1427     0    48     1    17
 -5.9420050332250729E-01 a      1428     0    48     1    18
  8.6724736533740234E+00 a      1429     0    48     1    19
 -9.2904762029288310E+00 a      1430     0    48     1    20
  7.2303349519980280E+00 a      1431     0    48     1    21
  3.7657930744756949E+00 a      1432     0    48     1    22
  5.3344142052610861E+00 a      1433     0    48     1    23
  1.3602328346501014E+00 a      1434     0    48     1    24
 -2.0207314953633859E+00 a      1435     0    48     1    25
  5.1940086876680516E+00 a      1436     0    48     1    26
 -5.8526129509585143E+00 a      1437     0    48     1    27
  6.8490646297075379E+00 a      1438     0    48     1    28
 -2.7656929278404010E+00 a      1439     0    48     1    29
 -2.4176625801620273E+00 a      1440     0    48     1    30
  7.8708294014604518E-01 a      1441     0    49     1     1
  1.0431905657929278E+01 a      1442     0    49     1     2
 -7.9563722068735849E+00 a      1443     0    49     1     3
 -9.2709879368719559E+00 a      1444     0    49     1     4
  4.6639021577795869E+00 a      1445     0    49     1     5
 -4.2253320470442510E+00 a      1446     0    49     1     6
 -3.1203180475826851E+00 a      1447     0    49     1     7
  1.3709382654758473E+01 a      1448     0    49     1     8
  3.5668522778992338E+00 a      1449     0    49     1     9
  2.0762689194839070E+00 a      1450     0    49     1    10
 -1.4114618089403956E+01 a      1451     0    49     1    11
 -2.0906114658150784E+01 a      1452     0    49     1    12
  1.0030037913567499E+01 a      1453     0    49     1    13
  5.8867634054643423E+00 a      1454     0    49     1    14
  1.7268349511914476E+01 a      1455     0    49     1    15
 -1.6126647638809320E+01 a      1456     0    49     1    16
  2.2624985654568643E+00 a      1457     0    49     1    17
  1.9906919428825582E+01 a      1458     0    49     1    18
 -2.3906011585408509E+00 a      1459     0    49     1    19
 -2.6613507234390368E+00 a      1460     0    49     1    20
  5.2529423693757300E+00 a      1461     0    49     1    21
 -3.8378155950998805E+00 a      1462     0    49     1    22
  1.7867451664725010E+01 a      1463     0    49     1    23
 -6.8124730304966192E+00 a      1464     0    49     1    24
 -1.7641780678494712E+01 a      1465     0    49     1    25
 -3.7849209417131480E+00 a      1466     0    49     1    26
 -2.8113124872753379E+00 a      1467     0    49     1    27
 -1.4040994895756072E+01 a      1468     0    49     1    28
 -1.8562506248026061E+00 a      1469     0    49     1    29
  2.7499437913428300E+00 a      1470     0    49     1    30
  1.9712729858360711E-01 a      1471     0    50     1     1
  1.0219918172840103E+00 a      1472     0    50     1     2
  2.3817081250172693E-03 a      1473     0    50     1     3
  8.1502285825856136E-01 a      1474     0    50     1     4
  1.4814063393814256E+00 a      1475     0    50     1     5
 -7.6558653357849848E-01 a      1476     0    50     1     6
 -4.3679235478202677E-01 a      1477     0    50     1     7
 -9.4136358172675261E-01 a      1478     0    50     1     8
  1.1846253092013505E-01 a      1479     0    50     1     9
 -4.2201696905958520E-02 a      1480     0    50     1    10
  2.0679090615578701E+00 a      1481     0    50     1    11
  1.9744300962669967E+00 a      1482     0    50     1    12
 -1.1237929218935605E+00 a      1483     0    50     1    13
  2.0123539337762145E-01 a      1484     0    50     1    14
  1.5927119927441566E+00 a      1485     0    50     1    15
  1.2556302585004495E+00 a      1486     0    50     1    16
  3.9209407035358274E-01 a      1487     0    50     1    17
 -7.7024197021584695E-01 a      1488     0    50     1    18
 -3.0854917884139876E+00 a      1489     0    50     1    19
 -2.1107797239448618E+00 a      1490     0    50     1    20
  1.2119033047852326E+00 a      1491     0    50     1    21
 -2.5168387721538404E-01 a      1492     0    50     1    22
 -3.4224312417923902E-01 a      1493     0    50     1    23
 -2.7779391651891050E-01 a      1494     0    50     1    24
 -2.9288980691073609E+00 a      1495     0    50     1    25
 -1.3037929003638271E+00 a      1496     0    50     1    26
  6.8622549344644279E-01 a      1497     0    50     1    27
 -4.0663656017880506E-01 a      1498     0    50     1    28
 -1.1808285455159275E+00 a      1499     0    50     1    29
  2.8624410699848812E-01 a      1500     0    50     1    30
  6.0181728427353907E+00 a      1501     0    51     1     1
 -6.9073568369011475E+00 a      1502     0    51     1     2
 -1.6636109472514102E+00 a      1503     0    51     1     3
  1.0789267333566863E+00 a      1504     0    51     1     4
 -7.0987455081911621E+00 a      1505     0    51     1     5
 -5.1439784893814293E+00 a      1506     0    51     1     6
  3.2087965811558812E+00 a      1507     0    51     1     7
  5.6030135913759347E+00 a      1508     0    51     1     8
 -6.4823219809806154E-01 a      1509     0    51     1     9
  1.1441333170260741E+00 a      1510     0    51     1    10
  6.3287383340894001E+00 a      1511     0    51     1    11
  1.3008707907032681E+01 a      1512     0    51     1    12
  1.2874220733499868E+01 a      1513     0    51     1    13
  4.9158226777912377E+00 a      1514     0    51     1    14
  1.9843128536979855E+00 a      1515     0    51     1    15
  5.7659760387512913E+00 a      1516     0    51     1    16
  5.0660702267649791E+00 a      1517     0    51     1    17
  2.5341717225373892E+00 a      1518     0    51     1    18
  1.0710089915541412E+00 a      1519     0    51     1    19
  4.8841070500989110E+00 a      1520     0    51     1    20
 -1.3321270153612326E+00 a      1521     0    51     1    21
  1.1814985294541136E+00 a      1522     0    51     1    22
 -3.6898803548424947E-01 a      1523     0    51     1    23
 -1.7674932386052986E+00 a      1524     0    51     1    24
  4.5153529981080415E-01 a      1525     0    51     1    25
  3.9804037290059875E+00 a      1526     0    51     1    26
  8.2657130341878364E+00 a      1527     0    51     1    27
  7.4655202985286440E-01 a      1528     0    51     1    28
 -4.9679624526959927E+00 a      1529     0    51     1    29
  1.8791973498421033E+00 a      1530     0    51     1    30
 -6.0443799402217850E+00 a      1531     0    52     1     1
  2.9762871527409773E+00 a      1532     0    52     1     2
  2.6282744890605634E+00 a      1533     0    52     1     3
 -1.0551446159075002E+00 a      1534     0    52     1     4
  4.5728210203234365E+00 a      1535     0    52     1     5
  5.2228924521543219E+00 a      1536     0    52     1     6
 -6.7543678176121462E+00 a      1537     0    52     1     7
 -6.9559232484756386E+00 a      1538     0    52     1     8
  7.2328866495859145E-01 a      1539     0    52     1     9
 -1.5042133895780012E+00 a      1540     0    52     1    10
 -8.8896552563224045E+00 a      1541     0    52     1    11
 -1.4872819513264817E+01 a      1542     0    52     1    12
 -1.1146446336366807E+01 a      1543     0    52     1    13
 -4.0249274111549562E+00 a      1544     0    52     1    14
  6.3126714401805339E-01 a      1545     0    52     1    15
 -8.3560754338527410E+00 a      1546     0    52     1    16
 -4.3042265383020215E+00 a      1547     0    52     1    17
  2.5789620374263538E+00 a      1548     0    52     1    18
  5.6221241168572023E-01 a      1549     0    52     1    19
 -6.7857254619335095E+00 a      1550     0    52     1    20
  4.7499092259440818E+00 a      1551     0    52     1    21
 -4.0233224462605027E-01 a      1552     0    52     1    22
  7.7618923192196236E+00 a      1553     0    52     1    23
  3.3325692352322220E+00 a      1554     0    52     1    24
 -9.2800352709579015E-01 a      1555     0    52     1    25
 -3.8261571364423350E+00 a      1556     0    52     1    26
 -1.0328327852837305E+01 a      1557     0    52     1    27
  5.1772456853366968E+00 a      1558     0    52     1    28
  7.2718123720584344E+00 a      1559     0    52     1    29
 -2.4694880691695111E+00 a      1560     0    52     1    30
 -1.1168713351126700E+00 a      1561     0    53     1     1
  3.0291543464952673E+00 a      1562     0    53     1     2
  1.5458386069079757E+00 a      1563     0    53     1     3
 -2.7453295384101768E+00 a      1564     0    53     1     4
  1.6992278132366039E+00 a      1565     0    53     1     5
  5.1446635028925858E-01 a      1566     0    53     1     6
  4.2018690727459734E-01 a      1567     0    53     1     7
  5.7541474299330216E-02 a      1568     0    53     1     8
  1.5970022444549287E-02 a      1569     0    53     1     9
  9.7056748162488937E-01 a      1570     0    53     1    10
 -2.9959935260517856E+00 a      1571     0    53     1    11
 -1.7146674932290034E+00 a      1572     0    53     1    12
 -2.9317501153146077E+00 a      1573     0    53     1    13
 -1.5154698874222012E+00 a      1574     0    53     1    14
  1.8964939726778415E-02 a      1575     0    53     1    15
 -3.0790860340119908E+00 a      1576     0    53     1    16
 -6.2570238227269759E-02 a      1577     0    53     1    17
 -7.3811491875528157E-01 a      1578     0    53     1    18
 -1.1130793827081367E+00 a      1579     0    53     1    19
  2.8275781003228723E-01 a      1580     0    53     1    20
 -2.2353440659556512E+00 a      1581     0    53     1    21
 -4.1319210796009104E-01 a      1582     0    53     1    22
 -3.1118819840041317E-01 a      1583     0    53     1    23
 -6.1487916503030493E-01 a      1584     0    53     1    24
 -2.3338286804484127E+00 a      1585     0    53     1    25
 -1.4646819521851899E+00 a      1586     0    53     1    26
 -2.2667539719824545E+00 a      1587     0    53     1    27
 -2.4057486084684934E+00 a      1588     0    53     1    28
  9.5991249749269414E-01 a      1589     0    53     1    29
 -6.7705452171473890E-01 a      1590     0    53     1    30
  1.3594610668304026E+00 a      1591     0    54     1     1
 -4.9337511051081329E-01 a      1592     0    54     1     2
 -1.4263337088215000E+00 a      1593     0    54     1     3
  1.3862642656353197E+00 a      1594     0    54     1     4
  2.8430169541100563E+00 a      1595     0    54     1     5
 -2.2609718329032069E-01 a      1596     0    54     1     6
 -3.2784634675815788E-01 a      1597     0    54     1     7
  1.3051904383826438E+00 a      1598     0    54     1     8
 -1.8041826621734186E-01 a      1599     0    54     1     9
  1.1823832941284523E-01 a      1600     0    54     1    10
  5.7525200066022739E+00 a      1601     0    54     1    11
  7.7838540210830898E+00 a      1602     0    54     1    12
  2.6334824279356868E+00 a      1603     0    54     1    13
  1.7679905055252643E+00 a      1604     0    54     1    14
  1.0680027259316134E+00 a      1605     0    54     1    15
  3.0504338723920070E+00 a      1606     0    54     1    16
  1.2500511527859683E+00 a      1607     0    54     1    17
 -3.6987814481319947E-01 a      1608     0    54     1    18
 -1.3931271578615423E+00 a      1609     0    54     1    19
  1.4087271064721609E+00 a      1610     0    54     1    20
 -1.8691128416487275E+00 a      1611     0    54     1    21
 -2.3351056099208384E-01 a      1612     0    54     1    22
 -3.1686434506907202E+00 a      1613     0    54     1    23
 -2.5126661045319634E+00 a      1614     0    54     1    24
 -2.9589570401154681E+00 a      1615     0    54     1    25
 -2.3681498009638199E-01 a      1616     0    54     1    26
  3.8263757667024398E+00 a      1617     0    54     1    27
 -2.2219974062111043E+00 a      1618     0    54     1    28
 -2.7474327551896255E-01 a      1619     0    54     1    29
  8.8551644812854891E-01 a      1620     0    54     1    30
 -3.6465738657329899E-01 a      1621     0    55     1     1
 -5.2215342324259311E+00 a      1622     0    55     1     2
  1.9176614742467692E+00 a      1623     0    55     1     3
